solver_type L2R_L2LOSS_SVC_DUAL
nr_class 6
label victim defender reporter bully accuser other
nr_feature 4524
bias -1
w
-0.08744272517982261 0 -0.04110044245830061 0.1400694403358959 -0.01516827370601245 0 
0.1232480074799875 0.1208967079434644 -0.102303251177355 -0.07588924303072683 -0.1605379457820295 -0.002741056188548062 
-0.0240264153851453 -0.08849452794075435 0.01029594389159949 0.1704738556329072 -0.1482294687145572 -0.003414033449261966 
0.3806957227319416 -0.09387375704581979 0.01474203931336791 -0.3453729693723906 -0.2330322616164938 -0.04267002119447058 
-0.06181259488329838 -0.07845183029264341 -0.03277551950237344 -0.01574289764259554 0.01937346646969397 -0.07985145921199914 
-0.01197889968665504 -0.07858744209637639 0.1262975545321967 -0.1108640012876781 0.09150178158814888 -0.02856191465105444 
-0.01556111707459924 -0.05100157456234512 -0.1339325223519522 0.1561940604009796 -0.1452577062341928 -0.01779459888385793 
-0.1111462582465262 -0.0299966123197247 -0.5008134855528802 0.4387096961386794 0.09748171216018611 -0.01542206338404974 
0.02104354043747947 -0.06772551388452229 0.06673440807289924 -0.04341121233098358 -0.01101160037163836 -0.00876330216154989 
-0.09617594008388262 -0.01475672709991022 0.09886657386109918 -0.1156740776337244 0.08569983562624142 -0.003490906850014862 
0.044460233525232 0.029562070546479 -0.3882102656956364 -0.1508055928118477 0.1351885551095885 -0.08875286996805794 
0.2860337236272456 -0.2352791822355087 -0.0459031160849843 -0.7215562534031513 -0.290507026623623 -0.2923156315475997 
-0.1350259629662897 -0.06572957901345639 0.03396316027325744 -0.04109968749181592 0.1705127403669895 -0.008951987828509511 
-0.106453526637884 -0.1086992410344159 -0.5350683533302987 0.1902034619030591 0.03988196560756595 -0.1524001561951733 
-0.2913660675119454 -0.02207506940475826 -0.3389518941515781 -0.2757433471760278 -0.2057225675856128 -0.615486326007173 
-0.08486430302656631 0.04215194873079169 -0.1235702620970389 0.03075731162767024 0.2501773076389447 0 
0.07550503756855206 -0.008646548462651856 -0.2482250158979208 -0.07458674932571978 0.2179909625927821 0 
0.07056685962560288 -0.007732825862147618 0.09256311539596011 0.1495884342891066 -0.2132420379683583 0 
-0.1582206802337468 0.1881080592426992 -0.01821612597338577 -0.1013989807619534 0.04213125215763407 -0.01173091935731602 
-0.1066062038464301 0.06604700325523907 0.04411922303200051 -0.7208737490971456 -0.1027351736283562 -0.3144601327752681 
-0.06621157617553108 0.02938189361703865 -0.08931098104442826 -0.002305459932767161 0.03982326595995667 -0.02132911219132342 
-0.0556964158135432 -0.1396922182025855 0.1290449337855818 -0.02172336286424016 0.0263896848651097 -0.001597238441018575 
-0.4295389955579371 -0.001490202617339792 0.4475969897494199 -0.1800121209544655 -0.5856978927043169 -0.376278421159236 
0.07079493397587519 0.07620259426366328 0.07718223734094685 -0.1389731865352452 -0.1333871743572778 -0.003329244406267351 
0.02769161461919646 0.1753740749892074 -0.08672359783727206 -0.1063925407245095 -0.005181316677732314 0 
-0.04513782317080169 -0.006252511628384855 0 0.1595281423211145 -0.0728458785645025 0 
-0.05218204904861239 -0.3348899668571163 -0.2604221287551353 0.614495338144163 -0.1820202247051653 -0.08341480309253381 
-0.4847235545641391 0.4192460214520785 -0.07791604640846782 -0.07558633610709173 -0.2450162543167158 -0.1516222890761287 
-0.1350957040997927 0.1169038816150861 -0.07167331057531766 -0.02003669885488486 -0.07071084865532616 0.1759101347157931 
0.4558801950663287 -0.2446564773211566 -0.05166748204501682 -0.2558047176979948 -0.2373210717436856 -0.1274346817761384 
-0.09420325229387062 -0.007847863411558083 0 0.1268451179872081 -0.01988034051095649 0 
0.160267197332001 -0.1197296446441907 0.05957940253070679 -0.1167169065072561 -0.06907561183158542 -0.002483745113053144 
-0.1468304596125957 0.1617763647932575 -0.02236118713278117 0.03284827976520087 -0.01333226449461942 0 
0.01756858656308694 -0.02849950002466587 0.08961239865721185 -0.08123389099573557 -0.044294778311661 0 
0.1628041499403684 -0.05726495143513022 -0.1001853797475924 -0.0747153840426619 -0.02956680790025517 -0.03250744271475967 
0.05567040615671134 -0.04304129589687598 -0.1175476431020791 0.09315816007585498 6.938893903907228e-18 0 
-0.0007835003064885268 -0.06696599253949717 0.05741658338926879 -0.0323458328992141 -0.01361699447661421 -0.01841950504996214 
-0.08820741724768255 -0.08075557457168565 -0.1641495378962229 0.1736306772485552 0.1602685772648479 -0.002459612094991936 
0.0393275242555556 -0.02767989106401742 0.01781640794996671 -0.06669869974076448 0 0 
0 0 0 0 0 0 
0 0 0 0 0 0 
0 0 0 0 0 0 
-0.07710046437692054 0 0.07942235858931529 -0.002279259898300849 0 0 
0.02898293733558401 0.2111619717601248 -0.2473803672224619 -0.18616882746482 -0.204658219349667 -0.1335112824515827 
0.1464751706774937 -0.01262774644288717 -0.04103842118238402 -0.03069143467127197 -0.04702253943897774 0 
0 -0.05306661614602034 0.02859420917284602 0 0 0 
0 0 0 0 0 0 
0.1198535789934249 -0.03071326724609495 0.06079258149097648 -0.1134121326817671 -0.07227050008083309 -0.002722784725646608 
0 0 0 0 0 0 
-0.01932955955661533 -0.006588262942740048 0.113430122018364 -0.06975296014233544 -0.01427127474761761 0 
-0.01871253212748573 0.1447595297225469 0.01967705589812535 -0.0325057872271472 -0.1038746357966026 -0.008839802496645467 
0.07002024711040875 -0.06963985937175041 -0.1802217925309221 -0.4037274175295197 0.3991577023464919 -0.04246853036891176 
0.1773317015244866 -0.03103225124806941 -0.1294092092927507 -0.02388469310927716 0 0 
0.1400702974182137 -0.1889467666389625 -0.02004364719198859 -0.1348842767761668 -0.05208124912564129 -0.04439480897499141 
0.1694392808838446 -0.1344454570243522 0.05743767025465488 -0.120924527511732 -0.06053081744063211 -0.03399618657102881 
-0.221544908227363 0.1077886000555687 0.02338722135168842 0.112722005925856 -0.02411832327471206 0 
0.08664912304619445 0 -0.07048005973686941 -0.009593811119963581 0 0 
0.2586605925194679 -0.08411161771734998 0.1538418853729407 -0.2341177307212277 -0.1226038548475215 -0.009416179125708607 
-0.2243794436566026 -0.06507881175040342 -0.0496380413120668 0.1633416014692509 0.1111877987880246 -0.03065684844914083 
0.1262416589976855 -0.0417996005263647 -0.09117667019304586 0.03012126447772514 -0.03345119061802783 -0.002939170156144228 
-0.3512586541808694 -0.7294360146716862 0.5285853494240642 -0.6610070248573061 -0.4164047772215099 -0.635465574051722 
0 0 0 0 0 0 
0 0 0 0 0 0 
0.0008856944058784769 -0.01103419822814963 -0.01458010448176551 0.05308762366581839 -8.673617379884035e-19 0 
0 0 0 0 0 0 
0 0 0 0 0 0 
-0.141888976012352 -0.02583098177678575 0.1318985440615481 0.1392880089482942 -0.130290684488058 -0.00868199735241338 
0 0 0 0 0 0 
-0.03490585412457904 -0.08589435330892405 0.00517005844187782 -0.008962666572550987 0.08691756364710458 -0.01411216817739802 
-0.1189836407289129 0.05490305477117163 -0.0075842388689946 -0.01069991711938291 0.01158743490322389 0 
0.079817095641154 0.02757253945174855 -0.229975192248885 -0.1812718685129502 -0.2411688566359526 -0.1084916355062429 
0 0 0 0 0 0 
0.02102282387889233 -0.2657099646075511 0.2387469093904778 -0.1376040214181986 0.05678910594528294 -0.03230727696807551 
-0.165797887596426 0.3243866174723898 -0.01053695069368856 -0.04643036423627712 -0.160087879114743 -0.00177823138797434 
0.05961304758836569 -0.03427273674254944 0.02938117019590521 -0.009422168209058855 -0.001649320836891979 0 
0.03246373303274015 0.04005463497412959 -0.05605212481222933 -0.1330478656102849 -0.04998329975532326 -0.08970164198231768 
0.3911855438985299 -0.03191759488962908 -0.1889463047075283 -0.1042532585053841 -0.03065752137077569 0 
0.1218904734363277 -0.06241093053179395 -0.0578272318178184 -0.03646667009763706 0.1305405724350592 -0.0009706415746871977 
-0.0006364540128631734 -0.06399773380388828 -0.005267449790352503 0.03742769210710951 0.04152425415187253 -0.02389624369800939 
-0.03895357899389694 0.1255711478650255 -0.05530356152469321 0 -0.03548700831942223 0 
-0.2227553864248661 -0.04189649485329417 0.2153074407113024 -0.02297285008735437 -0.0243065659342134 -0.03316951844423376 
-0.5373087651825069 -0.2343804238092418 0.07851095281400036 0.2175755666178137 0.2866407628110951 -0.1061606596281701 
0.06188566312357022 -0.0195058212775086 -0.07151060291191566 -0.02040293680690007 0 -0.01042682977542346 
0.06514675629316 -0.01804522969700318 0.02856690212182992 -0.02006216784218319 -0.01826809258356039 -0.003440505038508349 
0 0 0 0 0 0 
0 0 0 0 0 0 
-0.001020329105300316 -0.05654355738066846 -0.03724186609117171 0.08085595167025501 0 -0.009405979790502717 
0 0 0 0 0 0 
-0.02361357287929134 -0.05041614674123744 -0.02107797455111874 0.05157402439031765 -0.06563228355105515 -0.01495809945756792 
0 0 0 0 0 0 
0.009532761449348576 -0.03411957694781721 0.0003129756449361549 -0.03518772652146241 -0.0268139423824208 -0.003568374734667263 
0 0 0 0 0 0 
0.1862905901754129 -0.1048607749346226 0.06293161986677963 -0.1113017080291478 -0.05652378533078193 -0.0006924377206562966 
-0.02672511076738271 -0.007698962977458331 -0.07784417713770359 0.137278799389135 0 0 
-0.02672511076738271 -0.007698962977458331 -0.07784417713770359 0.137278799389135 0 0 
0 0 0 0 0 0 
0 0 0 0 0 0 
0 0 0 0 0 0 
0.02385558426909231 -0.07091685407000889 -0.0006565561604701032 -0.09351063268639458 0.08805635635149296 -0.004571097160219946 
0 0 0 0 0 0 
0 0 0 0 0 0 
0 0 0 0 0 0 
0 0 0 0 0 0 
0 0 0 0 0 0 
-0.06324287663175068 -0.06543988796805821 0.1427118518689162 -0.03471594382600556 -0.07516107588422974 -0.02134442647857299 
-0.05920147452244463 -0.07445704414649816 0.1485302872169806 0.07422731544538355 -0.09248253279761702 -0.02235097699055668 
-0.1000475310244327 0 0.134304033948276 -0.06370929557290754 0 -0.01196021885475374 
-0.1227346488241005 -0.1305428349511406 0.1788776612225605 -0.09293040812712185 -0.1341626742383889 -0.06481715056074236 
0 0 0 0 0 0 
-0.06450188286583447 0.01534314780890948 0.03728216505789799 0.0328950889767623 -0.136910412456003 -0.03011988226528727 
0 0 0 0 0 0 
0 0 0 0 0 0 
-0.0985062999053543 0.0874375751009816 -0.0957101976419916 -0.05516666937067641 0.1113851246543393 -0.02630313998012778 
0 0 0.0524887089368006 -0.004059823268192143 -0.002386160499376842 0 
-0.09717827952786928 0 0 0.02325396808372209 0 0 
0 0 0 0 0 0 
-0.02636896762585247 -0.02833588093190947 0.043401318265829 -0.012435105719311 0 0 
0 0 0 0 0 0 
0 0 0 0 0 0 
-0.04647573458345882 -0.1115378844314477 -0.05393741885299771 0.1893165183946834 -0.0500357409489479 -0.02948071079901609 
0 -0.01721226787000674 0.04296780617960332 -0.02239747641008142 0 -0.006393549701904162 
0.278595005990992 -0.07963699167908109 0.002886339169035178 -0.07948728685597536 -0.1014037216034057 0 
0 0 0 0 0 0 
0 0 0 0 0 0 
0 -0.08711429800494236 0.06864318164547462 -0.02978223399082864 -0.0296796807051406 -0.03217236159982061 
-0.1002459451542091 -0.04017369079437714 -0.05632397306907993 0.172621740889844 0.04335588070845534 0 
0 0 0 0 0 0 
-0.1048258648583056 -0.00162137670771748 0 0.119499819451845 -0.02379066749462557 0 
0.07322097583997098 0.1232648215998988 -0.0328703847170889 -0.1352275136161254 -0.03329803579116675 -0.003760281608452332 
-0.05386982173451726 -0.3290627845888341 0.6548657887594959 -0.2898932687859425 -0.3951675031809612 -0.1366877379318882 
0.1266928205613981 -0.02457195318480729 -0.10540843805565 0.08503506291685584 -0.08934251077546169 -0.00639505690545516 
-0.03120419993466899 -0.06193364133253489 0.07370491628407105 -0.06849829002502589 -0.05340132724821637 -0.06161664530283701 
0.08403079210649897 -0.009752910959885624 0.0113069547825636 -0.1180672639247259 -0.01779886670951066 -0.01721024925446731 
-0.1651890862778621 -0.04525859757656583 -0.04956863088061252 0.1702684013548739 0.1319664566505022 -0.009957750272663603 
0.2456139732454855 -0.1614388288285794 -0.2970557067953919 -0.1889647216452545 0.1657858092794243 -0.06319153829798448 
-0.08786250809085465 0.4389689642027744 -0.1026620661414155 -0.4850560487752602 -0.1935373577819513 -0.1218380605653299 
-0.02590895224035558 0.1166505871257467 -0.03625986059212123 -0.1387506775467681 -0.01936939232141283 -0.008515333963626064 
0.2270361981372875 0 -0.1606073516771388 -0.03280481592286913 0 0 
0 0 0 0 0 0 
0 0 0 0 0 0 
0.2203139350711984 -0.0687903270329424 0.03944789017427768 -0.1485995683306372 -0.03666994958593429 -0.0157845841521375 
0.2158399810052355 -0.08324599077860705 -0.1490963468627116 0.03741095003366989 -0.07147394568371329 -0.00439940228986308 
-0.05038997035975807 0.2195870491801849 -0.01944930271353635 -0.05890446073165025 -0.07528867040344635 0 
0 0 0 0 0 0 
0 0 0 0 0 0 
-0.02451415516626303 -0.03412704997567139 0.1731645370316894 -0.03448604829692545 -0.1107580890901088 0 
-0.06038216153262815 -0.2467762007162536 0.06060798656156655 -0.1403361136410939 0.2387324424972266 -0.02344878150281379 
-0.1555505744344418 -0.02286151766235839 -0.06527841677778645 0.2019220413393324 -0.006459345312224843 0 
-0.1955400637814787 -0.1031658492429385 0.02037055065605508 0.2368204624067807 0.03029627693419975 0 
-0.1542688130471303 -0.08086566947819383 0.1318305761065039 0.233524039528095 -0.1533128335163914 0 
0.008614490923615872 -0.00917484470467465 -0.0002365566959045528 -0.1019582064724095 0.0950081353055601 -0.002093193082968666 
0 0 0 0 0 0 
0.04346102590121831 0 -0.02288805816027208 -0.02940883587398603 0 0 
0 0 0 0 0 0 
0 0 0 0 0 0 
0 0 0 0 0 0 
-0.04153738951934579 0.1256734378538266 -0.125673787526649 0 0 4.87890977618477e-18 
-0.1478214420797296 -0.05177834943515533 0.003220961471947039 0.0001157849889224145 0.04486456817027477 -0.03452533823274422 
-0.05203339711983367 -0.04967504159287279 0.1639679338675946 -0.06748455341678007 -0.1617174292215418 -0.03391808950390875 
-0.007821488020979881 -0.06496844096241905 0.01071559164663782 -0.05604844022489676 0.08756180733825361 -0.001402288626698295 
0 0 0 0 0 0 
0 0 0 0 0 0 
-0.01540915567791216 -0.02254833204880208 0.07389325109073408 -0.09104219706062608 -0.07584694447052964 -0.04465367390988158 
0 0 0 0 0 0 
0.04891912015052575 0.0005804355320183165 0.09282930707493203 -0.1034747170390042 -0.165465840856223 -0.03271837360826996 
0 0 0 0 0 0 
-0.01540915567791216 -0.02254833204880208 0.03230808043744497 -0.0379484482378014 -0.03712406254268346 -0.02875979554747512 
0 0 0 0 0 0 
0 0 0 0 0 0 
0 0 0 0 0 0 
0 0 0 0 0 0 
0 0 0 0 0 0 
0 0 0 0 0 0 
0 0 0 0 0 0 
0 0 0 0 0 0 
-0.01540915567791216 -0.02254833204880208 0.03230808043744497 -0.0379484482378014 -0.03712406254268346 -0.02875979554747512 
0.05456661043593838 -0.09275422727422226 0.240419526497172 -0.1649456701518908 -0.06294532324433558 -0.001099520251112207 
0.3155980367589957 -0.07130928003719691 -0.2991917859448247 -0.2102434823217373 -0.3317487606389579 -0.05312345513383262 
-0.06085667895816031 0.09424044758487113 -0.04369514101036789 -0.02616049822075337 0.02908217182822458 0 
0 0 0 0 0 0 
0.01615811913454306 -0.05421448818346747 0.06959078879436967 -0.01401343391015092 -0.02771667310321438 0 
-0.115417406947997 0.214355542150418 -0.0928064988145471 0.01396925201904213 -0.04802361191288316 -0.008894767191226354 
0.09462168411365134 0.08066137090389845 -0.1475016645406144 -0.04867693472998048 0 0 
-0.04759871443391347 0.1546094134056653 0.02585877345975346 -0.1641593717110365 -0.1476334444614776 -0.03379330229636995 
0 0 0 0 0 0 
0.3257936892942928 -0.2693271710866961 0.09400201960310715 -0.08770427867407797 -0.2033610135921607 -0.04900250392823979 
-0.1312040691181191 0.09087256552752555 0.009073867057011931 0.0803274936466494 -0.02624810807875586 -0.008151212686579895 
0.02126405553539829 0.09868294590237965 -0.0007323867172986753 -0.05465901416502945 -0.06208428937553392 -0.008032415195308873 
-0.130483285799393 -0.04235055075989565 0.2205670693212014 -0.06407059607758669 -0.01603078391645369 -0.008356724947098758 
0.02989012617213722 0.9312816004878504 -0.6460352413333135 -0.2321826205065731 -0.5250041885628171 -0.06217194487031537 
-0.094136870049865 0.2213123589556699 -0.2419631045065463 -0.05088676974719468 0.1211957929437285 -0.01172557561171284 
-0.04927262397813064 -0.01386379190245749 -0.07154491298136861 0.04043020562113564 0.08036634828308427 -0.001955371598715044 
0 0 0 0 0 0 
0 0 0 0 0 0 
0.08542958619990748 0.09759411576946236 -0.1265241364455929 -0.1739457522503634 0.137755608341075 -0.005686478712545918 
0.08371655457318614 -0.1452842848177169 0.05067718849170617 -0.04503704629775487 0.01838629194132483 -0.0110367023495435 
0.3636302100627099 -0.1622134446656521 -0.1721286482248328 -0.1705085782107254 0.1636963700173871 -0.007894120926061133 
-0.05797855496335909 -0.08989206859084814 -0.042484940114258 0.04501151088728238 0.1001278827138312 -0.01103670234954351 
0.01976507189568901 0.06852253255041753 0.02733384828716637 -0.1008521676729208 -0.1580372847699279 -0.04559216229984694 
-0.1808287886485775 0.06725386089527646 0.320473359195382 -6.398579243741998e-05 -0.10815194673468 -0.009956082808839603 
0.03283867981558135 0.07755943771985901 -0.04227324984677761 -0.02335864865250108 0 0 
0 0 0 0 0 0 
0.2982645612394623 -0.507234333201695 0.393791554425285 -0.27765360590619 -0.3289733089339759 -0.1908182513016048 
0.1087762943646114 -0.1394018183688104 -0.04685558774422601 0.2210135424609997 -0.1872764933960969 -0.03583082168806314 
0.1517770433424645 -0.02011951744736918 -0.1349795233729304 0.008756289702056816 -0.008984331463054661 0 
0.1047452702934202 -0.1550813567274987 -0.2579438778863797 0.2177287622923225 -0.1097380209312105 -0.05768709075561493 
0 0 0 0 0 0 
-0.01810696689524894 -0.04268564851806458 -0.02183047999838333 0.1549335381767676 -0.05835129741322986 0 
0 0 0 0 0 0 
0 0 0 0 0 0 
0.01070146626707848 0.3735704468555779 -0.03292863870301011 -0.2144662405145612 -0.2482127209700756 -0.05231697808602197 
0 0 0 0 0 0 
-0.08401342302635849 -0.04438598366152482 0.1580112152550526 -0.02949901992523313 0.08921527100969724 0 
-0.0236607625461635 -0.04971389505591819 0.03848508425382571 0 -0.002839406228148426 -0.01050404569358803 
0 0 0 0 0 0 
0.09461506393843364 -0.111554362961826 -0.02375989154869185 -0.0288132308000373 0.1575954338650354 0 
0 0 0 0 0 0 
0 0 0 0 0 0 
0 0 0 0 0 0 
0 0 0 0 0 0 
0 0 0 0 0 0 
-0.04067587808098935 -0.07392444024517196 0.1273618382106677 -0.01441108017759334 -0.08149806294474735 -0.007017139492482205 
0 0 0 0 0 0 
0 0 0 0 0 0 
0.1031276948353243 -0.02849047466175859 0.09113395419274922 -0.1241451294670328 0 -0.00246497380065731 
-0.221514108814412 -0.09116644782848991 0.001911523155206637 -0.07115709451470008 0.04311962100843351 -0.1263398751972999 
0 0 0 0 0 0 
0 0 0 0 0 0 
0 0 0 0 0 0 
-0.07355632272519777 -0.07596982721802981 0.1542504832963394 -0.5136690459661997 -0.5643181769712972 -0.3460108783775129 
-0.1900390628822002 0.02614746034304368 -0.09984594782660346 0.2329698518088414 0.1836442382416007 0 
0.1262997967842438 -0.0480695482258516 -0.0560200346026293 0.03804001066694445 -0.01968051348581814 -0.01059975616970877 
0.2842955386649076 -0.09798246346717739 0.07547929948361713 -0.06343703113704065 0.02942360118865197 0 
0.04315475658829316 -0.04342317077424634 0.1149110061637635 -0.02561089722704778 -0.05841562494911278 0 
0 0 0 0 0 0 
-0.04253602182765353 -0.07728027067875361 -0.04942728619168267 0.03738741085096502 -0.005452138822108711 -0.03057277789114226 
-0.03199013031221142 -0.1824757511952343 0.1254932405013383 -0.06760311233606549 0.0672989147373286 -0.04778337399067604 
0.0895954642448194 -0.03598347767752508 -0.05618466029315022 -0.1149227827752145 0.1633139900104729 0 
-0.01374286037235569 0.0775083630827051 0.006962098775810092 -0.03314341477861875 0 0 
0.03440098426648455 -0.02447841458355222 -0.002036988351693569 -0.05861852616961515 0.1074435257025129 0 
-0.03755490976417136 -0.0141465511758567 0.1091877502758477 -0.02814273152824563 -0.007890450765582643 0 
0 0 0 0 0 0 
-0.02998550363605481 -0.007562935683897159 -0.02015653794493851 0.08864188629871764 -0.0006361750014318382 0 
-0.04697343535659627 0.08593229126677435 0.05793050842247588 -0.05543771978121157 -0.03657123733322387 -0.007813906688403772 
0 0 0 0 0 0 
0.07941508833711759 -0.008907342680477163 -0.04770855735052042 -0.02031990188307033 0 0 
0.2778343742579044 0.192811125178336 -0.3682679709223876 -0.1293866216129347 0.2160244871960164 -0.005052141765901357 
-0.1209295588974845 -0.0675386366179265 0.007783605796346485 0.0603661511163547 0.3269160882523688 -0.001408356965810135 
0 0 0 -0.03140341398611615 0 0 
-0.05598129615755466 0.2141638322021589 -0.09224234215754573 -0.03981539201096848 0 0 
-0.03966801946503639 -0.08357357081900339 0.1805929147133625 -0.09040027715311369 -0.0332308283138199 -0.02004921730876703 
0.07780393783490194 -0.06525929517306102 -0.005041660546085683 -0.04463946221011378 0 -0.003106556330804765 
-0.2571476812374555 -0.09613464338445006 0.3633404802562923 0.03501431367898704 -0.09703210119483809 -0.01979092749616996 
0.1210759504492255 -0.01935197925612231 -0.1373211588262811 0.01406770894997223 -0.006755620172508451 0 
0 0 0 0 0 0 
0.04995943945456804 -0.001133329405967726 -0.03539998865185713 -0.005992569374001053 0 0 
0.1303526688707798 0.04026309250249432 0.06992872838959516 -0.104090624730083 -0.06232435680559084 -0.0007008356749285371 
0 0 0 0 0 0 
-0.008840251204811847 -0.1341750946429704 0.04095648055629798 -0.01755389254522819 0.1094055450691416 0 
0.02132722552153932 -0.0531155871239173 -0.08586014515015614 -0.02351470711895397 0.1842802491658052 0 
-0.05572274865482199 -0.1289243701444882 0.05186275819957309 0.04136986361488892 0.04820524841066233 -0.02022782178075434 
0.1887347655897106 -0.01118392667918186 -0.09206135653879828 -0.1483472523420339 0 0 
-0.03171429346294775 0.1178981947201607 0.08556156215619523 -0.0931384230748941 -0.04062178275441376 -0.002370473746760624 
0.4566840822436773 -0.05556851324229757 -0.06835488035850447 -0.1187446184219497 -0.2151649527331322 -0.008897197922249871 
-0.2536887828614048 -0.1999011416740128 0.3570680162567463 0.05913240508270525 0.1292172808285104 -0.01021281518742921 
0.126419931385323 0.05010130161284253 -0.003981296708096059 -0.01419733340648199 -0.09230664372515691 -0.005686478712545918 
0.08114939235508294 -0.02441917770662878 -0.03977483923480513 -0.0286618325190232 -0.01603078391645369 -0.007230882096928149 
0 0 0 0 0 0 
-0.08116996868376795 -0.02205994247120941 -0.04616460173373671 0.01149517903612859 0.09910112241297116 0 
-0.04631006214413495 0.01982668252516761 0.1215780756252197 -0.06260305414506752 -0.1654815776483475 -0.02827981139727085 
-0.04149698003560673 -0.06159753638774251 0.0977747059897263 0.0476049078498561 -0.01816283309409962 0 
0.088694975276241 -0.02032173063436183 -0.01419692209563297 -0.03137338580848655 -0.04322360522074842 0 
-0.1048133760473849 -0.1300783138688626 0.1034371860653551 0.05250717337791652 -0.05780682345436121 -0.04510859783317631 
0 0 0 0 0 0 
0 0 0 0 0 0 
-0.2080750601082412 0.01127790434006848 0.1250337492445868 -0.00305944827571957 -0.06633199259131388 -0.03542910195939943 
0.01036409616793169 -0.02180253585280885 -0.00307013882257965 0.1014088037560905 -0.01040097747098941 0 
-0.006077780248761594 -0.02655284219942738 -0.05694290714741151 -0.03523626543149953 0.05575887681057182 -0.01607256297031394 
0 0 0 0 0 0 
0 0 0 0 0 0 
0.07609315345960074 -0.04228909375694868 -2.602085213965211e-18 -0.06765452229875307 0 -0.00129608501154023 
-0.05470977114565777 -0.02620010280598719 -0.051944162294587 0.09178248623314628 -0.0005231174013885197 -0.02100103339604897 
0 0 0 0 0 0 
-0.05470977114565777 -0.02620010280598719 -0.051944162294587 0.09178248623314628 -0.0005231174013885197 -0.02100103339604897 
0 0 0 0 0 0 
0 0 0 0 0 0 
0 0 0 0 0 0 
0 0 0 0 0 0 
-0.0282908654762376 0.2412552495923394 -0.01445406631353884 -0.3093261460134315 0.1240547261020677 -0.01050404569358803 
-0.0247955497876458 -0.1015266645055738 -0.03029576680632377 0.1689027073501443 -0.01063055445836903 0 
-1.084202172485504e-19 0.1032380980980115 -0.02670112171179053 -0.01291047878333771 -0.09046504287869286 -0.002035449667317694 
0 0 0 0 0 0 
-0.1048259919731256 -0.0528318159597741 0.02003109477463631 0.007269163483545348 0.04956654916731053 -0.007199616139122018 
-0.07548513886327686 0.2355445395140913 -0.1194690509409585 -0.07198521386527403 0.06176967393039752 0 
-0.04237949313196202 0.1010390683185379 -0.1612463116594573 -0.1428078541163829 -0.07045875112613249 -0.05693037552411959 
0 0 0 0 0 0 
0 0 0 0 0 0 
0.03754264426291633 -0.1086510153685365 -0.007615974114845782 0.02510889956257802 -0.02303668056857919 -0.005655651035626377 
-0.01296056974029289 0 0.1466200167525805 -0.09426193304833747 -0.01323667131004058 0 
0 0 0 0 0 0 
0 0 0 0 0 0 
0 0 0 0 0 0 
0 0 0 0 0 0 
0 0 0 0 0 0 
-0.05309769837407275 -0.02211892235340587 0.06606173345922532 -0.007948592445920536 -0.01187279103190482 0 
0 0 0 0 0 0 
0.09264720153104827 -0.02496297808804579 -0.02745931470349301 -0.04327419145598417 0 0 
0 0 0 0 0 0 
0.006179793052484375 0.1075726271717081 -0.1663289766198398 0.09887782695466199 -0.009643121832380317 -0.002830969264727663 
0 0 0 0 0 0 
0 0 0 0 0 0 
0 0 0 0 0 0 
0 0 0 0 0 0 
0 0 0 0 0 0 
0 0 0 0 0 0 
0 0 0 0 0 0 
0 0 0 0 0 0 
0 0 0 0 0 0 
0.04645247443414851 -0.08426057533382712 0 -0.04150144504635396 -0.01199552015123778 -0.00310681314725183 
0.1253760669657978 0.1985348157014148 -0.4690145345589505 -0.2471087932290807 -0.02245345921534549 -0.2341784011908058 
0.0400467685636374 -0.292331598251684 -0.1917696918230462 -0.2832815919093061 0.668053248225829 -0.02144025708287236 
0 0 0 0 0 0 
0.1224836127863645 0 0 -0.009005145503052312 -0.1074934717486903 0 
0.06174351028969994 -0.005424134074345718 -0.05822653589852261 -0.01755452789806366 0 0 
-0.07917607419994965 0.1344300232399138 -0.05895570568424482 -0.008948589405845586 0 0 
0 0 0 0 0 0 
-0.0260281861231456 -0.03077549901088853 0 -0.0343323902153208 0.05540101140102911 0 
-0.1723213877771789 -0.1369964434492132 -0.01316073957064696 0.1746223882691308 0.09961583125876682 -0.01722810769985021 
-0.03749511383514434 -0.09970141536654212 -0.05297060376387317 -0.0003856937589066599 0.1384511513837709 -0.009405979790502715 
-0.139350329338901 -0.1241869859537719 0.1532765788289686 0.1293031503999994 -0.1379254199512784 -0.03666237104419043 
0.2431606950177885 0.04716759396304752 -0.07352885354394338 -0.07716464879558275 -0.1811139296365017 0 
0.222910293344133 0.01572366843888734 -0.07997212150998399 -0.1279468047961826 -0.0222322602096584 -0.004202804690955716 
0 0 0 0 0 0 
-0.3130325093569313 -0.009153143333803865 0.1227651890786086 0.2102930008202676 -0.1882462479546928 -0.05109162658955221 
-0.02352563252008656 -0.02416261659857654 0.1434585146858354 0.05393633827113633 -0.02829879185404314 0 
0.02844103175830101 -0.135060768010937 -0.1849974706538004 -0.06324163142540044 0.2689408222889733 -0.0195497081825165 
0.02461765624980349 0 -0.002168463815193734 -0.03841440704326294 0 0 
0 0 0 0 0 0 
0.08403079210649897 -0.009752910959885624 0.0113069547825636 -0.1180672639247259 -0.01779886670951066 -0.01721024925446731 
0.08403079210649897 -0.009752910959885624 0.0113069547825636 -0.1180672639247259 -0.01779886670951066 -0.01721024925446731 
0 0 0 0 0 0 
-0.1942937733311105 -0.1821459485359468 0.2627760950543949 -0.2048964699314575 0.001426343115711213 -0.1512566920487934 
0.1553395928294957 -0.08657518641603595 -0.1082169058064359 -0.05623045721789297 0.118698715029669 -0.003253948818135481 
-0.006077780248761594 -0.02655284219942738 -0.05694290714741151 -0.03523626543149953 0.05575887681057182 -0.01607256297031394 
0 0 0 0 0 0 
0 0 0 0 0 0 
0 0 0 0 0 0 
0.1324458056000044 0 -0.04295470915024304 -0.08785467576981262 0 0 
0 0 0 0 0 0 
0.1394518764573678 -0.1219516844507501 0.2871687641700107 -0.0942156668505244 -0.1374889689758595 0 
-0.02917973438022801 -0.04185025822713226 0.05751492076984852 -0.07275859828288329 0.09792432863018678 -0.00976128642343718 
-0.03891004008567703 -0.04615650470316551 0.07378820915417976 -0.009965686009728148 0 -0.00296481124746555 
0 0 0 0 0 0 
0 0 0 0 0 0 
-0.06096142803689344 -0.3090979156647959 0.06925064298899215 -0.1428554461961138 0.04269822110425848 -0.1918379267539733 
-0.04573262384954338 -0.04869655835489713 0.1961555584185909 -0.3867202104282817 0.002764470476933167 -0.06262437172631437 
0.111853765105523 -0.08824612895352024 0.08332163139304778 -0.03537770104865659 -0.06350503827873318 -0.006769022639469299 
0 0 0 0 0 0 
0 0 0 0 0 0 
0 0 0 0 0 0 
0 0 0 0 0 0 
0 0 0 0 0 0 
0.07193213242779462 0 -0.0399947119236367 -0.02974180885862331 0 0 
0.07444477144221681 -0.0206750800583263 -0.05286879799768435 -0.0003856937589066599 0 0 
0.1188974523082039 0.03089770785295552 8.932083039262594e-05 -0.04926770414094581 -0.064203831159744 -0.01356377866633389 
-0.1214571868423369 0.1948850362539399 -0.002518773524863452 -0.008726442119952438 -0.08281367242991274 -0.01052964398105185 
-0.03279530300995928 -0.5370908409496516 0.1698417797396133 -0.3686382940341116 -0.03139721817896381 -0.2804172929790396 
-0.02842895572434125 -0.01430675744533406 0.06924856665305593 -0.03568424309006542 -0.04074566862139491 0 
-0.091753735452413 -0.01957994083933312 0.2559951684927032 -0.06069975987359131 -0.01468042536392676 2.818925648462312e-18 
0 0 0 0 0 0 
-0.05203339711983367 -0.04967504159287279 0.1639679338675946 -0.06748455341678007 -0.1617174292215418 -0.03391808950390875 
0 0 0 0 0 0 
0.08887225416596146 -0.03611261140480476 -0.09634197396079744 -0.1232094702601151 0.2645715555286218 -0.01827984827724757 
-0.002060830383721209 -0.01494873975561641 -0.09523279113885871 -0.018910609209786 0.1211549462847955 -0.006614490454076029 
0.05037376439962762 -0.05906750903704753 -0.02627749890299855 -0.04683494496286927 0.06350603786396659 -0.002532953476147155 
0.2962430375398141 -0.01409540309850712 -0.2477470087026083 -0.08537351996665152 0 0 
-0.08101998466763584 -0.01470467293410463 0.007710843962136201 0.0856266057084923 -0.0192624694909081 0 
0 0 0 0 0 0 
-0.0250562960234318 0.01729679852354251 -0.1527003623104505 -0.03840630985987412 -0.02160181037080504 -0.04471853990688096 
0.16117822794907 -0.07251553489617416 0.01855297210816342 -0.07572644439612101 -0.0530663097556871 -0.009691762896860082 
0.02760198894090488 -0.1067982966126423 0.1343921517095188 -0.109297770872793 -0.02874696274599303 -0.02754780759723739 
0.2578667014310058 -0.04304129589687598 -0.1709587817515407 0.05645192390814106 0 0 
-0.01451218933759161 -0.02465600751715214 -0.009635646031900143 -0.0329443134922188 -0.06129417888082534 -0.05540470562235106 
-0.02214628474167633 -0.05561979322016002 0.08716523927420612 -0.02812020598743523 0.04919927064118995 0 
0 0 0 0 0 0 
0 0 0 0 0 0 
0 0 0 0 0 0 
-0.007680327000368878 -0.007501131607317416 0.02673032400581615 0 0 0 
0 0 0 0 0 0 
0.1437558545145883 0.085394739118339 -0.09127205770383448 -0.1727032693695173 -0.06828571897023661 -0.03942118455486031 
0 0 0 0 0 0 
0 0 0 0 0 0 
-0.1115632479942675 -0.03759918978937601 0.04111363579651436 0.07713043134324299 0.05393123968949123 0 
0 0 0 0 0 0 
0 0 0 0 0 0 
-0.1304012567977737 -0.06781495778289699 -0.05879573768063215 -0.247217055075491 0.3706031228456723 -0.02173767465515511 
-0.02880289056264949 0.119012469707906 0.06695905709280324 -0.1910960263771761 -0.2203098205645175 -0.06011135897435893 
0 0 0 0 0 0 
-0.2260438707213182 -0.1817475579688675 0.1323170459713678 0.254161601729471 -0.2291649755503088 -0.07775660197316685 
-0.09611870448712162 0.02712024129805251 0.1655393622698003 0.1105409466465271 -0.1682744662638379 -0.005642220477540007 
0 0 0 0 0 0 
0.06249126788483353 -0.1829452396842205 -0.1370323442482567 0.1294566585627457 -0.02683207677094587 -0.0551275684318422 
0.04339259727896071 -0.04915911007101106 -0.07556150738089214 -0.02503590226427304 0.09410605131373359 0 
0 0 0 0 0 0 
-0.0144388750624503 0 -0.05780956756226219 0.06156587130991601 0.04054654334617542 0 
0.08809248929662358 -0.04780090198957281 -0.06352844750453518 -0.006347980845153639 0.1461265685380436 0 
-0.2057504476772407 -0.1605132147105677 0.4406691173612208 0.03626397563051603 -0.1909589627068534 -0.0941512366556644 
-0.2130043245584167 0.05118713899763171 0.0009665726433247329 0.01865017830824263 -0.1551178795422449 -0.04907980796388498 
-0.1296623016793268 -0.04102045033551028 -0.04544009317750515 0.2127490445560071 -0.06133710393707068 -0.0172840741411008 
-0.02419948756216622 -0.02013559974402218 0.07157611213881394 -0.04857320048193864 -0.01094199907598853 -0.008509911097643782 
-0.02162690602685963 -0.00312426887637211 0.07750639865514708 -0.01959173479947997 -0.01603078391645369 0 
0.03802083128373165 -0.02885055910403848 0.09536160332538657 -0.4678146709748341 -0.03364273489664889 0.2767750347821836 
0 0 0 0 0 0 
0 0 0 0 0 0 
0 0 0 0 0 0 
0 0 0 0 0 0 
-0.006685561927135889 -0.0459836408327389 -0.02952940770633025 -0.1369059969330129 0.06578060497525505 0.1816461076569004 
0 0 0 0 0 0 
0 0 0 0 0 0 
0 0 0 0 0 0 
-0.05663647662327125 -0.03699364257452763 0.01861396504038722 0.07607738708305639 -0.01306295638074393 -0.006769022639469299 
-0.1117070705991618 -0.06238899329177568 0.06558916428956157 -0.04504713014963844 0.07595046344506966 -0.02038020629205621 
0.06675923261767298 -0.06636557927260084 0.01724176225379222 -0.04482998430015633 0 -0.01062272018115003 
-0.0931603911083291 -0.1058410148198872 0.1971216191440033 -0.03414041520411117 0.0485804322111305 -0.01350017090685317 
0 0 0 -0.01835120596002272 -0.002148304307445332 -0.004189624326822417 
-0.3621646017135052 0.2110671182425834 -0.1078903757766145 -0.1908837314389948 -0.02952564267641091 -0.2530219424173963 
-0.3142716330786973 0.2588539174408063 0.03239805785137927 0.4759688733362981 -0.2857521284175126 -0.005066706101824325 
-0.08147688179525076 -0.03385601161451264 0.1391408138627643 -0.03367059684222819 0.03974207284717982 0 
0.1918882412549537 -0.09477765153920931 -0.04840601190651299 -0.05671103731573167 -0.1158069629292963 -0.02869659809045005 
0 0 0 0 0 0 
0 0 0 0 0 0 
0 0 0 0 0 0 
0 0 0 0 0 0 
0.09018775090686292 -0.01542815411741406 -0.08035296152513882 0.04365396928349376 -0.02437152885691917 -0.003230681991770653 
-0.02844855583130572 0.2343749660940016 -0.06357440373077707 -0.02372149306843314 -0.1301285558982645 -0.007032787143632747 
0.3463764247586243 0.3234387380145557 -0.2473803657895209 -0.3913135611778347 -0.07826198496056505 -0.05090126451237633 
-0.509312921396832 -0.09794858639450123 0.02463350196798824 0.09283157236716458 0.4920875887126579 -0.02752621074162657 
0.2375030724056489 -0.3587571330335194 -0.2236076918970154 -0.1808307233564578 -0.2574669907882743 -0.03044916720134817 
-0.06856589373154871 -0.07683905014402832 0.02257580742514978 -0.04541672298380878 -6.505213034913027e-19 -0.02602503947720192 
0.09154714653384814 -0.06584893849211192 -0.1682261000480505 -0.02014296654427119 0.1455205162451632 -0.004954815360697837 
-0.0761353855259162 -0.1148861599738231 0.3158897258426944 -0.1384125617569951 -0.04750151160178253 -0.03320997477470086 
-0.1061077876355526 -0.1160897813971198 0.2009196990893435 -0.04160886608534634 -0.003563791585951043 -0.0361896650829367 
-0.05519403057224307 0.08408403419504847 0.008279344793990385 -0.02314799863682653 -0.1192768104438134 -0.05208660127759333 
0.1742872326780403 0.0548831027987642 -0.06591704465043097 -0.008449161219023182 -0.1106288430218392 -0.01428439573223784 
-0.05128361110543005 0.08460510266064362 -0.1357741561124502 0.2097112713972908 -0.1183585286401545 -0.006076025659878059 
0.124614965032825 -0.02295727772863005 -0.1828944221646933 -0.03385180592282311 -0.00221519487582023 -0.01298152861579514 
0 0 0 0 0 0 
0 0 0 0 0 0 
-0.03717721458966908 -0.01696722842241822 0.1870331477858131 -0.06944011512281099 -0.04073677118223384 -0.002386169460074683 
0.3286139319200149 -0.5448569879391175 0.05792089164564079 -0.2389861632054763 -0.2792917295568654 -0.2580944476708901 
-0.2425237463473766 -0.06959856811492014 0.1547346981615654 0.08466942739655316 0.0186134155875836 -0.03942118455486031 
0.6297612081999741 -0.1081771259776229 -0.3981706955736514 -0.1511708748508166 -0.1265514597605647 -0.07220500315780072 
-0.1387893203995397 -0.1137370646272544 0.01769467258114197 0.1194679053908881 -0.03656412955001287 -0.02696965439570827 
-0.1264954792893156 0.2025530144121998 0.2237959780702352 -0.1332623840145877 -0.1317066243260769 -0.003412723242803806 
0.097665972223721 0.1339938269016041 -0.05173739343346976 -0.0335517780763657 -0.120832514519667 -0.003412723242803806 
0.06300501018892224 0.1383265207908888 -0.1133081573423361 -0.05899309877896971 1.517883041479706e-18 0 
0.1739396436097545 -0.02042843595216006 -0.1222843120508478 -0.6243242603126847 -0.3231112984825237 -0.3630419491585334 
-0.06735121182565089 0.2016719502133026 -0.3755709864222085 0.2512662747475273 0.1705780461669373 -0.01261294909248961 
0.3122257459969597 -0.07165993355856448 -0.07335933889256796 -0.3534606406713408 -0.4187853166969227 -0.1590751786028047 
-0.06788415133412194 0.09301708279203649 -0.08591758755235593 0.09802948766205406 -0.05582014285113693 -0.01282544376266706 
0.1710158453115619 -0.02592590214154766 0.01480977017940529 -0.07118808328539637 -0.03666231012370681 0 
0 0 0 0 0 0 
0.06510165752952457 0.04635097882534493 0.05937854170953496 -0.2174404474715367 -0.1096998892717118 -0.03456423754988212 
0.1052145028488412 -0.0132764350240266 0.05933946161127793 -0.1175678939430683 0 0 
0 0 0 0 0 0 
0 0 0 0 0 0 
0 0 0 0 0 0 
-0.01685156230156539 0.1063904114731962 -0.08551747369750276 -0.07905763052608467 -0.08043225675851123 -0.01345239590225502 
0.03661060940362857 -0.0410500881981026 0.05253002087020929 -0.002344564826018982 -0.02050701926895377 0 
0.02233906983652873 -0.08006002008619151 -0.0974748638483067 -0.07374286539744039 0.1943337178981188 -0.0236927478813467 
0.01778430205794827 -0.1186667857555524 0.161017746008601 0.1209090124523845 -0.1435838046822362 -0.01963868444143452 
0.05496817939029549 -0.02338056776158138 0.06526652268994187 -0.03019068238117972 -0.05944075883885543 -0.006820768921186134 
-0.2505353816968564 0.1144003128588911 0.08486893956056629 -0.07544239307982872 0.1517983448736369 -0.01555188580065485 
-0.007362907064540941 0.07772817138961792 -0.1378891993563356 0.07212493273473296 0.04279048660903239 -0.003230681991770653 
-0.2506267103219476 0.09423111521788917 0.06791145119523992 0.02519611213414259 -0.2048176956699219 -0.03906684803589926 
-0.05899859001330358 0.05906433768626515 -0.03984545537350818 -0.04607760929057756 0.05951130132426828 -0.01080368344739833 
-0.1278047835284667 -0.03838852019141407 0.02225923195085961 0.1182435235057044 0.05540350736430029 -0.0140379462508545 
-0.2297798263687788 0.2097473564555543 0.008338412019187896 0.01356088133386431 -0.05731750232360886 -0.0131878140273101 
0 0 0 0 0 0 
-0.05168561371422405 -0.01174936613888653 0.09055283964254736 -0.06647903749565152 -0.03059394509468258 -0.01988162298306662 
-0.08623748414351584 0.03182283047405371 0.1280404651517792 -0.04566719160089868 -0.07781434080545688 -0.02273368738864071 
0 0 0 0 0 0 
-0.4123269905415014 -0.4415044199804045 0.4262919162549525 -0.1209758417461463 -0.2610461687925473 -0.2997177202636374 
0.03031080820668934 -0.03421272389125334 0.1363040495711198 -0.1100189579862834 -0.1516748367006008 -0.04951051686512165 
-0.1431366461382318 -0.06030126295951248 0.1711137420744273 -0.04019863112203821 -0.001053641109144411 -0.0136886036810697 
-0.1703935550012039 -0.09632388229596389 -0.1979297850060677 0.2060906369898692 0.159353028948428 -0.06745989723146273 
-0.05993493438814017 -0.03901605378178059 0.09964429405631321 -0.0793658995448039 -0.009631919493914724 -0.02646060412186192 
-0.1447608002425864 -0.05137819219196847 -0.01234918100453662 0.2325343243290901 -0.05385522238046524 0 
-0.07489339274579716 -0.2051466710248469 0.2155262761839566 0.01327316574522513 -0.09701586224234464 -0.04653241361827988 
-0.1323681322153303 -0.1870921135287782 0.2207719660171799 0.01481708012281339 -0.07247959550230031 -0.04653241361827988 
-0.01540915567791216 -0.02254833204880208 0.03230808043744497 -0.0379484482378014 -0.03712406254268346 -0.02875979554747512 
-0.1401997085219669 0.1185358704371716 -0.05194168099993279 0.1460860382968704 -0.01639119685906795 -0.009405979790502717 
0.0444759797623424 -0.1341945134049473 -0.1660017364221021 -0.1991152183890163 0.3267188020740937 -0.04119232132331425 
0 0 0 0 0 0 
-0.05147818172132553 -0.142151477326263 0.06040726300078563 -0.05075597917600118 0.0852948696228467 -0.01975438865493803 
-0.01968891878327241 -0.02653473847740724 -0.2445578806478588 -0.05998259134781046 0.1654892257201674 -0.04003745348147655 
-0.1499715469287869 -0.1701435403275396 0.01918923432567573 -0.2454878045502356 0.0592517525484618 0.2296280674788767 
-0.01192962671552916 -0.01521056286549647 0.02437737230857168 0 -0.002118612168465663 0 
-0.5435195479841124 -0.3245093428984042 0.3833302676843071 -0.1517635229625152 -0.08983763385250534 -0.1452779911994259 
-0.05257888945262684 -0.05543999590394565 -0.2331399904170294 0.3061327573921977 -0.04351904317458207 -0.04510432782562674 
-0.04257408261741622 -0.02256816309693785 0.02661395757265953 0 0 -0.01890930810354122 
-0.009976696373137655 -0.07287937646947459 0.06106296058649339 -0.07388506643893206 -0.07152763568074823 -0.07948961896743451 
-0.06737633249046701 0.1214598886124419 -0.03222795568385578 -0.0234660871828271 0 0 
-0.1244245459562572 -0.07447262260146957 0.01953573526400026 0.1042191204866909 0 -0.04747131439052828 
-0.02217368426222105 0.1590166717248785 -0.09142496298172402 -0.09944533057864083 -0.08727906050445776 -0.02434512369444483 
-0.05597088082440456 -0.01223673546784272 -0.06208817863315204 0.1538449546352267 0 0 
0 0 0 0 0 0 
-0.0119628953750436 -0.01235182173128717 0.04573909367785437 -0.008668622009411667 0 0 
0 0 0 0 0 0 
0 0 0 0 0 0 
0 0 0 0 0 0 
0 0 0 0 0 0 
0 0 0 0 0 0 
0.2396027417016102 -0.01844208480961839 -0.1562377249591931 -0.02844742408159196 -0.0430094084998616 0 
-0.02960643997292105 -0.06216533997325129 -0.1256181868093252 0.1092383350525697 -0.07469382891436219 -0.03031009212712795 
0.05446072597168262 0.1723334923044152 -0.04681961369987158 0.09778443508557173 -0.08262556355201303 0 
0 0 0 0 0 0 
0 0 0 0 0 0 
0.06430714286414121 0.1602205070893246 -0.139773654636992 -0.03663142085902041 -0.04745616864587232 0 
-0.04497603632857701 -0.05138584033941739 -0.08571763612372618 0.0196007850505419 0.0978600851999001 0 
-0.1094195422913155 -0.05240020561197439 -0.103888324589174 0.1835649724662926 -0.001046234802777039 -0.04200206679209795 
-0.02732040445821575 -0.1003096981144369 0.1486501296208939 0.0109324806910779 -0.1467209496623161 -0.02580847362967353 
0.07549497523309906 -0.04406634816175441 0 -0.04196831976945926 -0.07051079466863755 -0.02111677362534024 
-0.1423467139885706 0.0986417571984563 0.0877106449760425 -0.1920284237413249 -0.2295734092233732 -0.1085841560610181 
-0.1105157856658669 0.1047605147630641 -0.0810496974076811 -0.02868140392138717 0.07264232370552344 -0.01032146132554366 
-0.1938188226089559 0.04297961256868872 0.1845451677541241 -0.1033456342423957 -0.1054056007804249 -0.02537841420231455 
0 0 0 0 0 0 
0 0 0 0 0 0 
0 0 0 0 0 0 
0 0 0 0 0 0 
0 -0.01302466099549934 0.05201585043253635 0 -0.02599800516328234 0 
0 0 0 0 0 0 
0 0 0 0 0 0 
0 0 0 0 0 0 
-0.2770757975735583 0.1184957557888366 0.09832006045554391 0.03456881339252671 -0.1215571898820463 -0.0235191132620318 
-0.0687987319079406 -0.0375711151106565 -0.150459935819561 0.004127238545399268 0.2439116130300281 -5.85576470825591e-06 
0 0 0 0 0 0 
0.05316830778879979 0 0 -0.1212836886471262 0 0 
-0.4756615611394328 -0.06250745786164026 0.210022269105261 -0.07996860428347735 -0.3491739896183378 -0.1601894907999962 
-0.2056851434339763 -0.04494576651085499 0.1763987696798228 0 -0.008890123359618394 -0.00788941204227107 
0 0 0 0 0 0 
0 0 0 0 0 0 
-0.05078514786251248 0.06951440900079703 0.01001130184458801 -0.04169917279311521 -0.0533337687368371 -0.005184833285941599 
0 0 0 0 0 0 
-0.008021889707259025 -0.04485364612274644 0 0.06776723821901591 -0.05327460422323001 0 
-0.0965660890102286 0 0.1124728837263807 0 0 0 
-0.0965660890102286 0 0.1124728837263807 0 0 0 
0 0 0 0 0 0 
0.06751566780932393 0.1541782906773478 -0.1493494101592225 -0.07368191811060673 -0.02512167685856534 -0.008678952400416695 
0 0 0 0 0 0 
0 0 0 0 0 0 
0.05491550126650031 -1.039148233131529 -0.01071714239847791 -1.945617361988373 -1.498580437810651 -1.225347325726316 
-0.07721014281839371 -0.1507558001320511 0.2766971727637077 -0.115524280980109 -0.1773039345580478 -0.03668900795140523 
-0.1136604319793633 -0.0533040908540166 -0.01123012639782245 -0.03435752848777753 0.1247791859561802 -0.01464975495658482 
0.2418265710502776 0.01578352922016787 0.03317993291650276 -0.07930897456983943 -0.05184619978693786 0 
0.02336709880162196 0.2643663600009304 -0.187275194028309 0.02988793741610404 -0.1254489764363718 -0.00832550207615743 
-0.06791158470649213 -0.07207285263745331 -0.1058631681535608 -0.03485058421061595 0.2251639287097016 -0.006381204570982917 
0.06771328148111376 0.05006870119430239 -0.1007610000835261 -0.05197904659460385 -0.03064166521799668 -0.01157039774439597 
0.1423902120430461 0.05714773233601726 -0.140206939283919 -0.05181070994301257 -0.02597145447894462 -0.001972744016737504 
0.1416951095365452 -0.02799927002475237 -0.009816141119701624 -0.05648808088327865 -0.01744288826105114 0 
0.08315822533567518 0.1146864550729181 0.04214931603749857 -0.396269501584992 0.03647603539161642 -0.02893773204879566 
-0.05223079292963641 -0.07776769159424961 0.05151031140323822 -0.05101108173229417 0.1317809638513191 -0.001402288626698295 
0.05679252287059416 0.04688425901265602 -0.1846414151332521 -0.02788777777869874 0.0413499243774902 -0.06051695334043946 
-0.02682963291170979 0.1284271449371577 -0.08053071233147883 -0.037672508280608 -0.007121365683682294 -0.01304736899238359 
0.1003857757795872 0.05955693116465192 -0.02613596095732203 -0.1434862027788116 -0.03961474626209282 -0.0007008356749285371 
0.2813056631392226 -0.001656084792669704 -0.368712660973853 -0.2934838745450841 -0.3048634856531556 -0.1663002711209981 
0.2487852624989749 0.003286668028330538 -0.2000613217799957 -0.1493242165582044 -0.09802904539183815 -0.06199679613663715 
-0.1204883172797056 -0.03209077160497941 0.08377995717100925 -0.005474152865193913 0 -0.03444220820306781 
0.06460169449866238 0.05410716243071877 0.07918982001929138 -0.1377170524538149 -0.02455734697860869 -0.002405761284609751 
0.2656775898707408 -0.1976450372084469 0.004752861357630014 -0.3760093980071415 -0.05570927896696178 0.07039641068279498 
0.3907312842978144 -0.1376617752159195 -0.07043142957129442 -0.1220565607326351 -0.1335730303450427 -0.05483166052005738 
-0.1151008767660573 -0.03531724050022326 0.1527049789457114 -0.002390752792240803 0 0 
0.6749026985034128 -0.1191236727430579 -0.3392422572087195 -0.2746807337304178 -0.08030219912052552 -0.04189359202309215 
0.0958194390645936 -0.09629903674796805 -0.214331253125658 0.2062105586972007 -0.03248541587102922 -0.005787057086277753 
0.7991080473576231 -0.1903608255656649 -0.5324330609835763 -0.0957577611167741 -0.112987745071602 -0.01259397866316028 
-0.1587197416433494 0.0883399359786093 0.06913012507488543 -0.04131897100627709 -0.02095442743926275 -0.02678193554599448 
0.1209987557923071 -0.04194900704377309 1.734723475976807e-18 -0.103084111842438 0 -0.002464973800657311 
-0.2509257267945398 -0.1115912526925657 0.1699868159493459 0.2224120806277916 -0.063329738366522 -0.08043723898819309 
0.09283507317702973 -0.08590147141622918 -0.1242755897320944 -0.01854153618392161 -0.02491446155707192 -0.04737299011081286 
-0.01800847605753923 -0.08462558437983471 -0.02645260029656223 0.0340131984033517 -0.004685598405048692 -0.04449746628603029 
-0.1247202005983092 0.1442872471506471 -0.02547409380964072 -0.0245542013441096 -0.001658985093181118 -0.00275895141860154 
0.01505614776742302 -0.08611211593202639 -0.1912547752793274 0.3543060585629432 -0.05380264500386054 -0.03509955030690622 
0.09746670394328905 -0.06035659361177565 -0.04522519467572732 -0.01819092838584609 0 0 
0.129429683308681 -0.02641508826375637 -0.02961211020552816 -0.03197715264643985 8.673617379884035e-19 0 
-0.1880490122977991 0.07353646054498442 0.1792484558903235 -0.05026608286601209 -0.09312208461282123 -0.002532953476147155 
0.1926746537900231 0.03273182719564117 0.006429207780117152 -0.2002379744599539 -0.0610986616345046 -0.005142992192042545 
-0.1552482749770262 0.07580709383210185 -0.06384603743871231 0.2001779911337253 -0.1685044119130447 0.1954130830324377 
-0.1664146009681622 0.09374988215928624 0.01971404527434356 -0.08664013559401026 -0.1743453143049104 -0.1324537542265243 
-0.08033482008564302 -0.0505335253480032 -0.00344950604831211 0.09852336580001923 -0.004486408529759308 -0.02565027082244464 
-0.6568544149214639 -0.5690076486907741 0.4254871242461265 -0.303845680310993 -0.4612480221501981 -0.4371238322095417 
0 0 0 0 0 0 
0 0 0 0 0 0 
-0.04188075787870216 -0.04574650122553445 0.1052218366515182 -0.05761595286766271 -0.05341229731401001 -0.02976642564699006 
0 0 0 0 0 0 
0 0 0 0 0 0 
0 0 0 0 0 0 
0 0 0 0 0 0 
0 0 0 0 0 0 
0 0 0 0 0 0 
-1.711344327981184 -1.381830776429788 -0.2401607570244946 -0.605707898372665 -0.08221096251777693 -1.278315683330383 
0.02525992915623545 -0.02301029798759971 -0.2618314825530729 -0.1038379777418868 0.3711258759847991 0 
0.06490804298259305 -0.1133741292076294 -0.1967566297172764 -0.1271267171263213 0.325309285887022 0 
-0.6374715238561982 -0.6268888193769159 -0.2566708587834338 -0.4339128586729155 0.1419704239914465 -0.4207875069813419 
-0.0009618614793548419 -0.02147427356427297 -0.03638042260204337 -0.002981892869075119 0.05059308355361208 -0.003835017880219408 
-0.02970137618824563 -0.09661983227831891 -0.1076373319203789 -0.05940512222994199 0.1900613368052659 -0.0001955010391760813 
0.02203670251482476 -0.05700391331439864 0.1648446224106681 0.01195234900183383 -0.1954701222053558 -0.02804319205954679 
0.01113794239865494 -0.1288246753177686 -0.1204881510656279 -0.3836892158240565 0.5496291244641681 -0.01318529929278587 
0.2280468219981805 -0.3564798675995872 -0.3838941477640623 -0.328881688098796 0.9700390546463543 -0.0178350567852679 
0.06033686069190672 -0.304078555949238 -0.00911967875923555 0.0704045285278925 0.2829475538409219 -0.01061242583463574 
-0.0226087266043577 -0.07288543672080551 -0.1280939048476505 0.4850007242881544 -0.2453623645044495 -0.01659298922345252 
0 0.1075343959782629 -0.06400348818254394 -0.01365044024030792 -0.04770855031816214 0 
-0.01196075596530398 -0.02672976593888888 -0.1147208694671485 -0.04315179599261374 0.1559422711868373 0 
-0.2879278922373836 0.343451430226872 0.27763844701563 0.02851681086700234 -0.4030939623313113 -0.01775034433808514 
-0.03386475556818373 0.1209041273934451 -0.1134748958188701 -0.02477801102665667 0.1111909348151972 0 
0 0 0 0 0 0 
-0.05227465153118228 -0.06246262587529348 -0.005212957705892137 0.1827785275745186 -0.09097118534739566 -0.02872830413828117 
0 -0.03342645441910756 -0.04370412168802737 -0.02796646407197195 0.0486818488636603 -0.01440339982226079 
-0.01251675901934687 0.2585772563478836 -0.2035613126140109 0.04066186683025668 0.1651190480818321 -0.02022774293267294 
-0.07116237729865667 -0.0707217074959757 0.3027512989358331 -0.2292831434927644 -0.1562274627643711 -0.05256647089875832 
0 0 0.05712449102613371 -0.03229867880783583 -0.031367710043241 -2.927882354127955e-06 
0 0 0 0 0 0 
0 0 0 0 0 0 
-0.04018633797774292 0.07710002904217038 0.1260132382288277 -0.05628133567511775 -0.1184389788530559 0 
-0.05965923999370926 -0.0583460143155926 0.1873470848973096 -0.06601204410232907 -0.08204632233555 -0.0172179974302639 
0.06530104132996949 -0.02505592371776234 0 -0.001622646255042819 -0.03444100019843335 0 
-0.2866209735013317 -0.07143160953137963 -0.3564143689861538 0.4981769289879293 0.05129716408850907 -0.02425824294647466 
-0.0353310523477995 -0.03608320859593616 0.2038351360532578 -0.08254569331463479 -0.03140424367866234 0 
0 0 0 0 0 0 
0 0 0 0 0 0 
0 0 0 0 0 0 
0 0 0 0 0 0 
0.2553684022531921 -0.1854479217153282 -0.05462714861221012 -0.5253752428667207 -0.1037477507075579 -0.2057422413912607 
-1.084202172485504e-19 0.1032380980980115 -0.02670112171179053 -0.01291047878333771 -0.09046504287869286 -0.002035449667317694 
-0.03862482161782503 -0.02254833204880208 0.01528174444324065 0.1240233963834669 -0.1154027721128253 -0.02875979554747512 
0.08326234675733514 -0.005565901050688823 0.09145663329417039 -0.1403177585732279 -0.1429426848750087 -0.02966934971113646 
0 0 0 0 0 0 
0 0 0 0 0 0 
0.1219164698687995 -0.005195985196379612 -0.1189549323039665 -0.03824863637514638 0.04829565793282743 0 
0.1548058967410336 0 -0.1761605071291627 -0.01755476479610714 0 -0.00129608501154023 
-0.1784334323345944 0.06961478054567478 -0.05144406864082685 0.06722712784837326 -0.0904266395595944 -0.08311932545529382 
-0.07845150772001815 -0.1549143896746704 0.02456761985102204 0.167785008014418 0.01725989580776578 -0.04445403639279478 
0 0 0.07505264795812386 -0.0385466255867768 -0.009173219334877757 0 
-0.2464740361454834 -0.05667050738092596 0.1426321165616541 -0.1604588856336026 0.2004937347872748 -0.02917987725103867 
-0.03782967338262687 -0.005341120815356272 -0.04854822055479997 0.1554332092737088 0 0 
-0.07463891728434872 -0.007831505089723885 0.05065654672294961 -0.1643345558292042 0.2968937384303621 0 
-0.04432976872164133 -0.118983287864418 0.003492985004571962 0.1952412349051814 -0.08742976322032289 -0.03994849715746623 
-1.237374190329428 -1.025169709357762 0.2711365937536944 -1.019008023824128 -0.9497688791621757 -1.283788104227356 
-0.006875857971881552 -0.0494919797161055 -0.07156306520724848 0.150720602642827 -0.05662849472646375 0 
0 -0.03126583542150906 -0.1127870779372003 0.1809606002695053 -0.03114280716018082 0 
-0.1511714962027753 -0.2615586715238011 -0.08103661871627688 -0.2216099083283275 0.2037419058177904 -0.1204062559079522 
-0.06945713962412813 -0.01246410198036721 0.06990636943737921 0 0 0 
-0.02401623623610328 -0.09447088243670876 0.1641829587780833 -0.034056007760861 -0.03825561633063393 -0.001788782894542551 
0.1151113908482871 0.01226039348856592 -0.3945476285317728 -0.105014044212131 0.3550888987130235 -0.001897363597677272 
-0.2199962056067509 0.07429325267243743 0.3960385410741407 -0.09090081555127587 -0.19621422794455 -0.01382245352142994 
-0.06203514785946793 -0.3757275004167961 -0.2555180281531743 0.4701916736575636 0.05970269217029842 -0.02035353008783291 
-0.01390365954820523 -0.03597566537101803 0.03299523712340083 0 -0.02857954275812363 -0.001512916355078215 
-0.09074357113724674 -0.06270926371390421 0.3343412031405927 -0.1417404123597671 -0.1230443200755843 -0.04026587761548522 
0 0 0 0 0 0 
-0.327399072265758 -0.1181708037740182 0.3608339788726807 0.2079294529797534 -0.1858710470177247 -0.03438415686613235 
0.06764256261907667 -0.001752674737186091 0.008566865894765532 -0.05182332287354766 -0.01745211549944181 0 
-0.02564055997483257 -0.01718695438994484 0.03097610244439764 -0.002422110069123618 0 -0.01190029979502133 
-9.258780633607022e-05 -0.03497511392175333 0.07061440090566784 -0.1378246430330654 0.1367025633121389 0 
-0.08755530819264216 -0.03120844640070028 0.126507898710282 -0.002418361845487961 -0.01036188966773303 0 
0 0 0 0 0 0 
0 0 0 0 0 0 
-0.07812814841533718 -0.01771987427263393 0.1249904014020651 -0.005240289323574177 0 0 
0 0 0 0 0 0 
0 0 0 0 0 0 
0 0 0 0 0 0 
-0.02191357273144503 -0.0453896817617441 0.08950664800765594 -0.03919421812646006 -0.05764378986446689 -0.01999426646074549 
0 0 0 0 0 0 
0 0 0 0 0 0 
0 0 0 0 0 0 
0 0 0 0 0 0 
0 0 0 0 0 0 
0 0 0 0 0 0 
0 0 0 0 0 0 
0 0 0 0 0 0 
0 0 0 0 0 0 
0 0 0 0 0 0 
0 0 0 0 0 0 
0 0 0 0 0 0 
0 0 0 0 0 0 
0 0 0 0 0 0 
0.05808003491225419 -0.05020066375751191 0.004941507448360944 -0.06250599441460603 0 -0.01238795416584279 
0 0 0 0 0 0 
0 0 0 0 0 0 
0.09598343967405269 -0.02772151958877381 0.03946560501391676 -0.09053323280885457 1.084202172485504e-19 0 
-0.4330210833693598 -0.2027993091415551 0.1026469905422763 0.419212344373614 -0.1121852616138345 -0.02023809150601123 
-0.07938132991997475 -0.02392010614265416 -0.1041985306401259 -0.02028230066083556 0.001507503233445022 -0.06908272423187013 
0 0 0 0 0 0 
0 0 0 0 0 0 
-0.01359379666951084 -0.08710395331400819 0.06697375889613844 -0.05976232197051212 -0.05005962822604393 -0.05317312064309145 
0.1086027984214843 -0.04338605309659192 0.1542655866824719 -0.14213952837652 0.1190153586477099 0 
0 0 0 0 0 0 
0.23900585214951 -0.01077576337879848 -0.07655338525642943 -0.1191290013052891 -0.003333015835229275 0 
0.02538458510901178 0.1424900073719341 -0.315417546594847 0.2819404662909225 -0.08141673567196901 0 
0 0 0 0 0 0 
0 0 0 0 0 0 
-0.03159847603189824 -0.02496297808804579 0.1100629800171901 -0.05536019606798446 0 0 
0 0 0 0 0 0 
0 0 0 0 0 0 
0 0 0 0 0 0 
0 0 0 0 0 0 
0 0 0 0 0 0 
1.707665394855594 -0.5574597249842916 -0.9583553099501531 -0.7116815025355012 -0.2873752834995194 -0.1181326318988592 
0 0 0 0 0 0 
-0.4315255404895866 0.06580827510138122 -0.1836838170567824 0.6038511686147205 -0.1511398479320322 -0.01946246826775434 
0 0 0 0 0 0 
0 0 0 0 0 0 
0 0 0 0 0 0 
0 0 0 0 0 0 
-0.08830029040097634 -0.1086915308112806 0.2336676977819648 0.02663505824895546 -0.04649996008104534 0 
0 0 0 0 0 0 
-0.107282162600958 0.03639968889708653 0.1562700557423936 -0.05931120438074681 -0.01565777217437548 -0.01062272018115003 
0.02852594303100023 -0.03355546053836512 -0.05490985533492572 -0.0527895197370772 0.1336801459169032 0 
0 0 0 0 0 0 
0 0 0 0 0 0 
0 0 0 0 0 0 
0.09256984345514142 -0.1144865306576335 -0.05842638982873247 -0.07855995284091336 0.2350277393267776 0 
0 0 0 0 0 0 
0 0 0 0 0 0 
0 0 0 0 0 0 
0 0 0 0 0 0 
0 0 0 0 0 0 
0 0 0 0 0 0 
0 0 0 0 0 0 
0 0 0 0 0 0 
0 0 0 0 0 0 
0 0 0 0 0 0 
0 0 0 0 0 0 
-0.0507797289634537 -0.03021422811017187 0.07621415459515515 -0.1114626249984757 0.1416078606615834 0 
0 0 0 0 0 0 
0 0 0 0 0 0 
-0.1428343605601494 0.006325611747341124 0.00969221828275133 0.07010489742723945 -0.1504958229556267 -0.08185770569067143 
-0.2696108957623265 -0.02931321120560761 -0.06097283372731241 0.1363937410137774 0.1242042820226561 -0.03106700093574237 
-0.07002642713310948 0.2475579331233847 -0.1246565340785831 -0.05551698771629601 -0.07656933033847305 -0.02302177287301926 
-0.01016517520986151 -0.01374514609070742 0.01781640794996671 -0.00173514758991239 0 0 
0 0 0 0 0 0 
0 0 0 0 0 0 
-0.02943752185258312 0.3368327685453613 -0.1336460375177459 -0.02178130781101027 -0.2035853745773147 0 
0 0 0 0 0 0 
-0.330365349243971 0.1986758885579843 -0.4179243476129991 0.5518758550308493 -0.01345720715772045 -0.0008102380728679326 
0 0 0 0 0 0 
0 0 0 0 0 0 
0.08677227164488646 0 -0.120857093679081 0 0 -0.01042682977542346 
0 0 0 0 0 0 
0 0 0 0 0 0 
0 0 0 0 0 0 
-0.02038350507310521 -0.04081012623497834 0.1014714439448424 -0.03338002500957354 -0.08530725978144124 0 
-0.02031895689922681 -0.03243808476103433 -0.1751103890570995 -0.08012888135028808 0.2936738807637826 0 
0 0 0 0 0 0 
-0.1005704401964651 0.3678215616013961 -0.3393178860267949 0.4683300717512555 -0.2598156917006904 -0.001034923855673944 
0 0 0 0 0 0 
0.1328403984413093 0.0396999100070566 -0.03142104506254777 -0.1212031227034976 -0.053521851712768 0.1561780923335817 
0.1002686795562657 -0.1344850384938549 -0.1588257250575391 0.1734810756876572 0.002340763626526356 -0.00770369523472764 
0 0 0 0 0 0 
0 0 0 0 0 0 
-0.04536054405212147 -0.04268564851806458 0.05246908590874128 -0.02844206303235519 -0.1157971722409062 -0.03198501891343686 
0 0 0 0 0 0 
-0.1273137691168912 -0.2143287026009842 -0.2641797591946129 -0.01792163858763905 0.3166467452296168 -0.05930603672701027 
-0.01451214884108549 0 -0.008132441205849338 0.07239283676366506 -0.002558233973960121 0 
2.595571628130932 -0.136346369695053 -0.6033010309178848 -1.172402132354363 -1.274103436136611 -0.0637060908959344 
0 0 0 0 0 0 
-0.1834816655705268 0.2326895982666024 -0.05552786895196079 0.20526624115043 -0.1914584019225431 -0.002854766184248149 
-0.1260693927442678 -0.0233723281560584 0.002672128171264175 0.1400811780731017 0.02524070752602355 -0.001099520251112207 
0.09036885571097351 -0.02231599395311009 -0.09319142007623654 -0.02631300149183086 0.06709349318039452 0 
-0.02021855933985875 0.1536717437987905 -0.02376015828723477 -0.004732483341065841 -0.006402082229101589 0 
0 0 0 0 0 0 
0.06227394929502964 -0.04942840796986987 0.118688432813018 -0.1959329159683956 -0.004782331645811879 -0.02101344832876709 
-0.005807776591570758 -0.01767883295945402 0.06632312703170817 -0.03743604415145345 -0.0518888389287246 -0.00600921715389499 
-0.06440135018385998 -0.0666634759065575 0.2471730195796229 -0.1031262943681302 -0.1036355860387022 -0.03073143455294249 
0.05379859790963392 -0.07557860401654216 0.1707239305914232 -0.07413214257233049 -0.06484749150079752 -0.01170540213290182 
-0.2033071307892877 0.04797631354578363 0.05875990586230927 0.05145695634013097 -0.1791443693491551 0.1117488946265537 
-0.1886866927124973 -0.2111216680367248 0.2220304313476348 0.04644693331202556 0.009861831634518271 -0.0380299422629573 
0 0 0 0 0 0 
0 -0.008167097396396332 0.1092760564453116 -0.03651279959965414 -0.06065865192379549 0 
-0.1535550539902116 0.03178991927542622 -0.06559757118298493 -0.2309003369852916 -0.003688276275575112 -0.06331636721924586 
0 0 0 0 0 0 
0 0 0 0 0 0 
-0.01470706564187928 -0.03822363178476803 0.0311212854739291 0.00776927899089544 0.0124662622426161 -0.007287711915568358 
-0.06318993281008063 -0.019542578271937 0.3056783569063437 -0.1015373524642304 -0.149572731149865 0 
-0.05916933267458767 0.1102619681289203 -0.1533379690445419 0.0473638563108924 0.02472043009260143 -0.05239609235419416 
0 0 0 0 0 0 
0 0 0 0 0 0 
-0.09146457808799989 -0.05083282793524295 0.08769169726312527 0.004896321334976667 0.01154626204128397 -0.03142575383969888 
-0.07976629716876506 0.08131199780049524 -0.02986242100813377 -0.004582324148132893 0.05968536069223485 -0.01187836327754832 
-0.2352770476337471 -0.117655650608425 0.2543405983522026 0.1519295976860298 -0.1172572027610655 -0.01783158858065251 
0.01724479792320147 0.153187414231307 -0.1053586809478301 -0.04885407716678079 -0.007494627142395 -0.001539556007065469 
0.1641589004406121 0.1457326078403672 -0.01729266077621824 -0.1123085238850056 -0.08201302849106365 -0.004596603628942791 
-0.02361278911302769 -0.007807485440543264 -0.1547981900931105 0.1113828604690094 0.07583965039337626 0 
-0.3191963975377577 0.2876025288066514 -0.2690969476842578 0.4709894421591529 -0.2535019427455549 -0.01670356611022006 
0.1779687651538071 -0.007640310180121491 -0.4327737362481664 0.1229054861038801 0.3282178749266779 -0.005111619276124761 
0 0 0 0 0 0 
0.07463987502434623 -0.04579686903141 -0.2764988278195538 0.03561677389450675 -0.008799322151544655 0.1882177835250505 
-0.005295396633421029 -0.009518975281906981 -0.09483374123624158 -0.001689978573315601 0.09013514359712106 0 
-0.1812274678441871 0.7633469393137795 -0.4781774135031299 0.6779257105194925 -0.904153472346607 -0.0363640191666687 
-0.006077780248761594 -0.08352708569981995 -0.1310051224136818 0.04635243962245456 0.0406866581350297 -0.03267699643741219 
0.05155328621248118 -0.02888073438566539 0.0616148249288538 -0.03013913489314238 -0.01826809258356039 -0.003440505038508349 
0.06514675629316 -0.01804522969700318 0.02856690212182992 -0.02006216784218319 -0.01826809258356039 -0.003440505038508349 
0 0 0 0 0 0 
0 0 0 0 0 0 
0 0 0 0 0 0 
0.1172392398643904 -0.01799972448510847 0.03506994838962003 -0.03035398989633039 -0.1117260881933533 -0.01030151707491444 
0.008355730620144565 -0.07926646089517869 -0.313640007280835 0.07230054374615645 -0.2792155379917348 -0.2729298154078546 
0.1732609152028564 -0.1489231611734075 0.1088897068153399 -0.09597509493623366 -0.03751861121601679 -0.002483745113053144 
8.673617379884035e-19 -0.02741437847077397 0.106823596226046 -0.01899631893122428 -0.0477404017161444 0 
-0.0691801247074446 -0.03481276724581093 0.3049227047804105 -0.1026065847100288 -0.0497643735399305 -0.005045798205772874 
-0.2474813709624941 0.2143015195187604 -0.08518589015843091 -0.1211882052385957 0.09751072645995112 -0.05950788824860454 
-0.09076853654347439 -0.07533461989032376 0.1819978945994921 -0.0214955584534105 -0.0527335668005785 0 
-0.3868844653475322 0.02293335952612088 0.190042830530092 -0.05401118056695189 -0.05317642639288399 -0.1007667292276034 
-0.07611745978778406 -0.01179685809041959 -0.05751230188416086 0.1653797643672877 -0.01999857401119608 0 
0.1434851816258357 -0.08678181757764535 -0.2342194535345487 -0.0187676639321029 0.1255021690693514 -0.01917376843042881 
0.1101732615526914 0.4182585266607071 -0.2752627479392621 -0.1450055613859676 -0.003201678450238937 -0.009170681229671929 
0.1571138888908645 -0.04057453354762502 -0.004803776062575537 -0.05758488170749706 -0.03995233063507432 -0.004840256017343885 
0.1380553382548604 -0.05361700203956931 -0.1093668780627202 0.01433010701022529 -0.03689888151662022 -0.004467989332280445 
0.03800760656183197 -0.07324019123736095 -0.07425941037787193 0.08379441124920829 0.08661391587232721 0 
0.1089377712674074 -0.3907525644612798 0.04738441351052407 -0.4224236898123273 -0.3737022668639009 -0.3350593441019666 
0.2785620856059675 -0.09250853153062891 -0.2176484597338502 -0.08191793738916452 -0.0556391203464951 -0.05389248838366169 
0 0 0 0 0 0 
-0.1614785956296699 -0.02824595175308296 0.00319787126912131 -0.04848341918064573 0.1934548983958913 -0.03995379531954253 
-0.05203339711983367 -0.04967504159287279 0.1639679338675946 -0.06748455341678007 -0.1617174292215418 -0.03391808950390875 
-0.02949525436591353 -0.0682020178671415 0.1381396924521761 -0.05933027789143578 -0.01095946459825601 -0.0009143446112662393 
0.2651191284050665 -0.02839278667334998 -0.2384804786085794 -0.06112790200731813 0 -0.004263602615632158 
-0.2622252857845667 0.01907272249931161 0.1136013921595299 0.07065097256259145 -0.04681822596956644 -0.01082465029596564 
0.6828900023603172 -0.1174521451165144 -0.4057119862931699 -0.06226715604109056 -0.03831449547373167 0 
0.004971748366605866 -0.04431098886080545 -0.05900426510927528 -0.07476513699789106 0.2277775544921362 -0.002788779611347394 
0.0256239938396554 -0.09551204941403078 0.333295547695592 -0.07412927257638266 -0.2662287521933843 -0.03177044572565445 
0 0 0 0 0 0 
0 0 0 0 0 0 
0 0 0 0 0 0 
0 0 0 0 0 0 
0 0 0 0 0 0 
-0.3349163499299723 0.2693677154017103 0.07122591360094913 0.3939634323851336 -0.5850239095388773 -0.06199033466625599 
-0.2199030060896179 -0.09055426789187358 0.032899137621999 0.5390849008045498 -0.3852257678673265 -0.03434825131775206 
0.07301041379679159 0.08710475908217757 -0.1950696220568572 0.1501667581051082 -0.05177955307962134 0 
-0.1933243225157484 -0.03214794799097929 -0.1789298539512246 0.3170763165130354 -0.004529530605772864 -0.001760462537937065 
-0.0904325778648838 -0.07949099543664793 0.2126952843557669 0.1567819990927823 -0.2579158197541648 -0.01645614975206369 
-0.04090209544871926 -0.01046504435501593 -0.1145437601355404 0.3162436233856699 -0.08932142533488789 -0.007209937837451096 
-0.0485407571735968 -0.01178173090989878 -0.08271944510227104 0.1486694496909493 0 0 
0.04504957456315675 -0.04954795580315323 0.06620042281501304 -0.1210493010903666 -0.06143062847689685 -0.0619293139917089 
-0.01540915567791216 -0.02254833204880208 0.03230808043744497 -0.0379484482378014 -0.03712406254268346 -0.02875979554747512 
0 0 0 0 0 0 
0.2393287669493933 -0.06784593634473694 0.1006308192305318 -0.1350143570974355 -0.1218275624811071 -0.01580835483377523 
-0.05066859220936406 0 0.0396283930300441 0 0 0 
0 0 0 0 0 0 
0.113596288976252 0.01567800900205929 -0.1167263725453691 0.03846591294176448 -0.2850224423908196 -0.1039372146276354 
-0.07977727610871065 0.1173277679741514 -0.2150724454398484 0.149975423334217 -0.009299287015722395 0 
-0.003374101844035768 -0.1368174905427542 0.09783168837011226 0.09806216891516981 -0.181567499313672 -0.0288154962000142 
-0.04374971705569139 0.06721705831686484 -0.0508311130767581 0.1085973456331071 -0.06820052052047677 0 
0 0 0 0 0 0 
0.06990083047516618 -0.02745141189413923 0 -0.04598354549051368 0 0 
0.02749239302565018 -0.006355393353482522 0.03708173498242148 -0.06103132011851935 -0.01523554681073769 0 
-0.04580724503934363 -0.01876330478947042 0.03742035719183945 0 0 0 
-0.3731622784193241 -0.4932795829811715 0.5946572093035795 -0.03326047686780644 -0.1134786294738205 -0.1208153343124005 
0 0 0 0 0 0 
0.0843920790758504 -0.04118264975220147 -0.110205213414176 0.01302671209604911 0.1259574442596209 0 
-0.05522988113907306 0.02844883783698167 0.1198855632618801 -0.103932135423352 -0.1244773777532496 -0.03456423754988212 
-0.150649618245866 -0.03160967513473333 -0.1539201041512403 0.1765360749180795 0.07368904943333056 -0.007199616139122018 
-0.1300563018308586 0.03807810044480486 0.01737365223032825 -0.05039369548995754 0.1452036842116254 2.168404344971009e-19 
0.04456342340054068 -0.01230888282012903 -0.001585719610552023 -0.04529404012322774 0.03494891214627469 -0.00523200557755446 
0 0 0 0 0 0 
0 0 0 0 0 0 
0 0 0 0 0 0 
0.2786636957743053 -0.08435452090474227 -0.1567782560541986 -0.1343798833525254 -0.02550320650155499 -0.01452614977920079 
0.09869383005222027 0.1366924614476245 -0.1081644035985767 -0.03710800474142861 -0.05681036519101944 0 
0 -0.0388399330143732 0.02157990259711071 0 0 0 
0 0 0 0 0 0 
-0.07127762903410552 -0.06939910834039405 0.1114928613326915 -0.04625444494138841 0.02004192939367348 -0.01796283524978484 
0 0 0 0 0 0 
0 0 0 0 0 0 
0 0 0 0 0 0 
0 0 0 0 0 0 
0 0 0 0 0 0 
0 0 0 0 0 0 
-0.1332605607454497 -0.07523274640498777 0.1676341789537552 -0.07093691145400502 -0.06810900165179767 -0.06192628370914755 
0 0 0 0 0 0 
0 0 0 0 0 0 
-0.04397498957546458 -0.1365375138651129 0.09041246689433499 -0.04033874412658605 -0.1395765319950449 -0.06412106916368887 
0.2739150447670747 -0.07874167753432364 -0.1493635226312727 -0.08582563597152952 -0.02423816332206522 -0.004990209206290759 
-0.1574631206608595 -0.1665668663793071 0.2237015663222546 -0.05512194187105059 -0.04324163617000713 -0.07997584251452525 
-0.009253153099150558 -0.01224370115779453 0.0530605422286132 -0.0006693059437064832 -0.05835654695680458 0 
-0.009253153099150558 -0.01224370115779453 0.0530605422286132 -0.0006693059437064832 -0.05835654695680458 0 
0 0 0 0 0 0 
0 0 0 0 0 0 
0 0 0 0 0 0 
0 0 0 0 0 0 
-0.07901139685861003 -0.01292011107056072 0.03550701508792506 -0.0231968422066471 -0.03188647126107225 -0.0005707065758677134 
0 0 0 0 0 0 
0 0 0 0 0 0 
0 0 0 0 0 0 
0 0 0 0 0 0 
0 0 0 0 0 0 
0 0 0 0 0 0 
0 0 0 0 0 0 
0 0 0 0 0 0 
0 0 0 0 0 0 
0 0 0 0 0 0 
0 0 0 0 0 0 
0.03290223824561982 -0.09163181839472 0.05495040120241096 -0.0295962103856528 0.102474142354479 0 
-0.04652346129720084 -0.008821290408695941 -0.02137468305412061 0 0.1519700062344193 0 
-0.02741696569932047 0 0 0.106509544852067 1.734723475976807e-18 0 
0.0451752788829503 -0.02505592371776234 0.06725881852654197 -0.0441294974583153 -0.03444100019843335 0 
0 0 0 0 0 0 
0 0 0 0 0 0 
0 0 0 0 0 0 
0.0156440807807448 -0.1645239627354357 0.306193705220184 -0.2074111785899027 -0.1385006548826532 -0.06828704147370815 
0.08972624109346344 -0.1419183420366729 -0.04359908128092618 -0.009831833463465851 0.03642784267784756 -0.006321132290016049 
0 0 0 0 0 0 
0.07609315345960074 -0.04228909375694868 0 -0.05009975750264593 0 0 
0 0 0 0 0 0 
-0.1014945940096736 -0.02254833204880208 0.01654650605946605 0.09314325274901042 -0.03712406254268346 -0.02875979554747512 
-0.01540915567791216 -0.02254833204880208 0.03230808043744497 -0.0379484482378014 -0.03712406254268346 -0.02875979554747512 
0 0 0 0 0 0 
0 0 0 0 0 0 
-0.0222540166566802 -0.04389586614910779 0.04259729392602159 -0.01485760040768392 -0.03109214700335346 -0.01732876682497794 
0 0 0 0 0 0 
0 0 0 0 0 0 
0 0 0 0 0 0 
-0.05818323803999624 -0.0546321160458936 0 0.1234828527942123 -0.04912257849333566 0 
0 0 0 0 0 0 
-0.1762244334518293 0.04964851240175455 0.1945067756566076 0.03636141540511384 -0.1456977947469698 -0.01048490022987933 
-0.007267005307129004 -0.01361684869872201 0.07076101050691942 -0.02966476933797912 -0.01036188966773303 0 
-0.0004924772779471759 -0.04751561984224226 0.2586375861549842 -0.05553186373600107 -0.2234895727336016 -0.01082783124823661 
0 0 0 0 0 0 
-0.01519915810985913 0 0.09103554779040471 -0.03318533798660098 -0.01706020604228498 0 
0 0 0 0 0 0 
0 0 0 0 0 0 
0 0 0 0 0 0 
0 0 0 0 0 0 
0 0 0 0 0 0 
0 0 0 0 0 0 
0 0 0 0 0 0 
0 0 0 0 0 0 
0 0 0 0 0 0 
0 0 0 0 0 0 
0 0 0 0 0 0 
0 0 0 0 0 0 
-0.02512904960947342 -0.04529113832840926 0.1193817422000953 -0.05456267186239683 -0.05240121850272717 -0.01833564891675619 
0 0 0 0 0 0 
0 0 0 0 0 0 
0 0 0 0 0 0 
0.3541435732089514 0.1425653120505044 -0.2474084590870912 -0.2514077704486023 -0.03057323743450659 -0.06215086115453942 
0 0 0 0 0 0 
-0.071710388665326 0.0877673925431805 0.03939092477281295 -0.01959173479947997 -0.01603078391645369 0 
0 0 0 0 0 0 
0 0 0 0 0 0 
0.0044898656102862 -0.09602406356748462 0.03762382048464957 -0.0631403376825158 0.02698155551196648 -0.02330579032736129 
0 0 0 0 0 0 
0.008054243046781231 -0.03116122832424762 0.01981831720348549 -0.007433506895271809 -0.0217002933516938 -0.008902390505100504 
0 0 0 0 0 0 
0 0 0 0 0 0 
-0.01246117566105833 0 0.03400930935037392 -0.03609012151880742 -0.03425520260609899 -0.01833564891675619 
0 0 0 0 0 0 
0 0 0 0 0 0 
-0.06337594574344591 -0.03423866165984776 0.1686582449676984 -0.04561366260195384 -0.04911030390386047 0 
-0.1059893540498575 0.08619251829808054 0.05868831135871854 -0.02924855125004877 -0.03548700831942223 -0.01059975616970877 
-0.04208542556677296 -0.04465591147828374 0.04362516652168709 -0.01747941021358151 0 -0.01697532606551828 
-0.05673639954133401 0.1314051612174971 -0.04045907821266744 -0.08216311745427841 0 -0.009956082808839606 
0.1096180811533461 -0.0453896817617441 -0.02730090371428933 -0.03919421812646006 -0.05764378986446689 -0.01999426646074549 
0 0 0 0 0 0 
0 0 0 0 0 0 
0 0 0 0 0 0 
0 0 0 0 0 0 
0 0 0 0 0 0 
0 0 0 0 0 0 
0 0 0 0 0 0 
-0.1845468130477821 0.09184510386518789 0.07742867925394741 -0.04936692108275204 0.1759631948989098 -3.469446951953614e-18 
0 0 0 0 0 0 
0 0 0 0 0 0 
0 0 0 0 0 0 
0 0 0 0 0 0 
0 0 0 0 0 0 
-0.0003495311761287864 -0.04292268973662985 0.02637549304480266 -0.001933286927359919 0 -0.007586331413555412 
0 0 0 0 0 0 
-0.0117534695674365 0 0.0680855527476817 -0.003755605492147041 -0.04074566862139492 0 
0.05522598650193817 -0.01889729786146206 0.03802940953371543 -0.04211763629800236 0 0 
0 0 0 0 0 0 
0 0 0 0 0 0 
0 0 0 0 0 0 
-0.1492060940177637 -0.1252971731001677 0.05370681489183102 0.156578823494971 0.0927779918443624 -0.02134442647857299 
0.02016921616631011 0.07192733229731936 0.00516137782714152 -0.08982684011627126 -0.0637863624286493 -0.01686286054453326 
0 0 0 0 0 0 
0.1120128520343306 0.09412351629369982 -0.1460379591766542 -0.03969942540017206 -0.04598749571913865 -0.002124410292418069 
0 0 0 0 0 0 
0 0 0 0 0 0 
0 0 0 0 0 0 
0 0 0 0 0 0 
0 0 0 0 0 0 
0 0 0 0 0 0 
0.08849708182695303 0 -0.09515783434678629 -0.00851019329969685 0 -0.01098612462840187 
-0.02540048873903721 0.3616620626406324 -0.2660466582978269 -0.2372556791747113 -0.03954858534571756 -0.1079064169014273 
0 0 0 0 0 0 
0 0 0 0 0 0 
0 0 0 0 0 0 
0 0 0 0 0 0 
-0.06574001569725647 -0.05774876727096259 0.1888861006005692 -0.1211055685549521 0.04340350069270937 -0.005110049115010904 
-0.05236148422058568 -0.1661902746652559 0.04123504346834742 0.01105920084345011 0.002718326983626802 -0.01414940337317307 
0.2404720669605306 -0.07113317179744581 -0.01436702990953266 -0.1576365373295979 -0.1048642885419236 -0.02874545582547768 
0 0 0 0 0 0 
0 0 0 0 0 0 
-0.04064994610214826 -0.1351361154710899 -0.03547871265247793 0.1461345128891673 0.03039815125649337 0 
-0.1439639104609158 -0.0415187166203252 0.1232469566714106 -0.02954382963255496 0.1061417510555715 -0.0009176157252270511 
-0.5102493057179109 -0.06648149118806529 0.1900086503856891 0.203883851841254 -0.02480699041200062 -0.04691553737336589 
0.0196461500808369 0 0 -0.03707092860511463 0 -0.002145237867545354 
-0.06037154032579581 0.01527005096257136 0.06445277479238851 -0.07478833392868785 0.01426375249235645 -0.03411955389994569 
-0.1847189455130886 -0.02798134135583149 0.1515509796142815 0.1006528753562909 -0.07733091493583992 -0.003063870819156398 
-0.1770507266400179 -0.1898944951162468 0.3988674330914651 -0.1463313321420456 -0.06078639659805347 -0.04823291008737162 
0 0 0 0 0 0 
0 0 0 0 0 0 
0 0 0 0 0 0 
0 0 0 0 0 0 
0 0 0 0 0 0 
0 0 0 0 0 0 
0 0 0 0 0 0 
0 0 0 0 0 0 
0 0 0 0 0 0 
0.1653857175522688 -0.05010475093206364 -0.06806032916163068 -0.104330571338387 0 -0.01059975616970877 
-0.007071515530051098 -0.02606372743055353 0.03424887428303065 0 0 0 
0 0 0 0 0 0 
-0.01835964608064265 0.1023126322699357 -0.01662808372944333 -0.03853168111394395 -0.01320438102791242 0 
0.07782655388194966 -0.08318699290416683 -0.005231959182326355 -0.1167712827844722 0.02862661833220592 -0.04061518418862668 
-0.2858888824087712 -0.3333165508877501 0.1547158175937836 -0.03899755492727582 0.1090248456094824 -0.0916703720631538 
0 0 -0.04603292302276715 0.08931956270762141 0 0 
0 0 0 0 0 0 
0 0 0 0 0 0 
0 0 0 0 0 0 
0 0 0 0 0 0 
0 0 0 0 0 0 
0 0 0 0 0 0 
-0.1071838022488355 -0.05863971164261227 0.01375464116385961 0.09411325410760432 -0.01228508353089923 -0.002938816403810104 
-0.04850287967157124 0.04266192422340784 0.1864073371858724 -0.07537697062639229 -0.09966976154269158 0 
-0.04927220075776994 -0.2739079678907451 0.1966110798803004 -0.1229021790155742 0.02654448741627146 -0.06650698876715204 
-0.154966664075687 -0.05993897288587684 0.2425613806525366 -0.08668646778852448 -0.02718847591412164 -0.002249240115799905 
-0.2707942654894357 -0.08422430231106443 -0.1040056822677579 0.4090357140688564 -0.01937875919341685 -0.05630019387754894 
0.1885233743160533 -0.06065338379286066 -0.04041780470179842 0.003409014693224487 -0.002941612669595965 -0.0007508595792477902 
-0.375557119351342 -0.3706691610854027 0.3171740021026115 -0.3673466659237549 0.09741272893681376 -0.297849915945942 
-0.1084207585456513 0.04501917253324473 -0.03184304066962985 0.1237232518345197 0.07879718092502805 -0.01282544376266706 
-0.277872226447891 -0.08436075172331607 0.1149506894806365 0.02318416694449711 -0.07591558827803999 -0.05706343654862964 
-0.02549804709919722 -0.05087840849643606 0.0168426655327744 -0.06151752384424484 0.1492591581870135 0 
0.1255848564025902 -0.1313877294281098 -0.2382927036958705 -0.1583485437501681 0.2975838497181158 -0.06421270967045098 
0.1239398924102716 -0.01654577606343915 0 -0.01013955216418873 -0.12398403911784 0 
-0.1554961024366147 -0.1671144879281756 0.401377774486676 -0.1296474771320713 -0.08669730873516272 -0.08517099396115116 
0.08061979309235161 0.122052235515113 -0.2099942896805354 0.1534572071010836 -0.1594044298453158 -0.05289696311881128 
-0.05185536301421748 0.01873138171825291 0.1054148728984986 -0.09866712064798007 0.01175841648396522 -0.02987633705730678 
-0.1910328176377251 -0.259277692341995 -0.076448844319014 0.6291055074871579 -0.6866038546363912 -0.1030646713229561 
-0.1679408454556514 -0.1268250666325948 -0.1334644682503725 0.4800718488581522 -0.1890961254843939 -0.003577363304041376 
-0.1335478373480799 0.2253572399899411 -0.2568601179086825 0.00159860421865518 -0.06812418770749465 -0.07383996802610675 
0 0 0 0 0 0 
0 0 0 0 0 0 
-0.2329872243238409 -0.07505153881519337 0.3100367687873467 -0.02845710985879851 -0.03106449693312968 -0.0361898367263175 
0 0 0 0 0 0 
0 0 0 0 0 0 
0 0 0 0 0 0 
0 0 0 0 0 0 
0.1213064590823053 -0.007247285526741984 -0.05942999776576892 -0.02705600280263266 0 0 
0 0 -0.1588741504490692 -0.02313578837923034 0.1826082228430158 0 
0 0 0 0 0 0 
-0.2649663168990197 -0.1332199137835682 -0.1513276716368114 0.1018820306763149 0.1768038189190537 -0.1297047947484007 
-0.02531508985818548 -0.01366246887446157 -0.02823424687985168 0.08615435413401558 -0.01200931527159951 0 
0 0 0 0 0 0 
0 0 0 0 0 0 
0 0 0 0 0 0 
-0.2602032322799581 0.1128082368365212 -0.01642622984209793 -0.02081819184944 0.2114344026605549 -0.01221576472346399 
0 0 0 0 0 0 
0 0 0 0 0 0 
0 0 0 0 0 0 
-0.1719285224024177 -0.002803446944734712 0.237139643134968 0.01118512131972865 -0.2716033856496283 -0.07615241698079291 
-0.3124372103425375 0.026613583745707 0.3503881428598268 -0.143489782189362 -0.202254349011929 -0.07178867266315987 
0 0 0 0 0 0 
0.0286403570443693 -0.1277384714762747 -0.01719397245260279 -0.1109704161568558 0.04733103666179993 -0.07111443868797361 
0.2242919979365235 -0.1111460989414279 -0.3735180725263529 -0.02041121372105637 0.06175891680572723 -0.05569390908870502 
0 0 0 0 0 0 
-0.0753398181216349 -0.09303818594384919 0.3176731416736379 -0.1034829251955346 -0.1609383596915848 -0.01564099453817941 
0.06396349425822581 -0.06910308934320128 -0.251975801653159 0.242045632369413 -0.02263484061188337 -0.0005793787195946106 
0.04415455567961867 -0.07478660047966784 -0.03520346526211898 -0.07450211313011706 0.133231110519112 -0.004263602615632158 
0.03365534945857804 -0.04191182853599103 -0.04459048774170286 -0.06770429535265546 0.133231110519112 0 
0.2544059403170867 -0.01544674634204562 -0.3071676795315019 -0.1396030215213542 0.1516740022731246 -0.02243908714546641 
-0.1015587847019627 -0.1734603695127377 0.1497880035936409 -0.07153739436897461 -0.05012424477789219 -0.1027413441913534 
-0.008225982390715654 -0.05410713992692192 -0.06073202267174294 0 0.1301687153511311 0 
0 0 0 0 0 0 
0 0 0 0 0 0 
0 0 0 0 0 0 
0 0 0 0 0 0 
0 0 0 0 0 0 
0 0 0 0 0 0 
-0.04538097339568944 -0.00609104969945467 -0.04735248278354227 0.1054739935285637 0 0 
0 0 0 0 0 0 
0 0 0.1671021492026358 -0.08860332733734125 -0.1132565471240142 -0.01546237170190865 
0.04608019636812487 -0.1055269065770706 0.05762889278003495 0.01334427257473072 -0.05327460422323001 0 
0 0 0 0 0 0 
0 0 0 0 0 0 
0 0 0 0 0 0 
0.1395219456855767 -0.03071326724609495 -0.02164564858857958 -0.02004737070074608 -0.07227050008083309 0 
0.1395219456855767 -0.03071326724609495 -0.02164564858857958 -0.02004737070074608 -0.07227050008083309 0 
0 0 0 0 0 0 
0 0 0 0 0 0 
0 0 0 0 0 0 
0 0 0 0 0 0 
0 0 0 0 0 0 
0 0 0 0 0 0 
0 0 0 0 0 0 
0 0 0 0 0 0 
0 0 0 0 0 0 
0 0 0 0 0 0 
0.04982150500598895 -5.421010862427522e-20 0 -0.1087459837927432 0 0 
-0.1028897294837728 -0.01242295781659883 0.1422492611079069 0.03632176034304162 -0.07034581425771799 -0.001788782894542551 
0 0 0 0 0 0 
0 0 0 0 0 0 
-0.0456817367411513 0.03091043205535125 -0.1574296842980616 -0.06322288253816283 0.1618309190507309 -0.01011921437251644 
0 0 0 0 0 0 
0.02964437377679207 0.01775563178133056 0.03461470126949428 -0.00582703066418434 -0.07363370031563325 0 
0 0 0 0 0 0 
0 0 0 0 0 0 
0 0 0 0 0 0 
-0.07810528275579513 -0.003792453312133522 0.144216519487819 -0.004824645731045013 -0.02769783163510834 0 
0 0 0 0 0 0 
0 0 0 0 0 0 
0 0 0 0 0 0 
0 0 0 0 0 0 
0 0 0 0 0 0 
0 0 0 0 0 0 
0 0 0 0 0 0 
0 0 0 0 0 0 
0 0 0 0 0 0 
0 0 0 0 0 0 
0 0 0 0 0 0 
-0.03374888433135496 0.008410449271131302 -0.1055992823692602 -0.07668480597712353 0.1523191377344775 -0.02364040097757317 
-0.03016746834604771 0.1630873625069114 -0.1053182482142643 -0.04654197604846831 0 -0.01207592248686731 
0 0 0 0 0 0 
0 0 0 0 0 0 
0 0 0 0 0 0 
0 0 0 0 0 0 
0 0 0 0 0 0 
0 0 0 0 0 0 
0 0 0 0 0 0 
0 0 0 0 0 0 
0 0 0 0 0 0 
0 0 0 0 0 0 
0 0 0 0 0 0 
0 0 0 0 0 0 
0 0 0 0 0 0 
0 0 0 0 0 0 
0 0 0 0 0 0 
0 0 0 0 0 0 
0.0764829572704829 0 -0.09028362642864862 0.0007479348084636706 -0.1369271976072761 -0.01121278067593153 
-0.1115769534992022 -0.2811191269046633 0.5767404070955484 0.06477919006225445 -0.5072137282398601 -0.09630966909896173 
-0.1115017714778348 -0.03705347365048758 0.0857613118219429 -0.118420091077261 0.08061886247821863 -0.0575288699882149 
0.05902832959156774 0.01540118227269748 0.09562513541011451 -0.1349194265406313 -0.06890499564015148 -0.02068438675321423 
-0.03266516102897372 -0.1767447507049192 -0.01094746139066125 -0.1347236762489808 0.1149092105250826 -0.07709378589316362 
0 0 0 0 0 0 
4.336808689942018e-19 -0.03838852019141407 -0.1120448019974163 0.1982215030333667 -0.09231162149452689 -0.00207772739610076 
-0.07779280056212488 0.2436271737828253 -0.05390075713691726 -0.05319743046479312 -0.04658300021858717 0 
0 0 0 0 0 0 
0 0 0 0 0 0 
0 0 0 0 0 0 
0 0 0 0 0 0 
0 0 0 0 0 0 
0 0 0 0 0 0 
0 0 0 0 0 0 
0 0 0 0 0 0 
-0.0470615702465875 -0.09388991320002925 0.17328447771053 -0.03948608228424665 -0.001581069614566144 -0.01803095555721571 
0 0 0 0 0 0 
0 0 0 0 0 0 
0 0 0 0 0 0 
0 0 0 0 0 0 
0 0 0 0 0 0 
0 0 0 0 0 0 
0 0 0 0 0 0 
0 0 0 0 0 0 
0 0 0 0 0 0 
0 0 0 0 0 0 
0 0 0 0 0 0 
-0.08329070345016473 -0.0141465511758567 0.1433080263176832 -0.02814273152824563 -0.007890450765582636 0 
-0.1728066972990469 0.2053889024649234 0.3719104216597268 -0.2438496879987528 -0.2013159460445699 -0.009152613764122587 
-0.07931816698066234 -0.1304259412554302 -0.362552074213164 0.4477672854034181 -0.06253960721212316 -0.09916352121402436 
0 0 0 0 0 0 
-0.1243551695561972 -0.02806191339227848 0.1706086134328049 -0.0275092366470049 -0.04960099876306293 -0.03412140097601945 
-0.01138122185210389 -0.0178623889335417 -0.09381127513437726 0.0509282360627558 -0.1011761986735202 -0.02258216525014094 
-0.02325739758880958 0.04863308820215156 -0.07163797800549131 -0.0147959030106333 0.05318499588265758 -0.01106496876195073 
-0.03155294126943201 -0.01923048992104488 0.132575149125907 -0.04979946561018285 -0.03774159385009229 -0.008628096211149685 
0 0 0 0 0 0 
0.1080428341765692 -0.1872057715598739 0.04713373544213109 -0.2331494812918133 0.06212726607397132 -0.05260502709073075 
-0.1290647768060034 0.08083763828636067 0.1528981387130735 -0.05739809982278622 -0.07437701306200009 -0.01682927372619762 
0 0 0 0 0 0 
-0.2357565723270682 -0.02585035943389904 -0.07385730354944742 0.3255729247922847 -0.006339572076109355 -0.0007008356749285371 
0 0 0 0 0 0 
0 0 0 0 0 0 
0.07902809838068346 -0.1591222422217325 -0.2740200234708499 0.08010522194602608 0.2572938458978273 -0.005589848040096877 
-0.0007145092728744012 -0.01484662679870145 -0.09876378405672373 0.11620229056147 -0.07557144064599661 -0.02184059412872279 
-0.04187875860904285 0.5468740761018043 -0.2763921197418502 -0.09982211487976961 -0.1447598334185679 -0.003143300628544286 
-0.01414158839220128 0.1721131625937712 -0.1352401024701098 -0.07375590419686587 0.01159550672576003 0 
0 0 0 0 0 0 
-0.2818213441445517 0.3340446209616492 -0.6667831392299618 -0.408450555095368 -0.7590249229250011 -0.3414366231013675 
0.424925834310362 -0.3979993105151562 -0.01530528729295332 -0.4057374922840978 -0.1184819974077615 -0.1202788801879901 
-0.2669815045427189 0.3131391274328978 -0.1889013596721228 0.3767258969956745 -0.212703721400392 0 
0.1219582803464742 -0.05320810888216754 -0.01919634049372121 -0.0519260155221852 -0.00713502101237852 -9.732640520351917e-05 
0.04907131734613096 0.05006663422325442 -0.09057212198090925 -0.07982465814937038 0.02989492184190062 -0.002405761284609751 
-0.089323174396211 -0.07206518423170102 0.2531882665187132 0.02013363030476227 -0.1467000872586213 -0.01612843805126908 
-0.07500340065353751 -0.05914370215591106 -0.01050304899653504 -0.02989714374780388 0.06385728597939662 0.1977745457081695 
0.07448316262179383 -0.07077083284996616 -0.0451151727897056 0.0181396755219554 0.08928303988614486 -0.01456016831714997 
-0.07875513239733288 0.01960780248855 0.1178132162910196 -0.1044133545486177 -0.03021024814404899 -0.02259582773932327 
-0.06003122626831635 0.6265984178427106 -0.001882116560038037 -0.1908513760328721 -0.3858602939612406 -0.02700051393421399 
-0.02984810262571513 0.2364469600823443 -0.1845897755551311 -0.09802525115437337 -0.1331957606891256 -0.02248059026275139 
-0.1112023091420661 -0.008249035671706392 0 0.02846772927694785 0.08870721581548546 0 
0.03405203770574338 -0.07803754527840881 0.071444757310066 -0.05588915144102811 0 -0.008563164204477013 
0.05952884605997453 -0.006588262942740048 0 -0.04329137284588033 -0.01427127474761761 0 
-0.1832743029290596 0.2075505700143478 -0.1345499488393828 0.06903742863873431 0.06383118864138447 0 
-0.2445403918958139 -0.1103382435246219 0.1597828026964924 0.01410694058229745 0.1712150075800594 -0.0363465601001475 
0.1146746457827031 -0.0517709114424431 -0.02436544151372116 -0.07112013938157902 -0.02670528818689454 -0.00899007993901323 
0 0 0 0 0 0 
-0.04709115820910132 0.06672559963106396 -0.1261047569732422 -0.01535633187577426 0.09951800704676948 -0.02178404304803467 
-0.09154648827131236 -0.06828623944527716 0.1727450299632877 0.01736991588910873 -0.0978670676278711 -0.007163181997534771 
0 0 0 0 0 0 
0.01816726583312549 0.1296728773195009 -0.08519112840357145 -0.04747778580604107 1.517883041479706e-18 0 
0 0 0 0 0 0 
0 0 0 0 0 0 
-0.06116070878272086 -0.05603951099607151 -0.0315504334906992 -0.0630880733221596 0.145249949288592 -0.005857580663136678 
0.08486525746715046 -0.008705501572543817 -0.03225582616210747 -0.05562753742388811 0 0 
0 0 0 0 0 0 
0.3455384520949014 0.05320102004858124 -0.1096689195610647 -0.2529341275049252 -0.2659678111083636 -0.03064462733223938 
0 -0.05799258307713825 0.0945748708748731 -0.01559043283109309 -0.0232730579600184 0 
-0.01565762006823366 -0.06312545702186967 0.1412506337334528 -0.06821034135614136 -0.06426004801782895 -4.336808689942018e-19 
-0.1141946786882796 0.07872156414214197 -0.01545285389688542 -0.04032864030585481 0.002487673087562902 -0.03901066385269147 
0 0 0 0 0 0 
0 0 0 0 0 0 
0.1197503009056702 0.2231148888808728 -0.1391732374283917 -0.1027680815304399 -0.06707414172078358 0 
-0.02499346392606274 -0.0592369764696109 0.0995290503091289 -0.04168439106781133 -0.01094199907598853 -0.01458593675752184 
-0.02499346392606274 -0.0592369764696109 0.0995290503091289 -0.04168439106781133 -0.01094199907598853 -0.01458593675752184 
-0.03145743347399212 -0.02737069605822937 0.131815442768611 -0.05607435592038496 -0.00468559840504869 -0.03257714938661423 
0 -0.02961501253991413 0.01911906944825744 -0.02302655403255051 -0.009581291184875995 -0.01352733428941028 
0 -0.02961501253991413 0.01911906944825744 -0.02302655403255051 -0.009581291184875995 -0.01352733428941028 
8.673617379884035e-19 0 0.01876107571614049 0 0 0 
0 0 0 0 0 0 
-0.3945136171739133 -0.1566272831613087 0.1055414494394593 0.2670893923981014 0.1821272443925254 -0.002722784725646608 
-0.08946135350962128 -0.1574009872199037 0.1854930956575371 -0.1049333531039416 -0.08029501492969472 -0.09558609861065823 
0.02583326566851388 -0.1428568332499585 0.1166950290189056 -0.1431522271198137 -0.08029501492969472 -0.09334811788177665 
0 0 0 0 0 0 
0.1953183230347852 -0.02009239969808235 -0.0128514406630597 0.03569400584040158 -0.2443449657910809 -0.01311385486119272 
-0.09040263308556133 -0.1774917274090748 0.3301089599215165 0.05120986031973969 -0.2582676586137843 -0.02228482694503064 
-0.05203339711983367 -0.04967504159287279 0.1639679338675946 -0.06748455341678007 -0.1617174292215418 -0.03391808950390875 
-0.05203339711983367 -0.04967504159287279 0.1639679338675946 -0.06748455341678007 -0.1617174292215418 -0.03391808950390875 
-0.1045737200880958 -0.07200371668183495 0.2169583879006461 -0.06864547510070604 -0.0556032694209062 -0.01984942868075611 
-0.05203339711983367 -0.04967504159287279 0.1639679338675946 -0.06748455341678007 -0.1617174292215418 -0.03391808950390875 
-0.05203339711983367 -0.04967504159287279 0.1639679338675946 -0.06748455341678007 -0.1617174292215418 -0.03391808950390875 
0.00455778623578471 -0.02134826549586128 -0.03114661261205659 0.03117737312486082 0 0 
0 0 0 0 0 0 
0 0 0 0 0 0 
-0.03567191486897154 -0.04634754156594744 0.1278734380239625 0.008243510657077222 -0.1214208359969434 -0.01708440886764859 
-0.03567191486897154 -0.04634754156594744 0.1278734380239625 0.008243510657077222 -0.1214208359969434 -0.01708440886764859 
0 0 0 0 0 0 
0 0 0 0 0 0 
-0.01699264490702049 -0.04347424469427931 0.09765930353842912 -0.04475373133432475 -0.02480699041200062 -0.009691762896860082 
-0.1054597041702542 0.1112723101958042 0.103142154623646 -0.02390949245863591 -0.1006242096476639 -0.00491277883335362 
0.1088678813196404 -0.07648604747537482 -0.1411979236161747 0.1361849430275109 -0.09638676556887849 -0.00572344344602044 
0 0 0 0 0 0 
0 0 0 0 0 0 
0 0 0 0 0 0 
0 0 0 0 0 0 
0 0 0 0 0 0 
0 0 0 0 0 0 
0 0 0 0 0 0 
-0.04042183870297476 -0.02676616317520553 0.05624899660772751 0 0 1.734723475976807e-18 
0 0 0 0 0 0 
-0.2068298362471804 0.08877397152590959 0.1101534428050185 -0.1074113263818007 0.1015574435412262 0 
0 0 0 0 0 0 
0 0 0 0 0 0 
-0.2224485739229858 0.1119939178016545 0.01062615919334893 -0.06920974072889929 0.09653924572147742 0 
0 0 0 0 0 0 
0 0 0 0 0 0 
0 0 0 0 0 0 
0 0 0 0 0 0 
0 0 0 0 0 0 
0 0 0 0 0 0 
0 0 0 0 0 0 
-0.07623413737817418 -0.1109467029919702 -0.01234082528554094 0.006239352690784013 0.1770615009858074 -0.02265387965251147 
-0.1233077240868368 -0.007085201121548495 0.001205205830976057 -0.003282237874751577 0.07742570339942473 0 
-0.02413510329448134 -0.02893106477929177 0.0811020575665652 -0.01192525048822272 -0.03067732955082002 0 
0 0 0 0 0 0 
0 0 0 0 0 0 
0 0 0 0 0 0 
0 0 0 0 0 0 
0 0 0 0 0 0 
-0.06953337027541547 0.1371351543138634 -0.02171791600527231 0 -0.01620278399961245 0 
0 0 0 0 0 0 
0 0 0 0 0 0 
0 0 0 0 0 0 
0 0 0 0 0 0 
0 0 0 0 0 0 
0.2109462431850957 -0.01076837866564917 -0.09677666433211438 -0.2024785006825462 0.08018037195997722 -0.003561363047783866 
0.1214030133700476 0.0717472925465133 -0.09549412065304085 -0.06069899010911696 -0.02031089137720688 -0.000572346115341661 
-0.004515280463881498 -0.04362340725651961 0.07739803629566788 -0.0182015832327294 -0.03970542075074213 -0.002822051971277443 
0 0 0 0 0 0 
0 0 0 0 0 0 
0.1131684843964347 -0.03069751999773677 0.01806907352026338 -0.09340270645191819 -0.03734220414673529 0 
0 0 0 0 0 0 
0 0 0 0 0 0 
-0.06936515202832902 0.2096837330403596 -0.1525780589212798 -0.0298498661962473 0.06699798756428324 0 
0 0 0 0 0 0 
0 0 0 0 0 0 
0 0 0 0 0 0 
0 0 0 0 0 0 
0 0 0 0 0 0 
0 0 0 0 0 0 
0 0 0 0 0 0 
0 0 0 0 0 0 
0 0 0 0 0 0 
0 0 0 0 0 0 
0 0 0 0 0 0 
0 0 0 0 0 0 
0 0 0 0 0 0 
0 0 0 0 0 0 
0 0 0 0 0 0 
0 0 0 0 0 0 
0 0 0 0 0 0 
0 0 0 0 0 0 
0 0 0 0 0 0 
0 0 0 0 0 0 
0 0 0 0 0 0 
0 0 0 0 0 0 
0 0 0 0 0 0 
0 0 0 0 0 0 
0 0 0 0 0 0 
0.0855706620974476 0.1400484528543129 -0.1826630565368567 -0.04019863112203821 1.084202172485504e-19 0 
0 0 0 0 0 0 
0 0 0 0 0 0 
0 0 0 0 0 0 
0 0 0 0 0 0 
0 0 0 0 0 0 
0 0 0 0 0 0 
0 0 0 0 0 0 
0 0 0 0 0 0 
0 0 0 0 0 0 
0 0 0 0 0 0 
0 0 0 0 0 0 
0 0 0 0 0 0 
0 0 0 0 0 0 
0.08521555926623445 -0.05986777034565062 0.05751327930099781 -0.1220236668917089 -0.05707673793355508 -0.02976642564699006 
0 0 0 0 0 0 
0 0 0 0 0 0 
0 0 0 0 0 0 
0 0 0 0 0 0 
0 0 0 0 0 0 
0 0 0 0 0 0 
0 0 0 0 0 0 
0 0 0 0 0 0 
0 0 0 0 0 0 
-0.07627943644903445 0.1564522252464094 -0.04645373948345943 -0.07533183734418608 -0.03643355752718363 -0.04182620672208492 
0 0 0 0 0 0 
0 0 0 0 0 0 
0 0 0 0 0 0 
0 0 0 0 0 0 
0 0 0 0 0 0 
0 0 0 0 0 0 
0 0 0 0 0 0 
0 0 0 0 0 0 
0 0 0 0 0 0 
0 0 0 0 0 0 
0 0 0 0 0 0 
0 0 0 0 0 0 
0 0 0 0 0 0 
0 0 0 0 0 0 
0 0 0 0 0 0 
0 0 0 0 0 0 
0 0 0 0 0 0 
0 0 0 0 0 0 
0 0 0 0 0 0 
0 0 0 0 0 0 
0 0 0 0 0 0 
-0.2247757881777687 0.1516852655604655 -0.1896766873896905 0.06879126533165375 0.2309515524458935 -0.04480315828331879 
0.01095820674800674 -0.04963683701017418 0.06185030818467535 -0.02989120914417387 0.06420890970852614 0 
-0.0002937922360038994 0.07968698459508611 -0.210179706098595 -0.07895627574942919 0.1759320953611514 -0.002654030123401024 
-0.1596878155350757 0.2557730714733891 -0.1793583090808605 -0.1227730402821496 -0.06088366388803274 -0.09008162366896807 
0 0 0 0 0 0 
-0.1474518767118308 -0.1147572152218258 0.1655031037478969 -0.06216948365690364 -0.05749128234460182 -0.05856314815318542 
-0.1191127150309126 0.05646737745421607 0.02200865060806007 0.1407163026227643 -0.1527114318191095 0 
0.2592236568459712 -0.1084659295752101 -0.3127288236145005 -0.1249849395403909 -0.01560788790888307 -0.07597809047596431 
0.03704883843326457 0.04293621689519069 0.06282758229033657 -0.3467175764413693 -0.1810671287446657 -0.08148372757742994 
-0.149898187894537 0.2109259704179094 -0.03180725648037549 -0.005240289323574177 0 0 
-0.03663938183174886 0.1016169569772163 -0.1004293474454352 -0.06814087875323331 0.06715498465778692 -0.002405761284609751 
0.0009802290603852461 -0.03144465997872909 -0.07400506114018396 -0.06413494091598532 0.1518324559280207 0 
0.09078119597910135 -0.08972243237865832 0.04524861646994329 -0.05257835682461422 0.02120584748766274 -0.04898698724659125 
-0.05705936555956343 -0.07424327597584519 0.1154681454247393 0.01949545942182267 -0.119893492887155 -0.01638722464418852 
0 0 0 0 0 0 
0.1635253971663238 -0.05476662011766122 -0.1410805075825203 -0.05124382683977401 0.1030693901038539 0 
-0.09724350963176429 -0.06609905148574226 0.07394718028342201 0.03423491148901683 0 -0.01993096534281076 
0.03266035813109677 -0.03260548303980168 0.06609362218681437 -0.06960064855414873 -0.00553161908183903 -0.0008075898132871422 
-0.01540915567791216 -0.02254833204880208 0.03230808043744497 -0.0379484482378014 -0.03712406254268346 -0.02875979554747512 
-0.01540915567791216 -0.02254833204880208 0.03230808043744497 -0.0379484482378014 -0.03712406254268346 -0.02875979554747512 
-0.2142939253734147 -0.09337955418217106 -0.0468776638958538 -0.01326329547416701 0.1947801473085923 -0.05079132275842985 
-0.05390598029797121 -0.01276355365573122 -0.03874445681807331 0.209715499082383 -0.05146771300676627 0 
0.02318870307779948 0 -0.07168934315888022 -0.08209075069264407 0.1745837495535429 0 
0 0 0 0 0 0 
0.2218942544197757 0.02800639259045102 -0.2078483995509975 -0.01751196693616435 0.08292887171113461 0 
0.1544564807269708 -0.12803064691465 -0.1074147387983916 -0.01218729076937064 -0.05826336553774181 -0.03275797305162697 
-0.1469142690553213 -0.1212505063649684 0.008314539129123289 0.1949527839950721 -0.04955369939670562 -0.01326063502979938 
0.1392747774078517 0.03628835965430907 -0.1013616752376086 0.08929188582855641 -0.117833040535302 0 
0.03112331335734208 -0.04224908117236776 -0.07803760611068962 0.06301587279485267 -0.04779132763813771 -0.006480560883625671 
-0.07395322729186726 0.07262392266687952 -0.06927321152802125 -0.08291926430160612 0.1591977432997973 0 
0 0 0 0 0 0 
0 0 0 0 0 0 
0 0 0 0 0 0 
0 0 0 0 0 0 
0 0 0 0 0 0 
-0.01380055369406828 -0.01183157765864724 -0.06063318180872348 -0.03237520730251923 0.09553622824787805 0 
0 0 0 0 0 0 
0 0 0 0 0 0 
0 0 0 0 0 0 
0.1383539948202317 0.05847582801441063 -0.1397130860075251 -0.1330927283734297 -0.05262868914374731 -0.02107293001568632 
0 0 0 0 0 0 
0.01884241602262413 -0.105114946386835 0.07826422841956354 -0.05624514520184895 0.08708801841863491 0 
-0.2761373255642328 -0.2394186466556724 0.586011667352295 -0.1701645603045694 -0.003192244751005728 -0.01773310433197499 
0 0 0 0 0 0 
-0.1433490115224046 -0.1616303004080554 0.2696910311094486 0.1017080346776761 -0.1068575907151593 -0.034577174455768 
0.07866281234670792 -0.1690676732648504 0.1064407939339742 -0.04743208026867778 -0.2251120421698126 -0.09572399474135737 
-0.012021072879375 -0.009656687479653335 0.1098684546713853 -0.02904662300834416 -0.03904710708366751 0 
0 0 0 0 0 0 
0.2193662813203331 0.008252581839737962 -0.3513618465018096 -0.07448808826397159 -0.09094621819687423 -0.08699583551608984 
0 0 0 0 0 0 
0 0 0 0 0 0 
0 0 0 0 0 0 
0 0 0 0 0 0 
0 0 0 0 0 0 
0 0 0 0 0 0 
0 0 0 0 0 0 
0 0 0 0 0 0 
0 0 0 0 0 0 
-0.09774033948321702 0.237743728899301 -0.0915201068332184 -0.04756698014360597 -0.1352526914857226 -0.00432129011069438 
-0.01025934669235846 -0.04326302678026073 0.09624345596441837 -0.02147683214005682 -0.01908364973883426 0 
0.04413906126622606 -0.01345853238201449 0 -0.04850874673857637 0 -1.734723475976807e-18 
