solver_type L2R_L2LOSS_SVC_DUAL
nr_class 4
label general cyberbullying physical verbal
nr_feature 4524
bias -1
w
0 0 0 0 
0.09676913629278379 -0.1093569493612737 0 0 
0.003994566865114664 -0.07302679242914376 -0.02504043442482289 0 
-0.2748012751624985 -0.5002561937924007 -0.2940568379230743 0.4631567524391316 
0.3312122979788169 -0.2044202376207893 -0.0431673795323315 -0.2375215066095761 
0.1822733739705336 -0.07944956947883106 -0.1212225852931202 -0.1272413445638733 
0.2035953482148942 -0.07960391660305915 0 -0.2102285649603193 
0.4518002221803948 0.1008685561570628 -0.2950026896707708 -0.531330121998296 
-0.1120852122799871 0.08332056073608143 -0.1420681206028758 -0.08047166186940206 
0.3073784660724437 -0.02560646534377715 -0.05188485440168987 -0.04913162215289608 
0.5698343623160584 -0.677017542708734 -0.06226635895885219 -0.1480481153781179 
1.08106059891642 -0.5756511017061686 -0.5728754372610891 -0.9257881618663379 
0 0 -0.0119447993813656 -0.03351516365562338 
1.260419464282879 -0.7035536598308696 -0.4380553519937443 -0.7599263785181344 
0.3999798294029878 -0.448428894320805 -0.4402961608062155 -0.531126599006005 
-0.398800969531045 0.3954298570884199 0 -0.1004504873488013 
-0.5090713539332986 0.4697538226482594 -0.1122808093022232 -0.03295050401623772 
0.5653397724771327 -0.5978508522260572 0 0 
0.2579315127056573 -0.1908858162546534 -0.06184064496844888 -0.05924527926432956 
0.1097406737202952 0.1427161719552954 -0.3736112154172347 -0.5549261295621285 
-0.3252064955828096 0.465574975481344 -3.252606517456513e-18 -0.07061180705040887 
0.3515453613899949 -0.1872952597643229 -0.09857641380231069 -0.1674725814319257 
0.04439205167535887 -0.1901470574924788 -0.3698418212228231 -0.02589943191447776 
0.1023392416261232 -0.167654806440513 0 -0.05291624794120793 
0.2561426046940954 -0.3816417541350395 0 -0.02532549765571479 
0.1692700327775446 1.951563910473908e-18 -0.04969695627883732 8.673617379884035e-19 
-0.2901825778089968 -0.1134578628929825 -0.3386094748907827 0.6259602700839174 
-0.1123427796167799 -0.2146580198284801 0.3211569686430972 -0.01798641058002045 
0.512431045143918 -0.2321309075164112 -0.1115376012472862 -0.2379161815827411 
0.4422724988271409 0.001773080521764416 -0.1628714974044802 -0.4861093055705711 
-0.433126694441424 0.2877146020324782 0 0 
0.1741352877251418 -0.03010015536827472 -0.1294164843640262 -0.1829531092344147 
0.255324655682701 -0.1382078194522094 -0.0799646718382373 -0.01325907717831503 
0.1679559551615968 -0.0603668040350864 0 -0.1876484716714324 
0.07218715928643045 -0.1046502111367283 -0.01719649059740342 -0.2660861528940536 
0.1894543587184065 0 -0.03363714334857732 -0.06541763651930242 
-0.5654686174848336 0 -9.540979117872439e-18 0.4208070854568091 
-0.4527388968217955 0.1978363189180075 -0.01215319816110998 0.3639728840950882 
0.04799010272439335 -0.1013385358265401 -0.05490031439155331 -0.06208101462859567 
0 0 0 0 
0 0 0 0 
0 0 0 0 
0 0 0 0 
-0.1244699225763931 -0.1705435036868021 0.4604418933228521 -0.5071351841277441 
0.2703338352884117 -0.1478616117269684 -0.05738049491066994 -0.09006911652237026 
-0.6900658248132373 -0.009818072720544893 -0.02389995058013984 0.8248984548210558 
0 0 0 0 
0.1474214883735666 -6.938893903907228e-18 -0.00632979996033213 -0.1241583714411274 
0 0 0 0 
0.09297517733404859 -0.006372725148205294 0 0 
0.7577761957955499 -0.7423519284294066 -0.05447867990611952 -1.951563910473908e-18 
-0.1120954654828776 0.5319269710808257 -0.3895517818838959 -0.5917745014909854 
0.06957057299061492 0 0 -0.1005588444372769 
0.5954019063265357 -0.072715497806927 -0.1661236699866851 -0.4666166093715972 
0.1943970737603898 -0.02617152670405009 -0.05095672431489501 -0.1347683451541796 
0 -0.05263278906585565 -0.06071556475636086 0 
0 0 -0.01646769487816495 0 
0.1924848619572064 -0.02541983594673068 -0.01521231085767458 -0.180426818502657 
1.040834085586084e-17 1.908195823574488e-17 -0.07545868153012257 -0.06647884166570467 
0.06384890493487956 -0.01730631850026062 -0.05206752201591025 -0.03207859236088902 
0.05799368165239457 -0.3395187730675076 -0.45046060540273 -0.3235529862900319 
0 0 0 0 
0 0 0 0 
-0.1706082915684533 -0.02823487689980553 -0.09622726539009555 0.256995467966811 
0 0 0 0 
0 0 0 0 
-0.1023963753729163 0.3167042557807568 -0.0846951138759312 -0.117661051412491 
0 0 0 0 
0.1381596777514534 0.3545214133049356 -0.06377917865846788 -0.4054399284277512 
0.5746337939231123 -0.1799583728999473 -2.49366499671666e-18 -0.2621118778583477 
-0.4993839694232321 -0.3672001591733554 -0.3196971034063027 0.7497236257768052 
0 0 0 0 
1.037516270389034 -0.382805020325461 -0.03829337580123055 -0.583541639720403 
0.1462202905376314 0 -0.04088888407304328 -0.4200669318613195 
0.1045323886666738 -3.720168704340887e-18 0 -0.0829620719642839 
1.090131121836262 -0.2621677206923063 -0.1823125908853092 -0.7896574736715681 
0.137404020043339 -0.1579453559913285 0 0.1158575373583038 
0.2470897716536713 0 -0.0121136781881802 -0.209038854545466 
-0.2587174319547387 0.096559197511175 -0.1076079418963123 0.1579067188598466 
4.065758146820642e-20 -0.0006115023896773377 0 0 
0.09976344595864835 0 1.214306433183765e-17 -0.2566098197075346 
0.7913379851376483 -0.8492969254661916 0.1164940267630938 -0.3491232312722413 
-0.2596242304866705 0.526699502714462 -0.01062497364499171 -0.1702441717127675 
0.07542333123664242 -0.01237877370844537 -0.05658032892685257 -0.1290920311455402 
0 0 0 0 
0 0 0 0 
-0.3501287180850368 -0.09030875914936851 0 0.5505890291452906 
0 0 0 0 
-0.3825567534581603 -0.09505637449508708 0 0.3235087258344101 
0 0 0 0 
0.03150980134031087 0 -0.005339073418728444 -0.05023426440058003 
0 0 0 0 
-1.234988473970083 0.8376202214085684 -0.04050393743726757 0.4986363685645421 
0 0 0 0 
0 0 0 0 
0 0 0 0 
0 0 0 0 
0 0 0 0 
-0.3311348506160959 -6.938893903907228e-18 -0.01318539346411235 0.2323255967170132 
0 0 0 0 
0 0 0 0 
0 0 0 0 
0 0 0 0 
0 0 0 0 
0.1355491444400934 -0.02617152670405009 -0.05095672431489499 -0.1476637052986534 
0.2834267242668423 -0.1515105491881564 -0.07188809927971018 -0.09264053208447909 
-0.1357198674141534 0.188370667420116 -0.0132685052559867 -0.08358100649508436 
0.05655150442642682 0.1552854002918664 -0.1179483756638971 -0.4017571265576199 
0 0 0 0 
-0.5100209065897985 0.4140585157076027 -0.07813679868658492 -0.1351256663042153 
0 0 0 0 
0 0 0 0 
0.1639185951386916 -0.1296240459779828 0 -0.1833370365622486 
0 0 0 0 
-0.3040589883318664 0.4686835650081781 -0.02238479717246912 -0.1018277030424388 
0 0 0 0 
0 0 -4.336808689942018e-19 -1.951563910473908e-18 
0 0 0 0 
0 0 0 0 
0.2686981397536055 -0.01356283637633869 -0.04441769371409837 -0.2604628562429533 
0.1088622078220113 -0.001081392525869086 0 -0.005047853398428564 
0.2380045807379066 -0.1814384357902588 0 -0.07996981626061452 
0 0 0 0 
0 0 0 0 
0.0122094906744197 -0.03355270090761999 -0.01301405220398797 -0.1013375661194494 
-0.2180280163327736 0.3508786109215679 -0.114270348832316 -0.1498852241597881 
0 0 0 0 
0.1148209930837691 0 0 -0.1546789662118793 
0.2471442181419467 -0.1875480981424521 -0.04283820359470001 -0.04365271470171396 
0.5096303674852608 -0.5531933036542179 -0.3463488563075218 -0.188863919978997 
0.05136523853311087 -3.469446951953614e-18 0 -0.05538698452970969 
0.2631905559662994 -0.04031383245116715 -0.2839506269327335 -0.1363134789723062 
0.03935490308366573 -0.03184702120126356 -0.03105138392049058 -0.01679630536029697 
-0.5267443788646664 0 0 0.4971451952405128 
-0.3754619594595728 0.2596716397169725 0.1252721717356515 0.1282789645563952 
0.8188281466781835 -0.8518013719973555 -0.2184567318366625 -0.03126761294712428 
-0.2887423396453346 -0.1549764928168587 -0.007954415613180721 0.4201368341029569 
0.1483847680096852 0 -0.03363714334857732 -0.1094424953665804 
0 0 0 0 
0 0 0 0 
0.1421465565255077 -1.301042606982605e-18 -0.04364568899946465 -0.105086900541132 
-0.02747353709116463 0.1940225962218589 -0.08508214234837794 -0.05558270257610203 
-0.9668127824757221 0.4076271263744364 -0.03829003136502855 0.689891656381044 
0 0 0 0 
0 0 0 0 
0.08036032612651019 -0.07651128119543919 -0.009124616883829012 6.938893903907228e-18 
0.5439445163975419 -0.05542646828246658 -0.06482776385997309 -0.2843443459539001 
0.3274026151085553 0 0 -0.4496556724793642 
0.005250200672577057 0 0 -0.07209926554099472 
0.2762904256610217 -0.1225961735171285 -0.1217613336643786 -1.734723475976807e-18 
0.1139694513321998 -0.1031183619572889 -0.0428382035947 -0.04365271470171395 
0 0 0 0 
0.02596754567004724 -0.003775891542903366 0 1.734723475976807e-18 
0 0 0 0 
0 0 0 0 
0 0 0 0 
0 1.387778780781446e-17 0 0 
0.2599284843741264 -0.1961905836910727 -9.722551859462891e-05 -0.1456925199379692 
0.0582501973901863 -0.03021290786818849 -9.722551859462891e-05 -0.06666534916698713 
0.378966600136864 -0.1412278133290182 -0.05671810310722337 -0.1493048555744842 
0 0 0 0 
0 0 0 0 
0.08051418109239714 -0.01580713879847796 -0.2061412093969247 -0.0352124694748077 
0 0 0 0 
-0.790920931294155 0.4322281382938804 0.4836609771096471 -0.1877914878886986 
0 0 0 0 
0.05476548129130506 -0.01580713879847796 -0.0615576974333417 -0.0352124694748077 
0 0 0 0 
0 0 0 0 
0 0 0 0 
0 0 0 0 
0 0 0 0 
0 0 0 0 
0 0 0 0 
0 0 0 0 
0.05476548129130506 -0.01580713879847796 -0.0615576974333417 -0.0352124694748077 
-0.4488781135844037 0.2469542150385697 0.3923829978150047 -1.084202172485504e-19 
0.3846313897654316 -0.4657624511891512 -0.3130429790449795 -0.03620987889366122 
0.1647893660645672 -0.1872804582791771 0 -0.1105656413108251 
0 0 0 0 
0.4323604437044947 -0.0943453702170577 -0.1183010738982288 -0.05570584441568124 
-0.208939263180236 -0.100079999293308 -0.08669595013424786 0.5512784420643629 
0.11534294276349 -0.1436803955834614 0.383359433910382 -0.1906749823228365 
0.3658275790497625 -0.2209983512520616 -0.2781081256701484 -0.05674001727732884 
0 0 0 0 
-0.01472106114045932 0.04227590527296649 -0.2466272302765593 0.1653296483343916 
-0.103079256261929 0.2992089869465407 0 -0.1610246197187863 
-0.7587628216615602 0 0 0.6289053660472744 
-0.460215361952846 0.1202027106489262 1.301042606982605e-18 0.4854170025054939 
-0.1140910402716165 -0.1212533642359153 0.2281921597245357 -0.3546247319602213 
0.05915617901829693 -0.07570468227643211 -1.734723475976807e-18 8.673617379884035e-19 
0.1873102993117266 -0.09472302116314671 -0.2241196836936282 2.168404344971009e-19 
0 0 0 0 
0 0 0 0 
0.2397597624916012 -0.1486241837862623 -0.05142879884962225 -0.02488178062343098 
-0.5852468096835005 0.630395793418644 -0.04466670786606889 -0.09821465558043242 
0.1366809578730846 0.09420691020116824 -0.0714899571787128 -0.1331962825767477 
-0.5445813247265392 0.4893310040842032 0 0 
0.8403718875238292 -0.4617868616551786 -0.3351488877497446 -0.327721512345793 
1.496848176574774 -0.5581435882426298 -0.04445294726447278 -0.5976716703566911 
0.002301144687229624 -1.734723475976807e-18 0 0 
0 0 0 0 
0.0495808318388315 -0.4685801728620741 -0.5530972371824423 0.2047390611458842 
0.1235460481529369 -0.04917716734635904 -4.77048955893622e-18 -0.2679072687842202 
0.1135747504730531 -6.938893903907228e-18 -0.06453235819293385 0 
0.06747835008976118 -0.0008915063697616725 -0.2634347828126305 -0.006120249055353664 
0 0 0 0 
0.0604155567227149 0 -0.01644846154521596 0 
0 0 0 0 
0 0 0 0 
0.09520539786559118 -0.2743729719730243 -0.03353623468481332 0.05895117690447537 
0 0 0 0 
0.00842202943405033 -0.0237416872569107 0 -0.1440139966907859 
0.2467619936455501 -0.09512895628309033 -0.08905213083279113 -0.08039979781588227 
0 0 0 0 
-0.7649546484277574 0.6334995487050001 -0.009523218510054936 0.2669560622871594 
0 0 0 0 
0 0 0 0 
0 0 0 0 
0 0 0 0 
0 0 0 0 
-0.6390442285478477 0.7327395049522296 0 -0.1932257027378027 
0 0 0 0 
0 0 0 0 
0.09692175012618279 -6.505213034913027e-19 -0.04738175472703992 0 
-0.08770256770635042 0.09682773440143418 -0.3898953806676044 0.09785633701797225 
0 0 0 0 
0 0 0 0 
0 0 0 0 
-0.1135709692507944 -0.5149854191865063 0.07463406707341627 0.1940597337859603 
0.6169717255497994 -0.2860176096056636 0 -0.1432465682765686 
0.2089520733499388 -3.469446951953614e-18 -0.3026119813693113 -0.07500513893353547 
0.06658709607076845 -0.1093714483629905 -0.1142705412214957 0.19308295670494 
0.04606168896829303 3.252606517456513e-18 8.673617379884035e-19 0 
0 0 0 0 
-0.5998851838920937 0.3163666292687005 0.3955562232687176 -0.2479886417480082 
-0.1202590085517035 0.6341101231701979 -0.03687279713153581 -0.2491962531901206 
-0.6475311894963237 -0.128239909641508 -0.03740186119605703 1.05159502781854 
0.4158192671610167 -0.2877972469031234 -0.1748511491809453 -0.1393869690193731 
0.07814682191935857 0 -0.0953021562987966 0 
0.1247810536665202 0 0 -0.06541763651930242 
0 0 0 0 
0.4831023848460472 -0.127227352721129 -0.1226211303233532 -0.03088009776155503 
0.2774432471851371 -0.002074443545673183 -0.05483322897157403 -0.1397587513572894 
0 0 0 0 
0.01752079867242944 0 0 -0.02817389348662648 
0.1528741188748522 0.08717904711331327 -0.4424564948264068 0.3388650500504143 
0.2540281343686817 -0.2982141224637168 -0.04701038894179758 0.207626884766876 
-9.540979117872439e-18 0 -0.01032989431472317 -1.734723475976807e-18 
0.04268788626978142 -0.02764364772578061 1.734723475976807e-18 -0.1619506302579606 
-0.6194271861182854 0.6806218306671352 -0.02730035463492033 -0.2619637924877464 
0.07437771140583534 2.818925648462312e-18 -2.602085213965211e-18 -0.05012296033798515 
-0.2672562608187857 0.73801320835426 -0.1450657845381629 -0.1927242526347906 
0.03409559113470741 -0.2530241130678536 -0.2037138080763047 0.4515172838655375 
0 0 0 0 
-0.204995591708101 -8.673617379884035e-19 0 0.204165517852343 
-0.3807486762130769 -0.2992063064900314 0.4990875349341219 0.594266225000205 
0 0 0 0 
-0.1201731875953812 -0.1635728716099809 0.5781486876040034 -0.3392108458749342 
-0.02418538883168477 0.5644620887165229 -0.009915852206345411 -0.3234209839513305 
-0.3063403739637856 -0.3914117137749976 0.2980079627821299 0.478249372906811 
-0.138370360548814 -0.212511656938076 -0.03938843311221806 0.4014845594432881 
-0.2746011992929716 -0.0974358925941728 0.453845093343314 -0.1081579548900414 
0.4435496351608086 -0.2659238824170176 -0.02258342537332967 -0.1811664438914266 
0.4063961098048688 -0.02354617607192051 -0.04868037441588532 -0.495599210469751 
-0.3787605896190633 -0.06905380612107723 -0.05142879884962225 0.4726417975883355 
-0.4208992319492406 0.4108531713204554 0 -0.02781435356676684 
0 0 0 0 
0.0792980755987792 -0.01701887494492921 -0.01378874155155285 0 
6.938893903907228e-18 0 -0.0363339776492826 0 
0.09797362095285213 -0.08635458394005983 0 0 
0.3881094141458153 -0.07608691922528715 -0.03357533174676883 -0.1358292189077198 
-0.2266591727532751 -0.04808042065659618 -0.1343647321370127 0.3224417270504984 
0 0 0 0 
0 0 0 0 
0.01485236531762936 -0.1869969817267356 -0.0890525618955571 0.2483256345694802 
0.518219225316163 -0.276476574731927 -0.05913125226602438 -0.07868534361389794 
0.01624854461173146 0 -0.009772610085521129 -0.07928203002189478 
0 0 0 0 
0 0 0 0 
0.007205271891117198 -0.04964337898501527 0 -0.02233144806332833 
0.0263406154995127 -0.0335866473178578 4.98732999343332e-18 -0.0298429144387026 
0 0 0 0 
0.0263406154995127 -0.0335866473178578 4.98732999343332e-18 -0.0298429144387026 
0 0 0 0 
0 0 0 0 
0 0 0 0 
0 0 0 0 
0.7068412712946235 -0.4410514916333349 -0.08905213083279113 -0.2208984512967471 
0.09579482912053194 -0.04953528143161113 0 -0.08972296645603141 
0.007652079626747414 0 -0.003483493883597693 0 
0 0 0 0 
-0.01472393689678908 -0.201552862628768 -0.0357078164340593 0.2423574502905422 
0.0493930649281329 -0.04305851151537123 0 -0.07093257124180449 
-0.441128187826231 0.6976712677425896 -0.1675849809305254 -0.2972463704113709 
0 0 0 0 
0 0 0 0 
-0.08406088400979927 -0.2161079919520241 0.4213424590496959 -0.1953181990227212 
2.005774019098183e-18 0 -0.0168072023838962 0 
0 0 0 0 
0 0 0 0 
0 0 0 0 
0 0 0 0 
0 0 0 0 
-3.469446951953614e-17 0.2470781221287274 0 -0.3585807249944615 
0 0 0 0 
0.3970960025145813 -0.304026379124176 -5.421010862427522e-19 -0.1899982870916805 
0 0 0 0 
0.01266624322624474 5.149960319306146e-19 0 -3.252606517456513e-18 
0 0 0 0 
0 0 0 0 
0 0 0 0 
0 0 0 0 
0 0 0 0 
0 0 0 0 
0 0 0 0 
0 0 0 0 
0 0 0 0 
0.2256449124750544 0 -0.1340685067848308 -0.08959562682307762 
0.07582131933852689 0.1946079807701437 -0.5892617301848807 -0.2903604775234278 
0.09295370815608919 -0.06014822164256992 -0.0953021562987966 -0.1847073345108083 
0 0 0 0 
0 0 0 0 
0.0726811220332816 0 -0.01708199323526679 0 
0 0 -0.03102032080606805 0 
0 0 0 0 
0 -6.938893903907228e-18 0 0 
0.3477960862785897 -0.1009681087950067 -1.734723475976807e-18 -0.4123491764926895 
0.04478407460653893 -1.734723475976807e-18 -0.06000836358072701 -0.03191479472544705 
0.1815977531493291 -0.2878409222183634 -0.01488337675227154 -0.06147728849188374 
0.3430146205247364 -0.07336706775976765 -0.07574850257022042 -0.06023760472570645 
-0.261283971423048 -0.3028486520434445 0 0.310480141361534 
0 0 0 0 
0.3302379389161003 0.2353911105015269 -0.2591509291005529 -0.3147720688087832 
0.09982024460024125 -0.05133097460115038 -0.005634029937908456 0 
0.06361636552428 -0.06580403624455468 -0.03962003833883782 -0.2171788686307246 
0.03791565079509623 0 1.734723475976807e-18 -0.1516743732453073 
0 0 0 0 
0.03935490308366573 -0.03184702120126356 -0.03105138392049058 -0.01679630536029697 
0.03935490308366573 -0.03184702120126356 -0.03105138392049058 -0.01679630536029697 
0 0 0 0 
0.08004723186557423 -0.4907216930892043 -0.2614323979974048 0.1829932064513779 
-0.1832870364918349 -0.04706921641284917 8.673617379884035e-19 0.2367041944043906 
0.01624854461173146 0 -0.009772610085521129 -0.07928203002189478 
0 0 0 0 
0 0 0 0 
0 0 0 0 
0.03253069327062641 -0.002328780871453327 0 -6.505213034913027e-18 
0 0 0 0 
0.4384576344374287 -0.157589023844775 -0.05340608395593891 -0.2200023063435348 
0.8665351173763202 -0.2933485555647544 -0.1463271588949943 -0.2176975226854134 
-0.009068229648911838 -0.4051228006668147 -0.02387870750112896 0.50837592602949 
0 0 0 0 
0 0 0 0 
-0.1173348250867972 -0.6748633132254463 0.4534818113708519 -0.1836261072456294 
0.387445235882828 -1.036444509229803 -0.21729231265587 0.5795442298765119 
-0.215978974211984 -0.2133779401655847 0 0.5147396242606426 
0 0 0 0 
0 0 0 0 
0 0 0 0 
0 0 0 0 
0 0 0 0 
0.1250379597651752 -0.04938651009533943 0 -0.03957843070114968 
0.04478407460653892 0 -0.06000836358072701 0 
0.1017665007674689 -0.02764364772578061 -0.0008881585992130022 -0.04481034342019224 
0.205598561170096 -0.1097803351642724 0 -0.1432960071117597 
-0.0490687996188891 -0.7800121043410669 -0.3551996084306641 0.4618177216902182 
0.1070936964592452 0 -0.03363714334857732 0 
0.1733363242436435 -4.77048955893622e-18 0 -0.001558970946103111 
0 0 0 0 
0.0582501973901863 -0.03021290786818849 -9.722551859462891e-05 -0.06666534916698713 
0 0 0 0 
0.0326915660940007 -0.1333673818350107 0 0.005461804714198238 
0 0 0 0 
0.1714587421342256 -0.07630044498780299 0 -0.2180154737368241 
-1.053067636482262 0 0.6898430827552247 0.631899390171069 
0.1576627488265751 -0.09005137108611663 0 -0.164987660261765 
0 0 0 0 
-1.006573088554126 -0.2483508088626346 -0.2934025014183448 1.190044357512955 
-0.2440622477671307 -0.1759325480462313 0.5752900990748961 -0.1366718488721012 
0.1346126613985654 0 -0.1524974835209723 -0.03996068730907461 
0.05884792932029639 0 8.673617379884035e-19 0 
0.2102900919816521 -0.1658765908890427 -0.03728200600276482 -0.2928107773694393 
6.938893903907228e-18 0 0 0 
0 0 0 0 
0 0 0 0 
0 0 0 0 
0.1094509892339875 0 0 -0.003147306843686074 
0 0 0 0 
0.02066564078475925 1.002761650398392 -0.108080554299134 -0.8293187069323187 
0 0 0 0 
0 0 0 0 
0.1326184018362996 1.301042606982605e-18 0 -0.00155897094610311 
0 0 0 0 
0 0 0 0 
-0.6473249318196403 0.3053309034222891 0.5546528575232634 -0.127790774102596 
0.2446121198188788 -0.5757224796611531 7.148958074826295e-19 -0.1020170048608572 
0 0 0 0 
0.1154823228458013 0.01057818842280433 -0.0908259940423346 -0.2255740723412158 
0.02958344898046808 -0.03734251295482009 -0.05483322897157403 0 
0 0 0 0 
0.5298942779783832 -0.2191433542727177 -0.3945254042901764 -0.1811830485400737 
0.2567926769023987 -0.08860215732353625 -0.04800684632627293 -0.01598377957388701 
0 0 0 0 
0.1153837793855905 0 -0.09295365020572395 0 
0.06960813873299984 -1.301042606982605e-18 0 -0.04079491813353061 
-0.3002420736306153 -0.2607391682643744 0.517020726196036 -0.08669414354784673 
-0.04322692369871892 -0.3931739721880029 0.4791296589772047 -0.1089892129967193 
-0.2874254823718536 -0.05280490313733469 0.2668484041558208 -0.1681760622537713 
0.1053922530767428 8.673617379884035e-18 -0.006075010052258667 -0.03602934498478753 
-0.09767135924169787 0.182278731005007 0 -0.02781435356676685 
-1.017432678873031 -0.05244130836988807 -0.3829217244335216 1.263473056339757 
0 0 0 0 
0 0 0 0 
0 0 0 0 
0 0 0 0 
-0.4311016606431681 -0.5347131274883339 -0.009877919905652115 0.8819439834673702 
0 0 0 0 
0 0 0 0 
0 0 0 0 
0.09648525035593081 0 -0.09622726539009555 0 
0.2024040432821328 -0.1326595127356784 -0.07327768067334271 -0.06051091739719126 
-0.9119002158430451 0.9867970775266885 -0.102651574273264 -0.1667648790704792 
-0.1480823418378439 -0.2876094386022606 -0.005971765581096342 0.5273957811741259 
1.084202172485504e-19 -0.0004353490670322285 -0.003054033704513906 -0.01142488909244764 
0.6019449396108123 -0.4623592553750421 -0.2149876922487507 -0.5292385989480437 
-0.7678958314343594 0.1556927857328349 0.2132326113064481 0.3353256746835722 
0.006394768605962292 -0.01835499346121204 0 0 
-1.473180179241453 -0.08245780014353168 1.367608811604578 -0.1577461632441273 
0 0 0 0 
0 0 0 0 
0 0 0 0 
0 0 0 0 
-0.0553613080773928 -0.01391389966686568 0.009660413129582513 -1.680513367352532e-18 
0.6789591960087831 -0.3408755966070086 -0.05295590043053558 -0.2261845631870775 
0.2781915077962886 -0.1677885742070961 -0.05619758143710279 -0.260344590142945 
0.05625764041177516 -0.05582759500725266 -0.09622469719748283 0 
0.4800632917050276 -0.6896952423362632 -0.1434478865523995 -0.09550018130725173 
-0.8087656247641145 0.4088714961244536 -0.1599573910426696 0.3630794173261941 
-0.640733330388523 -0.0431491011198492 0.3808579914947157 0.3580914281155926 
0.545331890944577 -0.2538235203966208 -0.03038188406151577 -0.3752067815870839 
0.2236538756397909 -0.001081392525869086 -0.1004166994854172 -0.1633963828199257 
0.1823260512534725 -0.2239217735723734 -0.1992076131980421 -0.006347758784292496 
-0.08537087558478813 -0.09039015787531851 0.5319630163932951 -0.3118656160661411 
0.3558332458575121 -0.02659529692501398 -0.02461838058622616 -0.3862856297049525 
1.031267462166084 -0.4438446734283933 -0.09578259127952335 -0.5470157070377079 
0 0 0 0 
0 0 0 0 
0.1674298106907705 -0.1243188693803026 -0.07574251877472134 -0.2431022581347841 
0.1412447139900194 -0.5601465956654739 0.2132524821260606 -0.270185026109154 
0.5625519554519934 -0.2146356608872043 -3.469446951953614e-18 -0.3338443167240069 
-1.103241534501118 0.8556055420794877 -0.3884065850211641 0.7883225173453494 
0.09664871460432091 -0.2225684195755554 -0.05516075174593236 -0.08280985790039751 
-0.1728542677722954 -0.07480095259394233 -0.04027539633867827 0.4620204934293467 
-0.6993430752349147 -0.006649365719403545 0 0.6952499060807947 
0.1649571487724019 -0.005826585241178831 -0.1947312299467796 0 
0.3714695396091839 -0.2681661681139086 -0.5860854990196469 -0.2220929083899839 
-0.1411997907676808 0.4277424231482382 -0.04969695627883734 -0.1664525492240891 
0.06459560096734096 -0.04226848038717503 0.1772688437949933 -0.360406645247841 
-0.245073553145273 -0.1590286269569232 0 0.4954600166603999 
0.03381395391103543 0 0 -0.1188739795564307 
0 0 0 0 
0.07030376028061139 0.07874310528971994 -0.07352573080027539 -0.1924071411283287 
-0.3379133632124347 -0.2408899837723729 0.5677024403530619 3.469446951953614e-18 
0 0 0 0 
0 0 0 0 
0 0 0 0 
-0.340138955545924 0.2210384872375077 -0.0004117349225833934 0 
0.5663363398083249 -0.4835681589733498 0 -2.168404344971009e-19 
0.05079412664880391 0 -0.004165222776725313 -0.1010773349011017 
-0.2540579439383936 0.1901242023709022 0.3258565065770045 -0.1989913050805908 
-0.41574589570853 -0.08099997679043579 0.5056922746570807 0 
0.6149399792733168 -0.2478404053880857 -0.1554921707931015 -0.1308145646576601 
0.40474872460383 -0.01391389966686568 -0.2364971987564729 -0.01277681616915264 
-0.1445400690352187 0.4632156163154831 -0.2774318278177189 -0.5163803502307254 
0.06146752131111365 -0.1117414535137572 -0.1171096287613357 0 
0.009478197932415817 0.1791823606632388 -0.0132685052559867 -0.1523355844962866 
0.5022284886273438 -0.1723818403907274 -0.1020136631793098 -0.05687527521027582 
0 0 0 0 
0.1785466484875907 -0.008854791102746222 -0.1956686536024191 -0.1059006633600851 
-1.204777888442703 0.4376932448158171 0 0.6023589755848867 
0 0 0 0 
0.5328781046701452 -0.3687456138901637 -0.0987654311689361 -0.6045406871530518 
0.05188849273240941 0.2376540863148824 -0.1433534692557862 -0.0806627407868086 
0.07089142054030567 7.806255641895632e-18 -0.05830454449114455 0 
0.038846443338564 -0.670753543642353 -0.06711572762367672 0.7832451277137151 
0.2892784328044039 -0.1058615148185749 -0.220048737211257 6.993104012531504e-18 
-0.5824632688141431 -0.03729113826387109 0.5130290113077882 -3.469446951953614e-18 
0.1989336904614271 -0.1473431621287355 -0.1845558190442494 -0.05250058460120631 
0.1533513769844289 -0.1018346333292425 -0.1845558190442494 -0.0525005846012063 
0.05476548129130506 -0.01580713879847796 -0.0615576974333417 -0.0352124694748077 
0.1137733455779013 -0.1067869476027117 0 -0.03191479472544705 
0.6231797682670065 -0.3676998163829229 -0.03811525759081946 -3.469446951953614e-18 
0 0 0 0 
-0.07146765768725595 0.0898091532104064 -0.1591163450673095 0.1088197457330753 
0.2391573668811348 -0.5625120373204723 -0.1810303659276293 0.3192920340293034 
-0.174798677243931 -0.264712260094529 -0.04050393743726758 0.3219481394447505 
-5.204170427930421e-18 -0.02268881350903412 0 0 
0.3842704360513296 -0.189179597319946 -0.3242206783319499 -0.1835681613468763 
-0.7442950103539959 1.012690086387331 -0.02668067180711829 -0.5247828222186246 
8.673617379884035e-19 0 -2.168404344971009e-19 3.469446951953614e-18 
0.1666794425247798 -0.04031383245116715 -0.08510266270869873 -0.1363134789723061 
-0.2508856942341317 8.673617379884035e-19 -0.108587297067252 0.4153597203742286 
0.2241172603612768 -0.1750251504255869 -0.02067659549390054 -0.0431026355352107 
0.3379590172925045 -0.2610441557054298 -0.2912479684494993 -0.06577741685437237 
-1.734723475976807e-18 0 0 0 
0 0 0 0 
0.09762306083623193 -0.002281939889429875 0 -0.01328628106061513 
0 0 0 0 
0 0 0 0 
0 0 0 0 
0 0 0 0 
0 0 0 0 
0.006001882670336291 -0.007496766881113126 3.469446951953614e-18 0 
0.1327017289259904 -6.938893903907228e-18 0 -0.1305951610157892 
0.2036049030464875 -0.09413843282569831 0 -0.01277681616915264 
0 0 0 0 
0 0 0 0 
-0.4212280798618842 0.6412198955146956 0 -0.1160470603983799 
0.004636171824352255 0.1323219452847884 -2.818925648462312e-18 -0.1072801550182131 
0.05268123099902539 -0.0671732946357156 9.974659986866641e-18 -0.0596858288774052 
-0.01877678451331018 -0.4732616887536145 0.3898751782157446 -0.3395857483842392 
-0.6086641058366088 -0.09104801371504129 0.6218264085448393 8.673617379884035e-19 
0.4570054184597563 -0.2593502115037281 -0.4806417246854198 -0.1809988302450942 
0.1755297934274614 -0.1381405580701776 0 -0.05319372951002823 
0.5343678169357455 -0.1291512534788338 -0.2146600613567486 -0.391404507465611 
0 0 0 0 
0 0 0 0 
0 0 0 0 
0 0 0 0 
0 0 0 0 
0 0 0 0 
0 0 0 0 
0 0 0 0 
0.2034852851201675 0.1245546959196016 -0.1694023143806503 -0.3455833714336858 
0.562098698353282 -0.127227352721129 -0.1669031135936508 -0.2266633697680742 
0 0 0 0 
0.3142588171540404 -0.01176299667778967 -0.05917594966162523 -0.2102285649603193 
0.738240613101107 -0.4345430420690534 -0.3204804470775807 -0.3268816726139311 
0.07089142054030567 -1.734723475976807e-18 -0.0722327889950701 0 
0 0 0 0 
0 0 0 0 
0.1746366167519454 -0.1398512111103364 -0.04751954580782414 -0.05626844706152958 
0 0 0 0 
0 0 0 0 
0.2327262627593901 -0.2341753222331991 0 0 
0.2327262627593901 -0.2341753222331991 0 0 
0 0 0 0 
0.1366048792150375 -0.0707114304412181 -0.04599873076060149 -0.02082473128667131 
0 0 0 0 
0 0 0 0 
2.514605666561045 -2.392602597270205 -2.012308863378172 -2.009681529935932 
0.4474485025081853 -0.3222307111333741 -0.2222648255146697 -0.1752315550055949 
0.1001081283087652 -0.007716050031917191 0 0 
-0.7057529626809166 0.2830920246327987 0.4440150274007029 -0.008158082982232546 
-0.3399353790010515 -0.1701587907780438 0.4920288800052823 -0.0299909467924142 
0.1932840201178562 -0.07177469250168123 -1.734723475976807e-18 -0.1411196828038409 
0.5404417067184543 -5.204170427930421e-18 -0.1008155150995118 -0.3645248380683733 
0.08636636686033987 -0.007385531401610891 -0.09102868438679507 -0.03028237881566403 
0.04338728039063468 -0.04550852879949301 -0.04466670786606889 0 
0.520339622071467 -0.2265223337977648 -0.4306974988776564 -0.2128591538001647 
0.07452982932749001 -3.469446951953614e-18 0 -0.1082060457088606 
0.44546677665 -0.08143640859728619 -0.2462562801706921 -0.3773039940295131 
0.1552222213728739 0 -0.2418652183276022 -0.09239128757525041 
-0.7543789497807154 0.2858205838541311 -0.008370180251890083 0.4297997859097694 
-0.1044739427257123 -0.2942400939544642 0.08382746759096059 -0.5245791953806701 
0.6758737418296736 -0.1270776944384045 -0.1023424024821906 -0.2875380764272875 
6.938893903907228e-18 -3.469446951953614e-18 5.637851296924623e-18 3.469446951953614e-18 
0.1776014795310193 -0.04953528143161112 -0.0595624847048472 -0.1183180957243529 
-0.1959748287144879 0.3729548748892097 -0.5829725356251463 0.4543444032562861 
0.4939854702117754 -0.1580484481508714 -0.1214449352845741 -0.06481559819961219 
0 -0.05263278906585565 0 0 
0.1869362143625455 -0.4360512046167674 0.2187771876122499 0.02831879648039812 
0.2461321502595719 -0.001329699283952336 -0.0170819932352668 -0.05876975635124421 
-1.046757843770814 0.999006254348614 -0.1264654311621687 -0.1011043165030825 
0.05794198594514969 0.2341156424965526 -0.125848090080671 -0.2187246319348726 
-0.4492572302608677 0 0.4231632332604893 0 
0.4029645502886074 0.5083932197152178 -0.03856757098400933 -0.8514347797410001 
0.3133080398531538 -0.2169111680518881 -0.01392824450392555 -0.05880519446551707 
-0.4117790293708597 4.336808689942018e-19 -0.02067659549390054 0.3132107812158526 
0 0 -0.1189283418491618 0 
0.7350866270718865 -0.1593592713846009 -0.202530572517107 -0.3439150348044465 
-8.673617379884035e-19 0 0 -0.02116551161968131 
0.112699363957906 -0.01789592799072264 0 -0.02533653728393362 
-0.3129036217400388 -0.08259834066756332 0 0.3246510845360217 
0.04290873439202141 -0.03874010554465622 -0.009712298439949587 1.734723475976807e-18 
-0.5767605355215379 -0.0999126779322759 -0.05183993071115367 0.5363842258049706 
0.6239556534550837 0.05125522754202157 -0.2318681665587476 -0.7825370917522656 
0.3121562166812627 -0.03283347244666948 -0.0709382696298322 -0.3117896073512164 
1.146303641516029 -0.6431139417530469 -1.20015810441829 -1.406240480092851 
0 0 0 0 
0 0 0 0 
-0.07094679321396451 0.2139999668871902 -0.09082599404233457 -0.1718077083148115 
0 0 0 0 
0 0 0 0 
0 0 0 0 
0 0 0 0 
0 0 0 0 
0 0 0 0 
2.003090543959546 -1.84407536786733 -2.006569826373482 -1.850472909933633 
0.1030325745525818 0 0 -0.07792721133787052 
0.4027459812001369 -0.336203818666647 -2.656295322589486e-18 -8.673617379884035e-19 
0.7688410795413679 -1.113907945587506 -0.4129640117317569 -1.296313810052991 
0.09374531854561084 0 0 -0.10243664821043 
0.04609064731103353 -0.2730019696932555 0 0 
0.5723242303546094 -0.2965415817066917 -0.004667599865585542 -0.4124506427547184 
-0.1302259683783147 -0.04645469891409609 1.734723475976807e-18 -9.75781955236954e-19 
-0.4299338968992466 -0.01781200860923447 0.1640579402730185 0.6274018193073979 
-0.4859481929348984 0.1882561564999797 0.4391196266715783 0.3748421374435561 
-0.04911125127239634 0.5609546888804481 -0.000411734922583393 -0.393876991944043 
-0.1120622333557952 0.2182281714066902 -0.04085181732295807 0 
1.387778780781446e-17 -0.1097770545769594 0 0 
1.08656411488333 -0.6629853692135178 -0.1775631445654943 -0.1954400033433382 
0.141713796133351 -0.04262275371020714 0 0 
0 0 0 0 
0.09579482912053199 0 0 -0.08972296645603144 
0.114487123271945 -0.04771249812709915 -0.1155660509950876 -0.02085126909185848 
1.267969098103086 -0.5637608895398408 -0.4874076462016108 -0.3547935562102856 
0.05825019739018625 -0.03021290786818852 -9.722551859460983e-05 -0.2470096260733881 
0.005514515217147146 0 -0.03782504991231342 0 
0 0 0 0 
0 0 0 0 
0.2140799179306565 -0.06417911591534183 -0.09622726539009555 -0.02932338633952151 
0.1179607537735889 -0.09842818991633807 0 -0.06820832283334116 
0.04606168896829301 3.252606517456513e-18 8.673617379884035e-19 0 
0.6920633406729699 -0.1278125689454903 -0.3336560121570198 -0.0448023057564094 
-0.2834654032333853 0 0 0.2733462414143485 
0 0 0 0 
0 0 0 0 
0 0 0 0 
0 0 0 0 
0.6576181789316604 -0.7919776080234505 -0.3789059415409812 -0.4768184072366272 
0.007652079626747414 0 -0.003483493883597693 0 
-0.8408969376805555 -0.01580713879847796 -0.0615576974333417 0.82967075671979 
0.0235742077501351 -0.07106943853097764 0 0 
0 0 0 0 
0 0 0 0 
0.2100898584184672 0 -0.2971064447546446 0 
-0.4655543560492445 0.8620363451417028 -0.01329958876344171 -0.1183304175567496 
0.4673072104146154 -0.222570760370363 -0.2273364516056054 -0.4464292755171795 
0.3175875036837689 -0.009943138879612812 0 -0.3199473907001075 
-5.204170427930421e-18 0 -0.04513019776050824 0 
0.2650555491846416 -0.4684256292934331 0.2660754454900179 -0.1125128822622256 
-0.5019445782388904 1.734723475976807e-18 0.495940761496798 -0.01219520690795591 
0.4396027778240086 -0.1175368863985951 -0.1180918062650013 -0.08500839170159048 
0.7647441242376166 -0.3535543777610922 -0.4799600131062824 -0.1193232372581748 
1.658645746273277 -1.455369651089605 -2.175761658762143 -1.594555075515898 
0.2542326917517857 -0.1124922335953165 0 -0.0938638062598235 
0.1325466377203873 -0.0559791479549291 0 0 
0.4497009055654572 -0.6963956619362272 -0.2395778964595425 -0.3011767920689469 
0 0 -0.01719649059740343 0 
0.008814285282716692 -0.1038615044209149 0 0 
-1.320423532940296 0.8284956625649026 0 0.5791607071715836 
-1.416707235744293 0.305701205501534 -3.252606517456513e-18 1.171678870089499 
-0.1447125160575776 -0.2401776689394717 -0.02675541332801928 0.2647600076940558 
-0.177329355476258 0.2777272566657045 0 -0.116822934270213 
0.4847074437719063 -0.1554612188518525 -0.1007100828742684 -0.1924471607364545 
0 0 0 0 
0.07335037983685176 -0.480402029063823 -0.1180452217456087 0.2951235632696539 
-0.5500640467729584 0 0 0.5617764081271432 
-0.2552142803582035 0.4635396410659562 0 -0.1989913050805908 
-0.2911382639976017 0.3602308286918506 0 -0.03166491736669208 
-0.3745751902064012 -0.1253361869048467 -0.04326367990021496 0.5808682668059975 
0 0 0 0 
0 0 0 0 
0.2928887924890979 -0.1310489494254252 4.336808689942018e-19 0 
0 0 0 0 
0 0 0 0 
0 0 0 0 
0 0 0 -0.0161279338213926 
0 0 0 0 
0 0 0 0 
0 0 0 0 
0 0 0 0 
0 0 0 0 
0 0 0 0 
0 0 0 0 
0 0 0 0 
0 0 0 0 
0 0 0 0 
0 0 0 0 
0 0 0 0 
0 0 0 0 
0 0 0 0 
-0.3151615545007121 0.1611954012500445 -0.01453632828674239 0 
0 0 0 0 
0 0 0 0 
-0.3484766125800174 0.4856725685826111 0 -0.1783352726487169 
0.7443081857517237 -0.7382445421148526 -0.3148232343246095 0.2093635534522109 
0.7662512646460207 -0.4650095231668149 -0.004165222776725315 -0.3578739940142993 
0 0 0 0 
0 0 0 0 
0.1487303355241582 4.98732999343332e-18 -0.08510266270869873 -0.0803947276394372 
-0.8158219721178482 -1.127570259384925e-17 0.7523851203896689 -0.009857513241366815 
0 0 0 0 
-0.325238435224878 -0.02383449276508354 0.4788463058316148 -0.1052711943037486 
-1.019924150066938 -0.2839540530743726 0 1.213305258311112 
0 0 0 0 
0 0 0 0 
0.0923357636154646 -0.07158441835235538 0 -0.1629584460243007 
0 0 0 0 
0 0 0 0 
0 0 0 0 
0 0 0 0 
0 0 0 0 
0.5585611445543098 -0.1934967554903156 -0.4397595664994465 -0.1470682479663628 
0 0 0 0 
0.03104356483553091 -0.01290393463917371 -0.1039559472672976 -0.0894905746928884 
0 0 0 0 
0 0 0 0 
0 0 0 0 
0 0 0 0 
0.3649305454423435 -0.05948070993412441 -0.001264961705662134 -0.1137224628020905 
0 0 0 0 
-0.5768982741847327 0.6239854229509283 -0.1476331167464129 -0.06987118879957992 
-0.07429001512448463 0.25204382136285 0 -0.06337907594085483 
0 0 0 0 
0 0 0 0 
0 0 0 0 
-0.8411179835581334 -0.1940097708762809 0 1.176554684343784 
0 0 0 0 
0 0 0 0 
0 0 0 0 
0 0 0 0 
0 0 0 0 
0 0 0 0 
0 0 0 0 
0 0 0 0 
0 0 0 0 
0 0 0 0 
0 0 0 0 
0.09825499093709647 -0.1117825305065635 0 0 
0 0 0 0 
0 0 0 0 
0.8044508716492756 -0.4512121902756512 -0.1060025469427778 -0.2167197602741991 
0.2169209207437649 -0.05428939591844481 8.673617379884035e-18 -0.2819361550180943 
0.3121562166812627 -0.1417714865823345 -0.0709382696298322 -0.3117896073512165 
0 -0.06625440934564487 0 0 
0 0 0 0 
0 0 0 0 
0.1468013229469108 1.387778780781446e-17 -0.002548360905439527 -0.1609081135909774 
0 0 0 0 
-0.3261158381705638 0.5020534065953712 -0.02413343910727318 -0.5011337886741868 
0 0 0 0 
0 0 0 0 
-0.5213843367938666 0.7006913839225185 -0.01062497364499171 -0.1702441717127675 
0 0 0 0 
0 0 0 0 
0 0 0 0 
-0.6750627711166752 0.5271630094910325 -0.0249785170529144 -5.204170427930421e-18 
0 0 0 -0.1242987538659139 
0 0 0 0 
-0.4824756783080008 0.6704001811744379 0 -0.4092976501707059 
0 0 0 0 
-0.3021067706068897 0.4852843693322715 0 -0.08570256777127433 
0.2547498438668046 -0.261438256873514 -0.1336840553596677 3.252606517456513e-19 
0 0 0 0 
0 0 0 0 
-0.5443836937740236 -0.02574286763716681 0.2314919486046089 1.409462824231156e-18 
0 0 0 0 
-1.214670777075276 0.2153358362511905 0.295828110099124 1.152377665803319 
0 0 0 0 
0.7606964453736621 -0.5053560537071129 -0.6667918083117744 -0.4026802005800808 
0 0 0 0 
0.5191405188528975 -0.1320228726914467 -0.07574850257022041 -0.01145137023576774 
-0.3508060726766278 0.305936824859621 -0.2424700540797724 0 
-0.6740028358763849 0.2501423323226708 0 0.46146471367669 
0.1236197865581903 -0.1184138537016602 0 0 
0 0 0 0 
-0.02507634936514664 0.2000986906718709 -0.2132615872081044 -0.07185413368164634 
-0.2787966811843604 0.1843432031381377 0 0 
0.06817283657693798 3.469446951953614e-18 -0.03975569426899837 -0.1052114402471498 
0.2962267960792945 0 -0.02841824155896025 -0.1324852327992534 
0.4481510165469276 -0.6605101818167379 -0.0616496391809072 0.2028654777057054 
0.4381441504325445 -0.3830558941152759 -0.01301405220398797 -0.1990488562904787 
0 0 0 0 
0 0 0 0 
0.8337072596601237 -0.5479096537983861 -0.2789789256123251 -0.5846990131630423 
0 0 0 0 
0 0 0 0 
-0.7991772917413066 6.938893903907228e-18 1.038122632160583 -0.1906749823228365 
0.03481767691156194 0 -0.01235582044960469 0 
0.0215133032613548 0 -0.000337097326910052 3.469446951953614e-18 
0 0 0 0 
0 0 0 0 
-0.7813259603432487 0.1696704674999901 0.6172934219985782 -0.02781435356676685 
0.2261070466788153 -0.01668857690470009 -0.02253483524413433 -0.1483098415402491 
-0.4948738106814131 -0.1165746129133135 0.7512630397783064 0 
-7.589415207398531e-19 0 0 -0.1780898152122042 
-0.2802593192816664 0.3343218305144016 0 -0.04284601116631242 
0 -0.03674038731673467 1.301042606982605e-18 0 
0.6080100497824278 -0.3173471913828764 -0.07709235059845533 -0.2276784793631806 
0.3763818182322485 -0.1382182878447559 -0.04423247476906045 -0.04893507908954516 
0 0 0 0 
-0.2822374529471876 -0.05573530019902572 -0.1041326781594429 0.546525863473447 
0.07289566523073317 -1.734723475976807e-18 0 -0.02748562127008435 
0.7619170823096484 -0.04998193160977417 -0.2586764521529493 -0.4454820031163714 
0.07986491013601146 -0.02775897228176585 -0.009772610085521126 -0.1755457202894412 
0.1479012722566673 -0.01237877370844537 -0.1528075943169481 -0.1290920311455402 
0.07542333123664242 -0.01237877370844537 -0.05658032892685257 -0.1290920311455402 
0 0 0 0 
0 0 0 0 
0 0 0 0 
-0.06947883897164385 0.1396368856234713 8.673617379884035e-19 -0.07619761281370441 
0.10753500529018 -0.1604374552699226 -0.1521343498082262 -0.2372093699403244 
0.02710621663742419 0.1451186795386291 -0.09032574075201466 -0.1542950963902131 
0.1488435673041258 -0.1820089612681441 -0.01270972212368185 -0.0429657398409076 
0.4871097252676784 -0.2211485620487145 -0.1903207285631168 -0.1882841723586251 
-0.1003506495866979 -0.2855736504990057 -0.1880663949266887 0.307945751367907 
0.6416309098858752 -0.4835681589733498 0 -0.06931273777794716 
0.1919136492378737 -0.01415492430120897 -0.3837128863381432 -0.4768094936279965 
0.1784625504380378 -0.01538100892601237 0 -0.2137083869846386 
-0.3356328974702669 0.4402339516441505 -0.08531148433704927 -0.06499016486975974 
-0.3863308199320277 0.5385399169950454 -0.1325329302078647 -0.0764915216688177 
0.2175815368733053 -0.03967408981686817 -0.1665302125374259 -0.03729188541085322 
-0.5152767448436516 0.6198124320018519 -0.01211367818818023 4.336808689942018e-19 
0.5241578233905299 1.257674520083185e-17 -0.2476475461432761 -0.1048693001901506 
0.2846790900547455 -0.7815532694794527 -0.7028623846711916 0.5593860765009082 
0.06928260279408886 0.2109838104302233 0 -0.3530470891882656 
0 0 0 0 
0.5380452815248777 -0.145322419884208 -0.2013414348853821 -0.3586245440623842 
0.0582501973901863 -0.03021290786818849 -9.722551859462891e-05 -0.06666534916698713 
0.3094232132038968 0 -0.005339073418728448 -0.282978762053996 
-1.107604965269076 0 0.5197407864782926 0.5394053999020041 
0.01451429568420212 0.2410705232601711 1.734723475976807e-18 0.05297261040989526 
-0.2750069790129505 -0.3816952551022612 0 0.4107950310750585 
-0.2570628284606924 -0.1166788049303106 -0.02504043442482288 0.4730476116547719 
0.4593468306319187 -0.3774681203710298 -0.1014820849300826 -0.2499920998810274 
0 0 0 0 
0 0 0 0 
0 0 0 0 
0 0 0 0 
0 0 0 0 
-0.9785407960946123 -0.1736697263360824 -0.2719764839320468 1.164613080676206 
-2.292985927563151 0.3623523777277281 -0.1756258417716248 2.249497997492687 
-0.2767052294024402 -0.4929957317132954 0 0.8029977064905545 
-0.7404067299461844 -0.1346295666383497 0.09033735183253719 0.9122125682258957 
-0.737021171985822 0.2440636160072384 -0.08916300370851112 0.6302269238089584 
-0.758803355313772 -0.1316407126614522 -0.07850693321049182 0.9598834405294671 
0.2288729953549128 0 -0.0412571250375518 -0.08270874704908233 
-0.7415981133621288 -0.01580713879847797 -0.06155769743334167 0.5932898261858587 
0.05476548129130506 -0.01580713879847796 -0.0615576974333417 -0.0352124694748077 
0 0 0 0 
0.6457683029390294 -0.2686456239533441 -0.08597030094759094 -0.2449993822888824 
0 0 0 0 
0 0 0 0 
-0.1036430706230069 -0.2438547118217131 0.5341943994410552 0.06467492539003558 
-0.01810147701215044 -0.09886071111455891 0.359825990125098 -0.1124773338229489 
0.2459644253683226 -0.147806457820413 -0.1239046174553898 -0.06346635413546617 
-0.2346127046815422 0.4467304157361088 -0.05424572410183411 -0.04091492637452621 
0 0 0 0 
-0.08404022281918876 -0.315216011439966 -0.04050393743726757 0.5142596741608262 
6.938893903907228e-18 0 0 -0.04401289787249375 
0 -0.05263278906585565 0 0 
0.3538241407335653 0.004913263200426183 -0.3954690754784368 -0.1668108738917639 
0 0 0 0 
0 0 -0.0177978583993259 0 
0.1170040274055219 -0.1231460565513952 -0.01413383042477501 -0.09262478301922729 
0.09631896161967282 3.469446951953614e-18 0 -5.204170427930421e-18 
-0.1120622333557952 0.1874815453001622 -0.04085181732295807 0 
-0.001598591368772134 0.4450559597511687 -0.03347233084635587 -0.1138279708043455 
0 0 0 0 
0 0 0 0 
0 0 0 0 
0.1102419572325628 0.1131432098540227 -0.106077637331996 -0.2366361914487058 
0.2242146707706266 -0.0133392669514819 0 -0.2020830274510595 
-8.673617379884035e-19 0 0 -0.02116551161968131 
0 0 0 0 
0.01743033332747002 -0.06971047425228787 0 -0.03638074383399156 
0 0 0 0 
0 0 0 0 
0 0 0 0 
0 0 0 0 
0 0 0 0 
0 0 0 0 
-0.3425557871954418 -0.1950367866690168 0.5010254257398106 -0.05687527521027582 
0 0 0 0 
0 0 0 0 
0.1300833270300287 0.0415364413417553 0.3450971319030565 -0.7968307350560919 
-0.02283136470286016 -0.196792719034659 0.2013580861349298 -0.05570584441568122 
0.3383732170522294 -0.09938614653262418 -0.1576990863458089 -0.3755318024969648 
0.04406712418202412 -0.0293085132761898 -0.0174948991242898 0 
0.04406712418202412 -0.0293085132761898 -0.0174948991242898 0 
0 0 0 0 
0 0 0 0 
0 0 0 0 
0 0 0 0 
0.002112963399592729 0 -0.009349549026875736 0 
0 0 0 0 
0 0 0 0 
0 0 0 0 
0 0 0 0 
0 0 0 0 
0 0 0 0 
0 0 0 0 
0 0 0 0 
0 0 0 0 
0 0 0 0 
0 0 0 0 
0.555437658080686 -0.1738508996815915 -0.0905039215124907 -0.1842998337485724 
0 0 0 0 
0.03619363799643078 0 0 -0.02414281519483712 
0.04606168896829301 3.252606517456513e-18 8.673617379884035e-19 0 
0 0 0 0 
0 0 0 0 
0 0 0 0 
0.2340537384077696 -0.1380955191458437 -0.08410298632438831 -0.1795629702919492 
-0.07534177171683334 -0.07314506231986037 -0.04206312068883143 0.2276386470300716 
0 0 0 0 
0 0 0 0 
0 0 0 0 
0.05476548129130506 -0.04836633170483195 -0.0615576974333417 -0.0352124694748077 
0.05476548129130506 -0.01580713879847796 -0.0615576974333417 -0.0352124694748077 
0 0 0 0 
0 0 0 0 
0.1184696435838292 -0.2005055129722461 -0.03696706184972898 0 
0 0 0 0 
0 0 0 0 
0 0 0 0 
0.2485074904630269 -0.01297433073613346 -0.1068536668448216 -0.004757339925801286 
0 0 0 0 
0.4951757251079195 -0.1443208796465287 -0.06057142952377217 -0.3144654038309429 
-0.5786645230894574 -0.03611342172455771 -0.008705441071967567 0.6251148930330346 
0.05279680328556752 -0.01790584881439156 0 -0.04273221909677549 
0 0 0 0 
0 0 0 0 
0 0 0 0 
0 0 0 0 
0 0 0 0 
0 0 0 0 
0 0 0 0 
0 0 0 0 
0 0 0 0 
0 0 0 0 
0 0 0 0 
0 0 0 0 
0 0 0 0 
0 0 0 0 
0.1341120020830519 -0.1391835431862551 3.252606517456513e-19 0 
0 0 0 0 
0 0 0 0 
0 0 0 0 
0.5218977927026515 -0.2074924318071705 -0.1847840613226983 -0.1760501694796523 
0 0 0 0 
-0.0229410482486123 -0.0162957507178273 0 -0.02781435356676685 
0 0 0 0 
0 0 0 0 
0.2560752972927306 -0.1204771300484568 -0.1155660509950876 -0.09373264489289547 
0 0 0 0 
0.1057534604855049 -0.07276463192135763 0 -0.06302386255967023 
0 0 0 0 
0 0 0 0 
0 0 0 0 
0 0 0 0 
0 0 0 0 
0 -0.1273705766861883 0 0 
0.1043401385797074 -3.469446951953614e-18 -0.04142361472401149 -0.07500513893353544 
0.1950139670130664 -0.1805387751700044 -0.01138109812824716 -0.06431743727018988 
0.3879817220264407 -0.2950357483053048 0 -0.1806683803936287 
0.2444425378562134 -0.1410926418758105 0 -0.07950700976224745 
0 0 0 0 
0 0 0 0 
0 0 0 0 
0 0 0 0 
0 0 0 0 
0 0 0 0 
0 0 0 0 
-0.7179504278341483 0.8962805430997453 0 -0.01510738165892919 
0 0 0 0 
0 0 0 0 
0 0 0 0 
0 0 0 0 
0 0 0 0 
-0.4107104145817789 -0.04242709073066703 0 0.3610870802031805 
0 0 0 0 
0.042420391407359 0 0 0 
0.1181961757363917 0 -0.04445294726447281 -0.02969825846059054 
0 0 0 0 
0 0 0 0 
0 0 0 0 
0.7610836797589098 -0.1971011933613875 -0.1539444042288529 -0.2264108899355756 
-0.0187995124263811 0.4643883290758886 -0.08235519444734786 -0.1476108700179571 
0 0 0 0 
-0.4396958318925763 0.5776717588744382 -0.04976868538974363 4.336808689942018e-19 
0 0 0 0 
0 0 0 0 
0 0 0 0 
0 0 0 0 
0 0 0 0 
0 0 0 0 
0.1942291476109922 -0.07147855010686474 -0.06829863159793154 -0.0340691772114961 
0.3600366095528724 -0.3003141993800175 -0.1092811047408385 -0.2534469390563774 
0 0 0 0 
0 0 0 0 
0 0 0 0 
0 0 0 0 
0.6062435580495075 -0.2527707790184529 -0.1964629622969059 -0.402227254593437 
0.3706443054922604 -0.2061841427907333 -0.1889320539092875 -0.2090525341869245 
0.4756278267533546 -0.1103272495673368 -0.3296857248600703 -0.1186996488905791 
0 0 0 0 
0 0 0 0 
-1.034032362059848 -0.05719018833354931 1.04095622494256 -0.04079491813353061 
0.2870735424540443 -0.05601213748044029 -0.07523832243809046 -0.1043221359607778 
0.1726193014947287 0.3353726594777756 -0.1203576205364777 -0.6445366723264228 
0.1804256412567637 0 -0.1964629622969059 -0.1336951103938387 
0.1632684591351255 -0.271309595284157 -0.2145494020590124 0.2444574353646148 
-0.4568701088552268 0.5034716247190633 0 -0.1606520922076639 
-0.05726638353048656 0.1836703430907156 -0.1310305109283043 -0.08018441295590001 
0 0 0 0 
0 0 0 0 
0 0 0 0 
0 0 0 0 
0 0 0 0 
0 0 0 0 
0 0 0 0 
0 0 0 0 
0 0 0 0 
-0.8971591743225888 1.040834085586084e-17 -0.1572951425617286 1.165286404103284 
0 0 0 1.734723475976807e-18 
0 0 0 0 
-0.4370302724608713 0.5579252431668312 -0.03829003136502855 0 
0.5847136788944636 -0.2653570175544518 -0.1238075466861234 -0.22003213565455 
0.2291753736363315 0.440548387142619 -0.6159772211458184 -0.4834903005429814 
0 0 0 0 
0 0 0 0 
0 0 0 0 
0 0 0 0 
0 0 0 0 
0 0 0 0 
0 0 0 0 
-0.7827107978870002 0.2040743871663609 5.204170427930421e-18 0.6755531991423048 
0.1071136652872596 0.1510877432116075 -0.06502123329711723 -0.08971222201304777 
0.4015029219211186 -0.1351475496304357 -0.004165222776725303 -0.164789741373244 
0.226190728623094 -0.02793079996881562 -0.167894423672916 -0.1423191237595549 
1.049097841312792 -0.5688031421364652 -0.2142685172875487 -0.4007672414388028 
0.153037933352657 -0.1508105283691958 0 3.469446951953614e-18 
-4.411142132614484 3.839926268962278 -0.677057967001466 0.3076232616581375 
-0.925485607206968 0.8587420396594293 -0.001607266529785525 0.330759504273144 
-0.743795515604476 1.106235648910298 -0.1141784137571891 -0.580634841393061 
-1.366745000012391 1.222173199660843 0 0.3773516487729876 
-1.452062506672644 1.784815471934933 -0.2074661889959302 -0.5224103592455287 
-1.005739603184572 1.154206691674466 0 -1.084202172485504e-19 
-0.8405801141569139 0.2663596957183328 -0.1010002417855334 0.8032967158671942 
0.6090222471296785 -0.2738893658499452 -0.3343716522695682 -0.1932873163901494 
0.0118345368622976 0.3087212203654998 -0.2106368313598377 -0.1020170048608572 
0.7201766197455913 -0.5085142736621037 0.01491826250432909 -0.6112501410804886 
0.20167828698394 -0.1797357358607439 0 -0.07902717077098195 
0.2662395225299335 -0.3273137360847839 -0.04183657487901942 -0.1404108444504007 
0 0 0 0 
0 0 0 0 
-0.07908935126570782 -0.3589425945918488 0.7340146363428343 -0.310749666191162 
0 0 0 0 
0 0 0 0 
0 0 0 0 
0 0 0 0 
-0.3854311666424591 0.3741999991718802 0 0 
0.2339105116787434 -0.04729939854566428 0 2.168404344971009e-18 
0 0 0 0 
0.3047998960340598 -0.06942094835910954 -0.2060069412956808 -0.2615398735727086 
0.2351790817150907 -0.002074443545673183 0 -0.1044309797406993 
0 0 0 0 
0 0 0 0 
0 0 0 0 
1.061004783345233 -0.6730874395979852 -0.07389151570890652 -0.3050906940114272 
0 0 0 0 
0 0 0 0 
0 0 0 0 
-0.2175277638178653 0.5596061866115998 -0.1411879261381168 -0.2791412757700875 
0.496679255288935 -0.4479931048342185 -0.3225503281802249 -0.1446581518575358 
0 0 0 0 
-0.2692457109912192 0.08181100422435079 -0.4663722520271811 0.4286577023061072 
0.2914355726322889 0.2537325605790707 -0.4171919112904003 -0.2241774409055066 
0 0 0 0 
0.1608303567637934 -0.008478611503284888 -0.04300719136138062 -0.1679395662852527 
-0.4376449409261165 -0.6143297230595053 -0.01215319816110997 0.9955795842026388 
0.4428481996976066 -0.05465388294580525 -0.1143649893702625 -0.1034321753856161 
0.2018664035785015 -0.05465388294580525 -0.01405115389460637 -0.1034321753856161 
-1.056602034789153 1.047451286677439 -2.602085213965211e-18 -0.1982323613122831 
-0.3010827327513896 -0.1262645192299724 -0.1282156710708262 0.1131088109408623 
0.3143067173187952 -0.04953203030128889 0 -0.1842998337485724 
0 0 0 0 
0 0 0 0 
0 0 0 0 
0 0 0 0 
0 0 0 0 
0 0 0 0 
0 0 4.336808689942018e-19 0 
0 0 0 0 
0 0 0 0 
0.3463018758657774 -0.3702807884698208 0 -0.08892095219057883 
0.1247810536665202 0 0 -0.06541763651930242 
0 0 0 0 
0 0 0 0 
0.0147197594475762 0 0 0 
0.0147197594475762 0 0 0 
0 0 0 0 
0 0 0 0 
0 0 0 0 
0 0 0 0 
0 0 0 0 
0 0 0 0 
0 0 0 0 
0 0 0 0 
0 0 0 0 
0 0 0 0 
-0.8858321341167492 0.3233909226568273 -0.04050393743726757 0.5142596741608262 
0.5757918383027378 -0.375885104495492 -0.09875179120043537 -0.3025650259674136 
0 0 0 0 
0 0 0 0 
0.08622903449320887 -0.0761272767355298 -0.0487198866488384 -0.02837000863866442 
0 0 0 0 
-0.1372080600376583 0.2358770221703822 -0.03023496881588885 -0.03858903509630925 
0 0 0 0 
0 0 0 0 
0 0 0 0 
0.1319651717189053 -0.02180348080224791 -0.005944908153032576 -0.07608664950689548 
0 0 0 0 
0 0 0 0 
0 0 0 0 
0 0 0 0 
0 0 0 0 
0 0 0 0 
0 0 0 0 
0 0 0 0 
0 0 0 0 
0 0 0 0 
0 0 0 0 
0.1144871232719449 -0.04771249812709914 -0.1155660509950876 -0.1073450854385301 
0 0 0 0 
0 0 0 0 
0 0 0 0 
0 0 0 0 
0 0 0 0 
0 0 0 0 
0 0 0 0 
0 0 0 0 
0 0 0 0 
0 0 0 0 
0 0 0 0 
0 0 0 0 
0 0 0 0 
0 0 0 0 
0 0 0 0 
0 0 0 0 
0 0 0 0 
-0.149204223896847 0.4691850831116379 -0.05315724529316068 -0.2225164521693841 
-1.232444207485925 0.2094317200427827 1.471766111374466 -0.4137989121865464 
0.7352692429692945 -0.2323634184443031 -0.2891698459796264 -0.4726726550447877 
-0.4649468310799714 -0.2064607423163567 0.3003895957262997 0.3387285189031811 
-0.2069264068660077 0.2262880847091434 -0.08250936529139839 -0.2106890345999369 
0 0 0 0 
0.1451980653465692 -0.009188306756877275 0 -0.06875457800120226 
0 0 0 0 
0 0 0 0 
0 0 0 0 
0 0 0 0 
0 0 0 0 
0 0 0 0 
0 0 0 0 
0 0 0 0 
0 0 0 0 
0.2549929249337733 -0.1374115631309895 0 -0.08328350539960234 
0 0 0 0 
0 0 0 0 
0 0 0 0 
0 0 0 0 
0 0 0 0 
0 0 0 0 
0 0 0 0 
0 0 0 0 
0 0 0 0 
0 0 0 0 
0 0 0 0 
2.081668171172169e-17 0 0 -0.04322297425226063 
0.2243525043889154 -0.02331299484316504 -0.04024544423833981 -0.05815535140129989 
-0.1150773292633342 0.5127724734730993 -0.6119315056831663 -0.2078569371378163 
0 0 0 0 
0.1215043014483749 -0.04348721587792047 -0.09976211807821386 0 
0.2929872277015063 -0.5359388534109998 -0.03036093892852344 0.05170146039204011 
3.469446951953614e-18 6.938893903907228e-18 0 -0.03278383279304188 
-0.4154018217322846 -0.06777412736573492 0.6245418721821332 -0.04227368912365932 
0 0 0 0 
0.176303623254396 0.6617209140234233 -0.1515459995958124 -0.8655443424299822 
0.4677059108653251 -0.2889567796137643 -0.009877919905652111 -0.0828076617660865 
0 0 0 0 
-0.1836025989377779 0.3430152613860662 0 -0.2076746032986343 
0 0 0 0 
0 0 0 0 
0.5319814787768193 -0.6156507155127011 -0.0427607847999821 0.1024909121267097 
-0.2677053241734502 -0.1863595567741018 0.264410753650744 -0.07877336866129665 
0.1173790062282834 -0.1015380826840169 -2.168404344971009e-19 -0.07565650359165454 
0 3.469446951953614e-18 0 -1.778091562876227e-17 
0 0 0 0 
0.9602590544073978 -0.9557968929380287 -0.7769701011341911 -1.027410533575865 
0.7186224360780398 -0.4246836942751779 -0.5977166602625167 -0.4412806120237486 
-0.8561221688949683 -0.04599007577563238 -0.1769865112847838 1.10601433089163 
0.09732116755895794 -0.06442578418415082 -0.01728119540107241 0 
-0.2255303237160999 -0.186831843523565 -0.0629466469578203 0.4229523749713414 
-0.1530453661039309 0.3899054271762448 -0.009877919905652115 -0.2666129964119298 
0.1911709364049864 -0.1777816903467344 0 -0.1858824892499996 
-0.61763973529842 8.673617379884035e-19 -6.505213034913027e-19 0.5867775870072466 
0.6808789877259239 -0.1272914157764662 -0.06506338075920556 -0.2112550933117357 
-0.3375354100582862 0.2980033116607874 -0.01486459201184487 -0.1914953981265418 
0.5514294452585019 -0.5747188556772835 -0.01003415453095947 -0.1707486767908653 
0.0399150317459823 0 0 -4.336808689942018e-19 
0.09020347153143654 -0.0699303294137464 -0.04160668183496491 0 
8.673617379884035e-19 0 0 0 
-0.4208824537659912 0.5805641394088964 0 -0.1947713894476398 
0.4136931474903752 -0.04725642353591007 -0.1072870269872201 -0.4141351928117215 
0.290724753325587 -0.1043469558976461 -0.1989740896159748 -0.1442060711929775 
0 0 0 0 
-0.7563312849102756 0.4517440786766341 0 0.2132251279166788 
-0.5901624817479972 -0.2969419278995775 -0.02504043442482289 0.6518768646575167 
0 0 0 0 
0.1108350797967924 -0.005826585241178829 -0.1799698272090102 0 
0 0 0 0 
0 0 0 0 
0.247047648960202 -0.1704511205116144 -0.01371405656769631 -0.1136805498260536 
0.116976965582516 -1.734723475976807e-18 0 -5.204170427930421e-18 
0 0 0 0 
-0.6077345011885616 -0.2109864746369743 -0.06560932670815886 0.626172723325644 
0 0 0 0 
0.0596723295847827 -3.469446951953614e-18 -0.04128220153773074 -0.10120269669997 
0.4215725491714425 0.1070832434608942 -0.1409661270182673 -0.3289008604947298 
0 0 0 0 
0 0 0 0 
0.1426982909498434 -0.2138050229426355 0 0 
0.1667075021585438 1.734723475976807e-18 0 -0.2755270694605518 
0.1667075021585438 1.734723475976807e-18 0 -0.2755270694605518 
0.3308809197354629 0 0 -0.391453878900511 
0.1025090388887381 -0.05121999695722831 0 -0.0557438387896616 
0.1025090388887381 -0.05121999695722831 0 -0.0557438387896616 
0.07201637744980639 0 -0.01218244717558452 -0.0429657398409076 
0 0 0 0 
0.8441660589752498 -0.4923625360244124 -0.08485399716406446 -0.2346673008526446 
-0.01878186788804801 0.1258949685246646 -0.1352679688743703 -0.1714709499079478 
0.1237387847689132 -0.3002543464580754 -0.1352679688743703 0.08849373937702429 
0 0 0 0 
0.3521580251334158 -1.105372075845821 -0.09125301376902394 0.5927958192791752 
0.1052633675270919 -0.02226111346888102 0 -0.05298896720560505 
0.0582501973901863 -0.03021290786818849 -9.722551859462891e-05 -0.06666534916698713 
0.0582501973901863 -0.03021290786818849 -9.722551859462891e-05 -0.06666534916698713 
0.1979141877932423 -0.1049348206890006 -0.01379059384927221 -0.1906727915079114 
0.0582501973901863 -0.03021290786818849 -9.722551859462891e-05 -0.06666534916698713 
0.0582501973901863 -0.03021290786818849 -9.722551859462891e-05 -0.06666534916698713 
0.1291683993808534 -0.04205099142414633 -1.517883041479706e-18 -1.040834085586084e-17 
0 0 0 0 
0 0 0 0 
0.04185067631177625 -0.05133097460115038 0 -0.06185137670356965 
0.04185067631177625 -0.05133097460115038 0 -0.06185137670356965 
0 0 0 0 
0 0 0 0 
0.1827046906506126 -0.06932136597055574 -0.03155466198267121 -0.1366718488721012 
0.293363698907821 -0.04817390343663969 -0.1060984534419297 -0.0299909467924142 
0.003994566865114665 -0.07302679242914376 0 0 
0 0 0 0 
0 0 0 0 
0 0 0 0 
0 0 0 0 
0 0 0 0 
0 0 0 0 
0 0 0 0 
0.01463187378478476 -0.02910297482094617 0 0 
0 0 0 0 
-0.7151236301540422 0.921819531592136 -0.02379024779943441 -0.161279046689808 
0 0 0 0 
0 0 0 0 
0.3183237028818924 -0.2810508164377065 0 -0.09264053208447906 
0 0 0 0 
0 0 0 0 
0 0 0 0 
0 0 0 0 
0 0 0 0 
0 0 0 0 
0 0 0 0 
0.3434740725387193 -0.2430278271531985 -0.0003370973269100589 -0.2142760018462341 
0.1112482204993162 0.2073550146951805 0 -0.1805708580381958 
0 -0.06001008902330075 0 0 
0 0 0 0 
0 0 0 0 
0 0 0 0 
0 0 0 0 
0 0 0 0 
0 0 0 0 
0 0 0 0 
0 0 0 0 
0 0 0 0 
0 0 0 0 
0 0 0 0 
0.4035260538887354 -0.2180353550682485 -0.2596288926449115 -0.189040822095116 
0.04196378317510932 -0.007615270609900581 -0.09655603892477814 -1.22514845490862e-17 
0.04930669607820651 0 -0.1630728537201333 -0.1440139966907859 
0 0 0 0 
0 0 0 0 
0.0235742077501351 0 0 0 
0 0 0 0 
0 0 0 0 
-0.02141080733640352 0.1887679186602359 -0.03357533174676883 -0.2637034585713376 
0 0 0 0 
0 0 0 0 
0 0 0 0 
0 0 0 0 
0 0 0 0 
0 0 0 0 
0 0 0 0 
0 0 0 0 
0 0 0 0 
0 0 0 0 
0 0 0 0 
0 0 0 0 
0 0 0 0 
0 0 0 0 
0 0 0 0 
0 0 0 0 
0 0 0 0 
0 0 0 0 
0 0 0 0 
0 0 0 0 
0 0 0 0 
0 0 0 0 
0 0 0 0 
0 0 0 0 
0 0 0 0 
0 -2.602085213965211e-18 0 0 
0 0 0 0 
0 0 0 0 
0 0 0 0 
0 0 0 0 
0 0 0 0 
0 0 0 0 
0 0 0 0 
0 0 0 0 
0 0 0 0 
0 0 0 0 
0 0 0 0 
0 0 0 0 
0 0 0 0 
-0.05302410053302502 0.150389620688943 -0.09082599404233457 -0.199981601801438 
0 0 0 0 
0 0 0 0 
0 0 0 0 
0 0 0 0 
0 0 0 0 
0 0 0 0 
0 0 0 0 
0 0 0 0 
0 0 0 0 
0.3916146222742308 -0.3036619277918817 -0.009982670422498299 -0.142369254653881 
0 0 0 0 
0 0 0 0 
0 0 0 0 
0 0 0 0 
0 0 0 0 
0 0 0 0 
0 0 0 0 
0 0 0 0 
0 0 0 0 
0 0 0 0 
0 0 0 0 
0 0 0 0 
0 0 0 0 
0 0 0 0 
0 0 0 0 
0 0 0 0 
0 0 0 0 
0 0 0 0 
0 0 0 0 
0 0 0 0 
0 0 0 0 
0.2145271915783291 -0.453038935664109 0.1955369348385536 -0.3417866685885289 
0.1289727506134388 0 -1.084202172485504e-18 -0.0811659005098278 
-6.938893903907228e-18 -0.05806285608892538 -0.009124616883829012 0 
0.8203368907176953 -0.4490549272838206 -0.4716262108355261 -0.2634833583423454 
0 0 0 0 
0.3395408225823685 -0.0770913241878886 -0.2177423001176483 -0.4726512777712493 
-0.00454739622352513 0.2464111296135705 -0.02210733126200766 -0.3344601212726051 
0.2256119199638132 -0.1466941599929511 -0.08961420193014209 -0.1805568789207064 
0.347058879377787 -0.7688683191929822 0.4115755296700275 -0.5575101462936455 
0.5743770621147225 -0.3296234311482595 -0.02510034351325921 -0.1742723010907404 
0.2359443231636126 -0.1412278133290182 -0.04923259039012401 -0.1183180957243529 
-0.09853316774227293 -0.4853575922369521 0 0.7959394527038363 
-0.1218402201847905 0.03458361779210539 -0.1155660509950876 -0.02085126909185849 
0.264689130271397 -0.1240394900460647 0 -0.2636498716690251 
0 0 0 0 
0.2230972161200193 -0.1852784572278475 -0.1305941833226499 -0.02198273685726648 
0.28865800683697 -0.0305817113212679 -0.04502104180153887 -0.199848311567319 
0.154138932879788 0 -0.04088888407304331 -0.1248807088814551 
0.05476548129130506 -0.01580713879847796 -0.0615576974333417 -0.0352124694748077 
0.05476548129130506 -0.01580713879847796 -0.0615576974333417 -0.0352124694748077 
-0.4861412178456421 0.5620135716112015 -0.1867738894181764 -0.1058808260386602 
-0.5456093126825523 0.6737367449984741 0 6.938893903907228e-18 
-0.3974004357236101 0.5471732337225809 -0.05188485440168986 -0.04913162215289608 
0 0 0 0 
0.2704619444587493 -0.5866307425407025 0.2852782978501411 -0.1612690344101514 
-0.9871102144447061 0.4987173855400946 -0.06438264493839652 0.4828317876197775 
0.08104869454565546 -0.0493719006825714 -0.06276733866321628 -0.003913103205501863 
-0.4123933556244358 -0.004049491189810951 0 0.3945461275155248 
0.2499044325549508 -0.1397959410424811 -0.03652125819551294 -0.1087229835162401 
0.1974855367491022 -0.002987631032203081 -0.0468235829040544 0 
0 0 0 0 
0 0 0 0 
0 0 0 0 
0 0 0 0 
0 0 0 0 
0.1009971832687008 -0.04287076096411689 -0.114270348832316 0 
0 0 0 0 
0 0 0 0 
0 0 0 0 
0.08100260955865483 -0.1915536203093041 -0.09543583786384659 0.1121842478652519 
0 0 0 0 
0.2649797582025504 -0.4678240034962357 0 0.3020345434995779 
0.3049374394785056 -0.1431484419199328 -0.2511103391429569 -0.1052824667813625 
0 0 0 0 
0.5101893492420545 -0.222405342172969 -0.05301486839918248 -0.1207369557732003 
-0.07650883512708499 0.2260451687011496 -0.3357032505233664 0.1799943614701717 
0.13311848908397 1.127570259384925e-17 0 -0.02109800047262669 
0 0 0 0 
0.4549702569248177 -0.2333615219650473 -0.4284161049041171 -0.1990399032543278 
0 0 0 0 
0 0 0 0 
0 0 0 0 
0 0 0 0 
0 0 0 0 
0 0 0 0 
0 0 0 0 
0 0 0 0 
0 0 0 0 
-1.039435749305338 0.7913624897060663 -0.1158986219373281 0.3735743874493247 
6.938893903907228e-18 0 0 0 
-0.4607890583101111 0 0.4705449879875292 0 
0.007652079626747414 0 -0.003483493883597693 0 
0.007652079626747414 0 -0.003483493883597693 0 
0.4085054633879237 -0.2319032725602128 0.3215368510750389 -0.5705420205279881 
-0.02692313794902901 0.2139999668871903 -0.09082599404233457 -0.1718077083148115 
-0.3707809035278123 0.4261176682687011 0 -0.008158082982232567 
0.2662406880152706 -0.2129229258739098 -0.04283820359470002 -0.0492234463642913 
0.003322443531967345 -0.112508661693849 -0.02995991726533822 0.1656002571497598 
-0.1823815254686193 -0.03607387578359129 0 0.2413721623705268 
0 0 0 0 
0 0 0 0 
0 0 0 0 
0 0 0 0 
0 0 0 0 
-0.182215403801386 0.1308812844604211 -0.07486265489536147 -8.673617379884035e-19 
-0.2180280163327736 0.3508786109215679 -0.114270348832316 -0.1498852241597881 
0 0 0 0 
0 0 0 0 
0 0 0 0 
0 0 0 0 
0 0 0 0 
-0.1667807633242134 -0.397313864556437 0.6729516137231519 -0.5465897716005316 
0.3357077239346152 -0.1102374077054553 -0.09695233212886878 -0.05356992079587197 
-0.3635849552941649 -0.1293007845525982 0.1981092912681931 -0.05989458280718138 
-0.5102505201407597 -0.01758852529412568 0.6567007078243261 -0.04601590897540332 
0.1400482330722297 0 -0.1214449352845741 -0.001714302693611616 
0 0 0 0 
0 0 0 0 
0.3716631586149938 0.003943258942951141 -0.1788739345622229 -0.3614501268052555 
0.5530081468893657 -0.2188483622207093 -0.05643057382302903 -0.2862604332122493 
0.6674962031164874 -0.2803683281179628 -0.125848090080671 -0.2441764671194116 
-0.5928350330840295 0.2248213168603035 0 0.4117662526384242 
0 0 0 0 
0 0 0 0 
0 0 0 0 
0.01624854461173146 0 -0.009772610085521129 -0.07928203002189478 
0 0 0 0 
-0.8132009462738689 0.05621964975772395 0.8214709609493999 -0.2177795745135854 
0.521116693776738 -0.064685544011958 -0.2110521945388364 6.938893903907228e-18 
0.2018624403031558 -0.1791241521709257 -0.1096985522140412 -0.1318947805647077 
0 0 0 0 
0 0 0 0 
0.2890924806208316 -0.1180352932645568 -9.722551859462891e-05 -0.2341379305989129 
0.0582501973901863 -0.03021290786818849 -9.722551859462891e-05 -0.06666534916698713 
0 0 0 0 
0 0 0 0 
0 0 0 0 
0 0 0 0 
0.2702991965243928 0.3588112407651118 -0.1794508336761945 -0.4805638806644461 
-0.2988873197899542 0.2076349786421482 0 6.938893903907228e-18 
-0.6753403929989243 0.9832247790263257 -0.05917351153533686 -0.3589411487941438 
0 0 0 0 
0.03066627188736787 6.938893903907228e-18 -0.02340782721672306 0 
0.2075264649932886 -0.1703073165926184 0 1.734723475976807e-18 
0 0 -0.02119940572055416 0 
0.5297047501623531 -0.1674784493267115 -0.3785499474294013 -0.9219939312248338 
0.01077609312679635 0 0 -1.734723475976807e-18 
0.2632932829753052 -0.2488656530783896 0 0 
0.1826465308125051 -0.1381405580701775 -0.05284015963177826 -0.1082060457088606 
0.05745101287772087 -0.5588511344315221 -0.196563780631669 0.5019184158437383 
-6.071532165918825e-18 1.734723475976807e-18 0 -0.08039472763943718 
-6.071532165918825e-18 1.734723475976807e-18 0 -0.08039472763943718 
0 0 0 0 
0.09732116755895796 -0.06442578418415082 -0.01728119540107241 -0.0391113556251665 
0.05476548129130506 -0.01580713879847796 -0.0615576974333417 -0.0352124694748077 
-0.3330225407844851 0.4780194079987037 -0.09875179120043537 0 
0.1007934047124146 0 -0.1094778281895162 0 
0 0 0 0 
0.3392343982167422 -0.03160827627477147 -0.2962586969696843 0 
0 0 0 0 
0.4367095830589996 -0.4304131764769382 -0.09530215629879658 -0.03957843070114968 
0.17804972988731 -0.01227191975106615 0 -0.08855800715302234 
0.1188506340817936 0 -0.0008881585992130027 -0.04481034342019225 
0.2327701706360743 -0.1569843082782987 -0.14450468523663 -0.003827460936181441 
-0.1707707208504463 0.3855224762051638 -0.05943856236502833 -0.09006911652237028 
0.0295834489804681 -0.03734251295482009 0 -0.01839020241043315 
0.5634593125153468 -0.4941809954019105 0 -0.1854871199061398 
0.06255702994596452 0 -0.05340608395593892 -0.07598830965274898 
0 0 0 0 
0 0 0 0 
0 0 0 0 
0 0 0 0 
0 0 0 0 
0 0 0 0 
0.2525907421504688 -0.005826585241178829 -0.1799698272090102 -0.1073099968490404 
0.05476548129130506 -0.01580713879847796 -0.0615576974333417 -0.0352124694748077 
0.05476548129130506 -0.01580713879847796 -0.0615576974333417 -0.0352124694748077 
-0.5679856441976906 -0.1628892370593098 -0.1270384631044038 0.5473499926790923 
-0.4518354574414349 0.6259420194756715 0 -0.2276114490459495 
0 0 0 0 
0 0 0 0 
0 0 0 0 
0 0 0 0 
-1.265044698143368 -0.08779657331511422 -0.108587297067252 1.381105538806323 
0.2137935874805204 -0.3592315716017447 0.0617702117375165 -0.2898192520637851 
-0.3955014491522704 -0.5703963953643287 0.07779272946020897 0.7734915936365568 
0.6925959712210461 -0.1489741521888158 -0.08322736224188343 -0.3456814746264681 
0 0 0 0 
0 0 0 0 
-0.3236436629837286 0.3310352187128923 0.07716947108866919 -0.5437583982600809 
8.673617379884035e-19 -0.07495510540673259 -0.00170750926974413 0 
0 0 0 0 
0.5253286973815743 -0.3002543464580754 -0.02668067180711829 -0.2946592188177474 
-0.3371578480710948 0.54925962982265 -0.08451739403297974 -0.02701608139626518 
0.1840892733177782 -0.1142353592483158 -0.1088123159576475 -0.06131386474014235 
0.8575613909501857 -0.01245972300756922 -0.85787732933468 -0.2488688209885798 
0.104771195309782 -0.1023064982572638 0 -0.06924952742334642 
0.2230202103173823 -0.376234943954084 -0.1660585618539547 0.06405928828906689 
-1.095044194210359e-17 8.673617379884035e-18 0 -0.08821421266991476 
0.1826902628320619 -0.0713981031838905 0 -0.07777812257937468 
0.1037445195338932 0.2539519553672561 -0.229597991511615 -0.06302386255967023 
0 0 0 0 
0 0 0 0 
0 0 0 0 
-1.148224761719095 0.5421311170352708 0.6422479412856639 3.035766082959412e-18 
1.233713198351523 -0.4806607589528236 -0.3659303252990446 -0.511772286875686 
0.8061259340861546 -0.4635599004988965 -0.06130671875527434 -0.3817025770519825 
0.1395503759524104 0.07292057071711336 -0.0738043268236705 -0.1271826034721392 
0.5142978962090315 -0.5318666479450411 0 -0.04977610136541807 
0.2826141811607326 1.561251128379126e-17 -0.08823559107669615 0 
-0.3779870211934369 -0.07405160412157104 -0.03133023030976979 0.4082247723864635 
0 0 0 0 
0 0 0 0 
-0.4704801965365377 -0.1116652030465566 -0.02389995058013984 0.6420360620852712 
0 0 0 0 
-0.3837524358659423 0.3225134480556003 -0.006729289352581899 0 
0 0 0 0 
-0.2626492794608876 -0.131294233871785 -0.1467813622571917 0.4972632339348984 
0.2179303924976484 -3.469446951953614e-18 -0.05917594966162523 -0.1729918079257417 
-0.2617299833407449 -0.2413581657659013 -0.2591688180507579 0.6651134122383057 
0 0 0 0 
0 0 0 0 
0 0 0 0 
0 0 0 0 
0.1522712366830707 -0.109804563916621 0 -0.00557073166257735 
0 0 0 0 
0 0 0 0 
0.0582501973901863 -0.03021290786818849 -9.722551859462891e-05 -0.06666534916698713 
0.0582501973901863 -0.03021290786818849 -9.722551859462891e-05 -0.06666534916698713 
0 0 0 0 
0 0 0 0 
0.2601892525941851 -0.1851824210610764 -0.2394679490658129 -0.2459191676358352 
0.06833341475454813 0.5395144653654009 -0.04751954580782414 -0.3670543140163712 
0.4420701819318175 -0.4291934369930554 0.156674484626809 -0.4477329416460787 
0.610952084173919 -0.2669663941984556 -0.01889866139626659 -0.5055431169247772 
-0.3697040059207823 0.5054198510917384 -0.1146590410042328 -0.06788722168207337 
0.4995592094250097 -0.424107711843193 -0.134349566786095 0 
0.5378921371932661 -0.4189934021785158 -0.1603403527744658 -0.4048539322793667 
0.385780097877459 -0.2840032975939176 -0.1345454710311583 -0.1658647357076875 
0 0 0 0 
0.0582501973901863 -0.03021290786818849 -9.722551859462891e-05 -0.06666534916698713 
0 1.734723475976807e-18 0 0 
-0.4615338236241995 0.3738527016015824 -0.2252960448589947 0.2318837705926759 
0.05023582379570779 0.01316579204064307 0 -3.469446951953614e-18 
0.2574452958392346 -0.743114141571272 -0.02664722551367454 -0.1382642930624186 
0.1413672452562094 -0.6605130851220173 -0.3083080186424861 0.2678306209491506 
0.2716631902092857 -0.1684972284457508 -0.1377744190960549 -0.09136457501517892 
0.2715820644651904 -0.0335866473178578 -0.2839506269327335 -0.0298429144387026 
0 0 0 0 
0.886013795938561 -0.5249148838266298 -0.5949140667520705 -0.8129621183633907 
0 0 0 0 
-0.3652711771071003 -0.08367218199242495 -8.673617379884035e-19 0.3252103106544861 
-0.3226678567883579 0.2351551595142903 -0.3699491200762661 0.4735923269946812 
-0.2250579463788372 0.3129780411232205 0 -0.0689688116201571 
0 0 0 0 
-0.1561528620213662 -0.4665828536292493 0.4064390670565036 0.3513711242831906 
0 0 0 0 
0 0 0 0 
-0.6259829307923852 0.583527775350028 -0.1732455555657738 -3.469446951953614e-18 
0.09988422363013015 0.0002011694622499174 -0.01326850525598669 -0.08435840331588355 
-0.2096833076523964 0.247287941147237 -0.2208120427725126 0.1440656318099346 
0.0215133032613548 0 -0.0003370973269100589 -0.02253816078976228 
0.2795399362223769 -0.3141822879515258 -0.03100402316490733 4.336808689942018e-19 
0.1761496998150748 -0.502966542899653 0.180421181648363 -0.1725256423371657 
0.2245134514381321 -0.2426890159419015 -0.009982670422498299 -0.07020542222520036 
0.5102256091622217 -0.4889474971377978 0.03761273641525911 -0.1823607502734027 
-0.1357198674141534 0.188370667420116 -0.0132685052559867 -0.1396279465578966 
-0.4341816585526908 -0.05120053025018741 0.418006900388537 0.2647287538975537 
0.1069509828482775 -1.734723475976807e-18 -0.01476140273776939 -0.01049328300192462 
-0.3520550762358787 0.08230335344705524 0.1227561890974312 0.1475065220047599 
-0.02824207447480087 0.2397954583936427 -0.04701038894179758 -0.001791416014105698 
-0.1425206526569613 0.4261493149827401 -3.469446951953614e-18 -0.2599646892849721 
0 0 0 0 
-0.003876852003469013 0.07405439954871479 -0.2012307911997221 -0.1633038504019609 
0 0 0 0 
0 0 0 0 
0 0 0 0 
0 0 0 0 
0 0 0 0 
0 0 0 0 
0.1546223229629745 0 0 -0.0951632978992742 
0 0 0 0 
0 0 0 0 
0 0 0 0 
0.1888185970139791 -0.5314980816570107 -0.1894525851034593 -0.236733828542654 
0.1309989475609692 -0.03463478349284899 0 -0.01155147312063014 
0 0 0 0 
0.2445487241595531 0.0293770300158936 -0.05502547302518986 -0.4542022443024949 
0 0 0 0 
1.778091562876227e-17 1.366094737331736e-17 -9.722551859462198e-05 -0.01123534264904813 
1.778091562876227e-17 1.366094737331736e-17 -9.722551859462198e-05 -0.01123534264904813 
-0.3588073973169325 -0.1517903694674562 0 0.5931109491469165 
-0.1015670633029269 0.3592777811994904 3.469446951953614e-18 -0.1175895387160214 
0.07837440597506591 -0.0280646191835799 3.469446951953614e-18 -0.05056055293870586 
0 3.035766082959412e-18 0 -3.469446951953614e-18 
0 0 0 0 
0 0 0 0 
0 0 0 0 
0 0 0 0 
1.387778780781446e-17 -0.1097770545769594 0 0 
0.5409516800529075 -0.3383417557589854 -0.5420220144765762 -0.2266692800603105 
0.05683864037369091 -0.04164104987512336 -0.05313534932428624 0 
0.1086492628954483 -0.04287076096411689 -0.1177538427159137 0 
0 0 -0.03357533174676883 0 
0.2477517299435135 -0.1308068640313823 -0.02999725611564677 -0.08436999848285959 
0.04801461867181189 0 0 0 
0.2598804218324965 -0.05209279207172268 -0.02761276551905695 -0.01066231304488588 
0.2138358525937834 -0.2144230056399306 -0.102651574273264 0 
0.1183458869552802 0.2022588602098301 -0.1743581634686597 -0.1868439057672252 
0.5960561302673276 -0.2520969401785779 -0.1459399219096994 -0.1238200432075549 
0 0 0 0 
0.1764911721588218 -0.1556185702719253 -0.0523479284560768 -0.1081179610298444 
0.219200343339198 -0.0385860021823866 -0.01318948874429284 -0.0312202241730639 
0 0 0 0 
0.205455256374878 -0.3141822879515258 -0.01453632828674238 0 
0 -6.938893903907228e-18 8.673617379884035e-19 0 
0 0 0 0 
0 0 0 0 
0 0 0 0 
0 0 0 0 
-0.4813753411514957 0.120079623395171 -0.01325667498887575 0.3672465256468275 
0 0 0 0 
-1.028814334406843 0.01973791097490053 0.5696474490976505 0.616218921578542 
0.4143284127943038 -0.2279855618812928 -0.03829003136502857 -0.1634286618944763 
0 0 0 0 
0 0 0 0 
-0.1802384888778971 0.279514036424023 0 -0.0574265143792923 
-0.09287292634257271 0.359306445869801 -0.3040085189150524 -0.1605423678906002 
-0.4619711940018324 0.6684130674954222 -0.04111736383906429 -0.249768095125902 
0 0 0 0 
0 0 0 0 
0 0 0 0 
0 0 0 0 
0 0 0 0 
0 0 0 0 
0 0 0 0 
0 0 0 0 
0 0 0 0 
0 0 0 0 
0 0 0 0 
0 0 0 0 
0 0 0 0 
0 0 0 0 
0.1436539126282426 -0.4795021630691936 0.02444357033495489 -0.131819736219997 
0.2539990767652638 -0.1164172874428319 -0.1785739928632349 -0.01904370047149139 
0.2107311574234794 0 0 -0.2755270694605519 
0 0 0 0 
0 0 0 0 
-0.4440850310106635 0.6277986729935592 -0.01318948874429284 -0.0312202241730639 
-0.385326009319405 -0.297636889052121 0.2613115970290754 0.3714879148196183 
-0.1457717924058405 -0.09906561956823565 0.3434111819532892 -0.1422364109285354 
0.2914501217246248 -0.07239106194285096 -0.03374510118149658 -0.2249452446419053 
0 0 0 0 
0.1272676563753336 -0.02528823456078758 0 0 
0.2413042363936631 -0.03895793203298294 0 -0.1925397613914502 
0.3829406977372136 -0.5038771321969463 -0.2989286423727153 0.1717221955169962 
0.1458731480767264 -0.06827845885669623 -0.01829154368040215 -0.1097653861844126 
0.1801286188966887 -0.07479492216491272 -0.07786528889853503 -0.1944373048848728 
0.0359078755466816 -0.06905956038979218 0 0 
-0.4767997863340097 0.6433241381013741 -0.2241201660050458 -0.1472819715994466 
-0.4731217624052401 -0.03647848557681965 -0.02067659549390054 0.464027410398884 
0.5360033372003041 -0.1295486767854661 -0.3551279354004308 -0.2717266135914769 
0.4347583396253651 -0.127227352721129 -0.1877067091274 -0.181483507581591 
0 0 0 -0.01936289508787676 
0 0 -9.540979117872439e-18 -0.01904370047149138 
0.7979947346216382 -0.2602302668211917 -0.003035078828737233 -0.4428000549879805 
0.7137474371692678 -0.6230011675727747 4.336808689942018e-19 -0.188280812448072 
0.1622164489959912 -0.1345196493607806 0 -0.02999536052568514 
0.0354993756064895 0 0 0 
0.1665736894140715 -0.2251796741012472 -0.05447867990611951 0 
-0.3094354986473055 0.3251625257814665 0 -0.1438703816935752 
0.2773017297848852 0.01462928998946035 -0.05055012041542453 -0.1346064848156951 
0 0 0 0 
0.06792119366956259 -1.040834085586084e-17 -0.2061281521319485 1.301042606982605e-18 
0 0 0 0 
0.356250093220258 0.08934148276469508 -0.2268577378006901 -0.3333742150573312 
1.214306433183765e-17 -0.2020807484297427 0 0 
0 0 0 0 
-0.01746272812713817 0.1777987309632117 -0.5455944127718337 -0.04196476522275648 
-0.265025962186606 0 0 0.3821348434743421 
0.2192157667482936 0.6109679759896705 -0.02668067180711831 -1.066909343698665 
0 0 0 0 
0 0 0 0 
0 0 0 0 
-0.7496976688514176 0.5207331416480013 -0.01318539346411235 0.1417638389888714 
-0.4012703070870173 0.5705338563490308 -0.278037339615413 -0.06247791292504812 
-0.3746617074245084 -0.02942893993120759 0 0.3783383060183947 
0.3553002075449134 6.505213034913027e-19 -0.258809854393476 -0.3471720334079271 
0.1757771566058763 -0.1881530413240159 0 0 
-0.2771021757432401 0.5219655228694297 -0.09611632846481487 -1.951563910473908e-18 
-0.3981250533367715 -0.009188306756877261 -8.673617379884035e-19 0.3965217090904228 
0.05279680328556752 -0.01790584881439157 -0.01392824450392555 -0.07625445903817461 
0.2276331403364547 -0.144508512092923 -0.05830454449114454 -0.01045725602585453 
0 0 0 0 
0.3138523849650476 -0.1131930394388722 -0.03064670373847224 -0.2289346092907353 
-0.2499144765965072 -0.1804358266487573 0.2060847167970863 -0.1119016473926417 
0.03044239193392805 0.1323433552750823 -0.1148841748445475 -0.03729188541085326 
-0.1253452587720289 -0.2853481825333606 -0.1497267975817999 0.7005610897496125 
0 0 0 0 
0 0 0 -0.01839020241043315 
0.1510210013896515 -0.1247722416505057 -0.04315408829640924 -0.1632247689872914 
0.1644848579593718 -0.1602579876819446 -0.127767140123359 0 
0.4584540939226709 -0.1370777655055186 -0.0003370973269100624 -0.1625970255030407 
-0.2950349826339256 0.2611334858611277 0 0 
0.1162006479170997 -0.2894377327223628 1.734723475976807e-18 -0.03935227564696306 
-0.09771073189489095 -0.1219528328776602 0 -0.01468258800419433 
0 0 0 0 
0 0 0 0 
0 0 0 0 
-0.02863879324489728 -0.1501216006095279 -0.1239496105743173 -0.2164954071022208 
-0.2960567459475363 0.342324979877459 1.734723475976807e-18 -0.09325535756223229 
0.2453205481517222 -0.02809863636289048 -0.2367721874754746 -0.08242738072413716 
-0.3395560565682878 0.2037261501304213 0.1932210921244937 -0.1142440592768098 
-1.09199130164471 -3.469446951953614e-18 0.7311136202945043 -1.734723475976807e-18 
0 0 0 0 
0 0 0 0 
0.2773567961782284 -0.2014159355875762 -4.336808689942018e-19 -0.1562044846810757 
0.1339106757641749 0 0 -0.08047166186940208 
0.5269419072707667 -0.1526907279638055 -0.2496602258452901 -0.1778855392341699 
-0.5914838908361763 -0.04732853492789887 -0.08402713633019515 0.5942843302205671 
0.2613708137598822 -0.1459987796871604 -3.469446951953614e-18 -0.09341792890527827 
0 0 0 0 
0.04617832860106243 -0.03607387578359129 0 0 
0 0 0 0 
-0.3069726533069979 -0.1381014799417821 -0.1013748923070788 0.4289788590256493 
0.1585372701548875 -0.1231472804933428 -0.007612456551748029 1.040834085586084e-17 
0 0 0 0 
0 0 0 0 
-0.6945679595511777 0.5309846966770524 -0.1717952182070255 0.8220170708679609 
-0.03068965339511051 0.1600324284449437 -0.009915852206345404 -0.07004108017455761 
0.8479207100398032 -0.6774879687985398 -0.2110586100436575 0.003726361162722785 
-0.2770513577920669 -0.09173079638220678 -0.1342713561201916 0.4787971155290072 
0 0 0 0 
0.06294853125271918 -0.07205678922534328 -2.168404344971009e-19 -0.06208101462859567 
0.01957906109551056 0 0 8.673617379884035e-19 
-0.1498647896541551 -0.2646606220980879 -0.4312306062468521 0.3980440314989055 
0.3747476987018416 -0.2902041212699155 -0.09875179120043537 -0.02253816078976228 
0.243641391666329 -0.08271786878763436 -0.002171739198780051 -0.07000390103351177 
-0.2969620583430327 -0.0776264006084669 0 0.3610870802031805 
-0.3716928472875506 0.6464879527450766 -0.1252867164600568 -0.4437379429998037 
0.1752937501599398 -0.1305560116267739 -0.04958722509803439 4.119968255444917e-18 
0.3919380122659786 -0.5697463778642373 -0.2650588342035075 0.4357088313636295 
0.3599499249666954 -0.06625440934564486 -0.2839506269327335 -0.01904370047149136 
-0.2841514975993445 0.3482655582372159 0.1361043934947044 -0.5569777049007347 
0 0 0 0 
-0.703759526984396 0.718252248438798 0.1971293014906873 -0.09691315282029497 
-0.04273739980705186 0.1002850317962471 -0.4340380311822608 0.1401020569127963 
-1.538185890091647 0.298172998969977 0.4586157464360129 0.7580511621627011 
-0.156223207385211 0.2443532519734382 -0.04700468569126016 0 
5.204170427930421e-18 0 0 0 
0 0 -0.03027048931196208 0 
-0.1631400440241949 0.5616125031845205 -0.1632032708347263 -0.3375857412665502 
0.4228639313226494 -0.1404427621375173 -0.1632032708347263 -0.1497540262635608 
-0.1254761504926389 -0.162294363722443 0.3304638743491588 -0.08949057469288843 
0.3545576181800901 -0.7989682067628863 -0.435279153822601 -0.0941958686051055 
0.02820994799827947 0 -0.05483322897157404 0 
0.4002778650233419 -0.304026379124176 -0.02171671066114223 -0.08892095219057884 
0.4120899524310409 -0.257991806176086 -0.1074392892255168 -0.2567631714958669 
-0.534703770404126 0 0 0.4751663572861095 
0 0 0 0 
0.2638847266901642 -0.5699835092627904 0.2142543790556425 -0.3365306415136593 
-0.8669738124342967 0.4039350453698867 0.7147520709699196 -0.01742352347662795 
0 0 0 0 
0 0 0 0 
-0.3145561016336866 -0.262893690199101 0.388078207109371 0.3870543301025636 
0 0 0 0 
-0.5728910528390894 0.6141032457347088 0 0 
0.3901447349046898 -0.07349431396225584 -0.09976211807821385 -0.03008586132666374 
0 0 0 0 
0 0 0 0 
0 0 0 0 
0 0 0 0 
0.3637331840737725 -0.1882314252602815 -0.0009194669158921097 -0.02316318917580878 
-0.4280568449171516 -0.3006230210200534 -0.03386198895801286 0.5341068924767209 
0 0 0 0 
0 0 0 0 
0.1435715916491873 -0.4388010113068428 -0.02668067180711829 0.3310974056264659 
-0.2776957356549535 8.673617379884035e-19 -0.02067659549390053 0.1775571412821696 
0 0 0 0 
0 0 0 0 
0 0 0 0 
0.006077474413344745 0.3049036169828813 -0.04923259039012401 -0.2793427154431392 
-0.06816510704306211 0.4537463320974101 -0.05203299064699086 -0.4226787346561576 
0.04988924026574895 -0.0510728847709664 0 0 
0 0 0 0 
-0.6305212890198663 0.3201732685839281 0.5764449472324211 -0.1348152630040715 
0 0 0 0 
-0.309151988986244 -0.09045673334886675 -1.734723475976807e-18 0.5389256319456122 
0.207584510269093 -0.235568558794965 0 -0.04059286049407804 
0.1066934210997799 -0.2465090235435839 0.2478125698757522 -0.2062081440730313 
0.5518923097969004 -0.3683847776397471 -0.1337304070145089 -0.5952793138645167 
-0.5899922661065551 0.19896301375783 -0.05429267898882041 0.5142596741608262 
-0.2369495531003121 0.09582500595538379 0 0 
0.4016768069573939 -0.152752760659452 -0.02546998128277982 -0.1041233386411807 
-0.5629698081772918 -0.08904765896691973 0.6035027881510137 0 
0.1484901949078826 3.469446951953614e-18 0 -0.01562330559628413 
0.1004063778792704 -0.05474751076999926 0 0 
0 0 0 0 
0.08462403749334774 -0.04248821443256109 0 -0.0829620719642839 
0.004335272674341397 0 -0.05142879884962225 -0.02488178062343098 
0.2513569484337808 -0.1182507009916217 -0.06184064496844888 -0.1905308931088498 
0.1429267179235981 -0.08860215732353625 -0.02796325973282823 0 
0.06146752131111365 -0.1117414535137572 0 0 
0 0 0 0 
0.1718836625334558 -0.1299985763004665 1.734723475976807e-18 -0.04815572892054223 
1.077131826620703 -0.8468941229763062 -0.1426883071609107 -1.323175544174153 
0 0 0 0 
-0.08488788698038836 0.5385757702332309 -9.722551859462891e-05 -0.4465009123395464 
0.1757134092285323 -0.1167268285043666 0 0 
0 0 0 0 
0 0 0 0 
0 0 0 0 
0 0 0 0 
0 0 0 0 
0 0 0 0 
0 0 0 0 
0 0 0 0 
0 0 -4.336808689942018e-19 -1.951563910473908e-18 
0 0 0 0 
0 0 0 0 
0 0 0 0 
0.2710782122020434 -0.1410380702406381 -0.06508462128410721 -0.0666653491669871 
0.4034018153040088 -0.3038827421810826 -0.09890694469304395 -1.387778780781446e-17 
0.05915617901829693 -0.07570468227643209 0 0 
0 0 0 0 
0 0 0 0 
0 0 0 0 
0.01464780019632414 0.1683986243517459 -0.1645995372590786 -0.0630156097895907 
0.2797788477853122 -0.4594663580702329 -0.1654489072116465 0.275259550852841 
-0.4987679282078744 -3.469446951953614e-18 0 0.2890857733760434 
0.2516804784133186 -0.1922815474753476 -0.3326992272059101 -0.7613755293757877 
0.1804642050783771 -0.2519192131157895 0 -0.06395076798438654 
-0.07891628240578838 0.004759876287724753 0.2517416867824465 0.2172824681002946 
0.5380457506214146 -0.2070742448227478 1.734723475976807e-18 -0.04782630819323366 
-0.8695511000594459 0.9809940355178753 -0.1072601644486694 0.2731379394186918 
0 0 0 0 
0.5016271085628152 -0.07453315062124373 -0.1956686536024191 -0.2777957137451996 
0.5419839388029707 -0.4539605981812774 -0.227306352557254 -0.2730763113425129 
-1.891825149751704 -0.068543900476666 1.604368591549913 -1.734723475976807e-18 
0.6149399792733168 -0.2478404053880857 -0.1554921707931015 -0.1308145646576601 
0.2582800771084857 -0.1560123231295636 -4.336808689942018e-19 -0.09951661773453434 
-0.08102511770739858 0.3533496015593882 -0.01655183380293474 -0.1504351054891193 
-1.149761372958964 0.5866300548482482 0.1420777065328807 0.6268516879274822 
0.6899340214795242 -0.6836056441371645 -0.1189131045268088 -0.2306941073005719 
0.1487861656062161 -0.08747472167302843 -0.006075010052258671 -0.03602934498478754 
0.2067579586325393 0 -0.1375505011052058 -0.01850647557009535 
0.8043863526187582 -0.2102049173553664 -0.4599147224895352 -0.3769734683034561 
-0.5728910528390894 0.6141032457347088 1.734723475976807e-18 0 
0 0 0 0 
0.5205473707699636 0.008643356723694328 -0.2437104083238195 -0.4126340175448286 
0.02325735825456714 -0.08855865753273344 -0.190238202049003 -0.03957843070114969 
-0.2378857178860024 0.220420194394389 -0.02238479717246912 -0.120217905452872 
0 0 0 0 
0 0 0 0 
-0.7400421005836487 0.3354196061789352 -0.01881792359264804 0.2422876793875242 
-1.057005163890387 1.057814370213271 -0.03023777136815394 1.192622389734055e-18 
0.08222222875702784 -0.07748616972969 -0.0398577672236933 -1.951563910473908e-18 
0.3275845746286228 -0.1281555325808067 -0.02647766122473887 -0.03870724576406972 
0.02820994799827947 0 0 0 
0.09732116755895794 -0.06442578418415082 -0.01728119540107241 0 
0.3516504555902155 -0.1272914157764662 -0.04027539633867827 -0.09384603443393374 
0.07168353639020766 0 -0.01003415453095947 -0.1005588444372769 
0.09020347153143654 -0.0699303294137464 -0.04160668183496491 0 
8.673617379884035e-19 0 0 0 
-0.5563655431125826 0.5805641394088964 0 -0.1050484229916084 
0.1227624078929261 0.2021562969945881 0.004515015491628199 -0.4795583939014296 
0.1393612125507968 0.09920936530391133 -0.1207859113076727 -0.1521978778167304 
-0.2603920335588603 0.286900706197686 -0.007954415613180721 -0.04734618778719438 
-0.977510874107641 0.4699689317824371 0.6269899623313103 -0.0190757657951117 
0.1184696435838292 -0.2005055129722461 -0.03696706184972898 0 
0.08622903449320887 -0.07612727673552981 -0.0487198866488384 -0.02837000863866442 
0.1922143823645652 0.2179071406151703 -0.02387870750112896 -0.1308145646576601 
0.2982168647715909 -0.1701156732948345 -0.007061075551244527 -1.734723475976807e-18 
0.3489600365781822 -0.2983438007831037 -0.02345633968926994 -2.818925648462312e-18 
0.08220921414128064 -0.1401366826092258 0 0 
-0.1926502300415575 -0.4225960587008969 -0.1333418237989463 0.5292956557099532 
0.1776670347734587 0 0 -0.01505990126630845 
0.4133316936082922 -0.8380572997279389 0.1909964590408942 0.08910818481340493 
-0.5433231186833405 0 0 0.4987985270330241 
-0.3180624339987083 -0.1257967603467247 -0.1124607943072807 0.5143961864076014 
0.01677696335890331 -0.5772031284309094 0.3270478702041457 0.2249092741944007 
8.673617379884035e-19 0 3.469446951953614e-18 0 
0 0 0 0 
-0.4877701097574582 0.1384346168563831 -0.01325667498887575 0.3672465256468275 
0.3221678310808095 -0.1498557679465207 -0.09122255463749064 -0.05604694006281227 
0.125767921461422 -0.3799910845754623 -0.1624712886203252 0.284780986686151 
0.3364627464720267 -0.07011522063651528 -0.5354181317565846 0.419078703693094 
0.1227112732771015 4.336808689942018e-19 -0.04315408829640924 -0.1632247689872914 
-0.3238070297964271 0.3445361072828028 -0.005971765581096336 -3.903127820947816e-18 
0.4132463862007462 -0.366642237906173 -0.04970375414411236 -0.1904090537672073 
-0.02202281240720233 0.4047790347574493 -0.07790528350312005 -0.2565726442406212 
0.236701734628388 -0.1334955607619119 -8.673617379884035e-18 -4.336808689942018e-19 
0 0 0 0 
0.1926015858700666 0 -0.04343342132228446 -0.01145137023576773 
0 0 0 0 
0.651741886323746 -0.61064438812108 -0.1473094403899986 0.1442813826511899 
0.03935490308366573 -0.03184702120126356 -0.03105138392049058 -0.01679630536029697 
-0.213007662146308 -0.5164968141916568 0.6162707550462514 -0.2544887493571261 
-0.4018721634819203 0.1532710380986541 -0.6402446681463183 -0.2839037561838601 
1.734723475976807e-18 -3.469446951953614e-18 0 -0.08767813481856541 
0.1267620976965153 0.3457485589611566 -0.06210349246112602 -0.1107267841162861 
0.2792034601810163 -0.2312463331406992 0 -0.02980787863420246 
-0.1946345839452002 0.2124923918907712 -0.07997488355285479 -0.1554067412641106 
-0.363598587063951 0.5086872172494559 0.5830033308695763 -0.227651802146186 
0.2115718038904385 -0.06480869789664172 -0.05913125226602438 -0.08619576395945412 
0.281381040679777 -0.04840047727945622 -0.03941424494514047 -0.1826473947973857 
-0.04677273647904033 -0.2825553958193532 -0.03728200600276483 0.2301317320026944 
0.1917818654530516 -0.5276033855645759 -0.04957197178858457 0.01045415242377654 
0.1033082405868729 0.1082032041064634 -0.1402589475562028 -0.1474010237376834 
0.3035414988518149 0.2461619238834268 -0.1469481731488627 -0.2106000032052073 
-0.7853389617020198 -0.02712640584950046 0.4171389040315904 0.8865396801373624 
0.05356139973680864 0 0 0 
-0.2665939442704102 3.469446951953614e-18 0.5137386198961238 -0.08868672857677361 
-0.1105521644504356 -0.1863538565890973 -0.04701038894179758 0.4100211450988918 
0.1851248017935391 -0.03758678660539344 0 -0.08855800715302235 
0.4564000272097745 -0.04986504923625659 -0.1675692316011825 -0.1292240522243121 
-0.1902301518918658 -0.4877276800784958 0 0.63699569792081 
-0.1653690686525093 0.2464622976688313 -0.03821774242703933 -0.1567965124509011 
1.33523098574309 -0.7412463620396547 -0.04460636127494692 -0.7677532865106962 
0.4750593218069241 -0.3850174806068816 -0.1712469413282244 -0.1630411305395704 
0 0 0 0 
0 0 0 0 
-0.3329402931259565 0.6528374646765994 0 -0.144626853692758 
0.3533969719942984 -0.3130385118090834 8.673617379884035e-19 -0.02487307750404806 
0.5980170445662296 -0.2882485942711823 0 -0.2518660302241408 
0.3360082459969677 -0.1725834874461696 0 -0.1037702163450455 
0.3137533554097104 0.01168431261530759 -0.1889966156542081 -0.10834564092834 
-3.469446951953614e-18 0 0 -0.02980787863420246 
-0.4409437229749075 0.01763739569642192 0.2412308162436017 -0.124723872901117 
-0.4434599893366769 -0.2054802280180725 0.574384055557571 0.1513348718609547 
-0.4172483416477324 0.4023585568226064 -0.09914394357716914 -0.1208847426351408 
0.3401481771170577 -0.08766463373512369 -0.04920252893783338 -0.1528781368101856 
0 0 0 0 
0 0 0 0 
0 0 0 0 
0 0 0 0 
0 0 0 0 
0.2293264720899136 -2.602085213965211e-18 -0.00958418551630346 -0.2137083869846386 
0 0 0 0 
0.01275299145758569 0 -0.05142879884962225 -0.02488178062343098 
0.2567722761589132 -0.1532328613677003 -0.1183860937377373 -0.05010317670723752 
0 0 0 0 
0 0 0 0 
0.2025520897019934 -0.2436120998343211 0 0 
0.02820994799827948 -4.77048955893622e-18 -0.03647066577806366 0 
0.09322271096154015 0.04070237572632326 -0.1862448824136302 0.1666066995695456 
0 0 0 0 
0.3275746063411067 -0.1193686485087511 -0.03186506431657034 -0.07102711083992433 
-0.3948151684504412 0.4490459339266248 0.1712756917814845 -0.1439153970741328 
0 0 0 0 
0 0 0 0 
0.3903044472321788 -0.2092882294524749 -0.03357533174676883 -0.1358292189077198 
0.1866008935210364 -0.004866894202322686 -0.0362598882022214 -0.3183730806268643 
-1.734723475976807e-18 0 0 -0.04284601116631242 
0 0 0 0 
0 0 0 0 
0 0 0 0 
0 0 0 0 
0.2310692089305517 -0.0995948692262696 -0.001275419575195887 -0.01737787705700243 
0.5372301072938989 -0.5340508558126662 0 0 
-2.021620445482027 1.826538760330741 -0.1418847103757059 0.397951681471443 
-1.564133635411705 1.600668493047825 8.673617379884035e-19 -0.1783352726487169 
-3.469446951953614e-18 -0.06123186274900295 0 0 
-0.8328691030087638 0.4627124139367428 0.6060207898214865 -0.2173167636143028 
-0.8923626893397317 0.3000444524554575 0.607560215121044 -0.05977066933402594 
0.9626294355886804 -0.1587692990842071 -0.5902664262369509 -0.4995246298014936 
0.5376503383648624 -0.1727490346087321 -0.2529094117393402 -0.1848216035843762 
0 0 0 0 
0.2646237952355322 -0.03018539342838774 0 -0.1231443436589035 
0 0 0 0 
0.06399876889253042 0 0 -0.03509259336964363 
0.2180666254403136 -0.17875746810001 1.301042606982605e-18 -0.06208101462859567 
0.2977537951901236 -0.01750649529792955 -0.209918410376439 -0.09781544220298345 
0 0 0 0 
0 0 0 0 
0 0 0 0 
0 0 0 0 
0 0 0 0 
-0.04605632571657248 -0.2820667078075958 -0.3239772986077432 -0.09716760946707118 
0.2338146488046786 0.1201727163414757 0.1519604784181923 -0.4403064624200795 
-0.1568323349256195 -0.1432030516161016 -0.09718337793996484 0.421709799240991 
8.673617379884035e-19 0 -0.1313985737510888 0 
0.07482697881685814 0 -0.001299893521796396 -0.1429650385489762 
0.4928275120551709 -0.05294889533386685 -0.04058184927686177 -0.4575737092882473 
-0.2962003278966961 0.5983023319700603 -0.04583207547189175 -0.1859267518634921 
-0.1730816419448815 0.1449280733230238 -0.02653847913928261 -0.05023426440058004 
-0.6153573996093556 0.1741576164601546 -0.03501619571960467 0.3880624723952232 
-0.7275786184683877 1.009049749312192 0 -0.315814239350804 
0.04700769611425226 -0.2234846871999744 0.2707221308134468 -0.1192458670707352 
0.6142565193978367 -0.1387300062680746 -0.1243238736206433 -0.2067627362988821 
0.3467989244291565 -0.0293565348250285 -0.09573171950758677 -0.2405349484420774 
0.01957906109551057 0 0 1.734723475976807e-18 
0.07837440597506591 -0.0280646191835799 0 -0.05056055293870586 
0.006394768605962292 -0.01835499346121204 0 0 
0.794934696314616 -0.1892957312857849 -0.07486265489536147 -0.6258944377624309 
-0.07564231990068451 0.4517820734917883 -0.001264961705662134 -0.167596989927922 
0.3098010930326425 -0.1830621917485985 -0.01728119540107241 -0.07362481287955681 
0.07682718985431944 -0.1820089612681441 -0.0005272749480973243 0 
0.594569851550354 -0.3002543464580754 -0.02668067180711829 -0.2696175192262083 
0.05302816027085655 -0.3425784467326901 -0.002171739198780047 0.3362313867241469 
0.03738711553882989 0 0 0 
-0.4256009125858219 -0.01758852529412569 0.6567007078243261 -0.05746727921117106 
0 0 0 0 
0 0 0 0 
0 0 0 0 
-0.6764166217201947 0 2.168404344971009e-18 0.4655986370448061 
0 0 0 0 
0 0 0 0 
0 0 0 0 
0 0 0 0 
0 0 0 0 
0 0 0 0 
-0.283657335454739 0.3674834952205356 -0.2825892668314473 0.3285337525375954 
0.0564095641317485 0 -0.02939731627512897 0 
0.01752079867242941 0 0 -0.06455463732061809 
0.1871942945304295 -0.07892287631317947 -0.09313226001078906 -0.06274569206856449 
0.0844859099116242 0 0 -0.1150079591215198 
0.444973630269719 -0.3913577061407266 -0.03782504991231341 -0.01308083951720061 
-8.673617379884035e-19 0 0 0 
-0.8739368086583594 0.2384752533391515 -0.0005272749480973243 0.7331491102825068 
-0.781340291499489 0 0 0.6910631920168497 
0.111427183251827 0 -0.02939731627512897 0 
0.2688650388284366 -0.2304921969632478 -0.2034950260837396 -0.00830059492973443 
0.1842148997908868 -0.1391835431862551 3.252606517456513e-19 -0.04785595240207022 
3.469446951953614e-18 -0.006064057927672274 -4.336808689942018e-19 8.673617379884035e-19 
0 0 0 0 
-0.5954947698236324 -0.08395222149311313 0 0.6952499060807947 
-0.1197675887196351 0.1596686839983617 -0.5927681470872775 -0.01173569703715373 
-1.040834085586084e-17 -0.07643865128100921 0 0 
0.5107346472914375 -0.4971051428844114 -0.07574251877472134 -0.03783710418920065 
0.5813815469894512 -0.2669663941984556 -0.06032227612027807 -0.2984917880673576 
0.1531996489709556 -0.06213259621570628 -0.0009932859580805166 -0.1353229120680567 
0.1272195098289189 0 0 -0.01562330559628413 
0.3716471586559038 -0.3311618665909415 0 -0.1104337509130058 
0 0 0 0 
-0.5419213694111514 0.2391767285871702 -0.08677332241650389 0.3398240128949286 
0.5987795135092637 -0.2824340089819956 -0.1379802827039773 -0.1932922902906632 
0.1363467741521204 0 0 -0.2604285084548043 
0.5897074242731462 -0.268818010547253 -0.01267430623234706 -0.3729415384843983 
-0.4975770258648754 0 0 0.413803263290126 
0.2264146488996967 0.04107087626697725 -0.03856757098400932 -0.05687527521027582 
-0.1040772558656983 0.3110052582036962 -0.02477867635912135 -0.01299966459300198 
1.387778780781446e-17 -0.04953528143161113 0 -0.06395076798438654 
0.1953781970752886 -0.1117414535137572 0 -0.08047166186940208 
0 -0.006038956372418131 0 -4.336808689942018e-19 
0 0 0 0 
-0.01416092577750599 -0.2347741680614895 -0.04364568899946465 0.02389892765900644 
-0.01416092577750595 -0.2347741680614895 -0.04364568899946466 0.02389892765900644 
0.1665736894140715 -0.1725468850353916 -0.05447867990611952 3.469446951953614e-18 
0.1557468523350522 -0.0464388703253151 -0.1853462578911746 -0.3603065424849046 
0.4273505704114329 -0.3056670120197074 -0.04583207547189175 -0.09283405539608068 
0.3701209876777943 -0.1374115631309895 0 -0.07216383242868062 
0.112699363957906 -0.01789592799072264 0 -0.02533653728393362 
0.1488397182411636 0.2662135475720387 -0.08448069291772296 -0.01742352347662795 
-0.5642259303073145 0.4919920583212232 -0.02730035463492033 -0.2000087489194961 
0.5431179392279736 -0.323258622535479 -0.01318539346411235 -0.09160547448371875 
0.1150642232941252 0 0 -0.08202170577061103 
0.3793694521829995 -0.2196091278332419 -0.002216872058204903 -0.1315816507047012 
0 0 0 0 
0.005250200672577057 0 0 -0.05750194568438884 
-0.7117139023304249 0.305321478163851 0.1018862672077093 0.8409376737961213 
0 -2.602085213965211e-18 0 0 
-0.7884431296183698 0.753335337236491 -0.03696706184972898 -0.06379019061038307 
-0.1586333104448074 -0.06656079904763065 -0.001264961705662134 0.256995467966811 
0.5644667869701803 -0.1046786540152225 -0.2610961771756478 -0.3607776769781391 
0.05281236707826403 -0.5026075070687799 -0.3565128556507344 0.4390384933561008 
-0.1170457858926928 -0.1663005305027511 -0.1447201152817628 0.3922967761591166 
-0.3970869872199568 -0.09505637449508707 0 0.2627057522479941 
1.734723475976807e-18 1.734723475976807e-18 0 3.252606517456513e-18 
0.26995068836317 -0.04854930034104281 -0.1146590410042328 -0.0829620719642839 
-0.2254580543450575 0.1372886904984805 0.2650005556162696 -0.07947923452861501 
-0.2398377364683053 0.4101926412285252 -0.2410216246848858 -0.02188376970028305 
0.2310692089305517 -0.1394974581352448 -0.001275419575195887 -0.02159436253374829 
0.5357703772660417 -0.06699808614737252 -0.04167958201515562 -0.4681163522981787 
0.1735650896536807 0 -0.04583070432125704 -0.1412407852319373 
0 0 0 0 
-0.3838521860722338 0.4492230305884478 -0.2372198000933614 0.3513831217994481 
-0.3444510584480981 0.2460506957336896 0.1565207147968236 -0.1018277030424389 
0 -0.05935800238666925 0 0 
0.08813424836404825 -0.05861702655237961 -0.0349897982485796 0 
-0.7682440983885901 0.2795140364240231 -0.05412168404897295 0.3545023135830811 
