solver_type L2R_L2LOSS_SVC_DUAL
nr_class 2
label yes no
nr_feature 4524
bias -1
w
-0.3637857625845801 
-0.2171202768789995 
-0.1711618861848858 
-0.1860444038108771 
0.5675858509353597 
-0.08160949373828764 
-0.0002817913298113247 
2.451855422882036 
-0.1800694830029798 
0.1377537886300923 
0.4089536363056469 
-0.6455838420863707 
-0.2151451038931928 
1.453843933817733 
-0.2372205090264383 
-0.5324337143764027 
0.1435422834419472 
-0.2554991761064814 
0.1127844333330874 
0.1739702324067598 
-0.01512588532035578 
-0.8589826277563067 
-0.1119379171310327 
-0.4524800921456811 
0.149618168516077 
0.2970341106745961 
0.7477258607770995 
-0.08366158604780805 
1.103913789661628 
-0.5885258842624776 
-0.08821092287606318 
-0.2363634764236233 
-0.1552664115304054 
0.1835082967745191 
-0.114452572118208 
0.4034285991215746 
-0.0778709249070469 
-0.05730423581212081 
-0.006029364290282357 
0 
0 
0 
0 
-0.6815669362889022 
1.734723475976807e-18 
0 
0 
-0.01206123931879777 
0 
0.2982451220583269 
-0.07088111334216857 
1.213767067795429 
1.734723475976807e-18 
-0.7384515135961435 
0.5369550398656326 
0.4413039694503334 
-0.1803490188962221 
-0.2549414155003866 
-0.06058449305277859 
0.3483112261568289 
-0.4944847533321635 
0 
0 
0.364619290686169 
0 
0 
0.6922523393766491 
0 
-0.006303035220748072 
0.6927913790308887 
-1.658459644369554 
0 
-0.1198069446165063 
-0.02554833189773868 
-0.08446033767661684 
-0.4716759217291547 
-0.2985550836845308 
-0.08446033767661684 
0.449393520199411 
-0.05955888075670892 
-0.1049306129718264 
-0.3793341762959656 
0 
-0.006704221224777349 
0 
0 
-0.07728258126406051 
0 
-0.342462407827604 
0 
-0.1617162842720001 
0 
-0.1317380225529416 
-0.003796193464646493 
-0.003796193464646493 
0 
0 
0 
-0.5805670767914791 
0 
0 
0 
0 
0 
-0.2518167983923649 
0.3056856414466395 
-0.07407739675091284 
-0.04652556243733836 
0 
0.667269911013106 
0 
0 
-0.6378124800142794 
-0.2803939544405221 
-0.1442919891810205 
0 
0 
0 
0 
-0.4466807267759981 
0 
8.673617379884035e-19 
0 
0 
0 
-0.3607349266573486 
0 
-0.09586131202703385 
-0.4785728798600347 
-0.1992102104874414 
0.03761416566630044 
-0.2800316904281299 
-0.05078349323241263 
-0.2555792698751438 
-0.5839328000543716 
-0.403168955500704 
-0.1458587316261451 
0 
0 
0 
1.387778780781446e-17 
0.1712182446666254 
0 
0 
0 
-0.1087200149796538 
0.5022228710164125 
-0.0279856697609781 
0.3701643235866759 
0.2588957009231673 
-0.5551535411627281 
0 
0 
0 
0 
0 
0 
0.09279753259045723 
-0.1142125292190041 
0.2842982102486267 
0 
0 
-0.5551265472679495 
0 
-0.4169161243687126 
0 
-0.07333520655519847 
0 
0 
0 
0 
0 
0 
0 
0 
-0.07333520655519847 
-0.3939795638430676 
0.1312799371478849 
-0.1723846094832693 
0 
-0.02986310024619306 
-0.3541929447524125 
-0.2015250535928643 
-0.5089899218553324 
0 
0.6363809966024391 
0.1441446120635906 
0.36647454287003 
-0.2582753866062779 
-0.5701275474728585 
-0.1200174094016927 
-0.2598354944884568 
0 
0 
0.06389309610187265 
0.1083499700404793 
0.321203780697461 
-0.3054496097528899 
0.2914407371185695 
0.004887280464275408 
-0.0558630667503177 
0 
-0.3207044684348985 
0.7639713991800314 
-0.3699413600481784 
0.1375102850229387 
0 
0.4289695367352288 
0 
0 
-0.0914394249980261 
0 
-0.1339932229852411 
0 
0 
-0.426459807433904 
0 
0 
0 
0 
0 
0.5836221466034363 
0 
0 
-0.3134221653415041 
-0.9561165470776362 
0 
0 
0 
-0.8746295254727678 
0.271993700392706 
0.4901500188713676 
-0.1139567510394678 
0 
0 
0.1964115842790106 
-0.01616841705491858 
-0.08307614706378609 
-0.1005863939774384 
-0.05930994192947733 
0 
0 
0.5019475683635887 
-0.3350998321038012 
0 
0 
-0.276584059018278 
-0.04501017490367931 
0 
-0.1398421484614662 
-0.1085788755733426 
-0.05004243524714726 
-0.3416073700900974 
-0.2857034700060672 
0 
0 
0.2009110549602306 
0 
-0.03298870871612871 
0 
0.4053298184732776 
0.8613165329931018 
-0.03050832204060614 
0.3546342899673162 
-0.2179124410922249 
-0.01711096423053337 
-0.09164012517942959 
0 
-0.3818002789080398 
-0.1565839477196877 
-0.1165676296599479 
0 
0.292377700622071 
0 
0 
-0.222324603158651 
-0.06049691610396533 
0.03632421544604829 
0 
0 
-0.1812589169260475 
-0.09904987972789764 
0 
-0.09904987972789764 
0 
0 
0 
0 
-0.2384282219041067 
-0.4109869686773748 
-0.05540236455531657 
0 
1.053640788427986 
-0.1260534087204362 
0.1357864858552456 
0 
0 
-0.1792354760468508 
0 
0 
0 
0 
0 
0 
-0.2168570349745002 
0 
0 
0 
-0.2002930123635657 
0 
0 
0 
0 
0 
0 
0 
0 
0 
-0.4265722173298231 
-0.5975228842179042 
-0.3151257399659393 
0 
-0.2390485745625266 
0 
0 
0 
0.1414211147781303 
-0.667863056836689 
-0.006047177150223557 
-0.07452963986226134 
-0.1087001120600766 
1.189281524881178 
0 
-0.655394932881914 
0.3123032835819788 
-0.3103834556815353 
-0.01574132113084895 
0 
-0.05078349323241263 
-0.05078349323241263 
0 
0.245199364050787 
0.0900252791942556 
0.03632421544604829 
0 
0 
0 
-0.2106860283831335 
0 
0.3973290509217483 
0.1495127822301313 
0 
0 
0 
-0.7981258923621092 
-0.8375857514811816 
-0.0346083576818517 
0 
0 
0 
0 
0 
-0.01522013182793763 
1.734723475976807e-18 
-0.1398421484614662 
-0.272172531295832 
-0.3915251135970672 
0.468723077761774 
1.436567878543293e-18 
0 
-0.1142125292190041 
0 
-0.01200201115163017 
-0.4488736916424917 
0.01080991484633386 
-0.3049444885653647 
-0.04899051277400516 
0 
-0.09128751303868762 
-0.1501171555621746 
-0.2366467595065585 
0.6579344084223729 
-0.4236136895574376 
0.377684602149942 
0 
0 
0 
0 
0 
-0.1087093545810876 
0 
0 
-0.3341284753896666 
0 
0 
-0.3971670803987783 
-0.6033134094794542 
0 
0.5015982362398387 
0.6251917536837678 
0 
-0.2168801513918974 
-0.1522848549492812 
0 
0.3170597597273905 
-0.2325393451612537 
0.0758367352174872 
0.4918735465009875 
0.2447162375714417 
1.734723475976807e-18 
-0.09164012517942959 
-0.2353603766613975 
0 
0 
0 
0 
-0.1219723771401733 
0 
0 
0 
0.07977072790146178 
-0.01800005102940942 
-0.3097574283366343 
0.5991771974829815 
-0.06469915212735419 
0.3867427830403309 
-0.7848947562584386 
1.100999552597011 
-0.3254775311720339 
0 
0 
0 
0 
0.3004209590684619 
-0.2499398694727943 
-0.8472786441571373 
-0.2944923550743683 
-0.08291003503999078 
-0.126483455311267 
0.06667285600901204 
-0.3178688771032774 
0.3056555748306563 
-0.1557550868335746 
-0.2222597227098558 
0.4351395387347876 
0.4525103860620311 
0 
0 
0.4867681716128761 
-0.4441167543921901 
-0.3127399504099098 
-0.05418988581985328 
0.3763938383460513 
-0.1535777716708769 
0.3646134716020604 
0.4705299325424659 
-0.6659885971235014 
1.389623628886684 
-0.1014917669477573 
-0.3326021134411027 
-0.1944899351153694 
0 
-0.6855774329468821 
-0.1937091409099558 
0 
0 
0 
-0.173660004459171 
-0.01686377721952571 
0.3116854913751211 
0.4893328025181135 
0.4899663564310758 
0.1156800006652334 
0.6907302995895847 
-0.6646346685598638 
-0.2662585971738973 
-0.372930170723633 
-0.5253849026950538 
0 
-0.1224314881241558 
-0.2228995922499492 
0 
0.4585737374560353 
-0.9890060096158886 
-0.1872808895437534 
-0.4894397764740767 
0.03920654337229256 
-0.1380161578756645 
0.4007520182852968 
0.4674611410512691 
-0.07333520655519847 
-0.142623307221133 
0.9844342277913828 
0 
-0.01792957720809961 
-0.5824584683287383 
-0.5665928267749163 
-0.005750426837743542 
0.2300202173571841 
-0.08108774138303056 
0 
0 
-0.1031398542736049 
0 
-0.1587989726347452 
0 
0 
0 
0 
0 
0 
0 
0 
-0.4118681775455208 
0.3613284737734102 
0.1664482169229536 
0 
0 
-0.0550257014698804 
0.2393747200426737 
-0.1980997594557953 
1.089321439483988 
0.4812206932277698 
-0.221956311365738 
-0.1598452672758346 
-0.02398573520938465 
0 
0 
0 
0 
0 
0 
0 
0 
-0.346500380618988 
-0.4302677232498663 
0 
0.3002735027445064 
0.2723206895447476 
5.204170427930421e-18 
0 
0 
-0.08914223196949236 
0 
0.3283299111262181 
-0.108499273759044 
-0.108499273759044 
0 
-0.1260534087204362 
0 
0 
-1.664568311621895 
-0.3910781530788384 
-0.05070239452996345 
-0.5989182107730345 
-0.3819849234794336 
-0.7184073388264302 
-0.3589442542476984 
-0.09242307601459047 
-0.07098917485627079 
-0.7438165125906292 
-0.07190447828100087 
-0.4607461907363509 
-0.06337433062680792 
-0.4852287593126127 
0.601724858575264 
0.2706648362614278 
0 
-0.1537486919556381 
-0.6283718217700673 
1.023159488260496 
0 
0.3197561216457969 
0.7379174506898569 
0.05316036600282099 
0 
-0.3134221653415041 
-0.5606678376992248 
-0.4891443336166368 
-0.04695070932094488 
-0.05897562830626328 
1.135139065048768 
0 
-0.04309187178654436 
-0.3701750387641163 
0.4273280565756224 
0.001902404266776398 
-0.7090877236050986 
0 
-1.040659567534999 
0 
0 
-0.08242878437412648 
0 
0 
0 
0 
0 
0 
-1.226419297137657 
-0.3578648394194647 
-0.08389624427665469 
-1.271675764369129 
-0.09977994659599106 
0.3970743533527036 
-0.2812385576159228 
2.383858495172948 
-0.3462599716991436 
-0.7810142012385011 
-0.4473204657902482 
-0.1024200979576567 
0.6151951790363733 
0.354991362787319 
0.3558847591269558 
0 
-0.07503124191868248 
-0.01129629665393144 
-0.2947066228257169 
0.3027744188470345 
-0.04038503813871528 
0 
0 
0.1371486842456238 
-0.06877937584445883 
0 
-0.02728656864190956 
0.01552028008639837 
0 
0 
0 
0 
-0.5823188065571838 
-0.05540236455531657 
-0.07333520655519847 
-0.03179747217653605 
0 
0 
0.7297724813083279 
-0.1693150956030469 
0.4604768693899693 
-0.6301427269024563 
-6.938893903907228e-18 
0.4070237696835937 
-0.06498649678104861 
0.770638440117458 
0.435509241278672 
-1.388080352054112 
0.4112891219372039 
0.7406216373979359 
-0.7278684225965237 
0 
-0.05654458649769296 
0.3964528560648905 
0.1004907622500674 
0.6731943628034838 
-0.06698788121960228 
-0.2206607711907876 
0 
-0.1968170713204605 
0 
0 
-0.1313189135668982 
-0.1255210167766214 
0 
0 
0 
0 
0 
0 
0.3223019170466082 
0 
0 
0 
0 
0 
0 
0 
0 
0 
0 
0 
0 
0 
0 
0 
0 
0 
0 
-0.3086096072968584 
-0.7100231489792568 
0 
0 
-0.04949004428578755 
-0.09245962202370539 
0 
-0.2283911218839582 
-0.3323367939968314 
0 
0 
-2.602085213965211e-18 
0 
0 
0 
0 
0 
0.2692937850541169 
0 
0.1094658797556509 
0 
0 
0 
0 
0.7112568743883911 
0 
-0.1807396369007389 
-0.1923599004907927 
0 
0 
0 
-1.734723475976807e-18 
0 
0 
0 
0 
0 
0 
0 
0 
0 
0 
0 
-0.01681393187180976 
0 
0 
0.4715466255938633 
-0.006293404014810836 
0 
0 
0 
0 
-0.1713215200870268 
0 
0.9983695541262223 
0 
0 
0 
0 
0 
0 
-0.1900615246400268 
0.6612117742624812 
0 
0.668847933652804 
0 
-0.2267192134508617 
-0.4478403039778521 
0 
0 
0.3930140623524218 
0 
0.5373140267235358 
0.389022358235678 
-0.1889118936407477 
0 
-0.4213676298327988 
-0.6836260839284473 
1.000572133737522 
-0.09996746322827023 
0 
0.3561783359197935 
-0.2516221301689591 
-0.1949269926528858 
0 
-0.2637286117996904 
-0.002292893945606012 
0 
-0.0281513592469614 
-0.9079220073473327 
0 
0 
0.4274584440202308 
-0.0437085846346869 
-0.3979846607933414 
0 
0 
0.2208238993890001 
-0.2149053800069841 
-0.3526753016231734 
-0.1506597809895615 
0.853772465018058 
0.5370735037539658 
-0.1866624480524199 
0.5086174864784474 
0 
0.2795709693147024 
-0.1174176826088894 
0.008118709567379536 
-0.04285741663827981 
-0.1362167682061778 
-0.006704221224777349 
0 
0 
0 
-0.1650236246787889 
0.1700925405104004 
0.3399850837770265 
0 
-0.2926895199399855 
0.5692040903417828 
-0.0744477256061625 
-0.4783588166510886 
-0.1009222093233303 
0.6252534910594044 
-0.1467350737389461 
-0.03962876748862938 
-0.1162663549622992 
-0.06723729543363653 
-0.09313896612624235 
-0.07120121290901862 
0 
-0.128686487442678 
-0.1142125292190041 
0.1923714073360951 
-0.3792582643634516 
-0.3621068226486036 
0.4724898746536944 
0.1625935335986158 
-0.6140494148066306 
0 
0 
0 
0 
0 
0.9233862154851349 
0.03972690674239551 
-0.2336753507354698 
0.4541462044712744 
-0.3484837019028427 
-0.101417837029158 
0 
-0.1341236253872837 
-0.07333520655519847 
0 
-0.2819402695918952 
0 
0 
-0.4965036087858331 
-0.1064380357880577 
-0.08892445849119773 
0.5266208923475721 
0 
-0.1898492149140283 
-0.1656368653349563 
0 
0.01983484076935077 
0 
-0.3868125253858197 
-0.198999537114262 
0.2093339934412732 
-0.1481540451393366 
-0.07983313146215559 
0 
0 
0 
-0.2217448481598467 
0 
0 
0 
0.4537680924987941 
0 
0 
0 
0 
0 
0 
1.015466557576305 
0 
0 
-0.9992491252021214 
-0.02190185498760184 
-0.01697755752388971 
-0.03314883904786195 
-0.03314883904786195 
0 
0 
0 
0 
-0.05758394838663679 
0 
0 
0 
0 
0 
0 
0 
0 
0 
0 
0 
0.2760399974270966 
0 
-0.03362078409197763 
-0.006252457724083469 
0 
0 
0 
-0.233355830080848 
-0.1955260675855919 
0 
-0.01194382132300055 
0 
0.4730818459215094 
-0.07333520655519847 
0 
0 
-0.03840517842059746 
0 
0 
0 
-0.2900642227067313 
0 
-0.5561724646644778 
0 
0 
0 
0 
0 
0 
0 
0 
0 
0 
0 
0 
0 
0 
0 
0 
-0.2397653236856369 
0 
0 
0 
0.6448025539340715 
0 
-0.09164012517942959 
0 
0 
0.4720243884906212 
0 
0.4833206851445526 
0 
0 
-0.07454848456704834 
0 
0 
-0.2860752308484577 
2.710505431213761e-18 
-0.04849230240170922 
-0.0487133158756173 
0.3223019170466082 
0 
0 
0 
0 
0 
0 
0 
-0.09748937987358711 
0 
0 
0 
0 
0 
0 
0 
0.468723077761774 
-0.1004989203181082 
0 
0 
0 
-0.4024805946271906 
-0.0571334790254422 
0 
-0.02416896395555358 
0 
0 
0 
0 
0 
0 
0.5326277940077496 
0.1569948977164894 
0 
0 
0 
0 
-0.2567429379365143 
-0.2791713803569846 
0.5631664782541591 
0 
0 
0.4174247998069477 
-0.1867545558853697 
-0.3419647990604002 
-0.1505163849038471 
0.8622093513563739 
-0.2860752308484577 
-0.03146813435943718 
0 
0 
0 
0 
0 
0 
0 
0 
0 
-0.4285932984949318 
0 
0 
-0.1423988332870958 
0.1811947969247326 
-0.9684949817899651 
-0.002285497462865829 
0 
0 
0 
0 
0 
0 
-0.0611312841297389 
-0.1215431157022033 
1.433190626884087 
-0.125131102889208 
-0.0398302535485765 
0.325714651052147 
-0.6097107199198758 
-0.5566406153760448 
-0.06088266908462206 
0 
-0.3748786061030058 
-0.1614602411150364 
-0.4583200641527453 
-0.3119325396743961 
1.978602577662095 
1.217119068634688 
1.643941557639649 
-1.342228546860341 
0 
0 
-0.3532024709116497 
0 
0 
0 
0 
0 
0.4316889631499538 
0 
0.4601125460911941 
0.2092832748828623 
0 
0 
0 
-0.1458289582442967 
0 
0 
0 
-0.4941619823116217 
-0.2807459574609004 
0 
-0.607895954173969 
0.5256112125473479 
0 
-0.1729516933957524 
-0.03881620362601899 
0.1752189945158997 
0.3636261834489147 
-0.2062315477579898 
-0.114973868890794 
0 
0 
0 
0 
0 
0 
0 
0.3212620102578414 
0 
-0.4062673762344414 
0.3283299111262182 
0 
0 
0 
1.734723475976807e-18 
1.734723475976807e-18 
0 
0 
0 
0 
0 
0 
0 
0 
0 
0 
-0.1701656705299467 
-0.2177171110626941 
0 
0 
-0.5187586458176483 
0 
-0.359563005986042 
0 
0 
0 
-0.1953626293677232 
0 
0 
0 
0 
0 
0 
0 
0 
0 
0 
0 
-0.2616973060238801 
-1.734723475976807e-18 
0 
0 
0 
0 
0 
0 
0 
0 
0 
0 
0 
0 
0 
0 
0 
0 
-0.4473815843391512 
-0.6751815417319014 
-0.4819867031587955 
0.1880266471467144 
-0.485777761749326 
0 
1.734723475976807e-18 
1.071844961233566 
0 
0 
0 
0 
0 
0 
0 
0 
0 
0 
0 
0 
0 
0 
0 
0 
0 
0 
0 
0 
0 
0.132977565243058 
-0.466959344201277 
0 
0.4454380736046453 
0.4900114140960271 
-1.734723475976807e-18 
-0.1745864574170634 
0 
0.00505141845724635 
-0.1548220795014193 
0 
-0.1185203327149403 
0 
0 
-0.1802788532700979 
-0.1644549519761408 
0.07617242167083439 
0.2146716755843069 
0 
-0.362597063871375 
-1.096015397645379 
0.7419257697119389 
4.336808689942018e-19 
-0.1881369738082924 
0.352661257247505 
-0.2469782764361637 
0.2265277389754523 
-0.2595924591054791 
0.1606879108887014 
-0.5974829887534079 
0.3772385601825133 
0 
0.305239523378706 
-0.1970771153552266 
-0.1546449247130239 
0.3119046583687449 
0 
-0.5073942935392043 
0.5099997168606144 
0 
-6.938893903907228e-18 
0 
0 
-0.2707464549699194 
-0.1768300982296603 
0 
-0.1896155207750858 
-0.1085199115982362 
-0.208319146049309 
-0.009191378991177017 
0 
0 
-0.0600722808860602 
0 
0 
0 
8.673617379884035e-19 
8.673617379884035e-19 
0 
0 
-0.3179720899393199 
-0.2741350781647541 
-0.2130037940350151 
0 
0.177965108503205 
-1.039143993098419 
-0.1142125292190041 
-0.1142125292190041 
-0.2781495461981326 
-0.1142125292190041 
-0.1142125292190041 
0.3201822832387145 
0 
0 
0.0539184005986681 
0.0539184005986681 
0 
0 
-0.1522848549492812 
0.09979912483443749 
-0.3845037613144927 
0 
0 
0 
0 
0 
0 
0 
0 
0 
-0.2992868367342905 
0 
0 
0.001624054673485912 
0 
0 
0 
0 
0 
0 
0 
0.3571221186271957 
0.9019564018719476 
-0.058831595107682 
0 
0 
0 
0 
0 
-0.06229934909143268 
0 
0 
0 
0 
0 
-0.3479939253696329 
-0.0300361404430301 
-0.0376476719566056 
0 
0 
-0.03179747217653608 
0 
0 
-0.4205656686503396 
0 
0 
0 
0 
0 
0 
0 
0 
0 
0 
0 
0 
0 
0 
0 
0 
0 
0 
0 
0 
0 
0 
0 
0 
0 
-0.05737716046818304 
0 
0 
0 
0 
0 
0 
0 
0 
0 
0 
0 
0 
0 
-0.08242878437412647 
0 
0 
0 
0 
0 
0 
0 
0 
0 
0 
0 
0 
0 
0 
0 
0 
0 
0 
0 
0 
0 
0 
0 
0 
0 
0 
0 
0 
0 
0 
0 
0.7867496667987858 
-0.3062734570241894 
0.1818100348291606 
-0.08206536308519358 
0 
-0.7621031246581303 
-0.7270822266413395 
-0.8399740616574486 
-0.09459572150696804 
-0.1146720911623401 
0.3114385450574157 
0.4714352895890887 
-0.4749012242076591 
-0.2951326907204311 
0 
-0.5320992021648216 
-0.1323462540259421 
0 
-0.07333520655519847 
-0.07333520655519847 
-0.1355782728673608 
-0.2374999838021843 
0.09497473824823062 
0 
0.7444222170743574 
0.1388399406713049 
-0.1372152006317003 
-0.05331298588615946 
-0.3943138946285493 
0.1513630434892856 
0 
0 
0 
0 
0 
-0.1789631649282652 
0 
0 
0 
-0.1033883486769503 
0 
-0.1198069446165063 
-0.1614860430987045 
0 
-0.05164537639538111 
-0.008167168230607815 
-0.2008745963169214 
0 
0.336499878435273 
0 
0 
0 
0 
0 
0 
0 
0 
0 
0.1572226931333429 
-0.09021680585377234 
0 
-0.05540236455531657 
-0.05540236455531657 
-0.09491003271251944 
-0.1897286850049581 
-0.4996854920365742 
-0.1738906170649374 
0.6781552961523222 
-0.3074057447200716 
0 
0 
0 
0 
0 
0.07855692896374745 
-0.3607349266573486 
0 
0 
0 
0 
0 
-0.5556774541148258 
-0.1664468123380345 
-0.2796138773924914 
-0.1363168582862855 
0.49528395196431 
0 
0 
0.9539600930432449 
-0.01262286436902751 
-0.04562871186642049 
-0.5476902087136443 
0 
0 
0 
0.03632421544604829 
0 
0.917488360816069 
0.1551656777125567 
0.2040884617820317 
0 
0 
-0.1142125292190041 
-0.1142125292190041 
0 
0 
0 
0 
-0.2314502465092572 
-0.8201478108360861 
-0.4017026221197021 
0 
0.5860702854303445 
-0.1170991155166537 
-0.2456144520408657 
-0.1760944391158722 
0 
0.6587474322572264 
0.5120819914796758 
1.199572505966876 
-6.342582709040201e-18 
-6.342582709040201e-18 
0 
-0.01290577681269007 
-0.07333520655519847 
-0.004627794130340021 
0 
0 
-0.3432638325901895 
0 
-0.292560203772618 
-0.2415968368165116 
3.469446951953614e-18 
-0.118218905823172 
-0.5176640554429708 
0 
-0.198679634511591 
0.3903053934626852 
0 
0 
0 
0 
0 
0 
-0.1046832708407337 
-0.07333520655519847 
-0.07333520655519847 
-0.2082677318523514 
0.6275528867509511 
0 
0 
0 
0 
-0.1031398542736049 
-0.6307602965403734 
-0.3860186968756 
-0.04705183834937168 
0 
0 
-0.7936186419135094 
-0.2203611700407486 
0 
0 
-0.02478292621642462 
-0.2891840488653616 
-0.3719668396884085 
-0.5618418830008757 
-0.1256436032455649 
-0.3308662545065565 
-0.1659715990147268 
-0.3295434399924827 
-0.02301199176398247 
0 
0 
-0.1883736083159004 
0.8896141870479322 
-1.005262317420399 
0.1518709641239407 
-0.2444782370122039 
0.4179273355959623 
0.5287034864200592 
0 
0 
-0.004280052090298564 
0 
-0.1499663050828994 
0 
0 
0 
-0.1160763376804663 
0 
0 
0 
0 
-0.06869273746346778 
0 
0 
-0.1142125292190041 
-0.1142125292190041 
0 
0 
-0.05567397158470721 
0.3169178315591619 
0.4112437406056537 
-0.1276544920806782 
1.077187967245082 
-0.297141422794802 
-0.3728190222276433 
-0.2316562270667553 
0 
-0.1142125292190041 
0 
-0.3901921607308014 
-0.2887743237016434 
-0.7236778695040099 
-0.2231991270983035 
-0.3979846607933414 
-0.3790815701560276 
0 
-0.5598553171642123 
0.305016700115797 
-8.673617379884035e-19 
-0.1364476098427411 
0.2302747792763923 
0 
-0.2531527024340178 
0 
0 
0.2141656713842727 
0.391902095824174 
-0.150646885981262 
0.2242588133159097 
-0.2888689304944583 
-0.2398910740922608 
-0.1024957583932736 
-0.7939213591923457 
-0.1424339512436643 
-0.1124468228263108 
0.2548567730177146 
-0.1029470582436457 
0.3612143785370556 
-0.1086629897574524 
0.4686658162879927 
0.2142850409876538 
0 
0 
0 
0 
0 
0 
-0.0923873353242016 
0 
0 
0 
-0.2114825295372538 
0.4063034540483318 
0 
-0.1650234871435481 
0 
-0.1048521187385172 
-0.1048521187385172 
0.2104820240678947 
0.2463831720420541 
0.4442826102983219 
-0.1949269926528859 
0 
0 
0 
0 
0.6151951790363733 
-0.4173573864873816 
-0.02642683998960817 
-0.2343655294835817 
0 
-0.3457163544947949 
0.4185665497657245 
-1.734723475976807e-18 
-0.09591943650264871 
-0.004627794130340021 
-0.004627794130340021 
0 
0.1122687048727811 
-0.5135396529125901 
0 
0 
-0.1062429346986099 
0 
0 
0 
0 
-0.0506281118872567 
0 
-0.122689002755829 
-0.02718803299156421 
0 
0 
0 
0.2614981703141323 
-0.5014886592411598 
0 
0 
0 
0 
0 
0 
0 
0 
0 
0 
0 
0 
0 
0 
0.5164287736145937 
0.1385363771213118 
0.3911550143596224 
0 
0 
-0.2887188866203769 
1.178182461486971 
-0.2089375792601105 
0.2730465694639497 
0 
0.398722263592395 
1.277638221439815 
0.9906666092469536 
-0.117414690907453 
-0.7030748960978669 
0.2067351996242895 
2.125779684735364 
0.5089149349817537 
0.177705311088779 
-0.2156731595247513 
0.3341876570222648 
-0.0778709249070469 
0.3107007397673613 
-0.1042969114746949 
0.3911367921820725 
-0.008204378941583977 
-0.1833598855429737 
0.4170709948652991 
-0.1920153908751341 
0 
-0.1207452441419835 
0 
-0.3045912598873011 
-0.1642400251701554 
0 
-0.08234890597685986 
-0.06337433062680793 
-0.3689448843878091 
0 
0 
0 
0.4106887838013143 
-1.056913614102999 
-0.05737716046818304 
-0.3718761504489028 
-0.06330770718353096 
0 
-0.2599901297041129 
-0.0925787777032617 
-0.1325516230586475 
-0.08160949373828764 
-0.07327336309249587 
-0.7915771215954316 
0.01194582384228925 
-0.4803598513893821 
0 
0 
-0.5945125251051514 
0.3419621404199916 
0.5209951969481715 
-0.3162308113130055 
-0.2490025217580303 
-0.1501684593490961 
0 
0 
0 
-1.051865802712928 
1.11168173564649 
0 
-0.07096511920089028 
0.2162397555661657 
0 
0 
-0.1426646536900928 
-0.03795244069335049 
0.05166313380310895 
0.7346518093411775 
0 
0 
0 
0 
0 
0.05115902985136152 
0 
0 
0.5378323684852302 
0.1264986673476256 
-0.5443112471184098 
-0.4771036675287135 
0 
-0.1484281975773781 
0 
-0.7150421829603965 
0.2332960941443674 
0 
0.2092832748828623 
-0.906114696461919 
0.3215985494673667 
-0.5884811617384526 
-0.3801110933246983 
-0.4400544717019333 
0 
0.08149575647307113 
0.9359945570155175 
0.03586309430595561 
-0.532608354798225 
-0.176510076895659 
0 
0.0112303840297942 
-0.1518375345756904 
-0.02503359224668015 
-0.6789571691737861 
-0.1132109533456889 
0.2116950980154656 
-0.04849230240170922 
0 
0 
-0.4187084460874185 
-0.1506597809895616 
0 
0 
-0.263950255573312 
0 
0.1242164763827228 
0.4958173130701806 
0 
0 
0 
0 
-0.1528803659999847 
-0.02438289216470592 
0 
0 
5.963111948670274e-19 
0 
0 
0 
0 
-0.4627195960079507 
-0.4972006423119383 
0 
0 
-0.5071024189974301 
0 
0.6580949982503275 
-0.1621272083371708 
-0.360518048002422 
0.01129587014511599 
-0.1991436781634066 
0.3905688037882527 
0.008241401061618971 
-0.008032142397021965 
0.1498828356469853 
-0.02091822466646576 
-0.1004989203181082 
-0.0929979702852362 
0 
-0.1421486856408167 
0.2180060123444293 
-0.185284444926043 
0 
-0.1874884691121789 
-0.6114851288444993 
0 
-0.1142125292190041 
-6.938893903907228e-18 
0 
0 
0 
0 
0 
0 
0 
0 
0 
0 
0 
0 
-0.1637025735047915 
-0.2299516591217656 
0 
0 
0 
0 
-0.008410412021521547 
-0.1178321981721764 
-0.1229660919876442 
-0.3686909542998599 
1.282841489075762 
0.5346849752774699 
0.737173177845502 
-0.2416761064218381 
-0.021404413742938 
0.7453954543981866 
-0.3361303717944207 
-0.1845823575373932 
0.1156800006652334 
0.3533697270529309 
0.8305557491675428 
0.7001271076961553 
-0.2134720554869976 
0.03445776339924961 
-0.1341531237516505 
-0.0982170072678782 
-0.2864723074185914 
0 
-0.4280905087706655 
-0.1806345252067112 
-0.1442919891810205 
0 
0 
8.673617379884035e-19 
-0.3492788423575716 
-0.1500681077324225 
0.2445167997878588 
0 
4.336808689942018e-19 
-0.3136430371379695 
-0.05758394838663677 
0 
0.305239523378706 
-0.1970771153552266 
-0.4224635342550649 
0.1916758531202859 
-0.4306083004114599 
0.3189563583713462 
-0.03840517842059746 
-0.2413036607352111 
0.8068571982431492 
0.4106887838013143 
-0.0424121091172644 
-0.05922805443568962 
-0.3522823493733234 
-0.2909308763610841 
-0.9553395456426657 
-0.1075757016699253 
-0.2410538129930286 
-0.1197136072461053 
0.3244625918561768 
0 
-0.02385061163868641 
0.1637083821030089 
-0.4772552435651882 
1.01789335102405 
-0.5755352227708527 
-0.1162663549622992 
-0.3801736977056291 
0.082735266956004 
-0.03913834798134086 
0 
0.1530299146567648 
0 
0.4062239317791781 
-0.05078349323241263 
0.3604288201722456 
-0.2968256209464781 
-0.3347162151671188 
1.064582480866942 
0.03445776339924959 
-0.1514745618684623 
0.5735733808527174 
-0.7687001650623977 
0.284412724258079 
-0.2014408171637617 
-0.9707821107439094 
0.2025414016123003 
-0.1039632599356507 
-0.2093657554873055 
0.2361953691775328 
-0.06498649678104861 
0.2474200573971097 
-0.1828625687947211 
0.1833977379126578 
0.3048320874730843 
0.9797091284443392 
-0.2377128824951019 
-0.2252461056968212 
0 
0 
-0.164823821227334 
-0.7178522723229767 
-0.6429719645142875 
-0.1329531111317104 
0.1731729239998612 
-3.035766082959412e-18 
-0.1223617125253954 
0.1367652478672124 
0.3060346598751182 
-0.2305246630647651 
0 
0 
0 
0 
0 
-0.08931220491076219 
0 
-0.08423984931438062 
-0.1800479143320358 
0 
0 
3.469446951953614e-18 
-0.2875333827899873 
0.4399453373070038 
0 
-0.7675288816075952 
-0.2671897189545157 
0 
0 
-0.2475700943891459 
-0.05385587326428384 
-0.002316790134599785 
0 
0 
0 
0 
-0.1761240780607039 
-0.02588179088113312 
-0.08735017825413993 
-0.00326282243541601 
0.723676386865586 
0.05843807768825617 
0 
0.8236382058167717 
0.4550387537472846 
0 
0.4801898038721699 
0 
-0.03579347654392256 
0.2193755828632042 
0.106733408384301 
0 
0 
0 
0 
0 
-1.061466896217967 
0.4466032584367393 
0.2799985178129062 
-0.1611984215556647 
-0.06202881992542297 
-0.05125502830776268 
-0.008464787004425009 
-0.160770220259761 
0.2220172152959209 
-0.1516868874132967 
-0.4871028571670643 
-0.04112756755101293 
-0.01199185929853297 
0 
-0.3717154141909419 
-0.02677750024857028 
0.388723200877476 
0.166238072669414 
-0.2725542471078659 
-0.05134613270450154 
0 
-0.8500198906611071 
0 
-0.249172723935289 
0 
0 
0 
0 
0 
0 
0 
0 
0 
0 
0.002223413332317419 
0 
-0.3247217745346715 
-0.2244040997861288 
-0.4193468043849877 
0.3253525082321154 
8.673617379884035e-19 
-0.03737465141346503 
0 
0 
0.3879619361795482 
-0.1652168391185884 
-0.0005526083830045359 
-0.2332362654947302 
-0.3111503769737998 
0.338740960693192 
0.5813324527121979 
-0.3183094274564651 
0.336280342343066 
-0.05075189493492775 
-0.3074057447200716 
-3.469446951953614e-18 
0 
-0.4512469484648514 
0.3020114517434038 
2.710505431213761e-18 
-0.1923924011409769 
0.4780627207446021 
1.048084796547417 
-0.05269278602566853 
0.7770756462224104 
-0.2157564791581305 
-0.003251751123689601 
0 
-0.0009183090468423639 
-0.0009183090468423639 
-0.1944899351153694 
-0.545842000500894 
0 
-0.1549069008988846 
-3.469446951953614e-18 
-3.469446951953614e-18 
-0.4730281654203042 
-0.01616841705491858 
0 
-0.1760584592648337 
0 
-0.1837275216702652 
-0.3505467773139094 
-0.003796193464646493 
-0.1528717787263876 
0.3741949531902323 
-0.3491511547416412 
0.09951939390931024 
-0.2245224568861602 
-0.08532519947102801 
-0.002632426124220158 
0.1974137662735388 
-0.07117844543398023 
0.1535114882503906 
-0.1395913711137707 
-0.2578834139425621 
1.734723475976807e-18 
0 
-0.1438085706310968 
-0.2889554382714765 
0.03894885904200221 
-0.0662976780957239 
-0.1678401724676426 
0 
-0.130071721810976 
0 
0.3040345414260763 
0 
0 
0 
0.5836221466034363 
0.427064226696231 
0 
4.03187682893047e-18 
0 
0 
0 
-0.2774544947990897 
0 
-0.3488591250725714 
0 
0 
0 
-0.04211992465719031 
-0.1678401724676425 
-0.1678401724676425 
-0.07817812393269188 
0 
0 
0 
0 
0 
0 
0 
1.089759225760365 
0 
-0.2473286482086973 
0 
0 
0 
0 
0 
0 
-0.1270121530808893 
-0.1666967742270993 
0.8099807098545824 
0 
-0.1456269883343569 
-0.02314032852081574 
0 
-0.1968976466911538 
0 
0 
0.1835082967745191 
-0.7432296855883725 
-0.2842043018974534 
-0.5316561173035127 
6.071532165918825e-18 
-0.7687202203437605 
0.7564015417197704 
-0.1712140524774943 
0 
0.4765833737134319 
-0.09948790823488107 
0 
-0.02259127543609345 
-1.301042606982605e-17 
0.06256982915110791 
0.3491910895004919 
0 
0 
0 
0 
0 
0 
0 
0.06392041859945402 
0 
0 
0 
-0.4505691495212977 
-0.1643383014836892 
0.01118279940575928 
-0.4294872144120983 
0.1732562740743354 
0.2956877621984911 
0 
0.1807920481578095 
-0.1142125292190041 
-0.3593055076500633 
0.01128665027254729 
-0.6187801623328477 
0 
0.1441366641952087 
-0.4018685739781581 
0 
-0.03451332114844134 
0.3630189383815656 
-0.04849230240170922 
1.084009876085937 
-0.4537465626381932 
0.172808989199088 
0 
0.4289695367352288 
0 
0 
-0.3964341212566285 
0 
0 
0 
0 
0 
0 
0 
0 
0 
0 
0 
0 
-0.1162663549622992 
-0.5390111583863548 
-0.1056300932866646 
0.1451473355689917 
-0.2357138503171728 
-0.1714497232458629 
-0.3312888644300953 
-0.1807724795262483 
-0.2384243833436318 
-0.607398819443272 
-0.1008406606701879 
-0.3826390820960262 
0 
0 
0 
0 
0 
0 
0 
-0.09977174328049934 
0.5999131475778179 
-0.2064414456974861 
0 
0.02980779437046992 
0 
0 
0.2821937503692212 
0 
0 
-0.06723585679599556 
0.309516567420508 
-0.5453450149917632 
-0.2295805076580389 
0.3692532887170094 
-0.003796193464646493 
-0.2624410043673597 
-0.2624410043673597 
-0.2457271516604497 
0 
0 
0 
0.03445776339924961 
-0.366718538085222 
0.0484240805126343 
0.005049559940346297 
-0.3745246425806923 
0 
0 
-0.1737903614096956 
0 
0 
0 
-0.01711096423053337 
-0.5699070404697903 
-0.07358382082846594 
-0.4471956096733555 
0 
-0.1325926853206535 
0 
0 
0 
-0.05897562830626328 
0 
0 
0 
0 
0 
-0.07333520655519847 
-0.07333520655519847 
-0.6027731684461369 
-0.07333520655519847 
-0.7093282098107703 
-0.1629587882915131 
0 
0 
0.3304483628116187 
-0.4118873603335094 
-0.7097906439671433 
0.2970341106745961 
0 
0.4214148626609689 
0.5125156661523411 
-0.3288327997980405 
-0.08540660631830252 
0.680046608591505 
0.7878827242378406 
0.2196493512097375 
-0.09586131202703387 
-0.7634155124218924 
0.3512453036048001 
-0.3545136435619817 
0 
-0.1165307709022032 
-0.03840517842059746 
-0.3699973811422707 
0 
-0.2140206127371804 
-0.6687246718775492 
0 
-0.05730423581212081 
0 
0 
-0.09583183061488833 
-0.6833196644353766 
1.416404974217582 
0.5311794139398978 
0.2727560032733788 
1.408118649669044 
-0.1144595510546261 
1.862737519610091 
0 
-0.1181995858437263 
0 
0 
0 
0 
0 
0 
2.87155616904727 
0.01359244837621808 
1.15763816763876 
-0.6406042534251938 
0.1321674505579772 
1.116813387385541 
-0.8048979775129544 
0.5213519994559591 
-0.5561280893846825 
-1.118852005190784 
0 
0 
-0.2457974014073105 
-0.410130288427053 
-0.2633508886041064 
-0.05078349323241263 
-0.05078349323241263 
-0.02815687864694154 
-0.3412497548603254 
-0.2573447661765052 
-0.03917935752650746 
1.503154448277238 
1.572363839992118 
0 
0.4823364150997402 
0.4290994988905389 
0 
0 
0.06389309610187265 
0 
0 
-0.04849230240170922 
-0.128358828986326 
-0.06962030734382244 
0 
1.659571423931099 
-0.3461133723589738 
-0.1036590216982934 
0.3853339618158602 
-0.8279782432052509 
-0.3376604450651234 
0.1519351201000297 
-0.3248819647207588 
-0.4417342920241898 
0 
0 
-0.08242878437412647 
-0.4666398678066507 
0.008743492737261953 
-0.03242120183491966 
0.178736338238473 
0 
0 
0.2333266610272668 
-0.1578283533323556 
0.2092832748828623 
0 
0 
-0.6124482576471066 
0 
-0.2257613000233341 
0.2034139098689992 
0 
-0.05004243524714726 
0.3003448576507237 
-0.3793339299295313 
0 
-0.1584437338826461 
-0.1693155171825219 
-0.1109946709036988 
0 
0 
0 
0 
0 
0 
0 
0 
0.1710813414043201 
-0.01616841705491858 
0.3867343432698886 
-0.06928727472141352 
0.1151884697285044 
0.5254512738620585 
0.4837354471321664 
-0.01222211117408916 
0.5272045583061813 
0 
0 
0 
0 
-0.09752264563251341 
0 
0 
0 
0.0463272246827446 
0 
3.295974604355933e-17 
-0.1803291484678256 
0 
0 
0 
0 
0 
0 
0 
0.2168727947791779 
-0.1395324167701412 
0 
-0.05151538267928496 
0.4185148468760882 
0 
-0.2665158255296598 
-0.4352455976710891 
-0.8057581552735092 
-0.2095404282093779 
0.2610286278848825 
-0.1010721359204167 
-0.09402899288909686 
-0.2344670873957871 
-0.7954521814013121 
-0.1687175095569137 
0.3050583404484873 
0.1931311706012423 
0.5674706245353168 
-0.4302766019585801 
-0.009792433500386506 
0.5550648052925649 
0 
0 
0.6270561615314484 
-0.006571795902555337 
0.5668275140680075 
0 
0 
-0.01230649925363571 
-0.2902566751200858 
-0.2281895438847363 
-0.2015308000184637 
0.04033022591074123 
0 
0 
-0.07558020636625104 
0.06171334729589138 
0.8629120173829127 
0 
-0.009189521853689354 
0 
0 
0 
0 
0 
0 
0 
0 
0.4942605122504861 
0 
0.3200047055026521 
1.178120249321774 
0.5339494626224406 
0.2062484602521727 
-0.1186630819406353 
0 
0 
0 
0 
0 
0 
0 
0 
0 
0 
0 
0.03219433721448364 
-0.337138873663733 
0 
0 
0.524564660196958 
-0.2895216929146666 
1.013642152628877 
0 
0 
0 
-0.7555093141534717 
0 
0 
0.7557036687163881 
-0.01589138390490056 
-0.1975703408216653 
-0.6939578581548145 
-0.426173147653141 
0 
-0.1746222951433807 
-0.08679391152414306 
0.5276642776852349 
-0.002316790134599785 
0 
-0.02460243690668623 
0.2379164482550667 
0 
0 
0 
0 
0 
0 
0 
-0.1491076968396952 
0 
1.944071465116787 
0.44199803367406 
0 
0 
0 
0 
0.815669919744328 
0.2352593083355355 
0 
0 
0 
-0.2147783595674719 
0 
0.8208030946393798 
0 
0 
-0.1686386156575235 
0 
0 
0 
-0.153410303537796 
-0.05586306675031771 
0 
0.2827910212595107 
0 
0 
0.2183933666879204 
0 
-0.1999082768425724 
-0.2274594308529832 
0 
0 
0 
0 
-0.1304801421435762 
0 
0 
0 
0 
-0.7470293108112962 
0.1661350791276491 
0 
0 
0 
-0.5428966954298289 
0 
0 
-0.1716742094204172 
0.09750423504280234 
-0.02315754435289527 
-0.3391629767344524 
0 
-0.07974677392848284 
0 
-0.5887344597944923 
-0.4927321846111236 
-0.09395370884343508 
1.002550618462806 
-0.01858957242537471 
-0.3532024709116497 
0.04106248744301079 
-0.440000555828909 
0.305868098255961 
0.2718644349172242 
-0.1719997367479635 
-0.1860222039812852 
0.2280364029519377 
-0.2133532554373465 
0.3278652788523731 
0 
0.2911885279711416 
-0.3029450113301999 
-0.9437153202654885 
-0.1163803610006608 
-0.05078349323241263 
-0.2512134303413707 
0.9580813914371671 
-0.04557223375033406 
0 
0 
0 
0 
0.1751910941327676 
0.1745955447502459 
-0.07947871878940078 
0.3848179941475343 
0 
0 
0 
0 
0 
0 
-0.06715936340424915 
0 
0 
0 
0 
0 
-0.2740810128400918 
0 
-0.07868486926980064 
-0.1375446893784225 
-0.3299393733199149 
0.3287203023691555 
-0.2275273863802892 
8.673617379884035e-19 
0.2366920462002644 
0 
0.2506182882303261 
0 
0 
0.195145615737207 
0 
0 
-0.1866798848705017 
-0.1601481180315242 
-0.8917252112388969 
0 
-0.5170760559501134 
0 
0 
-0.04243354171356398 
0 
0.3866835300457919 
0.4995393956947956 
0 
0 
0 
0 
0 
0 
1.108661912722854 
0 
-1.02733955186958 
0 
0 
-0.3861823620262471 
-0.8347125009460346 
0.0812781993295523 
0 
0 
0 
0 
0 
0 
0 
-0.176885401112511 
0 
-0.4141738464428795 
-0.06212682540981776 
-1.124484285077664 
-0.6670419992945705 
0 
0 
0 
0 
0 
3.469446951953614e-18 
0 
0 
0.1435723463457619 
0 
0 
0 
0 
-0.02464488537239907 
0 
-0.08814943664370976 
0 
0 
0 
0 
-0.1582459605272388 
0 
0 
0 
0 
-0.2165302823592509 
-0.09904431221929061 
-0.3126136938437125 
-0.1106404558527228 
-0.1106404558527228 
0.06225846282102012 
-0.3591085570455546 
0 
0 
0 
-0.1450697797362722 
-0.08540660631830252 
-0.08540660631830252 
-0.008552550287647509 
0.2066353137985591 
0 
0.4520824248324443 
0.5674893509578769 
0.2519340388655342 
-0.4256666539582172 
0 
0 
-0.5724769582210167 
-0.2281783236984024 
-0.06110451775194294 
0.06908813856448989 
0.3465144246389587 
-0.00496897013159408 
-0.09509309625292495 
0.5326277940077496 
0 
-0.2989107908864505 
0 
-0.1910938726339123 
0 
0 
0 
0 
0 
0 
0 
0 
0 
0 
0.4862277748775389 
0 
0 
0 
0 
0 
-3.035766082959412e-18 
0 
-0.2974467144603899 
0 
0 
0.1909145906579201 
0 
0 
0 
0 
0 
0 
0 
0 
0 
-0.3974633680038475 
-0.2409416299426914 
0.4047666092472884 
-0.002316790134599785 
-0.01800005102940941 
-0.2629841062032806 
0 
0.4174247998069478 
-0.0611312841297389 
0.4062199384754598 
-0.03298870871612871 
0.6512419455754626 
-0.06296559690593839 
-0.02545016703143392 
0.1958513461575417 
-0.08393470790816765 
0.3612239114120564 
-0.002632426124220158 
0 
-0.7214623475126536 
-0.06337433062680792 
0.4785451850896471 
-0.3671686803891214 
-0.0006796736574690262 
-0.09904987972789764 
6.071532165918825e-18 
-0.1831146571510631 
-0.194896840425089 
0 
0 
-0.8890518014810249 
0.691966498517584 
-0.03963654602394381 
0.4838898477788448 
0.2626105162629959 
-0.2160983311206583 
-0.08983363540255102 
0 
0 
0 
0 
0 
-0.41362257787305 
2.602085213965211e-17 
0 
0 
-0.542065959106243 
0 
0.1571005375617965 
-0.04038503813871528 
-0.00091830904684237 
-0.1142125292190041 
-0.04793802511920341 
-0.1759249293962406 
0 
0 
0.140398659905849 
-0.006128842314269108 
-0.03516244363536855 
0.3753880125093228 
0.01838572661216535 
-0.1133869979563918 
-0.0189773023342985 
0 
0.1185099803253506 
0.1185099803253506 
0 
-0.2616991893399631 
0 
-0.2517565375022627 
-0.2187167139054017 
0 
0 
0.7368897770109079 
-0.1943047696991037 
-0.1224844245621459 
0.3592413697565997 
0 
0.3496414664324195 
-0.2115776983423601 
-0.5809301062275829 
0.03398328518798947 
1.297278403404791 
-0.3847207884910805 
0.1995047714555276 
0.2303709631397105 
0 
0 
0 
-0.3546646964390895 
0 
0 
0 
0 
0.1590666536323553 
0 
0 
0 
0 
0 
0 
-0.5145137175632908 
-0.1023549951626166 
0 
-0.2104986913050702 
0 
-0.3102535977370217 
0 
0 
0.3895063509853757 
-0.1933277458083833 
0.3361570891831234 
0 
0 
0.4014647735357577 
0 
-0.01523875935407156 
-0.4420206947196643 
0.4822380079801644 
-0.5102389425253465 
0 
0.2337843431551458 
0.5653587665146247 
-0.1807724795262483 
0 
-0.8561734058681535 
0 
-0.07358382082846594 
-0.06280653493898017 
0.6725300117093224 
3.44882451446381 
-0.04669543594777867 
-0.03340318370529697 
0 
0 
0 
0 
-6.938893903907228e-18 
0 
0 
0 
0 
0 
0 
0 
0 
0 
0 
0 
0 
-0.3374109615139851 
0 
1.734723475976807e-18 
0.4965766401900948 
0 
0 
0.6826983058826241 
0 
-0.02677750024857028 
0 
0 
0.3588786345918895 
0 
0 
0 
-0.4104216540401058 
0 
-0.1759215290197941 
0 
-0.08624181731982918 
0 
0 
0 
0 
0 
0 
0 
0 
0 
-1.578055501275351 
-0.1758193008468658 
0 
0 
-0.1154069261254327 
-0.2275269978028168 
-0.02259291931204579 
-0.2060448489734978 
0 
0.4137200329863377 
-0.2600321138604441 
-0.3943138946285493 
0 
0 
0 
-0.6127606757112423 
0 
-0.1777537529153374 
0 
0 
0 
0 
0 
0 
0 
0.5842263634305357 
0 
0 
0 
0 
-0.1803291484678256 
0 
-0.01263431857070672 
0.2384729051758226 
-0.0847484175944338 
0 
0.2260783589288086 
0.03516376827088839 
-0.05900886449218761 
-0.2781495461981326 
0 
0 
-0.1299593785945668 
0 
0 
0 
-0.090476544935465 
0 
0.04203141861804824 
0 
0.4843154410636551 
-0.3391629767344524 
-0.1128558656490035 
-0.3242469175485578 
-0.3257031962687529 
0 
-0.006029364290282353 
0 
-0.04889504013869427 
-0.1533344934570056 
-0.08703386724292932 
0.2649951531595706 
0 
0 
0 
0 
0 
0 
0 
-0.1667661495654815 
0 
0 
-0.03917935752650746 
0 
0 
-0.8587522354802799 
0 
0 
0 
0 
0 
0 
0 
0 
0 
0 
0 
0 
-0.04564328901500468 
0 
0 
0 
0 
0 
0 
0 
0 
0 
-0.613573587510705 
-0.3422617990889311 
0 
0 
0 
0 
0 
0 
0 
0 
0 
0 
0 
0 
0 
0 
0 
0 
0 
0 
0 
0 
0 
-0.361265374598797 
0 
0 
0 
0 
0 
0 
0 
0.2811020710210326 
0 
0 
0 
0 
-0.1529006831849638 
0 
0 
0 
0 
0 
0 
0.4705299325424659 
0 
0 
0 
0.4675574869390839 
-0.02220847798952135 
0 
0 
0 
0 
-0.1339343634749962 
0 
-0.0749397942924261 
0.2023223836555048 
0 
8.673617379884035e-18 
0.4366106007810782 
-0.1759664401368515 
0 
-0.1759664401368515 
0.4852094766007501 
0 
0 
0 
0 
0 
0 
0 
0 
0 
0 
0 
0 
0 
0 
0 
0 
0 
0 
0 
0 
0 
-0.1773229436894351 
0 
0 
0 
0 
0 
0 
0 
0 
0 
0 
0 
0 
0 
0 
0 
0 
0 
0 
0 
0 
0 
0 
0 
0 
-0.01162654198735152 
0 
0 
0 
0 
0 
0 
-0.3955468920745693 
0 
0 
-0.753825900414685 
-0.1650236246787889 
0.3556797326678511 
-0.0281513592469614 
0 
0 
-0.01612874131146567 
0 
0 
0 
0 
-0.09021680585377234 
-0.08892290687660079 
-0.08892290687660079 
-0.3842239268771864 
0 
0 
0 
0 
-0.2229899296788843 
-0.2051233905292628 
0 
0 
-0.6568861505921725 
-0.5537462963185673 
0 
0 
0 
0 
0 
0 
-0.3263965957076997 
0 
0 
-0.1440717008444689 
-0.05078349323241263 
-0.4868043729843018 
0 
0 
0.1335828538523318 
-0.114973868890794 
0 
0 
0 
-0.2531705374209148 
0 
0 
0 
0 
0 
0 
0 
-0.4553419806378231 
0 
0 
0 
-0.2011821346325449 
-0.3198824380535791 
-0.07333520655519847 
0.3491212840520456 
0 
0 
0 
1.734723475976807e-18 
0 
0 
0 
-0.2045644280166813 
-0.1046832708407336 
0 
0 
-0.1962176010110234 
-0.1024200979576566 
-0.3946864962844971 
-0.2762414700161946 
0 
0 
0 
0.3485804734985842 
-0.02590803041825315 
0 
0 
0 
0 
0 
0 
0 
0 
0 
0 
0 
0.3190502797969513 
0 
-0.6316371458101404 
-0.02609375961696241 
0 
0 
0 
-0.3943138946285493 
0 
-0.1488968608949612 
0.4630118848664968 
-0.105033208970658 
0.3957689445650833 
-0.1640258681298418 
-0.9042804446501521 
0 
-0.1095898472037905 
-0.8339876897757993 
-0.05078349323241264 
-0.05540236455531655 
-0.08097415224785438 
0 
0.4404160928184602 
0 
0 
-1.038599145601701 
0 
0.1282257100369345 
0 
0 
-0.04402212526506997 
0 
-0.06955574828137709 
5.963111948670274e-19 
-0.03644935785343242 
0 
-0.1031398542736049 
0 
-0.0958318306148883 
0 
-0.09112953922123969 
0 
-0.002632426124220158 
0 
0 
-0.1561908489502653 
6.938893903907228e-18 
0 
0 
0 
0 
-0.06877937584445885 
0 
0 
-0.9657487681413148 
0 
0.8390025398280488 
0 
-0.2317717165566016 
-0.3172333973360562 
-0.3172333973360562 
-0.5900826160478982 
-0.002632426124220158 
3.469446951953614e-18 
-0.1415524545594998 
0 
0 
0 
0 
0 
0 
0 
0 
0 
0 
-0.2856200676433003 
-0.4830977061465724 
0 
-0.08242878437412647 
0 
0 
0.3223019170466082 
8.673617379884035e-19 
0.2126446424962378 
0 
0 
0 
0.3523212956818838 
0 
0 
-0.09474202530880685 
0 
0 
0 
0 
0 
0 
0 
0 
-0.3810219964983452 
0 
0 
0 
0 
0 
0 
0 
0 
0 
-0.03047203423208754 
0 
-0.7102264042601643 
-0.3585754562764761 
-0.974017107510049 
-0.1703775048816455 
-0.4806227144282424 
-0.08181179995041857 
0.08088642095780267 
0.7104446278755238 
-0.06895028197432483 
0.7726730469207131 
-1.131143782361094 
0 
0 
0.6387921579117184 
-0.4445199668197509 
-0.4974356491185489 
-0.3193985355914863 
-0.1388917707922708 
0.5915073419027806 
-0.2826880368237412 
0.3653780431167268 
0.3283299111262181 
0.4483453785926579 
0.190227417242313 
0.109740409134089 
0 
-0.3934771003090821 
-0.3435828414397878 
-0.0189773023342985 
0 
0 
0 
0 
0 
0 
0 
-0.3945760525906903 
0 
-0.1361924755269246 
0.01217057345104756 
-0.07836110596325432 
0.7397354878582065 
0 
-0.01964859213690763 
0.2092832748828623 
0.03269677417411616 
-0.8194025595923613 
0 
0 
0 
0.9759166159404609 
-0.2435356711501494 
-1.019832371769462 
-0.7524292120710541 
0.1966350848461047 
0 
0 
-0.5511978666715879 
-0.1070639118692692 
-0.3102535977370217 
0 
0 
0 
-0.1844229867154437 
0 
0 
0 
0 
0 
0 
0 
0.3223019170466082 
0 
0.3223019170466082 
0 
0 
0 
0 
0 
0 
0 
0 
0 
0 
0 
0 
0 
0 
0 
-0.4261379597479537 
-0.07436356466021696 
0 
1.06765573227146 
0.2836089218157007 
0 
0 
0 
0 
0 
0 
-0.0029723507333873 
0 
-0.1380595148504311 
-0.04971559977977548 
-0.1349388822688301 
-0.5644621217482025 
0.3951332777860744 
0 
-0.2189893651941974 
-0.9145378259915512 
0.0006984759169523522 
-0.81890630888713 
0.589856969099388 
-0.3792019107706013 
0.4194122324355458 
0.3785943655312828 
-0.4986832546016962 
0.1278488436108811 
0 
0 
-0.05540236455531657 
0.4612516373628572 
0.4612516373628572 
0 
5.204170427930421e-18 
0 
0 
0 
0 
0 
0 
0 
0 
0 
0 
0 
0 
0 
-0.6298837422082181 
-0.01522013182793763 
0 
-0.2031292948322174 
-0.2803939544405221 
-0.1824125346707112 
0 
-0.1652946896712547 
-0.1249648120876189 
1.734723475976807e-18 
0.4320598236559895 
-0.05540236455531657 
-0.05540236455531657 
-0.05060550034053136 
-0.1010456535703213 
8.673617379884035e-19 
-0.1537549817779885 
0 
0 
0.2577607899460337 
0 
0.7616706583517804 
-0.07010542884110119 
0 
-0.3371391575340071 
-0.3110322180288773 
0 
-0.0125927698295598 
-0.2971033702587538 
-0.3544002684220931 
0.7231526165846429 
0 
-0.2428386757644146 
-0.04442053091916462 
-0.003251751123689604 
-0.2408637920911054 
0 
-0.01964859213690762 
0 
0 
0 
-0.3226036417153086 
-0.04562871186642052 
0 
0 
-0.02436062350367526 
-0.2133447262169748 
0 
-0.04562871186642049 
0 
0 
0 
0 
-0.007676990277610404 
0.2150331609207841 
0 
-0.5733724790954502 
-0.3741845354047295 
-0.1632008188693496 
-0.1634661712925032 
0 
0.1880921024708418 
0 
0 
-0.08919016060423539 
0 
0.05351158217904767 
0 
0.2703998351966265 
0.1695354734260303 
0.1725540833984696 
0 
-0.02259291931204579 
0 
0 
0 
0 
0 
0 
-0.3234680715484822 
0 
-0.5355523661271501 
-0.1253192447870217 
-0.03962876748862939 
-0.006029364290282353 
-0.1651163616832548 
-0.01522013182793763 
-0.01522013182793763 
0 
-0.1199867101142149 
-0.1199867101142149 
-0.1388838147136239 
0.774406908907501 
-0.4811596157761922 
0 
-0.3645841292503585 
-1.517883041479706e-18 
-0.2323415978783259 
0 
0 
0 
0 
0 
0 
0 
0 
0 
0 
0.09450135468637366 
0 
0 
0.5836221466034363 
-0.05792333151531166 
-0.0284749163085543 
0.8431361219990651 
0 
-0.250083871409743 
0 
0.5836221466034363 
-0.1650236246787889 
-0.05792333151531166 
0 
-0.05078349323241263 
-0.05078349323241263 
0.09517565549219661 
0 
0 
-0.2482484297886925 
0 
0.02269975787627262 
-0.5321852421757378 
-0.3131441367852675 
0 
0 
0 
0 
0 
0 
0 
0 
0 
0 
0 
0 
0 
0 
0 
0 
0 
0 
0 
0 
0 
0.5352434473787701 
-0.1106740011857602 
0.461884987225866 
0.1501647671449499 
0.4618849872258662 
-0.4856449108149887 
0.7040977874047099 
0.3911367921820726 
0 
-0.05875508370258374 
-0.5032938392861008 
0.4302528806556318 
0 
-0.8483068750925132 
-0.1819438037530343 
-0.5093181235993091 
-0.5298071977979697 
-0.5921649242745953 
-0.1089337869240928 
0 
-1.734723475976807e-18 
-0.2594764912444639 
-0.2803939544405221 
-0.2980529817338052 
-0.1543793327761424 
-0.1106404558527228 
0.410353409614012 
-0.2431274796897106 
-0.08631467885779619 
-0.4061056341417195 
-0.07728258126406051 
0 
0.4920986306981615 
-0.4815373002948686 
-0.2339827934689753 
-0.2474775645004552 
0 
0.2359687978331266 
0.5412542788533919 
0.5246701794219216 
0.4867681716128761 
-0.2743904347939916 
-0.0612361724621815 
-0.1372152006317003 
-0.1898072722875695 
-0.4719777505741738 
-0.1473532246353802 
-0.0534414709057732 
-0.1137937994463195 
-0.01686377721952571 
-0.2414364906706641 
-0.07333520655519847 
-0.01290577681269007 
-0.0101052399876611 
0.312939201394109 
-0.06094016113804951 
0.3342434942510635 
-0.4140097373852836 
-0.9042908330234445 
0 
0 
-0.03015202832454375 
0.02426876175982112 
-0.3544466227491334 
-0.3647581636859186 
0.3867793068727939 
-0.1737927572309411 
0.4565694139858214 
0.3310556807909834 
-0.3775165961624655 
-0.2236036579934041 
0.1835959314545451 
-0.03384248003998159 
-0.03917935752650746 
0.3801186544310299 
0.4627744744936182 
0 
-0.0674174635497632 
-0.00412350638540174 
-0.328276351865377 
0.3424448833370818 
-0.05078349323241263 
-0.1266883829054398 
-0.06955574828137709 
-0.6845348508102685 
-0.06376754078640734 
-0.3473338265604122 
-0.4006224867389773 
0 
-0.1654233950253967 
-0.08135713769290438 
-0.1705351579126578 
0 
0.5695396740368384 
-0.9037164029312175 
9.649399335120989e-18 
-0.3702787989936492 
-0.1029679644559209 
-0.1219066154935749 
-0.09591943650264871 
0 
-0.8672815368139258 
0 
-0.2701691910776389 
-0.09948790823488105 
-0.120820617505147 
0 
-0.1481461682217954 
-0.2358094330225922 
0 
0 
0.03021754880313024 
-0.04619412292536798 
-0.1729980713866508 
0.50298224008348 
-0.008032142397021965 
-0.008537632608619344 
0.2605550570599824 
-0.8030091678022127 
-0.1219066154935749 
-0.1791068385132775 
0.2480471732326608 
-0.8379420387436127 
0 
-0.1844071953277342 
-0.1759765180357581 
0 
-0.181881464042285 
0 
0 
0 
-0.04753170562771352 
-0.5712836696525881 
0 
0.03696625537687174 
0 
0.5639314051120942 
0.1629746710147282 
-0.0552578076550899 
-0.02330507460697459 
0.4714352895890887 
-0.1837727460212882 
-0.125131102889208 
0.2992295117734505 
0.3963895288957754 
0.2998102229310161 
0.0580550412161684 
-0.1258679481730182 
0 
0 
0 
0 
0 
-0.2883562105939281 
0 
0 
-0.4185169814096638 
0.003757049586432471 
0.1422385231808694 
-0.349961419242686 
-0.1522376673497495 
0 
0 
0 
0 
0 
0 
0 
0 
-0.02962659301676094 
-0.02962659301676092 
0 
-0.3821371844832306 
-0.3411474669670347 
0 
-0.1451426432662337 
0.2522930317458963 
0.4982436598923071 
-0.05070239452996345 
-0.01199185929853297 
-0.3879654566135451 
-0.2130037940350152 
-0.1940602231370862 
0 
0 
-0.3545469725935149 
0 
0 
0 
0 
0 
0.05978086311455769 
0 
0 
0 
-0.3329409200194105 
7.047314121155779e-19 
-0.1556324601743915 
0.2188476410035736 
-0.02691842256272784 
0 
-0.1644474754000617 
0 
0 
0 
0 
-0.1183681651007338 
-0.7845929135811321 
-0.1682418606856288 
-0.3724564472343906 
-0.4162006755128045 
-0.5452494642368337 
-0.06765961699362939 
0.3302598074249308 
0.8310692518103462 
0.2170865729717563 
0 
-0.1161307898059256 
0.4802233516533732 
-0.1655806802784633 
0 
-0.003329413938501127 
-0.08097415224785438 
-0.1524867655775705 
-0.170396144162649 
0 
0.1751720031262417 
-0.1519308657851397 
-0.3994409742561683 
-0.08446033767661684 
0.01728542272496322 
0.377684602149942 
-0.5217341094359622 
0 
0.4396705727210259 
0.03447655832037993 
0 
-0.3102535977370217 
0 
-0.1039711235307072 
-0.07431940449576981 
0 
-0.2207084621802247 
0.246131336326738 
0 
0 
-0.03079450920139127 
-0.009189521853689347 
0 
0 
0 
0 
-0.2106073555567514 
-0.1243655382369222 
0 
0.3081839874837232 
1.734723475976807e-18 
1.734723475976807e-18 
-0.4385289638922091 
-0.1436807424379824 
-0.7733580773589912 
-0.4390176873510215 
0.4183385556438408 
0.1936093057145138 
0.2732435948514163 
0 
-0.05955888075670892 
0 
-0.105033208970658 
0 
0 
0 
0 
0 
0 
0 
0.2011716005953922 
-0.04389502049929657 
0 
0.1592120710071223 
-0.1323282318577024 
-0.2756832149899953 
-0.6013041923095144 
0.4507258917376927 
-0.7884799749176019 
-0.1086805685001815 
-0.0732305551014415 
0.5043767194125186 
-0.2959143075100469 
0.3466359058998872 
-0.1934614322807483 
-0.1310619475677017 
0.6185748296940876 
-0.1791686873319888 
0 
0 
-0.1068893369400613 
-0.1172845292187996 
-0.3645841292503585 
0.2212930971978027 
-0.3121439293988888 
0.01672741001242382 
0 
0.1620525202931278 
-0.03546846674672923 
0 
0 
0 
0 
0 
0 
0 
0 
0 
-0.1531875862981109 
0 
0.3296145048869674 
0.1758235970912832 
0 
-0.1650236246787889 
0.7395847959316267 
0 
-0.920053543408778 
-0.4410849773314786 
0 
-0.1123742400468137 
-0.2046210126602325 
-0.2900642227067313 
-0.1642297955574169 
-0.1737055760978015 
0.1878894459911167 
-0.1067370544912479 
0 
-1.264660058826157 
-0.06289182359228361 
-0.277631993543981 
-2.168404344971009e-18 
0.8085909171199905 
0 
0 
0.685461459938641 
-0.6955963592167353 
-0.6955963592167353 
-0.3540410843006117 
-0.2031055767947031 
-0.108499273759044 
-0.04949321785397329 
-0.4269501821597128 
0.6279372510609098 
-0.1329593229792235 
0.2848574828234125 
0 
-0.4678187170246583 
0 
0 
-0.08721814740552032 
-0.5161210345105766 
0.9290010354759405 
-0.3410100800400812 
-0.1712534890233068 
0 
0.2143517149212968 
0 
-0.1088414729924825 
0.1322065162595443 
-0.4586104130997233 
-0.5666623238886044 
0 
0 
-0.4536746588129519 
0 
0 
-0.2942722071525375 
-0.0281513592469614 
0.1971046322084971 
-0.3903969048954221 
-0.3784625661726593 
0 
0 
0 
0 
-0.2906868069306916 
-0.3102535977370217 
0 
-0.223431870509661 
-0.5714191317241777 
0.4807642734682775 
0.5959668972383452 
1.184046660720763 
-0.058831595107682 
-0.1333035407372955 
-0.4106881779317722 
-0.3560982779025662 
0.5028147156535385 
0.2599781718892296 
0.3785125718889277 
0.0292265907716746 
0.8165840333289239 
-0.4571381928433531 
-0.1198069446165063 
0 
-0.4383151382336993 
0.397777728972586 
0.1194546557759514 
0 
0 
0 
-0.008320720837673382 
0 
-0.3964341212566285 
0.3098613211675939 
-0.288996633260277 
-0.4741332172768772 
0 
-1.470995773215521 
-0.08029675424486107 
0.3529369733333825 
-0.3201984980820075 
-0.5214564356099967 
-0.4857941010536849 
0 
0 
0 
-0.1295125469814005 
-0.02986310024619306 
0.1391964778731065 
0.09300563302587336 
-0.07506742203091983 
0.1114182844505391 
0 
-0.8891352202227604 
0 
0 
-0.1689078172619459 
0 
0 
0 
0 
0 
-0.5502946355595209 
-0.2144032528972174 
0 
-0.03050832204060615 
-0.2140333916640866 
0 
0.004559536642737722 
0 
0 
0.100788638371249 
-0.01560660023512578 
-0.1732694399894983 
8.51098705401121e-18 
-0.06996674299117368 
-0.1478474399002633 
0.6018852433936692 
0.09336431829163878 
-0.08996869679636182 
-0.6436374900616812 
0 
0 
0 
0 
-0.5666533773589643 
0.6951255431051369 
0.3050862986623821 
-0.1615245811356803 
-0.1582505962030328 
-0.2645961760843937 
0.09496771757491618 
-0.1720307666945034 
-0.5499603062846489 
-0.4074088616903424 
-0.2386846041009782 
0.4206258908449788 
-0.3542837814604862 
0.1882312195712484 
0.3565719862489372 
0.675211636161906 
0.4545970297783362 
0.8510983252735974 
0.5912369148974244 
0 
0 
-0.159285952156078 
0 
0 
-0.226409527857109 
0.6084391490125749 
0 
0 
0 
0 
0 
0 
0 
0 
0 
0 
0 
0 
0 
0 
0 
0 
0 
0 
0 
0 
0 
0 
0 
0.8093456082485151 
0 
0 
0 
-0.4522302859009149 
-0.1817220929974234 
-0.1637025735047915 
-0.2297608720053626 
0 
0.233534065465465 
0 
0 
0 
0 
0 
0 
-0.0786358360602583 
0 
0 
0 
-0.2566111686365503 
0 
0 
-0.3597431751564085 
0 
-0.06428680600449044 
0 
0 
0 
0 
0 
0 
1.064500089543434 
0 
0 
0 
0 
0 
0 
0 
0 
0 
-0.4321346000333028 
0 
0 
0 
0 
0 
0 
0 
0 
0.4603774877211168 
-0.2956968528631255 
0.5786986211746731 
-0.183373719260261 
0.3790981537065594 
-0.2424319584876583 
0.1763299705099848 
-0.1186630819406354 
0.03963629609283954 
0.2897201675025826 
-0.113677790616494 
-0.07806307129913001 
0.2756375156147223 
0.3656134403365212 
-0.3794213836080108 
-0.4117658211920129 
0.1092569156448596 
-0.6869283082696355 
0.1630628651023036 
-0.3168559671980017 
0.5211369303984271 
0.3788864457315835 
-0.05078349323241263 
0.4613560307854883 
-0.2652602618880519 
0.4311538034833876 
-0.08624181731982916 
-0.229921959784388 
-1.301042606982605e-17 
0.3057054593630941 
0 
-0.0791289189244601 
-0.1219066154935748 
-0.4281907932646357 
-0.3596036554198414 
-0.4015058767644652 
0 
0 
0 
-0.1106404558527228 
-0.09235570761814114 
0 
0.7860511545284413 
-0.9477977808919538 
-0.1282073803589106 
0.5402968317747641 
0.6332915046114906 
-0.2766949281839355 
0.6939615697093532 
-0.3849303930800285 
-0.05078349323241263 
0.01343462034412248 
-0.6260267142544546 
-0.2711280092329251 
-0.1106404558527228 
-0.2543784274558825 
0.4303362324124147 
0.1348657916151062 
-0.3475085079684088 
3.469446951953614e-18 
-0.3748730341558129 
0.2826168805838363 
-0.06179438682577722 
8.673617379884035e-19 
0.487342278769451 
-0.03470435690315198 
0 
0.03388125960339245 
-0.1540407983372948 
-0.4796178926378582 
0 
-0.1946153287365884 
-0.2913613121227326 
0.4833206851445526 
-0.5951313964266635 
-0.3408077321957204 
-0.09328820761205629 
-0.002626077021571919 
1.084202172485504e-18 
-0.2495712509305334 
0.2265394746913364 
-0.9321885826445028 
-0.4223444241482804 
0 
-0.08023018007163926 
0.5962197902413926 
-0.08482020039809013 
-0.1703337820768494 
0 
-0.4466799698553721 
-0.3695758049976767 
-8.673617379884035e-19 
-0.287912958723552 
-0.3332594860755707 
-0.1839330260808375 
0 
-0.1517420480114342 
-0.3445488302377634 
-0.2624410043673597 
0.1215937722159754 
-0.1736420600972971 
0.4025434315319094 
0.701525932314693 
-0.03874633037936087 
-0.3945049220658787 
0 
-0.3118277823487935 
-0.730943566154801 
0.8693593551122615 
8.673617379884035e-19 
0 
-0.06016357316692238 
-0.3633800249284483 
-0.4267108182112451 
-0.6699972253535952 
-0.1571402323777461 
-0.3076436093697562 
-0.3006556795011963 
-0.1056300932866646 
0 
-1.561251128379126e-17 
0.4692562767355793 
0.7553441285701666 
-0.7521957434154268 
-0.3945787181364048 
-0.1322111860309176 
-1.061210959130399 
-0.125219523461914 
-0.0169775575238897 
0.3656134403365212 
0 
-0.4078402572742286 
0.1700343980929128 
0 
0.03871747535694565 
-0.05760111070874507 
6.938893903907228e-18 
-0.02466224931204252 
-0.02466224931204252 
0.4588992181841156 
-0.4481991624593282 
-0.07142894888258138 
0.02668479510050312 
-0.1144737870037591 
0.1572284725269569 
0 
0 
0.2964821062453239 
-0.06395802700984551 
-0.7096449003784935 
0 
-0.6364101581857073 
0.1772569225676744 
0 
0 
0.5041359328116588 
-0.4598583621845287 
0 
1.714678635105651 
1.044298890081115 
0.7618201982192045 
0 
0 
0.2349084581518157 
0.02269762607895934 
-0.5021559214248106 
-0.277623529691447 
1.16488055524962 
0 
0 
0.8682837885108577 
0 
0.4089361769973989 
0.3710885011387551 
0.3579180395477733 
-0.4392841836796733 
-0.2688823138265519 
0.04973434794090816 
0.1550107370261635 
0 
-0.7805655535828038 
0.0384914307476366 
-0.1538653162042448 
-0.6416501627649913 
-0.2038017342629662 
0 
0 
0 
0 
-1.315432114211113 
0.05907890469071166 
-0.8562631211043989 
1.116639821289933 
0.4546665609087252 
-0.2804441509712963 
0.1411560717354694 
-0.3462415898409517 
0.6283500591842025 
0.013423950906396 
0.3904338409167084 
-0.1206376146319979 
-0.7325305475104167 
-0.05852887408771552 
0.9641056328820888 
-0.2373545430235405 
-0.06983392110402602 
-0.4956415368228452 
-0.5655303635541935 
-0.2856968606764273 
-0.2082677318523514 
0.4035513305399417 
-0.3099669450952294 
-0.0714289488825814 
0.1316110836573957 
-0.1871959179437026 
-0.1887090772800062 
-0.2394085670856866 
0.2837819017955572 
0.4258456465839038 
0.2787674225121208 
-0.3498460676417989 
-0.02462328902505442 
-0.3655009828264295 
-0.2551194712626733 
0.847609770067015 
0.2044044496762511 
-0.4715605803053343 
0.2400122010494517 
0.5619138330015148 
-0.1130366803957936 
0.4409040759562046 
0 
-0.3164460733327689 
-0.3668372957971909 
0.05420019064752976 
-0.4970530523324153 
-0.6020437047118794 
-0.1640534012796202 
-0.1380853280304496 
0 
0.4434472582701544 
-0.1752471278105152 
0.05708957747641909 
0.3903053934626852 
0.7087994801220835 
-0.05540236455531657 
-0.4304938008056138 
-0.08784138869556035 
-0.1130441135884949 
-0.04339454447718529 
-0.8735517713170142 
-0.04573394718167999 
0.1496989791625606 
-0.2908019921921098 
0 
0.3178210185202267 
0.1327897954855231 
-0.4513422787701056 
0.4084188852939683 
-0.2637159212063035 
0.6814809562959168 
0.3585983445799347 
0.7231824738302934 
0.1518931545833773 
-0.4879740628957533 
0 
0 
0 
