solver_type L2R_L2LOSS_SVC_DUAL
nr_class 2
label yes no
nr_feature 4524
bias -1
w
-0.1396234789790989 
-0.1149502057769723 
-0.3888782002299407 
-0.03502005951347216 
0.1393158019564965 
0.2438957229756228 
0.2522246714327376 
0.676510418300223 
0.089993505479363 
-0.2203666209448761 
0.1533579368873059 
0.3592261132083901 
0.04197904781198149 
-0.1681745201161731 
-0.04009605038856437 
0.07552350247789712 
0.2055404671713376 
0.1993429866560421 
0.2615272246980931 
-0.2163833895524606 
-0.01043416408799595 
-0.145427706273332 
-0.4263874356293392 
0.3044890698403677 
0.1237327698112689 
-0.1653380746653266 
0.1347065850883305 
0.240569899858901 
-0.5071125220060195 
-0.02661509145436294 
-0.2031990192072641 
-0.6505001131010534 
-0.1516161366466704 
-0.3771474354325385 
0.2910956699145391 
-0.1574392352481267 
0.07981740795629887 
0.178879619040249 
-0.07047859292331535 
-0.2858828345688359 
-0.02887982044803758 
-1.734723475976807e-18 
-0.08037612974862392 
0.1446583361673152 
-0.1723491702980746 
-0.2480646853546135 
-0.113799868308835 
0.06768381205809079 
-0.06399142696347151 
-0.0948371602146038 
0.128440897482037 
-0.1795021265098606 
-0.08984796084764433 
-0.3169628658662988 
-0.2475151748867433 
-0.179479120685101 
-0.1693358042819292 
0.1676235856357896 
-0.1453779627093799 
0.08603871373774089 
-0.09173938565376562 
-0.02872907578109172 
-0.009389946557199132 
-0.0492089540965064 
-0.006030650624642265 
-0.3507458339513193 
-0.1027591701524011 
-0.03535145543769386 
-0.1047870973409679 
-0.08883289932423727 
-0.2388593679798568 
-0.4253352471545033 
-0.2322430269826083 
0.1788542204053525 
-0.09777198023297495 
0.2111172861050827 
0.2412748826824316 
0.01894445262394859 
0.003921017516127472 
-0.1316295603096911 
0.07481916106929021 
1.276298038927098 
-0.3189962876334869 
0.04590009020831469 
-1.029992063861229e-18 
-1.029992063861229e-18 
-0.06414626954103504 
-0.1042569372402501 
-0.2472788805958707 
-0.02548885606698015 
-0.04245445419504148 
-0.1239358807596615 
0.101385997393023 
-0.07903472813801223 
-0.07903472813801223 
0 
0 
-0.06779206881277812 
-0.1030242219670541 
-0.266155065843485 
-0.05531738690960431 
-0.02777492622381455 
-0.1150144209189684 
0 
0.0889810167730424 
-0.06423674732732113 
-0.08796518233191974 
0.1241382373840417 
-0.2884541501847916 
0.4678018521852801 
-0.257028790234533 
-0.2775747029243936 
0.2551093964483876 
-0.1844935469262404 
-0.0324854935647096 
-0.03442519784495263 
-0.1194357960009516 
-0.02887982044803758 
-0.02887982044803758 
0.2157706442649004 
-0.2657056441431822 
-0.05028733151294803 
-0.02564461315697713 
-0.006030650624642265 
-0.09212372506034301 
-0.02893053020878926 
-0.05751341270722896 
-0.2045794463983569 
0.07230172263114856 
0.3798359349542678 
-0.149956663673029 
0.004028532232377454 
-0.07335757212185762 
0.06110028057311816 
-0.04315928672936695 
-0.3920432464561123 
-0.4177668605578523 
-0.2541925065917144 
0 
-0.05298638255347108 
0.06702196615258056 
0.1167732933339767 
-0.4669293320328919 
-0.346095148276785 
-0.04944623829029723 
-0.09462672128917653 
-0.2782650792254672 
-0.1692052565532738 
0.1210881473196742 
-0.09266663598072478 
0.0909245911294759 
-0.1097285785079939 
-0.06721890323273623 
-0.1215634963117021 
-0.09116437113286176 
-0.5467369659343354 
-0.1473258317151218 
0.3738023490112215 
0.1353701978865129 
-0.06120632692455446 
-0.6172818815008088 
-0.04598452250929413 
-0.2644422219868627 
-0.06246228896290131 
0.1355743854123673 
-0.1150144209189684 
-0.03892746394766817 
-0.003862646806738554 
0 
0 
-0.03719229924589136 
0 
-0.08953390782264324 
0 
0 
-0.01718319449074867 
0.3412354025439925 
0.5052893765522425 
0.1289847323399025 
-0.1150144209189684 
-0.02310173543772923 
-0.259682328271051 
0.002450534596790855 
-0.02872679421625062 
-0.1187798466072427 
0.4048571932816257 
0.089483939579276 
0.09182348939447087 
-0.2958783490546605 
0.6375264427816099 
0.09487925589650721 
-0.02326032770258552 
0 
-0.03342504845250923 
0.0895393285669233 
0.01749937583669482 
0.2354370374685338 
0.1643749122585554 
0.269712500614118 
-0.1736349726291742 
0.1644293037362748 
0 
0.7610564906039432 
0.4768492162330571 
-0.1066053978825125 
0.5094261259477613 
-0.04501354867073124 
-0.04103031319518385 
-0.0577583930803981 
-0.03467669255424515 
0.5534470191475519 
-8.673617379884035e-19 
-0.3120174351191042 
-0.05452817743068718 
-0.1499783564153987 
-0.09596082577253745 
-0.09044005237121615 
3.252606517456513e-19 
-0.09293408286332953 
-0.004213295092970755 
-0.1397584846897295 
0.1473144772270398 
-0.05457659517737667 
-0.2814858472048937 
0.01337707661999609 
-0.1429601993115802 
-0.2638593251585552 
-0.1319364436430869 
-0.05817243533857468 
0.04856014327561044 
-0.06489632822829838 
0.1048495920271007 
0.2737929292954007 
-0.06490365589110847 
-0.004098077474012166 
0.2883483160084147 
-0.07894334360887303 
-0.1949946946260013 
0.1153764892531544 
0.01533430149200785 
-0.1628181189255214 
-0.1104868387128517 
-0.1595557803638671 
0.07018927085241569 
-0.2054949012112978 
0.02263309432076461 
0.6716690466417918 
0.02525369277135723 
-0.2317170620488656 
-0.1271460685697416 
0.08649755681207386 
-0.07643444357024445 
0.2305873019630183 
0.04162374139787137 
-0.01439559943532938 
-0.07844700296821601 
-0.4109588100127037 
-0.1901525040924489 
-0.08066703730244558 
0.05195923500837251 
-0.06289140349408662 
-0.1613536268521572 
-0.2718370101757114 
0.1607809394415014 
0.3019622292584522 
0.2230517232270477 
-0.1634033422515268 
-0.2448356911651799 
0.0444347422284179 
0.2130388822568547 
-0.1670171567042055 
-0.2387378887223924 
0.07990271731561742 
-0.001343888568907833 
-0.00657184280979882 
-0.08064175296998594 
-0.1225218825772338 
-0.2279166440896492 
-0.3593013299826032 
-0.04973472841572252 
0.1566354010105375 
-1.185619798853079 
-0.4063509983445829 
-0.7755159967871039 
-0.002803923162942552 
-0.000373185359604733 
-0.2407090763612138 
-0.2188264330556489 
-0.006392776123625253 
0.3441793158587722 
-0.005696420903589242 
-0.1104868387128517 
0.2649616603670861 
-0.004251603263795927 
-0.6567606371484255 
-0.3038311699559993 
-0.2884541501847916 
-0.356653031634565 
-0.2325142933296273 
-0.1203274058072205 
-0.06571535209795877 
-0.02887982044803758 
-0.2820301203841039 
-0.1503837765190386 
-0.164336775882915 
0 
0.006992480668234482 
-0.06026348923882981 
0.1606298248638419 
-0.1042569372402501 
-0.1559336719628669 
-0.05776141658207529 
4.336808689942018e-19 
0 
0 
-0.215286236965132 
-0.02162103627261238 
-0.01233353739884907 
0.08121698653419766 
-0.4654176639668157 
0.70160310529842 
-0.05094735089595845 
-0.3022523593405447 
-0.1600795902042559 
-0.2221379560779638 
-0.2341631537086762 
0.06279589109267771 
0.6700699920469377 
-0.02737219091277918 
-0.172361549728589 
-0.001953656133719858 
0.1429027745473965 
-0.2563625217812038 
0.05373965204536447 
-0.02539374975462958 
0.2379480470188176 
-0.1417526975048402 
-0.1690915000036444 
-0.07335757212185762 
-0.07335757212185762 
-0.1991445958968931 
-0.2651182741641738 
-0.4124730625155691 
-0.1661887155351178 
-0.004996900539814988 
-0.1499659505297689 
-0.1006184956371313 
0.0004986610377445371 
-0.009946990068910639 
0.1220968442401794 
-0.04806784359729553 
-0.3402690607145017 
-0.1111605655913975 
-0.009946990068910639 
0.3540577431887416 
0.6396841714869441 
0.02142538993300408 
-0.0185974710688154 
0 
0 
0 
0 
-0.06842475323995349 
-0.04704689405115862 
0.2361719804667894 
0.07265377642027085 
-0.2734342003567331 
0.2639601871997574 
-0.009580945750720382 
-0.08611208728181582 
0.1353701978865129 
-0.08899596938258156 
0.2033780108981127 
0.05218524889331463 
-0.03215827512155158 
-0.02494831800962952 
0.1649663455353003 
-0.1228115791829214 
0.3336340751433233 
0.1273185994299998 
0.04035158910598638 
-0.4426846686195861 
-0.1144123594629399 
-0.1691746079616103 
0 
-0.1519519158869964 
-0.06898757910338837 
-0.514567294301466 
-0.04311766879949701 
0.183499182703853 
0 
-0.1437085489577864 
0.1397012287796658 
-0.2585885719389248 
-0.1042569372402501 
-0.194217476921842 
0.01975564615140384 
-0.3460765628928983 
0.3928306703604488 
0.1166681321304187 
-4.336808689942018e-19 
-0.0897042068134568 
0.07979844736055292 
-0.156401836791314 
-0.06559489719754616 
0.04554986934865347 
-0.1546251535654504 
-0.4107143349997513 
0.07767298005477369 
-0.2637906208960283 
-0.004506597862747435 
0.05490531508540606 
-0.08439012584830545 
-0.3219497700408404 
-0.06677387288460161 
-0.2564401149977578 
0.2303313776767364 
-0.02964807813645177 
0 
-0.03158245106439898 
-0.1737286677559878 
0.23830475317214 
0.03393221102636242 
-0.06905129045089498 
-0.207813260349516 
-0.5002233672063789 
-0.06123710688081392 
0.1415684997333349 
-0.5956436221934045 
-0.9354980464496689 
-0.3139056889363429 
-0.03207475700351406 
-0.114429624732668 
0.02708454272801347 
0.05617736060286452 
-0.06305270972508846 
0.3294285044302697 
0.3749286102408789 
0.08491279565705981 
-0.07729159400790926 
0.650137517549414 
0.0137929038902941 
0.2657925562539154 
0.2054029901662887 
0.01670031655815576 
0.1527569144202472 
-0.6334324574851974 
-0.521891574990741 
-0.4117668164173482 
0.3071543212658562 
0.2118602240346812 
0.2310333100511638 
0.3435203981317166 
-0.1260311260175569 
-0.03485257495710523 
0.1533453487367551 
0.5514912020872189 
0.06660354519076819 
0.156587017022807 
0.06206118209832236 
-0.1631797044117826 
-0.03718827355711531 
0.08155227378498957 
-0.1369743721269759 
-0.07173973800108471 
-0.1909023498694231 
0 
-0.09874581543932387 
-0.05717603956390079 
0.02578247587595961 
-0.3769094965513173 
-0.003028844728139569 
-0.435419442123712 
0.002982487503814459 
0.2713435533239315 
0.06546904595071999 
0.1068739112408469 
0.1947315194044821 
-0.2112853865848338 
0.01915810619614192 
0.131409352396519 
-0.1358371008658846 
0.5994186182806602 
0.1536940609713619 
0.09063823206891505 
0.2692133057745945 
0.2108917223704154 
0.1478964224370402 
0.4800767700414053 
0.6810827919434703 
-0.03653416718565423 
0.1830514720730294 
0.408828976877033 
-0.193805545184072 
-0.3767216118731537 
0.01930869837880075 
0.07226193396382334 
-0.1391875563582688 
0.1622635154635733 
-0.02248680663400545 
-0.1017381375476793 
0.1625268861798608 
0.03252336779523746 
0.02210527916027437 
0.04450152846564299 
-0.3540339202713578 
-0.07135881566382953 
-0.123514451956312 
-0.2713894620105076 
-0.07681830274586425 
-0.004996900539814988 
-0.004996900539814988 
-0.3186775850599581 
0.06609851770493458 
-0.1149165521984096 
-0.08059713308642039 
-0.10405571649698 
-0.10405571649698 
-0.2701355418981933 
-0.1067448420550433 
0.01240686122759218 
-0.4078272193369302 
-0.06559953985790604 
-0.3964241255732789 
-0.1787988566804463 
-0.3022813565526135 
-0.2626603857063043 
-0.1299026674408207 
-0.06019711860658018 
-0.06019711860658018 
-0.2756812795328842 
-0.007654449519023201 
8.673617379884035e-19 
8.673617379884035e-19 
-0.2743341911624421 
0.1556016814163749 
-0.2663564452562869 
-0.01823774627596212 
0.1251371662820306 
0.03193378735795582 
0 
0 
-0.2220328819336607 
-0.2376546763656425 
-0.1862146731999026 
-0.411795116689699 
-0.3200995550177937 
-0.2553291307453106 
-0.9715216671129999 
-0.4582401847530079 
-0.4865338794957272 
-0.01999464000243781 
-0.1958556476996094 
0.03409592519081454 
-0.03870299202159629 
-0.3000766734165327 
0.08582819395526203 
0.02524025831115747 
-0.1044540863634713 
-0.04537726476574643 
0.001341980363155363 
-0.06234091357486567 
0.2377071634769355 
-0.06271374345253813 
0.2361388002809337 
-0.1370893647746935 
0.1070944368043323 
-0.175428895895038 
-0.4098898730382693 
0.1482471548575704 
-0.04034727867286559 
-0.1966314637065898 
0.6436896978062357 
0.2221725654477791 
0.2904871183833184 
-0.1435577000103733 
-0.418930775030907 
0.4061729282115901 
0.158030258088052 
-0.1638774986449196 
0.03528210844453072 
0.3280744988151471 
-0.1808217270688122 
-0.1334993494962153 
0.2575347277477018 
0.248832176149739 
-0.1237437431059879 
0.3340059587971692 
0.03015536481122673 
-1.565241534797946 
-0.4475491646154092 
-0.1127318410096757 
0.05286734835710773 
-0.1702301569586248 
-0.01031831162780276 
-0.02271111007731618 
-0.02466976315348917 
-0.03042983540663891 
-0.05353729893777259 
-1.031697763480764 
0.3581159402398582 
-0.2318385136367612 
-0.3479629204322993 
-0.1149445432679063 
0.1389551886343842 
0.06804012608111716 
0.4780994241275127 
0.8778466975039091 
1.013828825210211 
-0.4269374973438051 
-0.1908326742958778 
0.07253296875352563 
0.5528045568118941 
0.08572378898724964 
-0.1655392690139986 
0.09151308648884605 
-0.07051127236875264 
0.2920754110207259 
-0.005905793290273614 
-0.1646184982635447 
-0.8490542984111915 
-0.4590863506738457 
0.277880129912696 
0.1835038068818481 
-0.04215682791725134 
0.2283365571141249 
0.03514606226253675 
-0.1807647778008354 
-0.06404882409286231 
-0.04429931497399517 
-0.06215464406329028 
0.1541468674403375 
-0.5049691369697767 
-0.3943951999613037 
0.1462184126444162 
-0.05757118594569539 
-0.02252597259501235 
0.06053289650705848 
-0.05824127735096331 
0.1501657170416071 
0.08203979607092789 
0.04279726322261546 
0.09406819948283329 
-0.04335924074909286 
0.106933136579019 
-0.1609765389135192 
-1.440329252587178 
-0.01333619455602383 
-0.003786874327699532 
-1.261432231091711 
-0.1752191166274637 
-0.1520709763907543 
-0.5934779116126916 
0.07031966284868493 
-0.1886853602449105 
0.0847184578935635 
0.3486969966014437 
-0.02532644905899975 
-0.3616263323067652 
0.09682616905679904 
0.1140555863388256 
0.09770790858792582 
0.2178617187698612 
-0.1824988043839549 
-0.2307031366566697 
0.008249505871154084 
-0.1040615120189965 
-0.2144996073516769 
-0.2335383918689714 
0.1520688363753475 
-0.02344216044067881 
-0.2628862664277907 
-0.08319344058106903 
-0.04608944608105359 
-0.0493169814558475 
0 
-0.1005349149920212 
-0.06804881538013374 
-0.04691430569566082 
-0.1042569372402501 
-0.02135806880559735 
-0.07583791545117541 
-0.01247076694887295 
-0.005961291196726752 
0.08471561388414725 
8.131516293641283e-20 
-0.02987504841895243 
0.09469220429690837 
0.3747977563854099 
0.4414920358988356 
-0.05469887574719845 
-0.06653974575529976 
-0.04992964795266636 
0.2512185994398817 
-0.1779663653245444 
-0.225710103307795 
-0.5660536342899382 
-0.1480075492374292 
-0.05796302603799702 
-0.122275717811934 
-0.009389946557199132 
-0.0373145809594485 
-0.06238289828699552 
-0.06399142696347151 
-0.01883699144946932 
1.910677102117771 
-0.08864839145948593 
0.8094794943429062 
-0.1198750754960541 
-0.01959617652343901 
-0.1792345731680001 
-0.04946833764977127 
0.3553673314426439 
-0.07712176154099849 
0.1900919562083904 
0.03327724481930785 
-0.09109279969610067 
-0.04237303309330782 
-0.05630520669191606 
-0.133336704571988 
-0.06708420633901953 
-0.05662753576783605 
-0.03478257565085997 
-0.1302230878527285 
-0.01422629232882202 
-0.006030650624642265 
8.673617379884035e-18 
-0.01481122015723879 
-0.03073297965561518 
-0.04771090187801502 
-0.005187902850340514 
-0.02224915885610113 
-0.08776128078323261 
-1.029992063861229e-18 
0.2239058185772987 
0.8441977329796893 
0.1644811715805637 
-0.07240368045377631 
-0.2659628842763723 
-0.1855059302599357 
0.1098920392999206 
-0.05083238449514541 
0.6960804617735327 
-0.004996900539814988 
-0.06019711860658018 
-0.1386746623510667 
-0.1578690289970339 
-0.03372409491450743 
-0.03350838100462698 
0.1409581566598631 
-0.007899875913351586 
-0.01533200018012671 
0.1081681524217929 
-0.2046497407977665 
-0.3318987340588027 
0.2087188646355069 
-0.2071373714285388 
-0.1103536167930328 
0.2878460248620966 
-0.07968938814676077 
0.1595266576208373 
-0.1299957634127376 
0.7606569427910698 
-0.005421505597333138 
0.1804150861760309 
0.1098116084548862 
0.2211432844525758 
0.01374811669640405 
-0.02024962126903689 
0.001045447658031909 
-0.2441651893922218 
-0.02437358756019023 
0.1768939135143288 
0.2811793106199514 
0.4787002240502584 
-0.2290699646648427 
0.008844805413062675 
-0.9532026495046576 
-0.0378273938815509 
-0.1438580306044134 
0.18895763160966 
-0.2808242298648671 
0.1982280102577244 
-0.3043697259365067 
-0.05352259233719652 
-0.1366626578123124 
-0.3297802624668112 
0.2605331468409593 
-0.10213282784689 
-0.1969042486658355 
0.09018521058753737 
0.3386187007349455 
0.048052842837403 
-0.2465104862899345 
0.1160817042060539 
-0.04377125617416371 
0.1465505576961361 
-0.03548668023012386 
0.1136792557959257 
0.04590009020831469 
-0.02620119179232667 
-0.02620119179232667 
-0.4040480737618362 
-0.1485548750339001 
0.345930380298417 
-0.1079379357878475 
-0.01511111362235776 
0.2132586362218913 
0.3160490006256682 
-0.384620861498156 
0.182056262739471 
-0.06295071545929461 
0.1775664601098785 
0.166982957462554 
0.2535173017871648 
0.2849913336304022 
-0.03315925161850385 
-0.09324032034687765 
0.2487864746165871 
-0.1150144209189684 
0.2199204860954604 
0.1353701978865129 
0.04983517319345782 
0.05384480109708949 
0.1312377137436542 
0.2397239496169691 
0.09102214169629738 
-0.3804712004672219 
-0.04991299876989574 
-0.008658011904828395 
-0.1302710943085125 
-0.04726947835107158 
-0.05677940122245193 
0.01738805002781611 
0.5532391452925322 
0.03857759729009499 
0.2215385881314675 
-0.09532064903590193 
0.02175164602688442 
-0.4321908626534339 
-0.006041530899686352 
-0.01718319449074867 
-0.08439012584830545 
0.07347044576943565 
-0.2450492410193314 
-0.002599347444348333 
-0.5156006062888014 
-0.09109090453637772 
-0.3720092984967852 
0.1422377163379496 
-0.043447234575719 
-0.09089082216021509 
-0.001840312898811172 
-0.1778279901182633 
-0.04074675686339315 
-0.007241919312523873 
0.1733440000849809 
0.09386437641088941 
0.1613270779168324 
-0.1435047064743809 
0.04873213481659767 
-0.03309801635979955 
-1.734723475976807e-18 
-0.03314017632392178 
0.2392145409828146 
0.09065298877432253 
-0.1451822763015173 
-0.1753037829342951 
0.2612384140337652 
-0.1375413231453129 
-0.02570822692105171 
0 
0 
3.252606517456513e-19 
3.252606517456513e-19 
-0.08796950666297339 
-0.05099752816604142 
-0.0408974953747946 
-0.04232666925215979 
0.102694807014709 
0.4997560316602449 
-0.144454311641299 
-0.144454311641299 
-0.09631043325763512 
-0.005421505597333138 
-0.2083423849215823 
-0.03140874599332146 
-0.1098592484340311 
-0.03246294653823494 
-0.08652581647482173 
-0.1214807747368336 
-0.06399142696347151 
0 
-0.01169703153603313 
0 
0 
-0.003862646806738554 
-0.04884891197965607 
4.336808689942018e-19 
-0.02536557354230839 
-0.1484267501309346 
-0.003302203636116875 
-0.4600192943514706 
-0.183048012022168 
-0.1058159648614821 
-0.02196309213209193 
0.4850938759543921 
-0.4759775747088929 
-0.1824608417745577 
-0.5368627103289643 
-0.08122224742284748 
0.03574537682286149 
-0.01718319449074867 
-0.07597832826075408 
0 
-0.09686240970830047 
-0.2553731441671095 
-0.0931209775428307 
-0.07901861694055536 
0.043610244696553 
-0.01608382136537832 
0.1935850508842234 
0.1908886907261403 
-0.1787528174792261 
-0.02165657641215097 
-0.2971717900936851 
-0.02125060074093238 
-0.02661866087470807 
-0.1609570357915056 
-0.1490684427320872 
-0.1098392810696013 
-0.03420833015139998 
-0.1615272896161469 
0 
-0.003673328451745762 
-0.005412591482578452 
0 
0 
-0.6957177396175859 
-0.06616797919068022 
-0.01612842504807169 
-0.07255756833644836 
-0.05710662818487856 
-0.07204356990904816 
0.009978373136114511 
-0.01607832024729213 
0 
0.06156085847625051 
0 
0.2474537264298159 
-0.06862888537634493 
-0.08027508673451897 
0.0892697147893973 
-0.257356489017444 
-0.006161398318662485 
-0.1894015274472328 
0.0678771842612132 
-0.2330905010337299 
-0.1064853430621102 
0.04404718271083558 
-0.08012878724473232 
-0.01011854671311396 
-0.02521202368875671 
-0.0299769541422777 
-0.1005802964393351 
-0.1150144209189684 
-0.1150144209189684 
0.2046222258602317 
-0.05677940122245193 
-0.05677940122245193 
-0.2781966541150415 
-0.1042569372402501 
-0.02098811019079785 
-0.2049974389045532 
-0.08857536619404976 
-0.01267453718889536 
-0.1025133438008518 
0 
0 
-0.04679714532663549 
0.1765262898768271 
-0.1761809260261974 
-0.0245812260563961 
-0.2772403951082942 
-0.3693961203239995 
-0.0322956215740688 
-0.02793874940400693 
-0.03745763250391616 
-0.01417829952962156 
-0.1186206612623275 
-0.2297468881496187 
-0.2586300627693202 
-0.00718705385543632 
-0.00718705385543632 
3.252606517456513e-19 
-0.117791358092233 
0.05731741191781 
-0.1158978897431392 
0.07390225913563507 
-0.1532414000676058 
-0.01000943532797201 
-0.1472097305074808 
0.3769794665795717 
0.2453271997744524 
-0.05881572590154466 
0.431317763396251 
0.06312587546734762 
0.429843670294387 
0 
-0.05026024293492485 
-0.1060980628836132 
-0.06449385224997652 
0 
0 
-0.0442601459590137 
-0.03192660856016463 
-0.01233353739884906 
0.1098493137885096 
-0.08192837367191443 
-0.04944623829029723 
-0.01572965453678561 
0.1227933335714288 
-0.9704160204382533 
-0.3971791078256098 
-0.02851523407106933 
-0.007656533542903619 
-0.1448187915810357 
-0.002706295741289224 
-0.1392377235790577 
-0.04944221784059276 
-0.1374851556766758 
0.0336577086547195 
0.009489556918276604 
0.1971231118187367 
0.486841302333251 
0.06988078768145636 
0.2346667435773759 
0.06280421768331457 
-0.0008252878420899649 
-0.01201714570672017 
0.1541972803695953 
-0.07028690790934927 
-0.03394093816519872 
-0.560563758623046 
0.1903795194046678 
0.3007425317713652 
0.3307094479263426 
-0.6461638059316627 
-0.02661866087470809 
-0.06399142696347151 
0.002241669103307573 
-0.1367492181595633 
-0.001042975498521174 
-0.1169158077736899 
0 
-0.1913712810209538 
-0.1840229525803172 
-0.03723311993401933 
0.2377109359801489 
-0.2555780685625013 
-0.04805586026530363 
-0.01949895705062877 
-0.09658062777758691 
0.08789648606488974 
-0.1752479819331473 
-0.0142460353576316 
0 
0.04753332184216622 
0.3253507032567367 
-0.07811774241288467 
0.5325990241115186 
-0.1766765076540539 
-0.1904014616029304 
-1.085714996219176 
-0.1466980869400454 
-0.02349517546314638 
-0.1913148872885312 
-0.3024249768557396 
0.2815333813432445 
0.06337938623732756 
0 
-0.006158849031845757 
-0.1024663296196606 
-0.001456477302348195 
0 
4.336808689942018e-19 
-0.04629880455126654 
0 
0.385199560614701 
0.3231167434725197 
0.005035338857881922 
-0.2041521277320116 
-0.1032778092839757 
-0.1397532687370047 
-0.1397532687370047 
0 
0 
-0.1532482987181562 
-0.1275388720515581 
0 
-0.1761382025216293 
-0.01341264302403478 
6.938893903907228e-18 
-0.1217713155190047 
-0.06762248645541144 
-0.1492162904939828 
0.216329062809085 
-0.01011854671311396 
-0.009501859939747942 
-0.09014195714617716 
-0.06623787381651795 
-0.1201006500419203 
-0.03013410854703496 
-0.1731330304986821 
-0.0124239879780925 
-0.05828471011741586 
-0.0003731853596047343 
-0.0003731853596047343 
-0.01171571449464456 
-0.04289946202768559 
0 
0 
-0.1440460180210411 
-0.002623054523723588 
0 
-0.001343888568907839 
-0.05544903039196379 
0.1739127506158143 
-0.1579100213378997 
-0.09719506564973972 
-0.004996900539814988 
0 
0 
-0.00676826520898418 
-0.04458440580174618 
-0.0233326130800283 
-0.01015646316352485 
-0.02887982044803758 
-0.02887982044803758 
-0.1000827788004868 
-0.9219970687631733 
-0.3673277302941822 
-0.1439341698947839 
-0.613735207797797 
-0.08379167606826869 
-0.187189491142087 
0.05123209377599818 
0.003631389726736899 
-0.05457166451706857 
-0.1150126785390709 
-0.006234686643983147 
0.103008301953824 
-0.4078706824790473 
8.348356728138384e-18 
0 
-1.734723475976807e-18 
-1.734723475976807e-18 
0 
-0.05583971523390395 
-0.03158724988115487 
-0.06703812940992915 
-0.005878296372950416 
-0.02750792583884333 
-0.01581896806348108 
-0.01295213892355349 
-0.05943911762717807 
-0.000373185359604733 
-0.1000115184427908 
0 
0 
-0.00657184280979882 
0 
0 
-0.1907428043231792 
-0.04414868524515438 
-0.3544818723625237 
-0.1285958739486487 
-0.2978298636135894 
0.0494305669050096 
-0.1341427083239932 
-0.6863581428210421 
-0.1845070139244456 
0.185618731698652 
0.001814476885836786 
-0.008859243332975032 
0.1117861829811292 
-0.05542477392926686 
-2.168404344971009e-19 
-0.1263051668300815 
0.3279717978223805 
0.2468801315136979 
-0.1424759468497306 
-0.3518556868387193 
-0.01077827236902338 
-0.1997196716781701 
0.2458216560081414 
-0.201887623693964 
0.143182514830871 
-0.2053909783465193 
0.1982168311295877 
0.2600584644274 
-0.4367495896644555 
0.06429029923545379 
-0.1421941108545129 
-0.2219492498841466 
-0.1706606244750868 
-0.4072178850884512 
0.2791711757788387 
0.3432434611934649 
0.05950200801296647 
-0.2036835444047908 
0.3520421743184393 
0.1031709165356382 
0 
0.2024885643588851 
0 
-0.1206880007906419 
-0.2397157558682001 
-0.02016566342732 
0 
-0.4039581081249832 
-0.1629624029380106 
0.03276858861963883 
-0.08029665163185197 
-0.1132826315531049 
-0.1552873966037042 
0.1269659917294425 
0.1046270163440651 
0.1250394358203072 
-0.1613778822010908 
-0.1199774091749697 
-0.1199774091749697 
-0.09931872736345393 
-0.1042569372402501 
-0.05354296042839385 
0.4099427510174156 
0.3082830522275878 
-0.2861566190026231 
0.09727695037081724 
0.2970048799306146 
0.04913342233645084 
0.0922518101114819 
-0.04534771984179971 
0.1353701978865129 
0.1353701978865129 
-0.8193425876645759 
-0.02294605349372072 
-0.0776766960960741 
-0.04028781376367532 
-0.009717320016313093 
-3.117081245895825e-19 
0 
-0.03658715441939907 
-0.1965179373904252 
-0.2964012610513414 
-0.1671276329776485 
-0.06168980598748428 
-0.1042569372402501 
-0.1438580306044134 
0 
-0.08990146829610232 
-0.01656177860711127 
0.01313910407414241 
0 
-0.3162848960006341 
-0.001243267181730196 
-0.01049074165608426 
-0.1196784682614107 
-0.7274040423251504 
-0.2124250661761017 
-0.03542514981518535 
-0.1329725265296023 
-0.2645321946300231 
-0.2934341395449947 
-0.05319708600671334 
0.2762729075100385 
-0.5833865987447038 
-0.01571107716184798 
-0.01484118158871736 
-0.1030755326585536 
-0.01457540762115833 
-0.002869406524062938 
0 
-0.08940106853404742 
0 
0 
0 
-0.4232312225936004 
0 
-0.4241756089267243 
0.06306563695263372 
-0.06934613641533489 
-0.03136342482645527 
-0.01973544228019474 
-0.08605843101059775 
-0.08459447854312233 
-0.01661994226094988 
0.1591134639226454 
-0.07498782284522736 
-0.03338222260663195 
0 
-0.04930777486485129 
-0.03372521177996868 
0 
-0.1264562970355879 
-2.168404344971009e-18 
-0.3029069538709036 
-0.678933575911869 
-0.1049743951290349 
-0.04873744263056963 
-0.02676424192808924 
-0.08779392967828574 
-0.115598829949308 
0 
-0.05752771395930474 
-0.0001273936856889867 
4.336808689942018e-19 
-0.0687972280152002 
-0.01973544228019474 
-0.02554906220656214 
0 
-0.1678788640978332 
-0.1163922542819638 
0.06822582074040551 
-0.08274279633360473 
-0.07702299331651011 
-0.300241861731645 
-0.06753057468489441 
-0.2665127967850925 
0 
-0.1305381197077355 
-0.1315341354185712 
-0.03237968563743211 
-0.06410285490261169 
8.673617379884035e-19 
8.673617379884035e-19 
0 
-0.1547087615706196 
-0.01817682129946089 
-0.01293256537304478 
-0.2082407082752551 
-0.118567575259686 
-0.3605406695524657 
-0.01049074165608426 
0 
0 
-0.03249553774202207 
-0.3691036653320561 
-0.5946047872913811 
0 
0 
-0.02005042504880927 
0 
0 
0 
0 
0 
-0.009840426218087544 
-0.05708542506177419 
-0.0692542000208564 
-0.04309288828039613 
-0.0200683048387984 
-0.03563462459624848 
-0.0001452537483064749 
-0.01933298196389272 
0 
0 
0 
-0.002096375461425593 
0.3270982857825717 
0.05262195210495318 
0.1606048220717369 
0.03641012013069263 
-0.3784238685375114 
-0.3251144896475497 
-0.03962321621715546 
0.4625576978676568 
0.2423668885780309 
0.0245369155701563 
-0.5699353451936511 
0.04631188709210236 
0.1634969567946146 
0.07718540841197355 
-0.4457468479003029 
-0.4229906867848788 
0.1290857851960612 
0.03230300462230764 
-0.06667043692652175 
-0.06667043692652175 
0.1033309995814952 
-0.2038084793260816 
-0.01506167498356263 
-0.002111791799353257 
-0.0724103761190532 
0.01016760970363715 
0.07100738992850546 
0.1030746575266629 
-0.06390254431011161 
-0.05824803568652692 
-0.04841198513547502 
0 
-0.1242437746989253 
-0.03745638989062844 
-0.02242431601734786 
-0.1492649100891484 
0 
-0.08029206356888952 
-0.05926948485758612 
0.04683937492769664 
-0.1116161442837897 
-0.1993878134928423 
0.8181668163654829 
-0.02037255555464353 
0.1636082088176006 
0.8410290448818059 
0.1632166023473329 
-0.005127985571651612 
0.0877596709441989 
-0.09846864721421912 
-0.2544222277450908 
-0.1050406142346703 
-0.002609179042431799 
-0.2385383031611951 
-0.1490832127378925 
-0.3441683304155885 
-0.1294733561849114 
-0.02729218865303696 
0.2298016077263232 
-0.1214972896222646 
-0.1849329638379091 
-0.5049691369697767 
-0.3803790684671482 
0.08105985121596601 
0.06124448027276614 
0.0547236037482513 
-0.1120969764281221 
-0.359063227549608 
-0.4092174916826353 
-0.1104868387128517 
0 
-0.09539909414758513 
-0.09252608553871791 
-0.03226131171784764 
0.000948080878082293 
-0.4275327795288387 
-0.1054528518837866 
-0.1251571164833735 
-0.001231755985767269 
-0.02099128337011759 
-0.006161398318662485 
0.4409281569427859 
0.1048919207420126 
0.1032240190489477 
-0.2010016067288525 
-0.01136598127035295 
-0.04802976827700166 
-0.009646913516204513 
0.3701056438412274 
0.3032953598620514 
0.1509092772416738 
-0.3090982652688649 
0 
0 
-0.05616335393822584 
-0.2429085482127494 
-0.2526714316348161 
0.2683315790978833 
-0.2180170492061637 
0.1251540297158996 
-0.004249492737042972 
-0.176762095289395 
0.1420210054551056 
0.1353701978865129 
-0.1198749019483235 
-0.02190278442480978 
-0.1742871781213045 
-1.029992063861229e-18 
-0.1690439103764712 
-0.2868692355105698 
-0.1058244374824392 
-0.2319325149935722 
0.002859694167174822 
-0.03945630863711791 
-0.3119574530685651 
-0.4956761059892628 
-0.3533134080668006 
-0.04696672882142204 
-0.07468497294649527 
0.5564674033884425 
0.2062813877578528 
0.2787891323533927 
-8.673617379884035e-19 
-0.1563056719499141 
-0.01718319449074867 
-0.03696447510925131 
-0.01993923767650297 
-0.1247778910251934 
0.05772103795563933 
-0.006234686643983147 
0.1208876110687058 
-0.1787171333338625 
0.005756174511452699 
-0.1187252024882392 
-0.06885176270953682 
-0.02346206021528105 
-0.2060388945126701 
-0.01380553852543064 
4.336808689942018e-19 
0 
-0.02661866087470809 
-0.02661866087470809 
-0.004996900539814988 
-0.004996900539814988 
-0.2664793388647437 
-0.03892746394766817 
-0.01718319449074867 
0.02103170070074784 
-0.2079002365234179 
-0.005421505597333138 
-0.005421505597333138 
-0.02948329732261703 
-0.02948329732261703 
-0.1692880257308738 
0.6592592879880759 
0.03049439589816856 
0.1251889250728111 
-0.1608442368179449 
-0.1464839929919311 
0.05063420533096618 
-0.01628371417958387 
-0.06019711860658018 
0.1822837544384896 
0.0171048087001509 
0.09989568004864256 
0.2918107491122828 
0.336914227603623 
0.6035154662615637 
0.321653081505203 
0.175755624743252 
0.3828672876298634 
-0.2251095321865134 
-0.05384227404092921 
-0.04990767511539586 
-0.06892419597336392 
0.2241572681090344 
0.3714842090191396 
0.2274946480225719 
-0.07506776729857148 
-0.271837129114517 
0.4224450335385558 
-0.2733990643435453 
-0.02605262132646784 
-0.4225118813139103 
-0.2424585733407967 
-0.2341891309438074 
-0.1042569372402501 
0.09402001041564477 
-0.0207970917182935 
0.207327659302429 
-0.05180212400273542 
-0.000373185359604733 
-0.002803923162942552 
-0.1618512422593989 
-0.1121629631540768 
-0.1670596909366371 
-2.059984127722458e-18 
0.1353701978865129 
0.1353701978865129 
-0.01049074165608426 
-0.01049074165608426 
-0.4995635067437095 
0.03960022607531311 
-0.2981150625523757 
0.1457570382564602 
0.007049182837861636 
-0.2612511051051575 
-0.2580815923138971 
-0.3588609316495888 
-0.009946990068910639 
0.1353701978865129 
-0.04069081464816608 
0.03548579123701106 
-0.1743319914484501 
0.4566749624570313 
0.05457547500981027 
0.04241521724744636 
0.03337361547194261 
-0.060788320881931 
0.6368648777086394 
-0.2616236576975982 
0.1416378845881406 
0.007799813729351639 
0.2153973456636797 
-0.2069516022914174 
-0.4480679162453203 
-0.1339189866752975 
-0.01542249793694783 
0.05841044738037539 
-0.2620740709581279 
0.187838901439782 
0.102742075225089 
0.0217269246796897 
-0.1278403553860922 
0.05352244567010715 
-0.08610459499874053 
0.03041246736505598 
-0.4881492727266226 
-0.07067646145270447 
0.4803363416938655 
-0.8783207773700584 
-0.03533115859079148 
-0.1548323930614717 
-0.5917365499444009 
-0.1088277544744491 
-0.003862646806738554 
-0.04136628302507579 
0 
-0.03705167833616795 
-0.03705167833616795 
-0.1137440016100437 
0 
0 
-0.01154260814279122 
0.07999268298210715 
0.03191178762500529 
-0.1104868387128517 
0.7176151589969976 
-0.5024855323186518 
0.1535578933072166 
0.1535578933072166 
-0.06617738111744786 
0.1812604019375174 
0.2280754151627966 
0.05434523778937228 
-0.1503183786886171 
-1.029992063861229e-18 
-0.1110600941873919 
-0.007654449519023201 
0.2304060441748391 
0.132388158401077 
0.06725405966247565 
0.008242281380530759 
-0.004073202007431588 
-0.2043544462652128 
0.05712877780940861 
-0.07648838260772559 
-0.08078979805707963 
0.001256367750129609 
-0.1849542693548687 
-1.029992063861229e-18 
-0.1431018066812713 
0.07722366882879486 
-0.3528354727045891 
0.04076384122222623 
-0.2336670415522598 
-0.2154663378047487 
-0.4625935083280632 
-0.03718827355711531 
-0.07876437951561949 
0.1352634032453164 
-0.1413816796109697 
0.2987642336287745 
0.05171507190685178 
-0.6625101755825433 
-0.1353097261674963 
0.0652360211459037 
0.4350537726394874 
0.2427178570514261 
-0.08998539232460964 
-0.05817243533857468 
-0.4084674673692014 
-0.1484476560245165 
-0.1818110232335654 
-0.06886430365532929 
-0.3761684114889944 
-0.2584762240509906 
-0.2337186822054994 
-0.1165487386925889 
-0.1461008101520531 
-0.2380263080152846 
-0.3946985399422564 
-0.2990508422640368 
-0.002081487609594191 
-0.2990727209195025 
-0.05119251224850182 
-0.2992139214094309 
-0.1709307037994431 
0.01873705646588306 
-0.4081803197419705 
0.4272775485748045 
0.07670638287478966 
-0.3083607275118174 
-0.1274765852026326 
0.009227046605954624 
-0.2978439194109045 
0.06303406877716447 
0.1319480495926305 
-0.2129613186891799 
0.1206405884544788 
-0.1023947356931686 
-0.3394861724875999 
0.01300918437784434 
-0.2267630781526224 
-0.2239758909961972 
0.5459514814705322 
0.4070579502813841 
0.02559122329417376 
-0.2515320547472937 
0.236174494243047 
0.2699845660260364 
0.06164616873414729 
-0.05848168642645532 
0.1484534590848549 
-0.04207392755032849 
0.1431672864224502 
0.118065253219274 
-0.2332100894464262 
0.03411660469733905 
0.04678760907716849 
0.1488569609979647 
-0.1104868387128517 
-0.1104868387128517 
5.421010862427522e-19 
0.1022070617571662 
-0.6094175029451632 
0.1098725933474607 
0.1086013451450419 
-0.196559187378235 
-0.1234502703245161 
0.1893894712956387 
0.1894457752633272 
-0.09065744345124011 
-0.07143449901764955 
0.1689195596849606 
-0.2794231027782315 
-0.3802986877841774 
0.1549304903051932 
2.168404344971009e-19 
-0.1937512707553936 
-0.1323010753056397 
0.2683045326652822 
0.05335414217913667 
-0.1604671351845003 
0.09648415405611074 
0.4520417770640134 
-0.07342279358152345 
-0.1042569372402501 
-0.1042569372402501 
0.5712767405613459 
0.1103529825264449 
-0.2780869259069796 
0.3415000050696561 
0.09060026251355424 
-0.1671540802789036 
-0.1042569372402501 
-0.08116457182799122 
0.1205141392939372 
-0.02479928863236889 
0.1738168522611596 
-0.1029823335970611 
-0.1104868387128517 
0.09519471375222364 
-0.2100552223421963 
0.1511514038944282 
-0.02223304772567838 
-0.1759147160902379 
-0.1324954271945855 
0.5640619161266234 
-0.05907474857245957 
-0.1950745745453304 
0.4065776291184728 
-0.06019711860658018 
-0.3041316850212122 
-0.1702388870000068 
0.6738766321687475 
-0.3307061072282922 
-0.3107495737478023 
0.07923519785716296 
0.4984127217520516 
0.04708537242477769 
0.3050228673629298 
0.06241783860240385 
0.5981446250751173 
-0.3563336016179182 
0.4833282704902719 
0.1393368009076183 
-0.3720241260693307 
-0.2272291549740565 
-0.1485306148946803 
-0.2713120259406215 
-0.1808329305197813 
0.00458998812561755 
0.1495374853054798 
1.116092266175679 
0.1743973796529594 
0.2611592328503453 
0.2714373007123437 
-0.1394661082820528 
-0.1104868387128517 
0.9318165413819491 
0.02360262344858016 
-0.04150949556889764 
-0.02037179333975717 
-0.07819380949124807 
-0.05467984428763283 
-0.0209607381355982 
0.07757039679225311 
-0.2178616997734672 
-0.02773888211255177 
-0.01272725026022548 
-0.02967614158321657 
0.289025294769107 
0.009680004154669021 
-1.029992063861229e-18 
-1.029992063861229e-18 
0.0768642058503434 
0.1274645184257518 
-0.09277083007157769 
-0.04873744263056963 
-0.2624264325270976 
0.2085589066829333 
-0.4701639455075647 
0.00191613453442773 
-0.006161398318662485 
-0.01433218907814464 
-0.244166469898032 
0.1478435423371589 
0.01321635665262511 
0.1022572539424845 
-0.02270700859379525 
0.1425023267808604 
-0.03277233739693503 
0.1008212450401834 
-0.04705182509147284 
0.1654487992892772 
-0.1726909309980888 
-0.3267674508791271 
0.03668414635151011 
-0.2857462019117503 
-0.04809645853541786 
-0.1433296539429661 
-0.04483968598600499 
-0.07514385686970956 
0.1599273221206002 
-1.604802063955262 
-0.09774168549971363 
-0.1468297541678596 
0.1050615052091336 
-0.394546545963652 
-0.1150144209189684 
-0.00622376650846575 
-0.002497049426123257 
-0.05047440562070361 
-0.02186300292733212 
8.131516293641283e-20 
-0.02200058106069342 
-0.04576106096165194 
-0.01431309888884722 
0.406154215165988 
6.938893903907228e-18 
-0.06911219777474521 
0.5286211054389676 
-0.491308896269815 
-0.1150144209189684 
-0.01049074165608426 
-0.01049074165608426 
0.332801600243486 
0.08179326164505719 
-0.08211096452317733 
0.5412198387460366 
-0.04575540320943174 
0.08366233197915519 
0.1462106689639759 
-0.3421603001077857 
-0.1161066556497297 
0.3666277984198605 
0.3460273825130572 
-0.09779039469695118 
-0.419068734150176 
0.286445933318188 
0.519043518961084 
0.2105623223187318 
-0.01966711971689685 
-0.1089161218879953 
-0.03299701281360048 
0.2364728011215359 
-0.1289957938928251 
-0.1253023296993737 
0.2232227545690684 
0.172139370068419 
0.09527582946641473 
-0.03581719071508401 
-0.01049074165608426 
0.2440467918320726 
-0.08927501646834926 
0.2281665507895411 
0.2041982421102893 
-0.2387109728207401 
-0.1231045280715015 
-0.2277058988161523 
-0.4218246336650433 
-0.05238251037699398 
-0.3596810570543132 
0.180671003401654 
-0.9551577990075215 
-0.2526195665198011 
0.1311959615956809 
0.1973861584170677 
0.1576776027758726 
-0.05982675726947696 
0.1558732972721837 
-0.09582968616113001 
-0.2549802478944055 
-0.1054114015186316 
-0.5029545115248341 
-0.2049786786532881 
0.9981569002896514 
-0.1406819149755869 
-0.04259072455908545 
0.4970697639691853 
-0.1098971206720733 
-0.07265833698210578 
0.3712453019139972 
-0.3978117761504854 
-0.2548673359117342 
-0.14176958105165 
0.006053708511000401 
-0.5330104042883046 
-0.2041740344199566 
-0.2359643864810794 
-0.1563744719298554 
-0.09260712017343145 
-0.2304731407452336 
-0.3248794850983585 
-0.1263675005757842 
-0.07335757212185762 
-0.03211815548176324 
1.150060373307101 
-0.04157553665117529 
-0.209455276036385 
-0.02095535322376957 
-0.3989760002138811 
0.7496544640632615 
0.0434779675912157 
0.08362529355771263 
0.3265547395368509 
0.530844596532459 
0.02303115316625964 
-0.1662041580535147 
0.2348539640204035 
-0.2180354368275932 
-0.218898327829701 
-0.3846612347540185 
-0.2695499905369113 
0.3107324920376311 
0.1844062154509044 
0.1671559212364624 
0.8041963960885765 
-0.04190966849445999 
-0.002623054523723586 
1.734723475976807e-18 
0.1252043607113187 
0.09363744928444138 
0.2328565427254407 
-0.1312409295489228 
0.3610824232604638 
-0.0670133314243119 
-0.1755015437464318 
-0.02951364960181274 
0.2081892443989709 
-0.03723702041227072 
-0.007614904527710472 
-0.004996900539814988 
-0.004996900539814988 
-0.007614904527710472 
-0.366314373861254 
0.007299752892325287 
-0.0907547346714495 
0.004254604810644881 
0.1955118835332644 
-0.1193356071392819 
-0.4570085656906373 
-0.2124293374822432 
-0.05697341641019343 
0.1270069678845471 
-0.05446781871023843 
0.1319485070268928 
0.1368562729332018 
-0.1577134614260956 
-0.1150144209189684 
-0.2507532238668903 
-0.1469617631355717 
-0.1048623365961586 
0 
0 
-0.01316665647768458 
0 
0.007591547055642836 
-0.0597822936110671 
-0.0877682561536207 
-0.2312861513594411 
0.08082630482093274 
0.2767233150598186 
0.04749128490988604 
-0.08142599681856694 
0.2521734827487022 
-0.3294835100840839 
-0.01252432971773374 
-0.03736332710885471 
-0.1250541334540678 
-0.3202869183618132 
0.4234141491745412 
-0.04315457954410324 
-0.04315457954410324 
-0.1150144209189684 
-0.01049074165608426 
-0.01049074165608426 
0.09070912145178518 
0.7876959467419292 
0.004916952756490185 
-0.04937010932358324 
0.2760511168107906 
0.2912356585807828 
0.1749090146545611 
-0.04069600251349968 
0.5058730662986463 
0.1944829055083968 
-0.1675560861512518 
0.2200457130154805 
-0.2085622972583778 
-0.1138851464235284 
0.1670237527748462 
-0.04417148447364085 
0.2576135134348979 
-0.3970021204470978 
0.05683707171566762 
0.168161159074783 
0.2778355049723532 
0.1174388211972839 
0.06605551397405043 
-0.08215821405521689 
-0.8129116975179521 
-0.08182770064171006 
-0.007117783753578981 
-0.3066470487654329 
-0.1372141161863754 
-0.3117308203170459 
-0.0481753760380028 
0 
-0.007601052181574603 
-0.01242930007978955 
0.2808813136533513 
-0.1199904460669692 
0.104998524552368 
0.1641262577449897 
0.001886357063681873 
-0.2140567365813829 
-0.1525207167991334 
0.2317588075463841 
-0.1703231213811907 
-0.1073331362060064 
0.08983908726872097 
0.2744838540389987 
0.02592017589650046 
-0.08115040651859451 
0.3087154169378759 
0.07329845830421025 
-0.03472214887817185 
0.1915444598230176 
0.04708871722307204 
-0.04556728263385262 
0.06929177824687932 
0.009116357181381676 
-0.0005481007668680475 
-0.3223469054948975 
0.006354063801382797 
-0.02917092309351054 
-0.2404786927670474 
-0.02680969159603143 
0.2207295479780973 
-0.04366067102404519 
-0.05083965874750588 
-0.02569196764885873 
-0.2355537241157949 
-0.2814235071042474 
-0.4544456105398167 
-0.20613381590372 
0.04238093471451105 
0.03850317238840512 
-0.4760915429690426 
-0.1048196281170385 
-0.264336742707673 
-0.02385661153960957 
-0.04363553121588865 
0.1165628305334412 
-0.2061608916609756 
0.2991248856424968 
-0.38232180909168 
-0.2365110929937446 
-0.1614221052819364 
0.05345790816946146 
0.2666331535164844 
0.1435382714318255 
0.4761604565690126 
0.713993464778529 
0.738884559701934 
-0.2434615437912205 
0.192226514728751 
-0.1090063632541636 
-0.6123766667588915 
0.5858023278999247 
0.2505308039299114 
-0.2697072513740732 
-0.4112028545570497 
-0.1867271088173398 
0.103801238297579 
-0.3889507862931846 
0.01091947253772162 
-0.04326846635136762 
0.08362989563599998 
-0.09216574779299615 
-0.07623401011744078 
-0.2071095455477857 
-0.2191607499253445 
-0.2238392314062581 
-0.2975193420491241 
-0.1178387305360199 
0.07448497554845301 
0.3676661330336008 
-0.1632328144442539 
-0.2050075671638472 
-0.1564270634560408 
-0.108686941530336 
-0.2574769908636145 
0.2154111063419208 
0.1720992343359237 
0.9571800321175371 
-0.07287826723485717 
-0.0009784079412837432 
0 
0.4517426999674405 
-0.1826006262015569 
0.04207454676177829 
-0.09461630887325037 
-0.1827773269525506 
-0.3231118242164585 
-0.3080985572770119 
-0.06019711860658018 
-0.02812777679597309 
-0.06019711860658018 
-0.06019711860658018 
0.01560901772091333 
-0.03634558786999315 
-0.1029429824257817 
-0.2386664794893642 
-0.2401339551737673 
0 
-0.07896458739126329 
-0.04034356457576718 
0 
0.04048649998778718 
0.03168446057991834 
-0.05791497416869792 
-0.0194477764774097 
0.2804477846505433 
0.1095620199365634 
3.469446951953614e-18 
0.1387349960827438 
-0.07345561532095822 
-0.3166983711985972 
-0.1949088997617375 
-0.309185494940082 
0.106973133455457 
0.4388830712591418 
-0.03337491999141701 
0.1028015273882266 
-0.08500048840335694 
0.2219312001047213 
8.131516293641283e-20 
-0.2568447846703885 
0.453214024727059 
0.04366251301008386 
0.2719473461976453 
-0.3549987977723495 
0.0007733389305788166 
-0.6112131704138383 
-0.1812265014766468 
-0.1765714484957944 
-0.1090521953031836 
-0.3916309128845557 
-0.3806124829113856 
-0.516993987911934 
-0.1919469732243896 
0.1271457411067684 
-0.09061329369949805 
-0.08252784093741504 
-0.3816867244291136 
-0.01295966300151496 
-0.1816322486213692 
0.2783527382532168 
0.4981840106655232 
-0.5022270329185355 
-0.2643365088633759 
-0.09599422763478302 
0.0108201113427887 
0.04913342233645084 
-0.0507211055788792 
0.2219103932642566 
-0.7284902747504153 
-0.06845825037371181 
0.6399220699936914 
0.2268725651836486 
0.09730662988635136 
0.03538485060300396 
-0.02210847884743056 
0.2474815190806615 
0.3596544303989089 
0.337003547065846 
0.02099813994176693 
-0.5369165521612969 
-0.3168867681299047 
-0.1733834627712258 
-0.2593525389832577 
-0.1663061331371379 
-0.1549859166278572 
-0.2205997818859886 
-0.05267908058911248 
-0.08331695122055598 
-0.08657843424763999 
-0.1435420429390519 
-0.05659130713042044 
-0.02573882435251647 
-0.06088598028518302 
-0.113456709383828 
-0.2381227114312775 
-0.1555717543668535 
-0.4006202048685514 
-0.1895843557387973 
-0.2062697864747935 
0.40950404166159 
0.2083759876155251 
-0.1396287287585089 
-0.06892198507283089 
0.01805854695474923 
-0.1006683612596538 
-0.02473812344052417 
-0.09869248317029665 
-0.04668045957916576 
-0.3403475968441386 
-0.2747155775082183 
-0.1390363854552466 
-0.1750695539741424 
-0.1127524818648873 
-0.07092027714879405 
-0.04085476264679781 
0.4784510069071615 
-1.069682313937679 
0.0872166413810886 
-1.734723475976807e-18 
0.1356064975617964 
-0.0501410794610361 
-0.3171741866611665 
0.1248444610102311 
-0.02525165165251461 
-0.1339261169837552 
0.3583054548729809 
-0.1632159616903089 
0.2438399767893342 
0.1237390136688834 
0.1674619695647552 
-0.1546413332424552 
-0.2236835670955631 
-0.01517667124188623 
-0.2086622177213799 
-0.1477139574903808 
-0.3230417787504332 
-0.1638540716813403 
0.00445194871729984 
0.01016090427654806 
0.0620887811692607 
0.8593339203811199 
0.1171898165004576 
-0.1017381375476793 
-0.1017381375476793 
0.06893373187842539 
0.0188554825180779 
-0.03719229924589137 
-0.06790572537784165 
-0.06560708690083267 
0.08781034172166585 
-0.1460080479516645 
-0.4069338363795715 
0.007024259458729673 
0.1496263397294092 
-0.04873744263056963 
-0.04873744263056963 
-0.2763847115701933 
-0.05478330668004509 
-0.1031949680420865 
-0.02323617237459596 
-0.04962166013452272 
0 
-0.1129032399528521 
-0.01718319449074867 
-0.01718319449074867 
-0.03227406216716674 
-0.01227166710727602 
0.09857021047521061 
0.2224836990717732 
-0.175400312546156 
-0.2308705268980072 
-0.1818540219298395 
-0.4754377539781817 
0.0859349433004746 
-0.4232073038050793 
-0.2474546888651727 
0.2225935491776471 
-0.02993648039583597 
0.0784076377795466 
-0.03906327181418647 
0.5249858575339661 
0.09978864117664944 
0.09406359310591755 
-0.07283658290062882 
0.3150197545581527 
0.06808740788900025 
0.1389387634133496 
-0.1050746017750871 
-0.3583556899514062 
0.1374274529751041 
0.03310977883514084 
-0.03869219693189779 
1.039880580146471 
-0.0355457767176532 
-0.1042569372402501 
-0.2020647460800138 
-1.734723475976807e-18 
0 
-0.08150914962896812 
-0.03982217461374508 
0.6144145034836296 
0.009895832472493187 
-0.2607224970040676 
0.01768617413692178 
0.1608341993105364 
0.3843068297432238 
-0.743478569254007 
-0.05959854835128554 
-0.04650656626230065 
-0.02869905679218571 
-0.06399142696347151 
-0.02620119179232667 
-0.03705167833616795 
-0.0007385568349769146 
0.5571081566299565 
-0.6600988902724656 
-0.08024148726685582 
-0.01932900762565172 
-0.09372142919069418 
0.1441855485641432 
-0.1479390803562284 
0.2903603141149456 
-0.08316079921364543 
0.2335194405258216 
-0.1281824505625292 
-0.1104868387128517 
-0.07131966434643418 
-0.2592173889960088 
0.148500544436248 
-0.06757083106837194 
-0.1361828170083514 
-0.09735823631767267 
-0.1336073617354436 
0.1871101504593519 
0.1944715865060151 
0.6406832994131264 
0.2310421899154684 
0 
-0.1315644596174468 
0.08049159507514309 
0 
-0.1222974411647437 
0.0895393285669233 
-0.1648139703646231 
-0.08260533697094616 
-0.3551169747828304 
0.06194940078852462 
-0.01761613605893718 
-0.1731330304986821 
-0.1472750046428961 
-0.1639759825546544 
-0.1579982388218097 
-0.1399746527629923 
0.0001067525795187066 
0.08588002130149403 
0.08870208079203884 
-0.09338406730586495 
0.06788108074095428 
-0.04779963656031861 
-0.005184041761421718 
0.1607224383877987 
-0.1525103938711101 
0.4791338199674824 
0.1789848551855744 
0.1666739498892534 
-0.3222131449090508 
-0.002453230933756762 
-0.5237023812838061 
-0.4537476577081365 
-0.3114298201444601 
-0.100415070125754 
-0.5083178207783056 
-0.05941253376347586 
-0.06700929043596972 
-0.1181555769552515 
-0.3115359606456217 
-0.09977992049191249 
0.3905107639678971 
0.1386865090554983 
-0.0047927523291786 
-0.07244357468543498 
-0.04776279421146579 
0.02614732268299789 
0.1097921087244766 
-0.01305824555393193 
-0.2501790814186231 
-0.004996900539814988 
-0.03880510446177676 
-0.01049074165608426 
-0.06399142696347151 
0 
-0.06397273228714322 
-0.424041722153821 
-0.4028493353266631 
0.03537906999618584 
0.04200147871024666 
0.375961834376039 
0.00845617820114177 
0.1452721593746479 
-0.06614507627892924 
0.4545198748249403 
-0.06906510717067398 
-0.2140785617495273 
-0.02594450558529849 
-0.3148153253643478 
-0.2117014534202776 
-0.1915201470518305 
0 
-0.1714162414437456 
-0.3021628140219376 
-0.09768232201294547 
0.140231961780105 
0.08996056203976763 
-0.03295454220820237 
-0.35931759396125 
-0.1844790226966185 
-0.01933298196389272 
-0.09302146639068222 
-0.001042975498521174 
-0.4193258455693116 
-0.172514883709164 
-0.4187002923493932 
-0.01118906007909768 
0.7008412500841631 
0.009869591792063492 
-0.01635192640732686 
0.4883414220213777 
0.5176256595406123 
0.1975962374956896 
0.5570943289327391 
0.3717128212661542 
0.1148694647935384 
-0.008974995631500223 
0.09705742816017292 
0.5605640455679639 
0.186050918228207 
0.2690156255305331 
0.4359448200408314 
-0.2736680719756273 
-0.05780719408212241 
-0.05461047917183029 
0.03562210525532797 
0.2249419510222256 
-0.06712542906400999 
-0.08939457149929603 
0.1534433460186837 
0.3475327243623684 
-0.3720567141146176 
-0.3673249606354757 
-0.2093375945355912 
0.1682561667645217 
-0.1013021080421846 
-0.09562202249398734 
0.005761203232798205 
-0.1176469653704906 
-0.03860529705582368 
0.09306468024220556 
0.1460558220192078 
0.1385017854311038 
-0.2564302966100303 
-0.02366349068268231 
-0.08628209042924186 
-0.004501903919925926 
-0.02735099118659154 
0 
-0.004098077474012168 
0 
0 
-0.01360338630193501 
0.02608963698608503 
-0.05393205662166014 
0.1134306705034221 
0.1886431724716098 
0.01033649763244745 
-0.008304104125790608 
-0.08296205072208716 
-0.02661866087470807 
-0.02661866087470809 
-0.01272725026022549 
0 
-8.673617379884035e-19 
0 
-0.01280585900403629 
-0.02693974862730358 
-0.02693974862730358 
0 
-0.2141567801379632 
0.3242866437646645 
0.2029945113468866 
-0.1042569372402501 
-0.1042569372402501 
-0.05211563805687144 
-0.05073277187994859 
0.02997707709863428 
-0.2142074402267097 
0 
0 
0.1823958199250322 
-0.0854996680315951 
-0.04172501720280773 
0.0342957580972386 
0.09308122124868194 
-0.03824206946720992 
0.2179152471308977 
-0.2591465199817776 
-0.06906291261254882 
-0.009916924115959274 
-0.1232446669649072 
-0.0705835654608762 
0.07976653167766688 
-0.05408459277141197 
-0.1989084185927093 
0.2244274131727954 
-0.2705820063558214 
0 
-0.03753754864831441 
0 
-0.01323493460949711 
-0.1615560940661661 
-0.0820892835958202 
0.2018510004733464 
-0.1398328319281129 
0.04586214401461719 
0.009173329068965083 
-0.005421505597333138 
-0.005421505597333138 
-0.4240979347611133 
-0.001529284034306366 
0.2467665121865079 
0.03991338961639528 
0 
-0.2361811943053591 
-0.04890637296379852 
-0.4380153806237875 
-0.1248423871712367 
0.007464767942065639 
-0.1069522107107211 
2.168404344971009e-19 
-0.03892606171972004 
-0.2653354367582566 
0 
0 
-0.1929708925313821 
-0.02669576742764308 
0 
0.2231370323827193 
-0.02784788552823751 
-0.4656812868034259 
0.04569602549203759 
-0.9826930159170617 
-0.2269661462220154 
0.1086099990556533 
-0.0604617729326046 
-0.008843450853518772 
-0.02137753400280881 
0 
-0.0009910070492104451 
-0.1297163385094706 
0 
-0.1854454109136572 
-0.1370685651075712 
0.1360495991062215 
-0.007519731924724622 
-0.1530925256515863 
-0.08983344698732874 
-0.1107445736754947 
0.2019746407791223 
-0.1394268826139246 
-1.029992063861229e-18 
-0.042802765885866 
0.1646494509175944 
0.3014406585845984 
0.06850163721518444 
-0.3379803045370937 
0.7970940812813799 
-0.14476205105478 
0.003142647581221234 
-0.06237634795432077 
-0.2967696090190123 
0.4478141818391351 
-0.3640512998694493 
0.1940975521438976 
-0.04310706176142895 
0.03548660452989667 
0.2879161670699781 
0.04616755907857583 
0.4307863025171681 
0.01194634806823729 
0.1684290627553996 
0.08995160787785861 
0.08849005084475141 
-0.2522831416436053 
0.2342606477503573 
0.4381210757805016 
0.1863284459061275 
0.07404641142201698 
-0.07335757212185762 
0.1071481851602195 
-0.6986048482771149 
-0.9351206708471188 
0 
-0.3065684907634501 
-0.03641075325458374 
-0.02953968446489236 
0.1841591108848876 
-0.1807485926872577 
-0.1115461611450245 
0.125712832869828 
-0.02016613668884188 
-0.4046023771266314 
-0.02622927078304038 
-0.03617149895432758 
0 
4.336808689942018e-19 
0.1774404885007038 
0 
0 
-0.1416539893996051 
-0.008963514612738647 
-0.09001729670826962 
-0.7453336626732836 
-0.1731930161921846 
-0.2613886724013385 
0.1698039752145034 
0.2362167356021703 
0.1753273296192397 
-0.3183180306176117 
-0.1856288857746214 
0.2438013801813564 
-0.1333330286417218 
-0.06454779222306462 
0.06163269842177321 
-0.02693974862730358 
-0.2561227883501279 
-0.2884541501847916 
-0.1289694059518374 
-0.155628512815205 
0.1525778451043187 
0.2680247571278783 
0.04417524246473663 
0.06964162647173254 
-0.0009784079412837432 
-0.03280902631364751 
-0.2952227464825798 
-0.02061849476078561 
-0.2450374061950648 
0.362037949571009 
-0.1761304336730556 
-0.33933977922137 
-0.4709706056861675 
-0.1034228218618128 
-0.4709706056861675 
-0.3071693740150679 
-0.3319573036923684 
-0.181198252477428 
0.1120213685785704 
-0.2042527586049987 
0 
0.02366386138790348 
0.2317203849449193 
-0.1287075165312336 
-0.1951164906772708 
-0.0850235037212512 
-0.01508809828211728 
-0.02482411334392653 
-0.01508809828211728 
0 
-0.02693974862730358 
0.06286813824625409 
-0.0673478009500552 
0.1481912095918795 
-0.2012649429224148 
-0.4318080971644433 
-0.6644022392537707 
-0.060788320881931 
-0.060788320881931 
-0.05905663689120735 
-0.002401286863227789 
0 
-0.1785249341716123 
-0.1754728486689558 
-0.09210608098854066 
-0.1696052169769412 
-0.04722494913869409 
0 
-0.02055319110512809 
-0.1951682875785411 
-0.02178643342320704 
-0.08803560345434014 
-0.480420382713428 
-0.1239358807596615 
-0.1239358807596615 
-0.06931758477079845 
-0.04296419882429638 
0.02850059473095288 
-0.1241335962662032 
-0.1160789548311538 
0 
-0.1213132102219999 
0.246438133293119 
0.233988812880714 
0.02631941795703391 
0.08163122688154052 
0.0774419410800278 
-0.08636224790221853 
0.1944168473843949 
-0.02128938718056394 
2.168404344971009e-19 
2.168404344971009e-19 
0.2975652126213678 
-0.02441287394493929 
-0.04777693975596702 
0.2463356743949849 
-0.3431391334689494 
-0.1836597157126511 
-0.1195575549229809 
-0.006517792371118755 
-0.05444401018530919 
-0.01360837513653174 
-0.07287009788299509 
-0.07457686129317181 
0.1075395036934704 
0.0687410642847088 
-0.2862124643414648 
0.08899139440812238 
-0.3808824886995185 
0.01205108611998546 
0.08848272999817827 
0.1134844208527425 
-0.4422722512755065 
0.3236409322224916 
-0.02607939573250098 
0.2366065140096951 
-0.04332337548679186 
-0.03705167833616795 
-0.03705167833616795 
-0.1726229147648632 
0 
-0.07361241367398012 
-0.208477518337439 
-0.02437887850231466 
-0.03820096074381907 
-0.2385426059618399 
-0.75603589408546 
-0.01089817492821371 
-0.07934232499303806 
0 
0 
0 
-0.2720598641229288 
-0.06890885502612186 
0.05991681444307133 
-0.2475553751175306 
-0.01386776303272086 
0.0854905342762786 
0 
-0.004249492737042972 
-0.01326011672948529 
0 
-0.02640945501638777 
0 
0 
0 
0 
0.02007608106577047 
-0.1374417158504103 
0.1568408366918289 
0.1473988797830169 
-0.2027220943599383 
0.4992476784535295 
-0.1363103634656052 
-0.1328400178560961 
0.319157560549036 
-0.357864672252761 
0.08759217815559117 
-0.3374320338548156 
0.1319956714160123 
-0.02099274864357161 
0.1500946060907404 
0.06008508713384494 
0.03597748369567001 
0.03953324555777778 
-0.02299385237517702 
0.02772594343238131 
-0.167954170182041 
-0.2209011045096422 
-0.1585052032031474 
0.1482851748670477 
-0.03031813393580179 
0.02516856787266197 
0.2198657654083176 
-0.25659803509367 
-0.2170516885986649 
-0.01049074165608426 
0.1408246529237682 
0.0384154940705092 
0.2291848780649296 
0.1738164186074482 
0.5824039037729163 
0.1765196004096456 
-0.1399256875104219 
-0.2233575789621992 
-0.1274455080356627 
-0.01293256537304478 
0 
-0.01305824555393193 
0.1547202717862606 
0.1572769527997142 
-0.02024962126903689 
-0.02024962126903689 
-0.1740119521059232 
-0.03280712044523833 
-0.06176762794197602 
-0.160117428065443 
-0.09625149510111702 
0.0922518101114819 
0.3363604910592085 
0.2067244774812039 
-0.09731930216603922 
-0.08825919517275774 
-0.1077919256147664 
-0.04875568521005944 
-0.03333634432339681 
-0.06487914088670296 
0.1119873453773313 
0.07202999866546629 
-0.348173433923281 
-0.1230580196865623 
-0.007599089839885942 
0.08609551596135988 
-0.06888510995113094 
0.4607299487043534 
-0.1119926941644782 
0.248582792147676 
-0.2384722077446948 
-0.02055319110512809 
-0.03434894948489725 
-0.0002261211309484169 
-0.341642630499406 
0.05191101239108586 
0.2240830916097137 
-0.03705167833616795 
-0.01720560531957553 
0.07165858393977896 
-0.001715323519265597 
0.1028389321131221 
-0.09180544550337087 
0.2404019882585871 
0.07809128128872797 
0.02590643349447366 
-0.001243267181730196 
0 
0 
-0.657783502142594 
-0.1103144411318192 
-0.2132425492195362 
-0.08021484087331199 
-0.1769598213267726 
0.2168330609276407 
-0.1930716094599234 
0 
0 
-0.01280298832072362 
-0.1220681022560074 
0 
-0.05700515447019096 
-0.08855578710566274 
0.1566051358407142 
-0.2021870001318683 
-0.02887982044803758 
0.1777525418552964 
-0.05945794746440233 
-0.1775323261741977 
-0.4532648846101923 
-0.2328905819859746 
-0.221288819139614 
-0.1042569372402501 
-0.3571726874852917 
0.4412313198787683 
-0.01280298832072362 
-0.07267845374329486 
-0.007792699669157604 
-0.06540356048545244 
0.0590032212755615 
-0.1042569372402501 
0.1184831034545089 
0.24922933732009 
-0.1777530749090768 
0 
-0.1781428097185235 
-0.1075008909244978 
-0.04263369528127675 
0.002830573546589118 
-0.0524155234478175 
0.295298302606902 
0.03567401118472019 
-0.2090879364087928 
-0.000373185359604733 
-0.2531386629585925 
-0.02115595516538584 
-0.1703229686985726 
0.02713524058937708 
-0.06535339585059634 
-0.2109322974217791 
-0.01895328861862135 
-0.01895328861862134 
-0.5037292097213232 
-0.04995706505415803 
-0.02857726979430039 
-0.08171038396375371 
-0.01280298832072362 
-0.01124240942298996 
-0.2144036333334565 
-0.11593660763254 
0.06135294696293062 
-0.1201892317425027 
-0.1924342534735985 
-0.2210422328277448 
-0.03058755047900409 
-0.008419391924258137 
0.05637130964398063 
-0.1364389439323304 
0.1006429649920438 
0 
-0.01571790925757747 
0.2892813000972712 
-0.01568764585176526 
-0.3037484797130222 
-0.3389047411398025 
0.3232461816409316 
-0.169243991665117 
-0.198724627196716 
-0.08719838519585026 
-0.1137610685298348 
0 
0 
-0.07092027714879405 
-0.07092027714879405 
-0.0200683048387984 
-0.08199454185545392 
-0.05703512831993863 
-0.01608382136537832 
-0.3067925617974508 
0.1639263876194966 
0.2815591151256366 
0.08940244083676799 
-0.1426173244365188 
-0.1570778459769447 
-0.227099256141733 
0.1050325090126479 
-0.2300391885402352 
-0.08031264332119398 
-0.1392792379428218 
0.058805879807574 
-0.3693787642135477 
-0.03483930359778668 
-0.03140376447172605 
-0.2686864581851668 
0.7046570457694565 
-0.01800093881788707 
-0.01567871481210756 
-0.1641272684111431 
0 
0 
0 
-0.1223744339971423 
-0.01305824555393193 
-0.2070651155214037 
0.09846696993259149 
-0.1355479728095709 
0 
-0.2378186721152702 
-0.1104868387128517 
0.007726501702783647 
-0.08964251109737369 
-0.1399936812418479 
0.2155839660382825 
-0.0254881946896946 
0.1915784626562109 
0.3815032868412584 
0.3385754146867728 
-0.2030375121223237 
0.1515706788537981 
-0.01049074165608426 
-0.01049074165608426 
0.3236505111368613 
-0.06513836098994888 
-0.0802464172801747 
-0.3878484860498557 
0.2120817829080222 
-0.2751251627857111 
0.03633751352025812 
-0.1295067975986842 
0.1709174754752163 
-0.2642777610356462 
-0.2144337773692465 
-0.08424802128276573 
0.2935999854333269 
0.002890456851376575 
-0.1038718265355011 
-0.2263218230300108 
0.01511093389597444 
0.3393781627488163 
0.1161728419659857 
0.5082841835760681 
-0.01492475588464835 
-0.04793589349327554 
-0.0214970614986864 
-0.05532447165795561 
-0.01049074165608426 
-0.03325050915469056 
0 
-0.08121522069937033 
-0.06177582155154914 
-0.03526972188804769 
-0.04159928157220041 
-0.2959163938570864 
-0.1946558627274837 
0.6200171308604805 
0.04899292306163505 
-0.738308899751992 
-0.04309857787355547 
-0.04692814599943686 
-0.009183912686454122 
0 
-0.1951792019954276 
0 
0 
0 
-0.04598544714822038 
0 
-0.1227766878002537 
-0.1042569372402501 
-0.01581896806348108 
-0.3889633453063596 
-0.1880041807146791 
0 
-0.06375949873597535 
-0.01095766953912571 
-0.004996900539814988 
-0.2684557423711573 
0.5657955515749465 
0.1748072116225246 
-0.181488573999311 
-0.007117783753578981 
0 
-0.03914047937322378 
-0.06470590966688458 
-0.2112235155120088 
0 
0 
0 
-0.08901619909255504 
-0.05700708152669684 
-0.0200683048387984 
-0.128035384521659 
-0.1012884703107177 
-0.02886649768457716 
-0.0183757560284929 
-0.01607832024729213 
-0.01607832024729213 
-0.1152959350044311 
-0.1152959350044311 
-0.03023356251593992 
-0.3880243597790302 
-0.09276862993119396 
-0.2224008880321588 
-0.04262341331639855 
-0.02887982044803758 
-0.02887982044803758 
-0.01565605080836368 
-0.1011254354840614 
-0.1779379691219488 
-0.3554418855108648 
0 
-0.0740868523707547 
-0.07255756833644836 
-0.04406264173646336 
-0.01356909695729595 
-0.1590763529225536 
-0.06931758477079845 
-0.06931758477079845 
-0.1074054667103299 
-0.03627158166408956 
-0.1262799908490229 
-0.005885436472531688 
-0.06759666757793437 
0 
0.07147034280067233 
-0.2745745015575635 
-0.02887982044803758 
-0.009055690783552372 
-0.09638692094853128 
-0.1162871767335736 
0.2929792786566791 
-0.2612815401939014 
-0.02148990293948797 
0.04811222740781332 
-0.2469477636602196 
-0.08666236971978701 
-0.5987226604970285 
-0.6798822954938136 
-0.0271169952725685 
0.2769413081762934 
-0.1089898581923481 
-0.6607751657947531 
-0.07928041849614965 
0 
-0.1543759899004811 
-0.07043401102977037 
-0.01520210436314921 
-0.02578549581415741 
-0.03584200516087282 
0 
-0.01130619350457547 
-0.001709449722306066 
-0.9755045475071451 
-0.02240085797000231 
-0.006030650624642265 
0 
0 
0 
-0.08041058220012705 
0 
-0.01011854671311396 
-0.01280585900403629 
-0.01698539206193608 
-0.01817312890093371 
8.673617379884035e-19 
-0.01820039984205339 
-0.006664118343838405 
0 
-0.01581896806348108 
-0.01308387552247903 
-0.2298080661847493 
-0.1879410761561184 
-0.06399142696347151 
-0.007946636877038464 
0 
0 
0 
0 
-0.06205658364209946 
-1.029992063861229e-18 
1.084202172485504e-18 
-0.1772977928305756 
0 
-0.02896537841447552 
0 
0 
0 
-0.01534796163590583 
0 
-3.469446951953614e-18 
-0.023181269823362 
-0.01049074165608426 
-0.01581896806348108 
0 
0.2110711118501455 
0.1625268861798608 
-0.08506708094633741 
0.5015034674723774 
0.1108790064663929 
0.0470721592803114 
-0.1351891138887567 
-0.02948329732261703 
-0.02948329732261703 
-0.4053571122037378 
-0.07538604671687713 
-0.1770396168018558 
-0.1150144209189684 
-0.2764155607677709 
0.1234647252360061 
-0.21770843095203 
-0.05827681924219321 
-0.2642322618299368 
-0.009946990068910639 
-0.2552219834983462 
-0.1150144209189684 
-0.0819374447461395 
0.2673684599408814 
0.02889097765159196 
-0.2263218230300108 
-0.0694409014810765 
0.285323866670033 
0.2259325671987649 
-0.05509870714326905 
2.168404344971009e-19 
1.734723475976807e-18 
0 
0 
-0.05526781309305271 
0.1744203413321912 
0 
0 
0.1081255126385519 
-0.07335757212185762 
0.1569210838533412 
-0.06778606996775025 
-0.03360834812842683 
0.09147494039058988 
0.1196361806653844 
-0.1107092395731365 
0 
0 
0.4237267242072298 
-0.1818973187852994 
-0.08697288031239944 
-1.029992063861229e-18 
-1.029992063861229e-18 
0 
-0.1094391495590491 
0 
-0.1127817165558339 
-0.1162330198628304 
-0.07952790216705748 
-0.2122045065174248 
0.1915524793941414 
0.4195614715974931 
-0.06667043692652175 
0.05975056060649933 
-0.1268054881267785 
-0.02361516969392673 
-0.03863809770956051 
-0.09251707500556346 
-0.2033832643171481 
-0.1150144209189684 
-0.08156895112700484 
-0.4064100124531098 
-0.3800022570948275 
-0.02812777679597309 
-0.02812777679597309 
-0.0840345441181244 
-0.01448654807553523 
-0.1988606404995506 
-0.2380328156513938 
-0.003339745489407667 
-0.2119423611656955 
-0.2437579130158878 
-0.1536344309839637 
-0.6386065699327192 
-0.1343479876893074 
-0.0647207356251117 
0 
-0.02967059485574948 
-0.03073297965561518 
-0.02145135687379914 
-0.2226381319249658 
-0.04944623829029723 
-0.08347557435675119 
-0.04771090187801502 
-0.04722494913869409 
0.5356470382019131 
-0.06875209802334589 
0.2758956357654506 
-0.03584489423878941 
0 
-0.005960768999310702 
-0.05686910430708995 
-0.2935475194598414 
-0.09685420223383336 
0.1083211315203572 
-0.02731722348173848 
-0.04927756419436727 
0.2262509221755978 
0.05333995321641847 
-0.08945290260844516 
-0.3560464551831522 
-0.1177170945053813 
0.1392216695999104 
0.088506598586514 
-0.2776256131551039 
-0.1800925479076286 
0.1003202616957851 
0.3332145291823837 
-0.1438580306044134 
-0.1438580306044134 
0.1937284591024091 
-0.05618055861597288 
-0.09549256490133365 
-0.2568691608874467 
0.0595066914873839 
-0.259094182105053 
-0.1266631839936423 
0.04612141961722185 
0.07609877333472807 
0.2661469978663753 
-0.05877078407434052 
-0.1788913088339196 
0.1274645184257518 
0.2443022385299881 
0.129238858013752 
0.03689021691682405 
0.09935980027012679 
-0.2902734520719359 
-0.1268368620637231 
-0.1150144209189684 
-0.08579865174130559 
0.1745783349198546 
-0.5633200821263289 
-0.01311468207638138 
0 
0 
-0.1302319930262785 
-0.007601052181574598 
0.02995809732582101 
-0.7480924872543304 
0.06259966288435687 
-0.2470967511369039 
-0.02925968232085792 
-0.2245354151005562 
-0.1520840137068087 
-0.05291015685677947 
-0.2379136666466129 
-0.4098013522019376 
-0.2317808688293024 
0.1310808459748674 
0.142017893761016 
8.673617379884035e-19 
-0.06431324194850117 
0 
0 
-0.02872907578109172 
1.734723475976807e-18 
-0.02332992890136327 
-0.158449897622286 
-0.07732909045124971 
0.1867697317001754 
0.0615284860796709 
-0.03917830871666811 
-0.09131152296257018 
-0.1290673446063029 
-0.1103228210610027 
0.08774342059850458 
0.1247656118811777 
-0.1242716207196601 
-0.1042569372402501 
-0.01793595361912858 
-0.2779151598149535 
0.01625092418692417 
-0.07720343762894985 
-0.1104868387128517 
0.07840871259743019 
-0.003339745489407667 
-0.2770274002680798 
-0.05107740198867114 
-0.04679714532663549 
-0.01049074165608426 
-0.1661138504787073 
-0.09030480080489835 
-0.5485248014579669 
0.3133377465258688 
-0.01581896806348108 
-0.02085870052816571 
-0.0103573468677119 
-8.673617379884035e-19 
0 
-0.03922032755467523 
-0.1827124148011756 
-1.029992063861229e-18 
-1.029992063861229e-18 
0.1260659983324177 
-0.21897382361869 
1.389520231835889 
0.06972052674543078 
0.2290424862472056 
0.07410425978457183 
0.01131999553682622 
0.5986470270487836 
0.770860899727839 
-0.3029732161067082 
0.08774999867072257 
-0.03158146736016099 
-0.3594791758310993 
-0.08307295398888659 
-0.01542249793694783 
0.06474896452583329 
0.4195349415582428 
0.01591717297579058 
0.02153224265216974 
0.1381902071510464 
0.2082720247138669 
0.2624179411332667 
-0.2911180250305783 
-0.1256861592521361 
0.1054047711710461 
-0.7507562070606053 
0.2785357177355384 
-0.02137753400280881 
0.521465730021146 
0.2433814488558878 
-0.1159423307477877 
0 
0.0477249794794482 
-0.2272241137926273 
-0.49032753433696 
-0.1289694059518374 
-0.3283971131190039 
-0.2164612452864053 
0.4019450296873702 
-0.09508853597494391 
-0.002813237501173366 
0.1445581883190311 
0.5307629780421044 
0.08017259733428019 
-0.05818340722220645 
-0.1314375819671781 
-0.178638084339803 
0.4066242127442714 
-0.0001430797933477261 
-0.01011854671311396 
-0.2056574116122221 
-0.169867567629767 
-0.1465225665829251 
0.2213344019781782 
0.7657325539259109 
0.2573003893428947 
-0.05166041681851385 
-0.2932187698258135 
-0.3068313326094647 
0.1616019131991585 
0.1801682759150194 
0.1385977918723904 
-0.1818700754435162 
-0.1115133993854312 
-0.008859243332975031 
0.01092044451690049 
8.673617379884035e-19 
0 
-0.1178729348925137 
-0.2448443268021846 
-0.2519328444192766 
-0.1765828587377292 
-0.03388696319864536 
-0.3240666704699826 
-0.07479517830512389 
-0.2326742857394916 
-0.316891047414503 
0 
0 
-0.2658488611448654 
-0.1656791412382991 
-0.1656589753508518 
-0.2826343316883156 
-0.06852577078944069 
-0.01643161487286122 
-0.2088547288427863 
0 
0 
-0.4244867186421365 
-0.01305824555393193 
-0.3040497987203662 
-0.2468884997454047 
0.01022884828425056 
-0.4901202721734795 
0.01947029918333153 
0.03978247183588288 
-0.2593338918986933 
-0.1055663222927218 
-0.1608442368179449 
-0.02887074533572804 
0 
-0.1130185804677597 
0.21988817374507 
0.2585893993775973 
0.1606157615673446 
0.01238989810154913 
0.3392815202647806 
-0.334154852480147 
-0.07389346420292237 
-0.2907527525458344 
-0.2990287770295406 
0.3407539631563942 
0.01518671126383172 
0.01900726964464136 
0.3631144789537017 
-0.002270997666483718 
-0.004604344145066966 
-0.147561674408516 
-0.08767469762968146 
-0.1049003163504576 
-0.114534656268745 
0 
-0.633327913621306 
0.1406200543926025 
0.1746356016790626 
-0.2237738656078668 
0.1681019040813016 
-0.2758015705716716 
1.084202172485504e-18 
-0.1060291940450606 
-0.002039038543449266 
-0.002605013908961416 
-0.9766776150058563 
-0.3256657937292471 
0 
-0.009003692960920559 
-8.673617379884035e-19 
-0.1104868387128517 
-0.3051253573667516 
-0.24794224351875 
-0.718413691358136 
-0.05463582539976267 
-0.0968017135516773 
0.1372329773440375 
-0.2183732057058994 
-0.2034524943977098 
-0.3554223099906218 
-0.09546959731911803 
-0.03136068622382234 
-0.04198896443771335 
-0.1107245414869807 
-0.4449481668199007 
-0.4449481668199007 
0.06830833183143389 
0.1544981423607726 
0.1395539147006503 
-0.1659038678526712 
-0.2884541501847916 
-0.02948329732261703 
-0.002227653560037397 
-0.1280755823990433 
-0.03097897382148868 
0.6266932333429148 
0.2159292843178681 
0.2759134852601623 
0.2574888997862678 
-0.1418255606898002 
0.4140779255449469 
-0.2444840004732472 
0.6259406886679317 
-0.3202970085261953 
-0.1042569372402501 
0.4589747789390852 
-0.08790485002717528 
-0.3508943784888431 
-0.2568787111592906 
-0.1065040365976336 
0.09724828972953349 
-0.3919489836438333 
-0.247137438259714 
-0.2262776085028941 
-0.4184203726050595 
0.2617634693380286 
-0.5247310358666487 
0.0400440365877081 
-0.106055386687011 
0.4305340985567689 
-0.1444358208794599 
-0.1813207561947287 
-0.1008883586719754 
0 
-0.04171438221262152 
-0.02887982044803758 
0.5395492738785383 
0.6034858304023901 
-0.253834658898044 
0.01095047303066906 
-0.04036608631605554 
0.08497799078838716 
-0.06651818390518638 
-0.1231649347596196 
-0.06330372353404917 
-0.01854079353747543 
-0.3812391541871206 
0.06679584327601606 
-0.1877105070710016 
0.2244486170428063 
-0.1475566476351534 
0.08983908726872099 
0.293212780188619 
-0.4674501743115734 
-0.326333211366272 
0.2045032382762473 
-0.1743091804967339 
-0.0391199139608976 
-0.01773124410304832 
-0.1098180632450181 
-0.06050962531194969 
-0.2201376017154255 
-0.3344226705418998 
-0.2094992583268948 
-0.01346922994738098 
0.129292743716879 
0.1269854352909548 
0.01764087268634734 
-0.0179639602577518 
-0.5630431591192274 
-0.07683521803518222 
-0.07092027714879405 
-0.1702896588777584 
0.2416094927352811 
0.06005544123628571 
0.02552189023438362 
0.1483191022083631 
-0.1144299590917667 
-0.08165256752637259 
-0.04438825836206448 
-0.3158411635856707 
-0.01978819980786524 
-0.01978819980786524 
-0.1273752530990372 
-0.1012999618525876 
-0.07288221372469882 
-0.01363063358455315 
-0.1490753150294486 
-0.1013024446318363 
-0.07423311380120948 
-0.1830161624408979 
0.5366600311980473 
-0.1997021215225687 
-0.04955049951452797 
-0.4697482531581928 
-0.2357415706746389 
-0.04207499204214425 
0.2047775396420879 
-0.252225681018564 
-0.4032785022596444 
-0.3932397099465197 
0.2383469582895568 
0.2620594457198285 
0.1111039285326262 
-0.1822907344024915 
-0.07335757212185762 
-0.07335757212185762 
-0.06646339460327143 
-0.3400927000583646 
-0.1764333752659583 
-0.2217907875603252 
-1.734723475976807e-18 
-0.1833223931571988 
0.229129752946251 
-0.005881424795391502 
-0.04831716279792596 
-0.08439012584830545 
-0.08439012584830545 
-0.203305442248083 
-0.007654449519023204 
-0.06744250484396434 
0 
-1.029992063861229e-18 
-0.07255756833644836 
-1.734723475976807e-18 
-0.03570125396676693 
0 
-0.1697436519882115 
0 
-0.2629334993509634 
-0.005184041761421718 
-0.01171571449464456 
-1.029992063861229e-18 
-0.004249492737042972 
0 
-0.1104868387128517 
-0.1821552053603435 
-0.2308564840264022 
-0.4436015282301126 
0.06399954117265688 
-0.2391358248511559 
0.2251626587823378 
-0.001619459012252172 
-0.08051778544574435 
-0.0816344725447913 
0.3067530893840544 
-0.09399113086408342 
0.4304956289459788 
0.03070884728687619 
0.5507765494186807 
0.08954037669004361 
-0.08959761579361028 
0.2806864741327096 
0.0579394871297451 
0.2305408006174891 
0.1295278459524702 
0.008061568131560972 
0.3028271009721926 
-0.225429180684141 
-0.007397243252564408 
-0.1167824343786665 
0.01080910922130084 
-0.1283095897892271 
0.1465132961564148 
-0.4809772652083021 
0.2026826025291039 
0.08336067408880675 
-0.153011669619101 
-0.02667865161984287 
0.1772223931980159 
0.1289356746438386 
-0.005399632837863586 
-0.2682376719917351 
-0.1215828855177605 
-0.08424207033313438 
0.2169034969811795 
0.04315672678540933 
0.1048098946660787 
-0.4431040904760338 
0.09044010412355281 
-0.0005217226265012351 
0.5671368368832481 
0.2069511570066934 
-0.1464160547463458 
0.2366110825451805 
-0.1408155026929231 
-0.3408175199464422 
-0.06667043692652175 
-0.0560122137055119 
-0.2370044898993769 
-0.06044326747592749 
0.3991420547555213 
0.09647569175584092 
0.1863703780697817 
-0.2848720823530811 
-0.05516070585413473 
0.2414712652431507 
-0.130869595939373 
-0.0632170178916662 
0.04868537018487856 
-0.002183992137983878 
-0.1242785769113666 
0.1459962055860723 
0.4408013509069093 
-0.1827541713693453 
0.0335086273324886 
0.3442622521228387 
0.1291688353107889 
0.04539323454313098 
0.09610998751401813 
0.2355075392924429 
-0.6151127847148473 
-0.1150144209189684 
-0.07825233179654348 
-0.120884041396776 
-0.03616846252437407 
-0.2689490306534695 
-0.07335757212185762 
0.1087729108642736 
-0.06396491275464126 
0.004251911248867634 
-0.1126387512807028 
0.3367968451935963 
0.1264196011570447 
-0.04709475413625896 
0.1697004952447457 
0.3696519004543089 
-0.228150409614777 
-0.06192406685233372 
-0.3914719731911307 
0.2036370051026 
0.257006451799599 
0.2680582782030761 
0.358238669871748 
0.184506586248119 
-0.1424749793237466 
0.1610730739722671 
0.7712399969843474 
0.05053407566447091 
0.4263330015553741 
-0.1346904237857532 
-0.1898530557755869 
-0.03581929655997472 
-0.01323481873312632 
0.6642594551368703 
-0.3414462108296542 
-0.2377477541107288 
0.04296378290695397 
-0.2231435003820378 
0.119331253658307 
-0.0584275140346102 
-0.3176501689574364 
0.1352015654638132 
-0.1793885442849541 
0.2748212216007477 
0.008261934331151501 
0.1097712036130112 
0.6032445327279001 
0.08352013208016444 
-0.3159461737060452 
0.05101051534347477 
0.2281695026762509 
0.1834393584167808 
-0.4428380481314535 
2.168404344971009e-19 
-0.05157754374828953 
-0.1918270208089502 
-0.2569098820100973 
-0.6504032015679784 
0 
-0.1700259485693047 
-0.408842905592348 
0.4078899981826806 
0.1086239011192847 
0.09254925808637017 
-0.1053433315399035 
-0.08570207807417894 
-0.01134482340541887 
0.07782645685051919 
0.02586724014613798 
0.1404271560362206 
-0.0803790712504326 
0.0903850430657627 
-0.02939412585965664 
0 
-0.01439559943532938 
-0.05107010996564002 
0 
0 
-0.3983601516264165 
-0.01862530904213385 
-0.01349028078040491 
0.09221486742329585 
0.1775781838486401 
-0.1046712364135158 
0.3828122920982486 
-0.0005442541483426896 
-0.00141017739523713 
-0.03689061344566577 
-0.06046682225881393 
-0.05746809315267729 
0 
-0.1223199236768191 
-0.02887982044803758 
-0.02887982044803758 
0.1607477392085702 
0.2203488259160865 
-0.05625186828496038 
0.1858467582660157 
-0.2298382281142845 
-0.007023298914834213 
0.2748500744004434 
0.04594114660998732 
-0.1167039527461837 
-0.4488720199775597 
2.804403978327237e-05 
0.6052694816033971 
-0.007772466083277299 
0.3056623117401368 
-0.06205658364209946 
-0.06768245652825203 
-0.3401428060738595 
-1.734723475976807e-18 
-0.2054757275300644 
-0.1045849946417554 
0 
-0.1861067890987592 
0.4075829785460658 
-0.130401808870369 
-0.03639554111606486 
-0.1478789312575593 
0.3464509233814353 
-0.05872251248326175 
-0.37835308482166 
-0.03306140366406094 
0.03039861293794724 
-0.3793687364959398 
-0.1055765402406394 
-0.1346728108868663 
-0.2128230854922368 
-0.1773717644831608 
0 
0.2309482717547857 
0.2418317852242829 
0.226506869406682 
0.1516633392326779 
0.05156903187199401 
-0.06818108071644277 
-0.02661748631787153 
-0.3136022663127119 
-0.3522190515263333 
0.002502765944877123 
-0.1104868387128517 
0.01584500374942599 
0.2118481119436143 
-0.1266787849426182 
-0.01571790925757747 
0.05734733089562347 
-0.0687825056341005 
0.01815562353852265 
0.196823244488171 
-0.1948555734384873 
-0.4656701728015007 
0.07481168383580176 
-0.001218932349777757 
-0.02740237238188059 
0.03631620564632036 
-0.2977497047531315 
-0.09439124055798619 
0.07550095376307037 
0.2608595403852034 
-0.04289064710695201 
-0.1853930937160591 
0.1874726659056059 
1.734723475976807e-18 
-0.2669942958625157 
-0.2004204616414617 
-0.05189520271129939 
0.2666532158810263 
0.2481497971241643 
-0.07088729004826309 
-0.007299990784452977 
-0.1257090448142285 
-0.09795515771523305 
0 
0 
-0.05583677533841611 
-0.05583677533841611 
0.1147590835442293 
0.2539702066837829 
0 
-0.006462625473496202 
-0.2826021930179829 
-0.2800742839415599 
0.1060253570174564 
-0.1846954512372672 
0.3465478818100499 
0.1086759311538152 
-0.4429084555558521 
-0.08753956929827193 
-0.1268939385689455 
-0.3329527599786233 
-0.291066990639248 
-0.05287597807753977 
-0.1278968604611076 
-0.4294641047230521 
-0.142822784255214 
-0.1073433832706042 
-0.311388482774123 
-0.1455137504087089 
0 
-0.02907886427902227 
-0.1949928083114272 
-0.0784544036678109 
-0.2864830872054933 
0.6466804715137775 
0.2206476575630273 
0.2588220013759319 
0.243294029335914 
0.3638304626655304 
0.4812541331255369 
-0.1312504004097002 
0.5369131227890703 
0.2283098325231543 
-0.05740285450838756 
0.3877482104603751 
0.1039677735845996 
-0.04816665149867139 
-0.1816525528595406 
-0.02895503338736685 
-0.2797396651295448 
-0.1362623359564805 
0.1185264133378102 
-0.04906402347574609 
0.09305109530051041 
0.1689352557886638 
0.1845272562883286 
-0.1088420328308124 
-0.09296028130372656 
-0.09588558801145988 
-0.272112442867169 
-0.2924930059707524 
-0.04608093111463065 
0 
0 
-0.05677940122245193 
0 
-0.06931758477079845 
-0.01049074165608426 
0 
-0.1386445402331301 
-0.1287222810608919 
0.007163263057045987 
0.04224289025339146 
-0.2300035623908097 
-0.09807554001371273 
0.05074905360076917 
-0.1794115581140801 
0.1010589723580557 
0.1864406443983031 
0.007428407257519329 
-0.1296203036612085 
0.05254298192393168 
0.1262745044820021 
-0.2076752766271928 
0.1565236523396248 
0.06248912226335871 
0.3860855710429303 
-0.07225716013587206 
0.157146424880583 
0.4418611892309356 
0.1155122690737915 
-0.1769156421254104 
0.04271578705466521 
-4.336808689942018e-19 
-0.008077131457898767 
0.1251824244834613 
0.4822474777998512 
0.6567750221794311 
-0.3689723004774974 
0.4802402024602321 
-0.01080462194006301 
0.3378110914808181 
0.2863946365909451 
0.2129093030058127 
-0.2040905659879586 
-0.04826881112831222 
-0.09120137254828872 
0.1117537995515672 
-0.02777492622381455 
-0.1088370694441892 
-0.04630521316698123 
-0.1609997563795922 
-0.2575121412817689 
0.03979420271531901 
0.1706353737634632 
-0.04012292370263508 
-0.3520616437510452 
-0.2112946942532876 
1.243233174870245 
-0.2394147102456725 
0.1921261426210877 
0.2636154931749359 
-0.07330789475873209 
-0.210648255798803 
0.3654220429226962 
-0.05765686872830705 
-0.000373185359604733 
0.02484944836920893 
-0.06733689769354843 
0.2906262157219404 
0.6108594942126547 
0.2604400419639765 
-0.089022950226551 
-0.09823652733821747 
-0.04567329405998682 
-0.05025926043638426 
0.05937532773095942 
0.2633489433473925 
-0.005421505597333138 
0.2855017913388318 
-0.08520647764021147 
-0.09194430165624055 
0.443176748961374 
-0.02333229005649933 
-0.09064595922244782 
0.2909978347243022 
-0.04866057192785753 
-0.1604773496318828 
0.2398323504906867 
0.1994248212520214 
0.1233840721403346 
0.04953800122497687 
-0.02988670845173689 
1.068385982217603 
-0.03846907517156518 
-0.2243103481853582 
-0.2091378301564779 
0.2853162126978601 
0.2385611294929032 
-0.1535117254202513 
-0.1538988326467559 
-0.1601463459524652 
0.1377157775015185 
-0.2426187715106655 
0.1104834246696228 
0.2240945203149501 
0.155821324756189 
0.1715101096758948 
-0.02716211883550845 
0.0653538902611687 
0.2201353477133137 
0.3474160661601734 
-0.1672990642603336 
-0.4921181631101312 
-0.7123977215273816 
-0.05965755961299124 
-0.0003593592695459346 
-0.05450414220465803 
-0.06213039012057003 
0.024846064756151 
0.1022373387772657 
-0.1577260947535228 
0.04656349072950699 
0.1790589018362205 
-0.09897196435434452 
0.3676180551685712 
-0.05968749662366969 
-0.006454276440552015 
-0.2718385149063532 
-0.059346306647831 
-0.04624834894144603 
-0.2903378764796592 
-0.2010339591878893 
-0.04480954747845651 
0.3123207752740092 
0.2684696710453853 
-0.2520842610137413 
-0.04643193796509863 
-0.02026846467117685 
-0.1185010121540883 
0.3417507016776965 
-0.05644289194624438 
-0.06405388808826605 
0.06370910693347828 
0.2903671086159582 
0.07457355838082635 
-0.3809371795617291 
0.0427920585891394 
0.5682043316921193 
0.2736456120618482 
0.587610497864293 
0.1971600091831656 
-0.8563860640279871 
-0.0843182833713102 
-0.08187954809310286 
-0.2060884058400969 
-0.0648206172606119 
0.09205601623948256 
0.2529973197518107 
0.0818481191193124 
-0.08748225309542293 
-0.0290339838871109 
0.3193220510477937 
0.5087520439753872 
0.01753482996206985 
0.04685236728545684 
0.2781644865448225 
0.1554400574437523 
0.03850601694554425 
0.1649321261105439 
0.2337159975156809 
0.6559323325701897 
0.6807929943528096 
0.1595436992905414 
0.3724438365700482 
0.08072980848835197 
-0.1042569372402501 
-0.04940707092130246 
-0.03049048560187521 
-0.5843578119083166 
-0.1498668911706726 
-0.13097643263771 
-0.3152280115429228 
-0.06294629709015238 
-0.007656533542903612 
-0.31832533318044 
-0.03737726962054305 
-0.03192660856016463 
-0.02694270347919366 
-0.1014866764319643 
-0.2414811603774163 
-0.2465104862899345 
-0.0678050912789229 
-0.0678050912789229 
-0.381446169825789 
-0.101075160712954 
-0.02851523407106933 
-0.1948210227440623 
-0.02216815855474596 
-0.08722429133775135 
-0.05865196358232277 
-0.004996900539814988 
-0.1075688045681176 
-0.1007513124831545 
-0.08526848265830379 
-0.06713801120451901 
-0.1718650112188485 
-0.07307598828218485 
-0.06465104483122451 
-0.1289958437017006 
-0.1739812216353488 
0.1188468464786628 
-0.09126206228815255 
0.4025312499058735 
-0.1239358807596615 
0.7016342855369538 
-0.1769123867385963 
-0.043447234575719 
-0.07940807772273903 
-0.06378882323620229 
-0.02887982044803758 
-0.02887982044803758 
-0.7895028622479998 
0.2591493134294886 
-0.2865232663155637 
-0.1058159648614821 
0.0553958933206308 
-1.029992063861229e-18 
-1.029992063861229e-18 
0.3509345460055731 
-0.02793874940400693 
-0.4384824412126719 
-0.01881330323585917 
-0.02793874940400693 
0 
0 
0 
0 
0.02909540377741692 
-0.1843808906212761 
-0.07002982295954539 
-0.02887982044803758 
-0.2456481209825067 
-0.1229343515462209 
1.951563910473908e-18 
-0.01507393580109689 
1.734723475976807e-18 
-0.03922032755467523 
-0.3692189702998899 
0 
-0.2537303531131354 
-0.01482527484132029 
-0.03084316636904892 
-0.03145872518095856 
-0.04442216141685187 
-0.2973489163107125 
-0.01862530904213385 
-0.1640230875994121 
-0.2930622715718489 
-0.209647749367329 
0.01005328961712767 
0.01953257471090891 
-0.09374354861039805 
-0.1084258423132584 
-0.229201798355238 
0.01481547237567822 
0.1316025118374477 
0.2223297260507434 
0.2858607892545172 
0.181708681846664 
-0.1345611738387635 
0.5822348725946209 
0.1589237604172624 
0.2543543120191222 
0.2545535417596352 
0.0408671565251535 
0.3601225566143738 
0.1315136435586505 
-0.006602416253467108 
-0.07335757212185762 
-0.01788499150022871 
0.3737396262117672 
-0.02912648840535847 
-0.328586023796763 
-0.3052082004348949 
-0.3604248025449611 
-0.4947553214390657 
-0.09537335595069478 
0.1593725551271153 
0.1557410315939359 
-0.0649078087663004 
0.1124775074417938 
0.1735192100663806 
-0.1852593412215505 
-0.3442777417002272 
-0.1535490449383387 
0.03540665219711863 
0.1000398133205462 
-0.1648139703646231 
0.1572769641823571 
-0.2751119843368046 
-0.3686231210311431 
-0.2426195950631611 
-0.1232334372695306 
-0.1638204176253758 
0.1934474208976251 
0.07293269590353012 
-0.07335757212185762 
0.1609715735816001 
0.131408253176317 
0.09634119842346076 
-0.05988769452243021 
-0.3665020696268915 
0.1986627965936143 
-0.05290464073966739 
0.2717484417414247 
-0.3205063367382705 
0.2404777563631146 
0.09072235158543537 
-0.1822635779020531 
-0.1105735515179554 
-0.08008922649079828 
0.200697750041753 
-0.02338097553675742 
0.1244124960237853 
-0.05514681901243349 
-0.6424643564761198 
-0.3605824399722351 
0.1713425122708615 
-0.2275572108063914 
0.02609393720355952 
0.09731765425995904 
0.2626124937533126 
-0.3752912307335184 
0.1595273533226874 
-0.2071465267370108 
-0.1777203257352834 
0.04229997144195186 
-0.1861411223732171 
-0.9142327058103125 
-0.1902603959843287 
-0.05084178724769137 
-0.05843276750927667 
-0.1184977926438339 
0.1332458986370146 
-0.1343801444664933 
0.3798615845538404 
0.5021297910531762 
0.0318293937970819 
-0.2432720076534902 
0.6094942524929872 
0.07021215832224255 
-0.2851782273198645 
0.3694119156426889 
0.08597178405414967 
0.04888125418783106 
0.6616852832021579 
0.0225392875042048 
0.2172147476246659 
0.1202598026618368 
-0.3100964241338094 
0.05889715480086215 
-0.3337591086531608 
0.1872931656089352 
-0.757794992530492 
0.1789190471687289 
-0.02575824756985355 
-0.08718599842503283 
-0.1770036336633986 
-0.4055254555527937 
-0.02601690803812893 
-0.004690760687897966 
-0.456699852810577 
0.006000883743021776 
0.03831961085474189 
0.06340161329961871 
-0.06019711860658018 
0.1099879104994279 
-0.1044042117568432 
0.06398483672895833 
-0.2389244544538475 
-0.2754042229551837 
-0.04282905100304257 
0.0692479681332934 
-0.1501804452855529 
-0.26650982605911 
-0.1361434150697946 
-0.2686151639072073 
0.1591806137837755 
-0.4344774463883763 
-0.1504797108856327 
-0.05616308696012695 
-0.203370663276654 
0.09603533819094309 
0.06419689546416836 
0.06932946805397426 
-0.4925344395699884 
0.2079399279252869 
-0.07340456756875154 
-0.05311407764315308 
-0.4174231623783966 
0.03800011636263839 
0.00923905896282679 
-0.2401287019016284 
-0.3053338222861842 
-0.2082702945643772 
0.44931462815597 
-0.2735224609538511 
0.2925317401055501 
0.4010685537106444 
-0.1277464173338121 
-0.1042569372402501 
0.221203377887541 
0.1251566854716455 
-0.02693974862730358 
0.3518262233332355 
0.08874800422626605 
-0.008322089489136647 
-0.009055690783552372 
-0.02693974862730358 
0.4880950348098937 
0.1561731196852749 
-0.03749048863144484 
-0.2481086534963408 
-0.2125125002206638 
-0.213508816027586 
-0.4695832391176253 
0.06935553938702528 
-0.4048427677232411 
0.1586192779276386 
0.3725795016312412 
0.1604429806599543 
-0.04984899224614992 
0.03536164309630148 
0.08367233154615489 
0.7154689487186798 
-0.05880887199793586 
0.1567920158315355 
-0.4134533362381437 
-0.01801232190658738 
0.0378783129090708 
0.4647627981145649 
-0.404192722458343 
0 
-0.1000160204874719 
-0.1317778785679707 
-0.1522749497694613 
0.6769454629737145 
0.1958071215344537 
0.09010923748182405 
0.1468124577577254 
0.6738973953399348 
-0.1301788016306484 
-0.02921362238791763 
0.1788158561494307 
-0.03719130349901675 
0.3964209576995926 
-0.06698874075136313 
0.1919022735536308 
0.4943350513352315 
0.3536704971283277 
-0.2845160178185411 
-0.08958997195001944 
0.08325855890358148 
0.122562455399455 
0.1178726714763512 
-0.2809275295503486 
-0.1830053200107813 
-0.05341088347609294 
-0.1217609195934295 
-4.939208295990069e-05 
0.3829719684441167 
0.439566123897819 
-0.0643221716304202 
0.03692565479895138 
0.08749147925564417 
0.2102672859640009 
-0.3010933973922379 
-0.005595816678009874 
0.1452443646692083 
-0.1378162855893314 
0.20176862831202 
0.5321745451836656 
-0.05477400522127883 
0.1581388904551983 
0.9456159838132011 
-0.05907895226241945 
-0.3531860001796696 
-0.0003731853596047343 
0.9616979116067235 
0.357940189754504 
0.2986774346656982 
-0.1515136140368231 
0.3562089205975724 
0.2689171750187552 
0.02526552344534765 
-0.1662345340130722 
-0.1575052128176768 
0.09583967387220922 
-0.5225488005520879 
-0.04513463645678162 
0.2975600863851339 
-0.3803790684671482 
0.3527528772428448 
0.276253867570479 
0.005099414570004801 
0.05575626027758242 
-0.08446578630240419 
-0.2553872449874573 
0.1639007347030411 
0.08627750939242673 
-0.3781520240715746 
0.3067207618106126 
-0.05957011757806372 
-0.02276092783502373 
0.07443314119211057 
-0.09454485692203381 
-0.09295073468476529 
0.1059405497908757 
0.08251741096788553 
-0.0792690716097019 
-0.06367791838802667 
0.137246631789093 
-0.01084236548173661 
-0.0745434147414101 
