solver_type L2R_L2LOSS_SVC_DUAL
nr_class 5
label self-disclosure report cyberbullying accusation denial
nr_feature 4524
bias -1
w
0.08557818014835779 -0.05539355860208343 0 -0.01403683992363971 -0.01620557479907953 
0.2794003763913561 -0.1277590398824315 -0.01078211067818005 -0.2104443100588465 -0.01889416840653862 
0.170847553532137 0.0001160987550507167 -0.01329426544070877 -0.1884465554088502 -0.04721525850111637 
0.2494137636698584 0.0337320759080363 -0.06492380482690768 -0.2868001619494773 -0.2734247082151425 
-0.02758006401958938 -0.05355553774885582 -0.0737637604155193 0.02833671301804472 -0.07943947581943299 
-0.1894683169736657 0.146732136859979 -0.03581602241536822 0.1357795747411948 -0.06754288518715859 
0.4430107767602697 -0.1801212336396587 -0.03927966661609031 -0.1862469984338463 -0.2347839788813182 
0.4505382720285954 -0.577416826850595 -0.08000564901809014 0.1169255903969614 -0.110892441155833 
-0.01272895781433318 0.07567760175043717 -0.008862746302735749 -0.01048463199445384 -0.06797443017012639 
-0.1457111366931192 0.1158566931821543 -0.01709465410879828 0.1228400961734604 -0.1294824862393906 
0.183409474746813 -0.4599513672550286 -0.1301201903187086 0.201296783318237 -0.2050565013363869 
0.2039624404431349 -0.02018365142988182 -0.3942761083980903 -0.3553879314006121 -0.5847220329681234 
-0.2412745812021806 0.03962822775085015 -0.02860249391720642 0.2272522736479709 -0.04481564787750351 
0.1280176464017534 -0.4882291079208591 -0.07603711989791291 -0.07734842233636834 -0.0159770832958572 
0.1128602030975421 -0.3480369457892451 -0.5513179009170023 -0.1876284175215462 -0.3759616290186302 
-0.08419379183426884 -0.1671924083202873 0 0.3453906552794145 -0.03937876992201925 
-0.0202691764120823 -0.3154053165439363 -0.005444709757641414 0.2690041416416449 0.01927481450669383 
0.04532077128011277 0.1165738492838981 0.2863785955619542 -0.2685906090644007 -0.04515619526399173 
0.02255960094476111 -0.0476633391565904 -0.04519297251719608 0.05947603311279505 -0.04190254326473297 
-0.08502857209273028 0.05322355492903051 -0.4496445180857866 -0.07963191165108539 -0.4339202586769581 
-0.001832695873395385 -0.108620907007542 -0.01588452549437603 0.07020047545740481 0 
-0.3548836056353402 0.1621220622122119 -0.02020521223845555 0.04606416632636144 0.07144589071280356 
-0.2961010286241736 0.4905423608974827 -0.3706444838213906 -0.6132289132987138 0.01204076490418707 
0.2473951243951031 0.09186828876069211 -0.008264221828019249 -0.1539773160978678 -0.1822823826362396 
0.2053570594237729 -0.1135131967115927 -0.009045295716057779 -0.004004394838620588 -0.08880272425709108 
0.1204750400493879 0 0 -0.1013562588440907 -0.004518954270350171 
-0.3374670381258077 -0.3414630876066885 0.08573575680751364 -0.2190895833639263 0.6007456761971168 
0.1171731524066328 -0.08692404178499975 -0.242548475273149 -0.246895605276383 -0.05850337177210434 
0.07035583228028079 0.0876416462663543 -0.06775301723626526 -0.08426782303304095 -0.08678261004767066 
0.3339047656305354 -0.06156287878475995 -0.1468675278403045 -0.2628630242838779 -0.2265587618392372 
-0.1905491946748867 0 0 -0.02758268903877604 0.2068490552853655 
0.02467220787317103 0.09576963757601623 -0.0273304286434031 -0.09327831010587719 -0.08829408567961639 
0.08525915629564532 -0.02395947659959529 -1.219727444046192e-19 -0.01753322023296398 -0.07622974432623601 
-0.05266952360890967 0.1115523853263743 -2.710505431213761e-20 -0.0577208575961226 -0.05429316570139938 
0.1441892124024644 -0.1235953286990933 -0.03735070263450866 -0.0242882033793038 -0.05438489175065348 
0.2167342233529621 -0.1555743126808961 0 0 -0.04715132606314505 
-0.06590704830949895 0.06976778101824511 -0.03197972466877858 -0.01358062789349096 -0.01759911757552279 
-0.1385052053901783 -0.2316928679430478 0.2223574812556403 0.2190111917095416 -0.09098471167774902 
-0.01249447581609312 0.01603234170427105 -0.0006125962156563188 0 -0.01142166969072085 
0 0 0 0 0 
0 0 0 0 0 
0 0 0 0 0 
-0.1213031661352565 0.1129285801436781 0 0 0 
0.374417100685687 -0.2681226308239137 -0.1565547530407329 -0.2246512640710753 -0.2637274913556954 
0.1555536342370193 -0.04502443327817961 -0.006131858231005447 -0.06259209191742146 -0.003481145959904739 
-0.03780882136847474 0.02795388606855154 0 0 0 
0 0 0 0 0 
0.0955256470034805 0.08090992463807904 -0.01255830573299629 -0.09621393842087547 -0.0722550269635089 
0 0 0 0 0 
-0.1178338056649315 0.1563050753106251 0 -0.01658306077871485 -0.03640972035522914 
0.1818931887919628 0.03148057194220162 -0.0182048291211077 -0.1316444075163528 -0.08149051851573154 
-0.1417428670468624 -0.2058438492707133 -0.09083696300311245 0.5010367406886288 -0.2530160531829715 
0.1548311800186919 -0.1690310478620781 0 0 -0.005164753766949867 
-0.1201562338555619 -0.03761478236158795 -0.07831196373753238 -0.07022857003752572 0.03618199218732989 
-0.01875573629280654 0.07812079601100085 -0.04444909449182712 -0.06921133908962722 -0.03195476395534165 
0.01523545877313776 0.03391610812498697 -0.004234428616451169 -0.03108761623859586 -0.006633630811789058 
0.07538592673062308 -0.09109879214922419 0 0 0 
0.04416536769489517 0.1985240521021515 -0.0158955414519494 -0.1630706613546386 -0.09690195794382063 
-0.1343934224597211 -0.05547780561055351 -0.03612112376424182 0.1576913384178254 -0.005087209213351182 
0.01685114779719239 -0.1096668555284189 -0.01215193332736133 -0.04063235353588551 0.1428587721603394 
-0.6535416937429458 0.5500680041938996 -0.5370623792305231 -0.425035462797003 -0.4795867878045418 
0 0 0 0 0 
0 0 0 0 0 
0.06421600893747537 -0.01646880304181606 0 0 -0.04925394379170242 
0 0 0 0 0 
0 0 0 0 0 
0.1585758385168792 0.1660895043160172 -0.02252973954828247 -0.1746689889558675 -0.1549521082495448 
0 0 0 0 0 
-0.08553456045444494 -0.01658154512315356 -0.01724603698167511 0.1224197599949007 -0.006842917339590024 
-0.09994909562924947 -0.01372557606150234 -0.003506847072114782 -0.0003154380494696418 0.02149990673311794 
0.3447350192709881 -0.2435915210163774 -0.1561024161339154 -0.2691738961177067 -0.2814397486529686 
0 0 0 0 0 
-0.350982698556267 0.2944006235118287 -0.05076034565387302 0.08705429227616004 -0.06577808028346542 
0.2134409256913688 -0.004974659817722486 -0.04398714696424448 -0.2088940077343676 -0.01518335116462414 
0.002569814556482138 0.04188116352628 0 0 -0.009247991550506107 
-0.006759234348001758 -0.05204050810995337 -0.109007271739719 -0.05970627075575285 0.02727058637786524 
0.3761115605120465 -0.2384747403758151 -0.01121333227605471 -0.03432853548421768 -0.06104239441920811 
0.0234143342581653 -0.07104790612020845 -0.0149323719345727 0.1780933153769372 -0.03126912564631368 
0.04613164697241098 -0.001978165486077696 -0.03227183204546894 0.05663610968307701 -0.07901271932776838 
0.120500344889863 -0.07398719103575162 0 -0.05311238917506741 0 
-0.3602175627767339 0.2788790605264077 -0.07545838163208479 -0.01828203979137719 0 
-0.3837908488796145 0.1391095317815076 -0.07212348098641962 0.2780593545323834 0.07213982015102431 
0.07027709664234494 -0.08876690889249771 -0.02373054726052677 0 -0.007014071466070979 
0.0414370206446082 0.03140128022329897 -0.009552551760996413 -0.02511854068104553 -0.01111823924865803 
0 0 0 0 0 
0 0 0 0 0 
0.04054403938527291 -0.05755484277285096 -0.01683695085394908 0 -0.01514500019951652 
0 0 0 0 0 
-0.07863834572747071 -0.01139577549612547 -0.02731514874054446 -0.08676374862502989 0.08724068819440635 
0 0 0 0 0 
-0.02891983692850921 -1.084202172485504e-19 -8.673617379884035e-18 -0.03468699133252728 -0.01417014052161285 
0 0 0 0 0 
0.008590139902457652 0.09151840878700088 -0.004490275372678175 -0.07007000856097761 -0.01435957391602617 
-0.0818991527372307 -0.1083740273787005 0 0 0.2088643465457437 
-0.0818991527372307 -0.1083740273787005 0 0 0.2088643465457437 
0 0 0 0 0 
0 0 0 0 0 
0 0 0 0 0 
-0.07914721208778462 0.002184333552117077 -0.02076632494996779 0.1204856651325199 -0.03442135401318328 
0 0 0 0 0 
0 0 0 0 0 
0 0 0 0 0 
0 0 0 0 0 
0 0 0 0 0 
-0.151185348446509 0.1848875367209544 -0.0295399248404128 -0.09056235915163989 -0.003038093714366448 
-0.2684571561902046 0.1967123511707555 0.2297882644164248 -0.1227630761455268 -0.057317561770526 
-0.1632242912254414 0.178384546007465 -0.01736565772736554 0 -0.01634770839455867 
-0.6004412585176359 0.1949926435184569 -0.07632339783565752 -0.1569472234338513 0.3530734883113327 
0 0 0 0 0 
0.2353338151357089 0.0742827377235826 -0.0833203444045944 -0.2105786329694987 -0.1271737327474168 
0 0 0 0 0 
0 0 0 0 0 
-0.03655247147965236 -0.1042511869343832 -0.02738613630652648 0.1257314753684841 -0.01497432707656359 
-0.05070726820171009 0.06709130953810064 0 2.168404344971009e-19 0 
-0.2001391718825741 0 0 0 0.09877180604686366 
0 0 0 0 0 
-0.1019149600096057 0.0606048407969187 0 0 0 
0 0 0 0 0 
0 0 0 0 0 
0.1025138957773992 -0.07371051082910772 -0.04936851897182221 -0.05324255823117273 -0.03755747444702117 
-0.06398536370828174 0.05872373975650459 -0.00994956363345747 0 0 
0.1858421708466927 0.007549383358959436 0 -0.1293117009044394 -0.03243194533061876 
0 0 0 0 0 
0 0 0 0 0 
-0.05663291834744501 0.1001454109340046 -0.02702403640483449 -0.03775782883270787 -0.0364379475863322 
0.05784149702899698 -0.0705871903595954 0 0.06530415272639681 -0.04311211101542105 
0 0 0 0 0 
-0.1205701326665515 0 -0.0009546751727440079 -0.02996180849191528 0.1292655651535952 
0.1607235822424226 -0.04399256365943156 -0.002625488217142859 -0.03923572525506008 -0.09802404374895543 
-0.2799996113349549 0.7740000075738933 -0.1813830191076027 -0.46796396652818 -0.2754642681899978 
0.3096920353649009 -0.1408313659036801 0 -0.1163487578740722 -0.04219660797139873 
-0.08035992447765018 0.09058363521318565 -0.0882007713370046 -0.05727221263363729 -0.02590449027947746 
0.03860169772409195 0.01590761466506194 -0.0154977654645753 -0.01766594694412031 -0.07170604139202565 
-0.1515997869232735 -0.06095408233022267 0.1474374455200013 0.1552865194193838 -0.03948079512465822 
0.1074627437288336 -0.3566795763600342 -0.08346694416267839 0.1801960904149446 -0.1466814087156911 
0.3566802305471028 -0.1367054135857905 -0.1427181009529379 -0.227670608337325 -0.3376443847645281 
0.06982061327736729 -0.04940391720830603 -0.02101577838379555 -0.01042060086255945 -0.07636739952710991 
0.2839895299080216 -0.2146036277615732 0 0 -0.03902489563160173 
0 0 0 0 0 
0 0 0 0 0 
0.01121988063266133 0.05626819918423961 -0.006675806386220879 -0.04097191636486798 -0.04287818782590656 
0.3825343737830862 -0.1864705660935635 -0.02408259226941145 -0.08530222354117162 -0.127840171781384 
0.1814014604021585 -0.01260627454708047 0 -0.09961978419894546 -0.01870906767451488 
0 0 0 0 0 
0 0 0 0 0 
-0.1061542360417146 0.2248597109634985 0 -0.1551284263667426 -0.04055834532514253 
-0.3416099488003537 0.08531711227926846 -0.04105496088532384 0.3248195767415908 -0.1664043456410388 
0.09052934863996343 -0.07586179954393013 0 -0.0009321663012876883 -0.06581799062425185 
-0.2295330230869967 0.03139804053922723 -0.001100962892115964 0.03328296638661081 0.1709073819976299 
-0.2760107956210107 0.1728450266259206 0.3274877745511776 -0.2005769196967609 -0.07659386915748068 
-0.0694698690511138 4.336808689942018e-19 -0.002625488217142859 0.125633132287272 -0.06994363879139973 
0 0 0 0 0 
0.03891205791447527 -0.02913264023375666 0 0 -0.0152900839800515 
0 0 0 0 0 
0 0 0 0 0 
0 0 0 0 0 
0.1031831708180379 -0.1661144189323598 0 0 0 
-0.2367705935782201 -0.04893017732113338 -0.04457275510089735 0.08995302790987442 0.09471085439501112 
-0.06184310020545194 0.1656460765076357 -0.0368560928668613 -0.1807129007503651 -0.04204078948103009 
-0.1455146189357662 0.0262646582207206 -0.01572486404066552 0.1186867174145131 -0.01111706024398028 
0 0 0 0 0 
0 0 0 0 0 
-0.03409012297711946 0.09127766398000267 -0.06334390354798913 -0.09075981450194311 -0.05323053428572749 
0 0 0 0 0 
0.06968042463560534 0.1073170195366162 -0.05293893126277779 -0.209798573319817 -0.06820615656046221 
0 0 0 0 0 
-0.03409012297711946 0.03843580300490966 -0.02602126480040718 -0.04355225104870825 -0.0365709028493419 
0 0 0 0 0 
0 0 0 0 0 
0 0 0 0 0 
0 0 0 0 0 
0 0 0 0 0 
0 0 0 0 0 
0 0 0 0 0 
0 0 0 0 0 
-0.03409012297711946 0.03843580300490966 -0.02602126480040718 -0.04355225104870825 -0.0365709028493419 
-0.3663195566442899 0.2958168182667495 -0.004443745723265484 -0.08258182636913868 0.1343863775119633 
0.5851614974560192 -0.3248574050077914 -0.02525192570896121 -0.3417786196359208 -0.3667478934131788 
0.01655787475085892 -0.07233244622511611 -0.01990425171814856 0.03522799720767888 1.734723475976807e-18 
0 0 0 0 0 
-0.2035573467718233 0.106310992592306 0 -0.03204430591394908 0.1201066083856829 
0.2357066363112687 -0.1151207878577223 -0.01105452112447007 -0.05877739728116441 -0.05827295830759779 
0.1768998262741505 -0.1781329326846604 0 0 -0.005784878815673442 
0.1509540417321325 0.04696866082116136 -0.05006698589242582 -0.1921733661387677 -0.1418116389955845 
0 0 0 0 0 
0.1344154133220073 0.1690020130883653 -0.05875420870245229 -0.2469082633926257 -0.2602617513903742 
0.1084819048092657 0.01220997345301337 -0.004461472776406797 -0.03515091045718913 -0.07277892116865245 
0.1007510024011744 0.003714507917834368 -0.004276445778508826 -0.08564117555167197 -0.01638751547944702 
-0.2888782706800249 0.2874549321775807 -0.003999664955285384 -0.01936400962268436 -3.747280091367564e-05 
1.214914694563878 -0.7974991435343102 -0.08785565638043109 -0.6438688630243043 -0.1874573769815221 
0.09141258089791102 -0.312633095297881 -0.01040194760502999 0.1729332276275433 -0.02436251310254886 
0.02345972082063132 -0.08439760850050489 0 0.1022810600889648 -0.05232849281097054 
0 0 0 0 0 
0 0 0 0 0 
0.1030379149195197 -0.1634017618972733 -0.003336701105990766 0.1866180025460181 -0.07922124664651196 
-0.01511319204904592 0.05032282714250028 -0.0006066548408844098 0.02546575868528872 -0.05256833240461283 
0.1327356715253295 -0.1877622496981062 -0.03020822769941792 0.2031575357210814 -0.06435343769232314 
-0.07839036485865537 -0.06209143068323997 -0.0006066548408844081 0.1334698657439793 -0.01670268582601537 
0.07921653952835976 0.01816446071235929 -0.07737688757069557 -0.1944276316525363 -0.04710181424138559 
-0.2513675307413097 0.3872017295387419 -0.01800218808955786 -0.1429301722363527 0.07203024182171786 
0.1245104647916341 -0.0621258995150179 0 0 -0.03588127121531471 
0 0 0 0 0 
0.04228168364050889 0.5037699039820577 -0.2292327858275981 -0.3658577523847912 -0.4549090601157271 
0.424427528941908 -0.0325957134389044 -0.04226363132320388 -0.1905124640727236 -0.1404376237030483 
0.07193347129115675 -0.170187591957282 0 -0.003058697054129534 0.1331195948756496 
-0.01100145522088253 -0.273161655437779 -0.07888513793956357 -0.1293670065383005 0.2464135989523304 
0 0 0 0 0 
0.1485088824874113 -0.02179892525901415 0 -0.07799703663934653 -0.03825543656790587 
0 0 0 0 0 
0 0 0 0 0 
0.4492861369377087 -0.04143112475616436 -0.07266661013859663 -0.3082608313059225 -0.0926037252675728 
0 0 0 0 0 
-0.1819008265913746 0.2118594618640722 -0.004081733036186262 0.1316211569018526 -0.06377252542305398 
-0.04769492595814752 0.03892360099506546 -0.01985788265428038 0 0 
0 0 0 0 0 
-0.2186502830795917 -0.02366021573049949 0 0.2097640320195609 0.1141600774346071 
0 0 0 0 0 
0 0 0 0 0 
0 0 0 0 0 
0 0 0 0 0 
0 0 0 0 0 
-0.1087322373532249 0.1563966406763165 -0.01644568894286343 -0.1042645304380742 -0.01680827395435398 
0 0 0 0 0 
0 0 0 0 0 
-0.009006876052828912 0.1285334136004863 -0.008089033318101986 0 -0.0536088220580045 
0.0984098362360119 0.02122557387776062 -0.1972194021542262 0.05560135380204771 -0.4544881656092208 
0 0 0 0 0 
0 0 0 0 0 
0 0 0 0 0 
0.2075738292756949 0.1124970644525625 -0.3314813164322059 -0.5843995289297856 -0.6516682506106131 
0.02417450711182123 -0.1212316056528266 0 0.2390243905922172 -0.05024463105735839 
0.03304822428706563 -0.06851293284927777 -0.01030603582410551 -0.02630232243656826 0.1234564823390529 
-0.02224487219890866 0.1149237058691127 -0.01046130330044676 0.04062391895126578 0.03966067848498615 
-0.07300651873546836 0.1512359274009634 0 -0.07348803284519204 0 
0 0 0 0 0 
-0.03645233726223658 -0.041860069771096 -0.04985659934796645 0 -0.04944901829266501 
-0.1854309332478078 0.1795296000924507 -0.04420337245235635 0.09348119865284872 -0.1143876887782482 
-0.08540682431823893 -0.08839850506071605 0 0.2248681366120641 -0.05168694835417929 
0.0210550061601571 0.02762034133074238 4.336808689942018e-19 0 -0.0107971514166905 
-0.1008840554420386 0 0 0.1416697506294806 -0.01212863707983983 
-0.10596640127354 0.1516052232061785 0 -0.007196571204260404 -0.009446601776393209 
0 0 0 0 0 
0.04580380904950254 -0.03602862128150468 0 2.168404344971009e-19 -0.01796698867296711 
-0.005083393250251081 0.05756896689337331 -0.01382010566179994 -0.03872582736729153 -0.009913411798634152 
0 0 0 0 0 
0.04146904078896514 -0.06112188450607398 0 0 0 
0.4859128156078422 -0.4352979997767542 -0.01515095509820661 0.2821957472872947 -0.2782458186751795 
-0.3305277282875052 0.02809003551122026 -0.0006048164506107338 0.445516450923243 0.03737523499285519 
0 0 0 0 0 
0.1424633506791256 -0.1233087426177046 0 0 -0.01945492984171997 
-0.1027229769536198 -0.05979493651910496 -0.03160958862302787 -0.04371698979827413 0.1679743808095601 
-0.01541128808363674 -0.008809534050058687 0 0 -0.02715754975410658 
-0.523070248039442 0.4885338066010846 -0.0389095330639451 -0.1193061204730773 0.2060558272813894 
0.1993223492393232 -0.1842347764782457 0 -0.008365589698875625 -0.03605371808494222 
0 0 0 0 0 
0.04790299179025195 -0.04039958740967672 0 0 -0.002354077580984974 
0.1340923023830664 0.0818414968606108 0 -0.08163583909253491 -0.05593655087842413 
0 0 0 0 0 
-0.1912533926875288 0.06328437613311155 0 0.1454504267473743 -0.001489612757185677 
-0.105533303425884 -0.1187386810180155 -0.001188666208462526 0.2306454807255182 -0.009593391880156794 
-0.245305188903649 0.06569029650290323 -0.03345474077714394 0.08240783941447796 0.1099544100538745 
0.1450349717468287 -0.1042075680857265 0 0 -0.07050175686117378 
0.05546921648859138 0.09199049294022364 -0.008462237379670176 -0.04369909271066699 -0.0537321232472306 
0.4439944657582769 -0.07290730744967833 -0.03398528153113752 -0.2740655038551768 -0.09987527333387894 
-0.5631206002862246 0.5124525010781342 -0.04742224327778413 0.1726966637724284 0.04868721791659612 
0.1968291243073446 -0.003861102036132081 -0.003336701105990766 -0.1187988790992627 0 
0.06183190759958967 -0.05308977699661859 -0.0101352136111112 -0.01936400962268436 -0.02383003975206959 
0 0 0 0 0 
-0.05318880573568455 -0.06070869601753751 0 0.1247212575210871 -0.05381461110861295 
0.01708925773433989 0.1491360344634618 -0.001403159050953997 -0.210482858351818 -0.05125722540544343 
-0.296474569171945 0.130191454445798 0 -0.02912781171743455 0.1903728357301697 
0.06921577383596458 -0.01594261503622078 -0.006131858231005447 -0.05019702487239065 -0.0233080194833382 
-0.1014201339160809 0.1268656862323171 -0.04932932639751431 -0.0637974555710094 -0.01937179993534919 
0 0 0 0 0 
0 0 0 0 0 
-0.0512202938844822 0.1279049016362151 -0.04711349500476619 -0.05833297434439939 -0.09280316673923333 
-0.1449876138475467 1.897353801849633e-18 -1.355252715606881e-20 -0.006193436996266004 0.2283905866731757 
-0.04078593328939509 -0.07703554098430906 -0.0170723841579169 0.0689216846255829 -0.01210984596452615 
0 0 0 0 0 
0 0 0 0 0 
0.02316825081487948 0 0 8.673617379884035e-19 -0.04997847785824133 
0.08397951831199116 -0.07009156484050258 -0.01225882378161853 0 -0.04922941026430698 
0 0 0 0 0 
0.08397951831199116 -0.07009156484050258 -0.01225882378161853 0 -0.04922941026430698 
0 0 0 0 0 
0 0 0 0 0 
0 0 0 0 0 
0 0 0 0 0 
0.02926712350133004 -0.0354177522511197 -0.01985788265428038 0.1708554611021788 -0.1319028417375809 
-0.2604324595641864 -0.03554182910046442 -0.001016963752291546 -0.01920698383447931 0.3246422660213957 
0.1485287857500581 -0.03202643674508716 -0.007284413731999317 -0.1176136217083194 -0.02354946192564443 
0 0 0 0 0 
0.1152688124089564 0.03312622404382091 -0.02356949141898205 0.07382532469680592 -0.2840710235537364 
0.1399428050918935 -0.1582201484775446 0 0.08498612565752148 -0.01733640526723465 
0.2289719953554707 -0.2171012490900802 -0.06410672436014801 -0.07716138053835798 -0.1686226250464901 
0 0 0 0 0 
0 0 0 0 0 
-0.128444143536235 -0.004193380666664026 -0.001534365952014575 -0.03650458610411968 0.09977016239419505 
-0.1454064988165225 0.2011997001776695 0 -0.01452547247331508 -0.01710593635887021 
0 0 0 0 0 
0 0 0 0 0 
0 0 0 0 0 
0 0 0 0 0 
0 0 0 0 0 
-0.079396643715464 0.07205612257723154 -0.007763869129373859 -0.008987139770361665 0 
0 0 0 0 0 
0.07258798151862571 -0.04202885884415953 -0.003942458829343335 0 -0.0422975164017925 
0 0 0 0 0 
0.3199158579167352 -0.2370787417529294 0 -0.01067221131301902 -0.0276621257802693 
0 0 0 0 0 
0 0 0 0 0 
0 0 0 0 0 
0 0 0 0 0 
0 0 0 0 0 
0 0 0 0 0 
0 0 0 0 0 
0 0 0 0 0 
0 0 0 0 0 
0.0003307868821233363 0 -0.00773249323703703 -0.005567597620455596 -0.08611958262253055 
0.3657247986078654 -0.5401796696029768 -0.04676020998498192 -0.03768050671272025 -0.3282164946392362 
-0.2701675443291795 -0.2019468408660656 -0.1043885703832305 0.7713514613675573 -0.2751020303805161 
0 0 0 0 0 
0.1375555586305022 0 0 -0.1433863545044915 -0.01530544810360077 
0.04611521625063258 -0.07664082607160749 -0.003080801610175087 0 0 
0.06962737594862259 -0.08071639562611144 0 0 0 
0 0 0 0 0 
-0.08958858890234728 0 -0.007377700365964595 0.06248646934367375 -0.02463669632537147 
-0.3162214241160914 -0.02611414900594863 0.1670561699769842 0.1525982247171778 -0.04502403741208081 
-0.132769993576583 -0.09572763626616466 -0.02128069657721456 0.1860809760256847 0 
-0.2318055046676817 0.2124365272159308 -0.05043118716219342 -0.1839039472492968 0.09959161589033505 
0.2699518016351838 -0.08860387056085343 -0.001833533476553236 -0.2327519786169096 0.002686117221125955 
0.2108327657434019 -0.08247362404513044 0.08944161017676866 -0.01405592425775934 -0.2174830527857317 
0 0 0 0 0 
-0.2373415853611515 0.161670492939392 -0.07556064694140931 -0.2465400942241159 0.1547463493138909 
0.005322074153275075 0.1871365114595993 0 -0.04061236244660762 -0.02445430098859695 
-0.1362805915192785 -0.2460973443415624 -0.02323761621648429 0.3485583653263104 3.469446951953614e-18 
0 0 0 0 -0.003319884544551162 
0 0 0 0 0 
0.03860169772409195 0.01590761466506194 -0.0154977654645753 -0.01766594694412031 -0.07170604139202565 
0.03860169772409195 0.01590761466506194 -0.0154977654645753 -0.01766594694412031 -0.07170604139202565 
0 0 0 0 0 
-0.169834498479503 0.3087447429039184 -0.1705018591663322 0.02516628093769327 -0.3562240600873111 
0.03918262237233656 -0.1336774861946762 -0.003923829043883021 0.1616227314170677 -0.04719266322349347 
-0.04078593328939509 -0.07703554098430906 -0.0170723841579169 0.0689216846255829 -0.01210984596452615 
0 0 0 0 0 
0 0 0 0 0 
0 0 0 0 0 
0.1115404106757498 -0.0501496798580301 0 0 -0.03134854662345561 
0 0 0 0 0 
-0.07491579657239129 0.3891046585266515 -0.004081733036186262 -0.17663090315331 -0.07202616946973421 
-0.09738904447463304 0.07625697581524808 -0.01316546419562673 0.1307875990013556 -0.07936680126993681 
-0.1337213898246888 0.09434768700942286 -0.04681075918165569 0 0 
0 0 0 0 0 
0 0 0 0 0 
-0.3856308089315495 0.05589135170430975 -0.01801021853594385 0.096649734771486 -0.03406511339265109 
-0.2030501296970429 0.2270740669086333 -0.09094473141502318 0.006145249160939902 -0.2249800982036231 
-0.0008436694890443437 0.1083620815450546 -0.01526240354754126 -0.08613482321793225 -0.0187092652747504 
0 0 0 0 0 
0 0 0 0 0 
0 0 0 0 0 
0 0 0 0 0 
0 0 0 0 0 
0.07380021832689576 -0.05862185416880582 0 0 -0.00652332627930151 
0.0763627230927421 -0.06981711292854703 0 0 0 
0.181832286327844 -0.005144505800280369 -0.01064626898683632 -0.08588483744679823 -0.02923650620310554 
0.1462618743005722 -0.00786886952424107 -0.02130935937508268 -0.1041704882019701 -0.01246365034957979 
-0.3394258147457104 0.175082770347911 -0.2754271378960244 0.006204687086993481 -0.3274615647339887 
-0.02163189622508389 0.07924035041482404 0 -0.06107269762715102 -0.04405203280003848 
-0.227767076903648 0.3282799912650229 0 -0.01648305448558075 -2.168404344971009e-19 
0 0 0 0 0 
-0.06184310020545194 0.1656460765076357 -0.0368560928668613 -0.1807129007503651 -0.04204078948103009 
0 0 0 0 0 
-0.04429842851200025 -0.09632082929874755 -0.02619690166796749 0.3401061690286768 -0.03869428273720819 
-0.02140503425991268 -0.1324177580935852 -0.00743839995086539 0.1646335740414234 -0.003454759670419195 
-0.002081081826847106 -0.04519169527196651 -0.05392465193206258 0.08906564744765826 -0.04130116428938261 
0.3667270306516031 -0.3326658377226228 0 0 -0.05131314102289115 
-0.1565962749825014 0.01810758753227297 0 -0.02496518650574232 0.1850457097559316 
0 0 0 0 0 
0.104919183725766 -0.217634000410604 0.06183830712080624 -0.01098673254263713 -0.09757211257059943 
-0.1154950723127062 0.01398598668094847 -0.002612590495569559 -0.07577073221241723 0.1290125622474853 
-0.1817991970887026 0.17556428630973 -0.0235682982497082 -0.01852473660491766 -0.04386668672361628 
0.306212343567857 -0.2183473800617312 0 0 -0.01757874210413997 
-0.1192479669905261 0.002283838243582796 -0.0684999009098566 -0.07333485198987706 0.09601060003318612 
-0.1317340039507026 0.1093910621242389 0 0.06736601890955049 -0.003753808056681869 
0 0 0 0 0 
0 0 0 0 0 
0 0 0 0 0 
-0.02739028628112749 0.02883221410474027 0 0 0 
0 0 0 0 0 
0.06900657790982803 -0.1113749630997426 -0.1008690297427199 -0.06099144582408789 0.06083950704789672 
0 0 0 0 0 
0 0 0 0 0 
-0.001491409898732091 0.04104515254735617 0 0.0710770816180107 -0.02321901146582221 
0 0 0 0 0 
0 0 0 0 0 
-0.2922248065116494 -0.06459440915293699 -0.0325413722855912 0.4814294706252612 -0.1391433142236106 
0.0993393130498355 0.1009362403568914 -0.09973245941611776 -0.291713889501289 -0.1174971282982571 
0 0 0 0 0 
-0.007067691261827756 0.1416248180802645 -0.1127751701863062 -0.2919840101166564 -0.01299848444279228 
0.03389172233100438 0.1890937588133514 -0.003680345000424235 -0.2209908158523903 -0.01450950532162647 
0 0 0 0 0 
-0.07557383925608985 -0.1628355225255258 -0.06071580159627966 -0.0549190531716096 0.1836927537211932 
-0.01593683972310928 -0.1090965965500282 0 0.1246074886556832 -0.006842917339590024 
0 0 0 0 0 
-0.09058625866639332 -0.06905447714754948 0 0.04726612418452472 0.1520808040419273 
0.01115466582737367 -0.07598523347413803 0 0.1989170358750271 -0.001207295152225559 
-0.2367514863001701 0.5780841919650324 -0.08658318364229017 -0.2074352033692892 -0.1906839585452479 
0.2074649407618868 0.01053925380813081 -0.1012291270861973 -0.1892661729954905 -0.2288276928875558 
0.07998053676756715 -0.06016943579012019 -0.0239777540938827 -0.08067478410804216 -0.0195191001999438 
-0.04644239099103695 0.09284120866241059 -0.01220330769136426 -0.0132849283277462 -0.02450793855698039 
-0.07601615629326496 0.1014730072833677 0 -0.01936400962268436 0 
-0.08889736696418184 0.1250569203636624 0.1497402946824999 -0.04559451175389745 -0.2858178047079654 
0 0 0 0 0 
0 0 0 0 0 
0 0 0 0 0 
0 0 0 0 0 
-0.182705874797905 0.1941755203836381 -0.01835100004927086 0.09088758676426729 -0.06043203933053522 
0 0 0 0 0 
0 0 0 0 0 
0 0 0 0 0 
0.002732298171965403 0.02129289215217831 -0.01526240354754126 -0.01568463325207163 -0.003601057358852341 
-0.2378956373027939 0.071022092758461 -0.02718964544259043 0.1053718277314301 -0.02465948522964132 
0.01447304970054282 0.04123772686187838 -0.01643925331475338 -1.734723475976807e-18 -0.02508423510181463 
-0.2470353868553594 0.2543948461014573 -0.01679302678474567 0.06789284375918034 -0.07104126356124803 
0 0 -0.01125910138467815 0 -0.01165074573521114 
-0.01577361586663257 -0.1338664191723132 -0.2987780260144982 -0.06834633303205825 -0.05214911148985649 
-0.07288221051040639 0.0390020466574621 -0.006531006402542302 -0.3298988927984252 0.5151937666103911 
-0.1813013898598037 0.1743877703458215 0 0.0506299494004609 -0.0179594121609882 
0.135640499903391 -0.0688033752751368 -0.02951282888973064 -0.1596081406180043 -0.01048008237396987 
0 0 0 0 0 
0 0 0 0 0 
0 0 0 0 0 
0 0 0 0 0 
0.2239568671761877 -0.1132571999272247 -0.0009270129914824913 -0.02816594118039204 -0.0770409441180767 
0.2835323087632156 -0.07274617934833687 -0.008660537621583001 -0.1826624505580624 -0.01173093628448147 
0.6308812308626935 -0.2909783656630128 -0.06463326418976707 -0.09094599739267854 -0.2484286544841845 
-0.5827064089988049 0.01418237470990532 -0.0335471151182954 0.6920870530308892 -0.07070031491971704 
0.265757369017268 -0.3240977055330097 -0.09980512704614043 -0.2708815303195438 -0.1563802829657133 
-0.09215339927578287 0.0003127873297316598 -0.0201893018295591 0 -0.042399681604732 
0.1191522432903821 -0.1963053076428827 -0.01250885811415573 0.2032679699379415 -0.08144735576751362 
-0.2587905798475553 0.4136017421439304 -0.08747313521531282 -0.05621531037267179 -0.1007173875939607 
-0.2515046375513214 0.2581587991197788 -0.06505715711411497 -6.505213034913027e-19 -0.04341001423732376 
0.04348264468383458 -0.00232223108643779 -0.04721497488918171 -0.1339043438822949 0.02312785636092372 
0.1860867977703475 -0.06541595441180992 -0.02950345349936799 -0.1483373692258186 0.05631705752542777 
0.3866149933750169 -0.1878702376394197 -0.02740081009688758 -0.1544871214970615 -0.03220463996823085 
0.319228710013082 -0.214402807166762 -0.01632084565217263 -1.734723475976807e-18 -0.08718385132969542 
0 0 0 0 0 
0 0 0 0 0 
-0.1766507937098076 0.2541717146256184 0 -0.04960779423095878 -0.02051432312528585 
0.07868173681171697 0.09625244629247345 -0.2573204867456041 -0.2776585795075294 -0.3790564066539953 
-0.2058877473020064 0.2200031519986486 -0.09807646565704674 0.03983349614932993 -0.02936885128938056 
0.527417050590669 -0.5062315009257174 0.05773909488885359 -0.1287691012427309 -0.1225001535619292 
-0.04177021286492408 0.002922032137511203 -0.03460291760031563 -0.0372517875444614 -0.04829584113657329 
0.04270466161741533 0.2827552254536051 1.734723475976807e-18 -0.1755200653214864 -0.125616886118582 
0.3228785522154131 -0.06262323696209293 1.734723475976807e-18 -0.1678635124462024 -0.05138022515365979 
0.2271960938525707 -0.15514734785931 0 0 -0.04246134276333466 
0.270772402849734 -0.08589878046813393 -0.4430592187057658 -0.3599130133955438 -0.5589773487609476 
0.3296978182240701 -0.3864143834200913 -0.01402908491058374 0.2133962297851089 -0.09827086278684301 
0.3297667898781473 -0.0857372845864009 -0.1966858378519645 -0.4796144004767891 -0.2838820973100738 
0.2859356703458044 -0.1149418536910581 -0.03155247552197137 -0.06319702367042331 -0.06461597648023638 
0.1256891919075504 0.02519493945792486 0 -0.05159204310383485 -0.02796306590262813 
0 0 0 0 0 
0.183555047605643 0.07355491508539923 -0.04107276054296916 -0.1490952380707443 -0.1621392038880906 
-0.04541176596154486 0.06581424919762352 0 0 -0.02315705762204393 
0 0 0 0 0 
0 0 0 0 0 
0 0 0 0 0 
0.1417071049715757 -0.09682066601358784 -0.02776257083341755 -0.1053016455530649 -0.08518672175840489 
-0.04741029782148819 0.07490929931576071 0 -0.02527611946940257 0 
-0.1323887330233895 0.1284829483908765 -0.02150404066793453 0 -0.03489501827944506 
-0.05757428510535553 0.1910713022061451 -0.03223625530614087 -0.1770733413573208 0.1019905303796679 
0.03347710519556358 0.0750562154824003 -0.007099986321584244 -0.0714113680546055 -0.01186054702706798 
-0.2454606586511616 0.1192161282248674 -0.02999717150496509 0.1956085063276235 -0.04000850337420356 
0.2119949601657365 -0.1815453249068846 -0.0009270129914824913 0.06782148535265466 -0.06206605950157543 
-0.194657115575175 0.2096958333765594 -0.0461414377580826 -0.2761686387617043 0.0009491074950589326 
-0.139423402453633 0.09521919567892782 0 0.07504887908449334 -0.03402243821396159 
-0.3228252129313377 0.02896403177213395 -0.0203030482269741 0.05483382921871294 0.2628327338535908 
0.1594435927000726 0.02449095834583204 -0.03203771219020338 -0.05138598779741577 -0.09142356224657192 
0 0 0 0 0 
-0.1100764724181292 0.1083661748607548 -0.01864625946009793 -0.03488171473295071 -0.01145908152382199 
-0.07435542946098973 0.1571809884353096 -0.05741157833841939 -0.09312788176266316 -0.009818757228239315 
0 0 0 0 0 
-0.4187983716580131 0.4501208007965486 -0.3154420093072889 -0.2784259739185097 -0.2930061536931619 
-0.01029702193353368 0.1520027179836574 -0.05711647708928481 -0.1955769773067756 -0.02694162455931109 
-0.2598930593457083 0.2195032035262893 -0.01526240354754126 0 -0.01703597260112215 
0.1904365694192025 -0.2790757060259301 -0.0922706843458565 0.2227562150544332 -0.187049955012208 
-0.1656523275542428 0.1226931046520251 -0.01282235876175419 -0.001484805444827709 -0.04044464476456015 
-0.1345315887845556 -0.02991085686586215 0 -0.07748132483522253 0.1459478219782825 
-0.2973727652841486 0.2713037555295509 -0.06773103020989765 -0.1131512086674609 0.04963365495130291 
-0.3581900560956258 0.2772389670022541 -0.06773103020989765 -0.0810901204286707 0.04963365495130292 
-0.03409012297711946 0.03843580300490966 -0.02602126480040718 -0.04355225104870825 -0.0365709028493419 
0.1547364235943041 -0.07010498524029764 -0.01683695085394908 -0.01873027811801142 -0.009006403553962351 
-0.1866699033010298 0.02242616817358454 -0.0443374572943173 0.1891792779367202 -0.1228082640492793 
0 0 0 0 0 
-0.170482003769307 0.05031953347248898 -0.02092638198209934 0.1224197599949007 -0.01552181642706826 
0.02495206512112642 -0.2891734082407844 -0.04064407392647066 0.2105328534238989 -0.1460229628120499 
-0.178113955871152 0.008336577893650826 -0.1201679228795473 0.09619345337718649 -0.06314916980394585 
-0.04155475449819992 0.02987763886155625 0 0 0 
-0.7642486420660232 0.3923051184408278 -0.03047005064843964 -0.06266296724018799 -0.1810517938021181 
0.09371883253660472 -0.3171439210326911 0.1485476458363511 -0.04817329998441931 -8.673617379884035e-19 
-0.04551953935631521 0.02787777745111478 -0.02927866309107251 0 0 
-0.02997752919493631 0.0694992960109176 -0.1197198321690567 -0.07363960256496807 -0.02206656499908485 
0.03439217654218265 -0.05274186530749313 0 0 0 
-0.1693409427719273 -0.00443908427905312 0.03550743873187943 0 -0.01325163563042618 
0.176249396914754 -0.1336265879389232 -0.03254314652639125 -0.1086610886860102 -0.04163979101176017 
-0.1438162994801948 -0.07756266283288267 0 0 0.2367258971283898 
0 0 0 0 0 
-0.06488011068170597 0.05791329632018544 0 0 0 
0 0 0 0 0 
0 0 0 0 0 
0 0 0 0 0 
0 0 0 0 0 
0 0 0 0 0 
0.2879148923198963 -0.2030332877163226 -0.009215828193975231 -0.0531836412829479 -0.0003065973445771826 
0.2242461409006457 -0.1706092248578474 -0.04295937614276465 -0.09459998252772728 -0.1149259217444146 
0.3580914729837342 -0.04292728775633239 0 -0.1055614204867613 -0.02906981275406183 
0 0 0 0 0 
0 0 0 0 0 
0.2849446997643204 -0.1843145043059475 -0.007406369155880772 -0.05750530561066682 -0.002070728488331135 
0.0352095699249029 -0.1116062197782285 -0.002659088074043951 0.1421535123480903 -0.09663000386440374 
0.1679590366239823 -0.1401831296810052 -0.02451764756323707 0 -0.09845882052861396 
-0.1714606236559237 0.1895347176859775 0.1859701411573532 -0.1925097127409015 -0.1139059888702903 
0.09351589069413892 0 -0.02297289151222217 -0.09654857186311476 -0.07383036536726291 
0.07783822351252614 0.08227407919259568 -0.1250650545789249 -0.2947025883694431 -0.1166168570417868 
0.02082436554209562 -0.1046669593917923 -0.0004845327504673203 0.09816865102073968 -0.0413138564685176 
-0.3211838202505086 0.2143570790044972 -0.01045136832199671 -0.1175004911163712 0.0666310111025287 
0 0 0 0 0 
0 0 0 0 0 
0 0 0 0 0 
0 0 0 0 0 
-0.0270282090733804 0.06582623875815442 0 -0.03370965762779351 0 
0 0 0 0 0 
0 0 0 0 0 
0 0 0 0 0 
-0.1366967801686281 0.1232673476528403 -0.02472805465535112 -0.1564341790620683 0.04582576907668291 
0.006928837289713065 -0.2076042754819414 0 0.320145772165287 -0.1474022300653542 
0 0 0 0 0 
0.01876176063752249 0 0 0 -0.05930258397674756 
-0.3073926230525555 0.2361222389916475 -0.2030857938523802 -0.429069710880688 -0.006075730005240147 
-0.2784953305884267 0.2230517772179943 -0.01255282551453362 -0.002260482893318832 0 
0 0 0 0 0 
0 0 0 0 0 
0.03887253127043184 0.01118222766042939 -0.02010463520435345 -0.06586551107670584 -0.01542310525284994 
0 0 0 0 0 
0.06784605312696158 0 -0.01450292070428003 -0.06745549419492551 -0.04547014348154063 
-0.117310071866851 0.1532455183333751 0 0 0 
-0.117310071866851 0.1532455183333751 0 0 0 
0 0 0 0 0 
0.2286580203770233 -0.2030975387019641 -0.008871508897026634 -0.03013371513520972 -0.01469763325749522 
0 0 0 0 0 
0 0 0 0 0 
0.1447266326512593 -0.00048009003256434 -1.137641635078569 -1.629842617663622 -1.816166777944443 
-0.166745250152785 0.3525466828128523 -0.06193613434346545 -0.2413202417019731 -0.1727824609871793 
-0.1529543953963872 -0.03789087002031648 -0.03945594940791101 0.170189448269048 -0.00888642253468484 
0.1896469322412222 0.04133990651104807 0 -0.06694301199113355 -0.01948154398859018 
0.1898926998225293 -0.2364618887383131 -0.02703018740385554 -0.1606963473992647 0.2229835271636893 
-0.09552597774097105 -0.1301894440803063 -0.03611952095215442 0.292506468648798 -0.0233650087318365 
0.1313674302490223 -0.1184734778949656 -0.03096119689721214 -0.03943909733903166 -0.02808581959083695 
0.2115146181405242 -0.1604981038377874 -0.008641532954430011 -0.03016131142789086 -0.02556113776412373 
0.11059190385627 -0.01066192143286456 0 -0.01994705298665297 -0.03085214273043244 
-0.002002113306190053 0.04505543287531241 -0.04830390098301155 0.05805700398451606 -0.1638693567145753 
-0.1971999610909814 0.06810120538562138 -0.003923829043883021 0.1795486058369987 -0.02512087508812102 
0.1501876488029425 -0.2264786609540264 0.04752898838529303 0.06200234174711718 -0.1117530613993215 
0.1167022702874372 -0.12830460820681 -0.03239319927390009 -0.0009457889283652172 -0.009734122076089667 
0.1236818976957458 -0.03898411114218643 0 -0.05845554139262667 -0.07761061853686069 
0.5440019155319517 -0.4266462396498116 -0.1964553719275054 -0.3414618314409648 -0.2080043007402743 
0.2882628832553902 -0.2683345544400776 -0.06052934373722507 -0.1207637517467175 -0.05973202537582675 
-0.1409396601027775 0.09449331179658871 -0.08723057747101431 0 0 
0.01071267056360156 0.1158579857036434 -0.001427294718825292 -0.0301172061412361 -0.02726882826541103 
-0.1185401055898657 -0.009744770650443565 0.07902223507530624 -0.05118843109016394 -0.1056787160581077 
0.322782293582672 -0.1015270814805617 -0.07623106765192153 -0.1572220288718644 -0.09080663527153468 
-0.2523386244523773 0.2087101456187323 0 0 0 
0.7024761329052455 -0.3808259401169349 -0.0819990210135001 -0.1064951164306117 -0.3285994191811024 
0.2802748612294007 -0.2667227204397977 -0.01545938336058061 -0.03551982620628496 -0.02732484741999412 
0.7945398576694925 -0.6862470738984405 -0.02147671754780427 -0.145602043197827 -0.03386898627841901 
-0.0748206533996453 0.09126674231401498 -0.03584635669097705 -0.02203597637842814 -0.02098540366628844 
0.07554743327624221 0 -0.008089033318101986 0 -0.1030376720653406 
-0.2016851250580071 0.173948998844267 0.005659885024982464 -0.07276961428630307 -0.01708363459998463 
0.09247478089241772 -0.1585197975268097 -0.04625149086779556 -0.01967525630840636 0 
-0.1296208287649066 -0.05327074919202625 0.1346036848453558 -0.002187728660782532 -0.07503783134520987 
-0.009950833574488059 -0.0321658374492101 0 -0.0002609980380080284 -0.001622380213744454 
0.3684731449444661 -0.260427886006275 -0.04155360272839626 -0.06046320699915742 -0.07606700994564757 
0.03578704864715503 -0.06556425839360615 0 0 0 
0.08375820964646757 -0.02488397222825693 0 0 -0.004028985070313663 
-0.1228206884191716 0.2324259346351173 -0.03080215084030634 -0.1246365459704242 -0.006533577337505717 
0.2113249280065589 0.006267818449936896 -0.00728561977079442 -0.07481407469266597 -0.09553712521535253 
-0.09469152795266413 -0.07754163901948821 0.2455090705786491 -0.2218749494711804 0.2311370780586 
-0.05217231677451319 0.01595256152360661 -0.1606986769438592 -0.2035964525688901 0.07850620451373461 
0.00522307508869754 -0.001129075089157217 -0.02987429941375345 0 -0.04451213973249478 
-0.5479436319828492 0.5113973257597216 -0.5347819174974506 -0.555578764691207 -0.5931673114650236 
0 0 0 0 0 
0 0 0 0 0 
-0.099762361319744 0.141225209877651 -0.04063675692178182 -0.07039221481252558 -0.04445702604620329 
0 0 0 0 0 
0 0 0 0 0 
0 0 0 0 0 
0 0 0 0 0 
0 0 0 0 0 
0 0 0 0 0 
-0.8726983949354857 -0.2551433838285432 -1.407172983741616 -0.08241505688351607 -1.422975720817758 
-0.08293104724385204 -0.3497738324441556 0 0.486126209036391 -0.05766672770416847 
-0.06285114179062866 -0.263524170514048 0 0.4111263054512297 -0.09613768125451723 
-0.6255941925846629 -0.313960056010236 -0.5958150490681701 0.1740664605471234 -0.5667375419487192 
-0.04355179486382494 -0.038025453545225 -0.0183776660387782 0.05744051892986105 -0.003084111322710822 
-0.05746864034600734 -0.1196316279647963 -0.03771914758815963 0.2429147481893868 -0.1457331932224138 
0.01190450345968249 0.2062244705122259 -0.04044257794362821 -0.2457450631588405 -0.07102060010766484 
-0.3910733225265343 -0.1689471139509698 -0.05786114913752401 0.7044976221610629 -0.1987347154338233 
-0.5033558524610591 -0.3990349456789979 -0.06246603171363278 1.004901235432977 -0.08507110312203305 
-0.3373620316782825 0.01773984334025141 -0.01946414017151837 0.2573021359807637 0.01973082467404483 
0.06534400608786059 -0.1607605073749777 -0.006071690346727668 -0.3144499659622605 0.4721537274787954 
0.1723022591153422 -0.09246369350083272 0 -0.0655072301752728 -0.01340270330596651 
-0.08540239228539799 -0.1513376127356268 0 0.1890108257076946 -0.01337136279018982 
0.1181085886986955 0.3576618380660277 -0.01572904906851916 -0.4980781033062154 -0.09488965770944591 
0.1007175659005682 -0.1507034401529933 0 0.1297388183750028 -0.02240782393875175 
0 0 0 0 0 
0.01701000987092812 0.004198992115174311 -0.02230977498357659 -0.111031112117156 0.07592179857363505 
-0.007750874005785164 -0.05831054361010487 -0.0275949559994813 0.06102738476390861 -0.02927636783578282 
0.1983163768871832 -0.2642335113688711 0.2344452968627175 0.2227248847419005 -0.1140649945365911 
-0.2061022961740109 0.3310010506211576 -0.05748452400657529 -0.1527004048429357 -0.1013069118559582 
-0.03821905909773231 0.07210478112891351 0 -0.03989165771014927 0 
0 0 0 0 0 
0 0 0 0 0 
-0.01751043722744317 0.1640841047864063 0 -0.1504483971077333 -0.02084715714787337 
-0.1824885503217775 0.2154857672636169 -0.01045136832199671 -0.08897278917167034 -0.0193166169735883 
0.02456544461171228 0 0 -0.04525271559822491 0 
-0.3808273523754835 -0.4448245524727699 -0.01884645329657558 0.1040765867852469 0.6268896469814659 
-0.1775270198501653 0.2603384429002767 0 -0.04006622877255252 -0.01943225096976842 
0 0 0 0 0 
0 0 0 0 0 
0 0 0 0 0 
0 0 0 0 0 
0.1449441591831906 -0.06154279387758273 -0.2407385238040552 -0.1050166560744437 -0.4630235684470739 
0.1485287857500581 -0.03202643674508716 -0.007284413731999317 -0.1176136217083194 -0.02354946192564443 
-0.09206240161170498 0.0184200674623805 -0.02602126480040718 -0.1500268155668357 0.214986944427191 
0.03357885751465663 0.1065658571879942 -0.01089230439345622 -0.1793361564929812 -0.05529056344635899 
0 0 0 0 0 
0 0 0 0 0 
0.1436676296257129 -0.1717845333215339 0 0.05575308305524258 -0.04536220863643255 
0.232155289005549 -0.2391929345911987 0 0 0 
0.01539322016513565 -0.2343102556449138 -0.08591639429210753 -0.08203167507569165 0.2177896352689422 
0.2267740925998866 0.002513853970538266 -0.05368652169231797 0.07291839735569314 -0.2894872711118825 
-0.04485911188099855 0.09814267047483387 0 -0.007631767629094292 -0.0208579910732109 
-0.7052030770171692 0.1797438705474684 -0.04450359783554975 0.2480756510962149 0.1663079089732653 
-0.06625970202363578 -0.06361479096690802 0 0 0.1892046483237735 
-0.3378176076639039 0.0759641198566546 0 0.3932658146544559 -0.004065806338518403 
0.2808949933280493 -0.01755360522642571 -0.0253967390658678 -0.1018434092804175 -0.1354752843094729 
-0.4699894889389289 0.2965784040672292 -1.279021978657038 -1.014307571912622 -1.631527717106084 
-0.06925695609909673 -0.09230912145884025 -0.003827840685534098 -0.07521805756486041 0.2090371604890064 
0.222202001216406 -0.1581724031057817 0 -0.04244501078155755 0 
-0.3055294246133468 -0.1126260301101109 -0.2126786938032389 0.2556292889047058 -0.2651294647025046 
-0.1212934164224348 0.09093204916074231 0 0 0 
-0.1766885263163387 0.2046790723827916 -0.003846349883707203 -0.04852334902393366 -0.005642315628819871 
0.1990452886462204 -0.4946802048695144 -0.04070980442544272 0.448575229219667 -0.08600301017184657 
-0.1553018786062142 0.4961142388203077 -0.03233021443723946 -0.2427843168191955 -0.06899444636756774 
-0.338456884497107 -0.3526477930291977 0.1662264118317877 0.08657621464989995 0.2556737045045314 
-0.01971264155691843 0.03714185590317316 0 -0.04024580140420399 0 
-0.2320631353985303 0.4050626891134711 -0.04946869186633747 -0.1620952470743215 -0.07379609066921169 
0 0 0 0 0 
-0.493529629979742 0.4662916793074384 -0.07117773905306035 -0.2372833286034755 0.2481841466660857 
0.03677191736077099 0.004308042962406201 0 -0.01991244258114711 -0.02232309302827492 
-0.05494226286080755 0.04132265655193283 -0.02513626898455662 0 0 
-0.2356262141293644 0.09469794826356094 -6.938893903907228e-18 0.1886657828015808 -0.06115075371667757 
-0.1652277759598614 0.1545126577978194 0 -0.01268447217375761 0 
0 0 0 0 0 
0 0 0 0 0 
-0.1561229565884719 0.1684662390353422 0 0 0 
0 0 0 0 0 
0 0 0 0 0 
0 0 0 0 0 
-0.06582657365553943 0.1090203412062793 -0.03386568664025402 -0.06853353821232448 -0.03579728102946089 
0 0 0 0 0 
0 0 0 0 0 
0 0 0 0 0 
0 0 0 0 0 
0 0 0 0 0 
0 0 0 0 0 
0 0 0 0 0 
0 0 0 0 0 
0 0 0 0 0 
0 0 0 0 0 
0 0 0 0 0 
0 0 0 0 0 
0 0 0 0 0 
0 0 0 0 0 
-0.03563378452596151 -0.001431087558926834 0 0 -0.02200671428303035 
0 0 0 0 0 
0 0 0 0 0 
0.001956709224547629 0.05215111242643287 -9.486769009248164e-20 0 -0.0415413802114994 
-0.3615092217438786 0.113149281449704 -0.04827575744520032 -0.1285825421139422 0.2563344810408154 
0.08255158335528724 0.01594372254727546 -0.1200490260587273 -0.146385589031383 -0.08145838746081599 
0 0 0 0 0 
0 0 0 0 0 
-0.05568760884503427 0.0704236047757609 -0.07579944923046184 -0.04910245545103095 -0.02106401507128054 
-0.189519663372866 0.211392928916989 0 0.1607891022074029 -0.01934579259150164 
0 0 0 0 0 
0.173520980044131 -0.0821736390213121 0 -0.003060089160024152 -0.03379586409039541 
0.4040033957746102 -0.4270254727263329 0 -0.1148873426095164 0.1535148061417779 
0 0 0 0 0 
0 0 0 0 0 
-0.101277040111164 0.1369428782614474 -0.003942458829343335 0 -0.04217872945116248 
0 0 0 0 0 
0 0 0 0 0 
0 0 0 0 0 
0 0 0 0 0 
0 0 0 0 0 
0.9622325488981072 -1.054561774840882 0.1101447988092896 -0.3362760377198193 -0.1527854193297072 
0 0 0 0 0 
0.3965868406111788 -0.2345455939238654 -0.01915496091277432 -0.1913002210657328 -0.04341584414359793 
0 0 0 0 0 
0 0 0 0 0 
0 0 0 0 0 
0 0 0 0 0 
-0.140368813095779 0.2987020019544701 0 -0.04392692700744526 -0.0688215887349113 
0 0 0 0 0 
-0.201254938933114 0.2228621538520221 -0.02367203971846543 -0.01540183817186799 -0.02508423510181464 
-0.06500297300480866 -0.07345451901527174 0 0.1810873757782232 -0.01534005918656804 
0 0 0 0 0 
0 0 0 0 0 
0 0 0 0 0 
-0.1548384690878742 -0.07573595741627992 0 0.3055270192981712 -0.03003430481704008 
0 0 0 0 0 
0 0 0 0 0 
0 0 0 0 0 
0 0 0 0 0 
0 0 0 0 0 
0 0 0 0 0 
0 0 0 0 0 
0 0 0 0 0 
0 0 0 0 0 
0 0 0 0 0 
0 0 0 0 0 
-0.2054310938465424 0.09176031838139968 0 0.1932542491494577 -0.07043818218172378 
0 0 0 0 0 
0 0 0 0 0 
0.1401628751979459 -0.01037697495344401 -0.1030147035748357 -0.1959860458500473 -0.05129668566470193 
-0.08171326841427602 -0.07859447406833402 -0.02229965850145973 0.169570679877783 -0.08495216866648518 
0.2694907936224626 -0.168554376379322 -0.02970481479078986 -0.09023987978615304 -0.04297151116315172 
-0.01249447581609312 0.01603234170427105 0 0 -0.004924100195124453 
0 0 0 0 0 
0 0 0 0 0 
0.4854069128234549 -0.1743738800510141 -1.355252715606881e-18 -0.2725565407574718 -0.04530488449546959 
0 0 0 0 0 
0.6573542432159077 -0.5422437529245085 -0.01373732839411057 0.0002346267109746016 -0.06691780886606909 
0 0 0 0 0 
0 0 0 0 0 
0.1469616136384599 -0.1575581992748784 -0.02373054726052677 0 0 
0 0 0 0 0 
0 0 0 0 0 
0 0 0 0 0 
-0.0378535821039083 0.1181114012098585 -0.01021860028060173 -0.1204161272635132 -0.02937747182779701 
-0.1187055472281175 -0.2597422159728737 -0.03282246521589479 0.4123475777882882 -0.02416855747524085 
0 0 0 0 0 
0.9590368662079025 -0.4239954443808076 -0.03019285119305619 -0.3310453388558796 -0.01895525436228268 
0 0 0 0 0 
0.2842043184976216 -0.05316106681560883 -0.0218949735863813 -0.05532944699994499 -0.08525434085580225 
0.2615077754755564 -0.1806065592640567 -0.00410600652297939 0.01994771188236651 -0.0281580984611516 
0 0 0 0 0 
0 0 0 0 0 
-0.01225599837503014 0.07487875314759723 -0.1184633187784983 -0.1493545073567768 0.06406063054838662 
0 0 0 0 0 
-0.3918097117928688 -0.31277722596061 -0.04658400898407666 0.3330474680555175 0.2058526409559656 
0.07657606133570487 -0.007375110988124847 0 -0.004473135152611262 0 
1.806432308054889 -0.6652532994185075 0.03698513109505099 -1.515083529531932 -0.23274106491447 
0 0 0 0 0 
0.4444569547645967 -0.06811491217618913 -0.001833533476553236 -0.236806321979737 -0.1160954655994315 
0.03055981075284881 -0.01161344407473806 0 0.03394173569599491 -0.06280192771126025 
0.06646266510189924 -0.11392656441204 0 0.07423461654459625 0 
0.1214981243222848 -0.03681904152784408 0 -0.004632238145105718 0 
0 0 0 0 0 
-0.1473292853985647 0.1151171658812816 -0.03140528358009987 0.007710256777474622 -0.04739768967839642 
-0.03257189297757637 0.07523902618013005 -0.01452260007749628 -0.06481328222576722 -0.02756564318102939 
-0.2285708536430983 0.3290006399875534 -0.01976604163971596 -0.1440436589703134 -0.05343937499844399 
-0.09227748528694217 0.1958475153690337 0 -0.07320881076703525 -0.03154552396433428 
0.1407213922020632 0.2411615278664971 -0.0301520392749048 -0.2241009591955713 -0.2745727445464817 
-0.4598727222463661 0.2898560506238459 -0.04490044128872065 0.02860183834167309 0.07965803566157997 
0 0 0 0 0 
-0.01446292457566479 0.1410566363135119 0 -0.08094462984627164 -0.02911044421628897 
0.07704784342396558 -0.1034146549236883 -0.14711455184583 -0.001076857322483315 -0.2903771210697413 
0 0 0 0 0 
0 0 0 0 0 
-0.1102753458734956 0.03858491241894794 -0.002085143600913113 0.02253422091257914 0.09227913244300698 
-0.1653911890467244 0.4120038959833205 0 -0.2210784522456284 -0.02963389429136074 
0.211643667829214 -0.218879326067019 -0.03107602804814231 0.04695860299286782 -0.06425597036161762 
0 0 0 0 0 
0 0 0 0 0 
-0.1149245429627761 0.1056255359101966 -0.0283381307365952 0.01703534032760636 -0.03867022678458575 
0.009277330394601664 -0.04867310484132746 -0.002612590495569559 0.07896846188496255 -0.05481149621627734 
-0.06806331832289632 0.3332529151561227 -0.01858779489935945 -0.1457921875930896 -0.1433182026110923 
0.2519511480185148 -0.1398915251246894 0 -0.005730758780713338 -0.05174280185253996 
0.3185253160695635 -0.02769838180542308 0 -0.1128391296299015 -0.05892879015708957 
0.2088609690448411 -0.2117433261668635 0 0.08283748142289225 -0.06326592445013711 
0.2303178055648858 -0.3285235925767729 -0.03248862181843662 -0.3287277317282951 0.2865947441429738 
0.2483079199545289 -0.5312942177906074 -0.02283341662638278 0.3941334547451031 0.04591650289886404 
0 0 0 0 0 
0.09833578543637771 -0.3707660968977667 0.2557633221578583 -0.01205901020404342 -0.04157915862878024 
-0.0242994307142941 -0.1309553020709854 0 0.114190850410046 -3.469446951953614e-18 
0.9453202865794056 -0.59537398889596 0.2474649214191326 -1.091502876934017 0.348739801590484 
-0.04255978707422839 -0.1668696237276581 -0.03663615608237022 0.03541134133376168 0.09543736368991493 
-0.004872296641632462 0.06958568702099685 -0.009552551760996413 -0.02511854068104553 -0.01111823924865802 
0.0414370206446082 0.03140128022329897 -0.009552551760996413 -0.02511854068104553 -0.01111823924865803 
0 0 0 0 0 
0 0 0 0 0 
0 0 0 0 0 
0.1158545064597665 0.04890797666727367 -0.008662932045665291 -0.1551023928671222 -8.673617379884035e-19 
0.3814687380067915 -0.4043218020477983 -0.3485174551985529 -0.2581383001207133 -0.1862278906408238 
0.01486054881057775 0.1528172225706562 0 -0.0599727958683563 -0.1371759284736991 
-0.04146733614463016 0.1314414616862636 0 -0.06535015702618056 -0.007003551448653019 
-0.4029238916271355 0.3711015402101144 -0.0003791562893312091 -0.04680084645081441 0.09800866178414744 
-0.0007294122661389494 -0.09171332882179764 -0.07226079582046802 0.1204226190893664 -0.1597769837373086 
-0.2723503997198923 0.2459617959996951 0 -0.06939761847886762 0.01921222038407028 
-0.3861568883064538 0.2735254462245843 -0.1069722520345318 -0.06523615666892313 -0.07948257254498671 
-0.080076834581811 -0.0805238975806972 0 -0.02335153157523933 0.1556400850972715 
0.1824895300078882 -0.2694185432504241 -0.01884645329657558 0.1919385538869375 -0.1106419026322086 
0.4358517036577221 -0.3611372758242902 -0.003338799670002276 -0.004368108601608588 -0.01135509846474795 
0.1831702008510911 0.0008196326251657541 0 -0.04283392686795234 -0.08756559479915028 
0.1038231301571945 -0.1569319901694643 0 -0.04550646671294109 0.04778141544214336 
-0.05727630815205012 -0.0824459110945122 -0.02227867200259828 0.112543285670482 0.1367284401798692 
-0.08614171155065818 0.05560441663224001 -0.4020738382601978 -0.3882196203762916 -0.2513843316482532 
0.2900023014169459 -0.2964516826683361 -0.07450201982781229 -0.06386773342798546 -0.05785028155476835 
0 0 0 0 0 
-0.253266162946883 0.003867597849643695 -0.05425704366217574 0.2562541155802114 -0.04848365172286428 
-0.06184310020545194 0.1656460765076357 -0.0368560928668613 -0.1807129007503651 -0.04204078948103009 
-0.1457505901273808 0.1701781579342311 -8.673617379884035e-18 -0.01372155957371049 -0.03502896124042544 
0.2416754865862564 -0.3056386293930372 -0.001953091135387872 0 -0.005237340758621981 
-0.2215523993227964 0.1469882300511821 -0.002973950704185255 -0.06193056348495654 0.0311882544367252 
0.6260232514227884 -0.5168889262317986 0 -0.02929798973304498 -0.005355292684807346 
-0.0601718341228778 -0.0815894068705075 -0.01329426544070877 0.2985654616596339 -0.05161494512261409 
0.0895654624554488 0.443630355518885 -0.04194935118789869 -0.3425872053833892 -0.1683498235614581 
0 0 0 0 0 
0 0 0 0 0 
0 0 0 0 0 
0 0 0 0 0 
0 0 0 0 0 
0.2109641980937524 0.09305129182351617 -0.09558205211478123 -0.767453274158169 0.3382664109726376 
0.3690788205575035 0.04762346080959098 -0.05008765916375776 -0.4821245096122997 -0.05491433577253529 
0.3983704561431758 -0.2473570545051079 0 -0.05904392915329852 -0.05037253766752039 
0.3722637673552568 -0.2151648752448561 -0.005745979445453173 9.107298248878237e-18 -0.1856031379078906 
-0.3347115884033811 0.2917083239400707 -0.004094225548531653 -0.3507484246779015 0.3896560062330626 
-0.1695438868137013 -0.1420204788523257 -0.004094225548531653 -0.1188703096249206 0.5261558097337482 
0.1273341755379183 -0.113542150778098 0 0 -0.0211013761300126 
0.06381014142875513 0.07829008079764918 -0.101479646432492 -0.06183429084008542 -0.1494417805188253 
-0.03409012297711946 0.03843580300490966 -0.02602126480040718 -0.04355225104870825 -0.0365709028493419 
0 0 0 0 0 
0.09866289847452284 0.1154692988575502 -0.01243460378259023 -0.1459941372443154 -0.06351031345472534 
-0.06119021538495365 0.04703602264434054 0 0 0 
0 0 0 0 0 
0.6284830193472597 -0.1780465512339111 -0.1039000535865896 -0.3330086551049307 -0.4011968324247673 
0.1414640711194173 -0.2919753666561299 0 0 0.1007310474557198 
0.1011815089381263 0.1157628280722098 -0.02183670912873709 -0.2360567718677627 -0.1134264581613641 
0.1603657717157764 -0.03794337462898728 -4.553649124439119e-18 -0.09266378849328934 -0.01235893887609212 
0 0 0 0 0 
0.01944783248625568 0 0 0 -0.008678899087478235 
0.001682545725189751 0.04164270245123693 -0.009074993605879761 -0.02101244085405719 -0.02474446119308968 
-0.08365613902383943 0.04364109690315027 0 0 0 
-0.8140302140748583 0.7237662436648417 -0.1420435873356143 -0.1128255171486475 -0.007185638518281794 
0 0 0 0 0 
-0.1071677953128149 -0.1509121388953754 0 0.1812119311221651 0.1618719690804395 
0.003100501536735367 0.141029921106023 -0.03342561384883502 -0.1627208898219756 -0.07799608955510096 
-0.03617838424196511 -0.2056733550042849 -0.0084539744990457 0.1160088610782248 0.0541025744711463 
-0.1337339048730618 0.009506479976195789 -0.0005690048600793801 0.2061962819795841 -0.04918110306634211 
-0.02009168850926889 0.001678475957045318 -0.01250885811415573 0.04527035571066148 -0.03551328194604294 
0 0 0 0 0 
0 0 0 0 0 
0 0 0 0 0 
0.2729207710260099 -0.1961258494187749 -0.01298980304876179 -0.03603520083138456 -0.09654305237405301 
0.2709333142984011 -0.1390436967915808 0 -0.07492637009525024 -0.03858944887232357 
-0.05359478402417196 0.02467644493109758 0 0 0 
0 0 0 0 0 
-0.1582184902139988 0.142954549350413 -0.03045936491217583 0.02233160963924808 -0.003557674451866471 
0 0 0 0 0 
0 0 0 0 0 
0 0 0 0 0 
0 0 0 0 0 
0 0 0 0 0 
0 0 0 0 0 
-0.1903101735186897 0.2233425175799952 -0.05725526812105605 -0.09644943127737006 -0.09199522494571204 
0 0 0 0 0 
0 0 0 0 0 
-0.4836912103583604 0.106860064087089 -0.1246858402696927 -0.16963182122183 0.3922192020135769 
-0.1466786567443617 -0.1936152862915599 0 -0.02952226127988981 0.3315401340443294 
-0.331834288386173 0.2655945066620649 -0.09195274957172175 -0.06186727416707939 -0.04833369236365049 
-0.008829655769216242 0.06559637049687728 -0.005762395060804355 -0.0766000108219408 -0.006419087416319312 
-0.008829655769216242 0.06559637049687728 -0.005762395060804355 -0.0766000108219408 -0.006419087416319312 
0 0 0 0 0 
0 0 0 0 0 
0 0 0 0 0 
0 0 0 0 0 
-0.1717103371803161 0.0450362273745912 0 -0.04102781835457627 0.03880146224780048 
0 0 0 0 0 
0 0 0 0 0 
0 0 0 0 0 
0 0 0 0 0 
0 0 0 0 0 
0 0 0 0 0 
0 0 0 0 0 
0 0 0 0 0 
0 0 0 0 0 
0 0 0 0 0 
0 0 0 0 0 
-0.1402220586016504 0.06445766694912382 0 0.1394873823254098 -0.024970542241005 
-0.0895565327793833 -0.025552252171409 0 0.2001337249493957 0 
0.09362117248058294 0 0 0 -0.03466701908123371 
-0.06192020787970137 0.08163890505509797 0 -0.04525271559822491 -0.01266507782588534 
0 0 0 0 0 
0 0 0 0 0 
0 0 0 0 0 
-0.2979988898685179 0.3717621245814666 -0.07604178326697798 -0.1516011023778204 -0.04745483446879103 
0.09157331542185848 -0.05284774745903529 -0.02350187811000735 0.05891704901437544 -0.07951193550077194 
0 0 0 0 0 
0.02439874902250522 0 0 0 -0.04997847785824133 
0 0 0 0 0 
0.03270796048292763 0.01955763818913798 -0.02602126480040718 -0.04355225104870825 -0.05375448796975869 
-0.03409012297711946 0.03843580300490966 -0.02602126480040718 -0.04355225104870825 -0.0365709028493419 
0 0 0 0 0 
0 0 0 0 0 
-0.03135555650422064 0.04634230696979356 -0.0174436409233518 -0.03882055735374891 -0.03473118157074086 
0 0 0 0 0 
0 0 0 0 0 
0 0 0 0 0 
-0.1658131818809304 0 0 -0.06516446710933954 0.1824702092233166 
0 0 0 0 0 
-0.04791110338560885 0.225626893371943 -0.01794605166558989 -0.1685826620345062 -0.05181975002646973 
-0.05095377527497537 0.08287276007033281 0 -0.01268447217375761 -0.01070178240416167 
-0.06504471309582013 0.344973821182319 -0.03815929943094961 -0.312454403609523 -0.00969508071286735 
0 0 0 0 0 
-0.07348017763095779 0.1203575950461903 0 -0.02089124169503132 0 
0 0 0 0 0 
0 0 0 0 0 
0 0 0 0 0 
0 0 0 0 0 
0 0 0 0 0 
0 0 0 0 0 
0 0 0 0 0 
0 0 0 0 0 
0 0 0 0 0 
0 0 0 0 0 
0 0 0 0 0 
0 0 0 0 0 
-0.1307384620558664 0.1534909180360069 -0.02051926771528118 -0.05802292421280728 -0.03590773106860384 
0 0 0 0 0 
0 0 0 0 0 
0 0 0 0 0 
0.3958735673418079 -0.327262453289862 -0.08132270066658664 -0.01461880902286218 -0.1075679884190866 
0 0 0 0 0 
-0.02717052344305647 0.05575657122547359 0 -0.01936400962268436 0 
0 0 0 0 0 
0 0 0 0 0 
0.02045765715920454 0.02995082461185244 -0.0275949559994813 0.03276068085721578 -0.1411239136347336 
0 0 0 0 0 
0.1090344779405095 0.01546354568796938 0 -0.02826670390669283 -0.1118475457989508 
0 0 0 0 0 
0 0 0 0 0 
-0.01241196670807436 0.03632811231860899 -0.008739512107363753 -0.04003078832377399 -0.03590773106860384 
0 0 0 0 0 
0 0 0 0 0 
-0.1353787763809988 0.2168049317395257 -4.716200007402798e-06 -0.06357879125590619 -0.03502916271518314 
-0.06415979776357561 0.07389947304262723 -0.01030603582410551 -0.05311238917506741 -0.01184929642834937 
-0.1042856722118031 0.04855800793352064 -0.01512493444078712 0 -0.01526295638999821 
0.08322540943607935 -0.0495444343360855 -0.01743318322947848 0 -0.0557312075140322 
0.1147264022205759 -0.05126429064157154 -0.03386568664025402 -0.06853353821232448 -0.03579728102946088 
0 0 0 0 0 
0 0 0 0 0 
0 0 0 0 0 
0 0 0 0 0 
0 0 0 0 0 
0 0 0 0 0 
0 0 0 0 0 
-0.2112535444504382 0.1000553236729966 0 0.2492188106502609 -0.04554069558887188 
0 0 0 0 0 
0 0 0 0 0 
0 0 0 0 0 
0 0 0 0 0 
0 0 0 0 0 
-0.05536533863861717 0.03038605346193304 -0.006332008141104039 0 0 
0 0 0 0 0 
-0.01487886556352954 0.08749341201265466 0 -0.06107269762715102 -0.005027137168436744 
-0.02838364889198962 0.03805026173748522 0 0 -0.002355851392690752 
0 0 0 0 0 
0 0 0 0 0 
0 0 0 0 0 
-0.4787611866237724 0.06923004918408468 -0.0295399248404128 0.1351937609262004 0.3122016432221145 
0.06502378493485531 0.01291675934089604 -0.0154977654645753 -0.08206416859735367 -0.04975593303704098 
0 0 0 0 0 
0.2647489866245933 -0.1910163826344597 0 -0.06439822165323338 -0.02769533440097995 
0 0 0 0 0 
0 0 0 0 0 
0 0 0 0 0 
0 0 0 0 0 
0 0 0 0 0 
0 0 0 0 0 
0.1202157279851059 -0.1253683151410254 -0.02350096385226775 0 0 
0.2542658664603423 -0.3554422828919393 0.008731305386285372 -0.02033964495990381 -0.1560799241217308 
0 0 0 0 0 
0 0 0 0 0 
0 0 0 0 0 
0 0 0 0 0 
-0.1902232425871403 0.2541831962591178 -0.04643623459539656 0.0567893051913629 -0.1106633458311901 
-0.5887948733310476 -0.1402978891540511 -0.01077801071851234 0.002971853686697828 0.6425992559971453 
0.2503304409714639 -0.01714110654484759 -0.02741491188877792 -0.1333103376563514 -0.1974372941524484 
0 0 0 0 0 
0 0 0 0 0 
0.08476075966257476 -0.057746115147762 0 0.04253001292448401 -0.0980872282043658 
-0.2888899828653476 0.1520990428169139 0 0.1419636187244658 0 
-0.2346487805867105 0.237631747830969 -0.05856858351168127 -0.03992721201204375 -0.06128358218823281 
0.03228745625109355 0 -0.01342291244806456 0 -0.03945632296042606 
0.01479414156242547 0.07851048220429648 -0.03147919099306636 0.01902976567615116 -0.1338715838921379 
-0.135889467100936 0.1966637363066302 -0.03739438345211065 -0.1061866125971937 -0.01378807935854927 
-0.3188467849566616 0.4992902650132447 -0.05414751995235602 -0.0678013926322777 -0.1356412638443707 
0 0 0 0 0 
0 0 0 0 0 
0 0 0 0 0 
0 0 0 0 0 
0 0 0 0 0 
0 0 0 0 0 
0 0 0 0 0 
0 0 0 0 0 
0 0 0 0 0 
0.08721121499882653 -0.08142335268990868 -0.01385589168856062 0 -0.03335041367872052 
-0.06432327662701331 0.04412667003121078 0 0 0 
0 0 0 0 0 
0.05326151030839443 -0.01835193136493566 0 -0.01397860864727349 -0.001782258504773131 
0.01578233869581983 -0.005438631726329748 -0.03060281083955395 0.03774964767935621 -0.0630333159038973 
-0.7297578109740224 0.2161481119734566 -0.1399382365961346 0.1509855275479424 0.05021573028618137 
0.1300867140669609 -0.06023074752133938 0 0 -0.01470779602205479 
0 0 0 0 0 
0 0 0 0 0 
0 0 0 0 0 
0 0 0 0 0 
0 0 0 0 0 
0 0 0 0 0 
-0.00289130223898507 0.008624521156305303 -0.01381178217005212 -0.01581788005514312 -0.04430242629956164 
-0.07525715874509156 0.2371287517530115 -0.005569295007059678 -0.1303376786135615 -0.02818557712329907 
-0.2691703604321968 0.4661593403238156 -0.07051301863627284 -0.1668292607779159 -0.1652580746515832 
-0.3443112501963529 0.3187050914655168 -0.008431597767614797 -0.02787454487455763 -0.02957578741462596 
-0.1161434863098517 -0.1278036006635154 -0.0647037708781262 0.002249427036801701 0.1874126509512281 
0.20722862361352 -0.05404940103450407 0 -0.004473135152611264 -0.02090099852233829 
-0.610775433920101 0.3632534217951207 -0.09057827788016518 0.1051650473669922 -0.4015317611438821 
-0.04895297156584821 -0.0354518994292013 -0.04406133363612711 0.1191788006520976 0.1099498853248636 
-0.06938088370388955 0.1502953363083409 -0.05625678558146946 -0.09505955696330368 -0.2045381131662167 
-0.1317880452689724 0.02475354944648865 0 0.2003425177914874 -0.02628229462874984 
0.01826643049165066 -0.3011675262294713 -0.1279106880783523 0.3315564376013135 -0.01885793708058038 
0.1621096120362871 0 0 -0.1754054396153489 -0.03287493082025815 
-0.6237090369849315 0.4528184491830368 0.250277058608768 -0.09883069609202534 -0.0557532134446324 
0.3076774303626559 -0.2753486351370034 -0.06506044334411239 -0.1633472254993429 0.06281783841336318 
-0.1918176432919271 0.1441335938295559 -0.05123723123694799 0.0184791641164866 -0.08859369809079747 
0.4135148449280261 -0.05005853124499608 -0.1726797770624061 -0.803228903265233 -0.02984172604017861 
-0.05309348882935525 -0.1700389689357102 -0.03783178843490047 -0.2316036207873447 0.3851126716128563 
0.3238984136700772 -0.3263748622673593 -0.109593921115478 -0.06320486379360975 -0.1217411650651102 
0 0 0 0 0 
0 0 0 0 0 
-0.3532218633140277 0.3726570312697813 -0.03498222534312134 -0.03488171473295072 -0.03453977640541077 
0 0 0 0 0 
0 0 0 0 0 
0 0 0 0 0 
0 0 0 0 0 
0.1081435288913853 -0.07378906842272631 0 0 -0.007617215728613379 
-0.01333590911624193 -0.2227182383616356 0 0.2465728358873918 4.336808689942018e-19 
0 0 0 0 0 
-0.05772011567218526 -0.2137935265825688 -0.1838404775430325 0.2442540269340204 -0.1461859631911033 
0.06931868776496193 -0.03217244920817374 0 -0.01568463325207163 -0.00360105735885234 
0 0 0 0 0 
0 0 0 0 0 
0 0 0 0 0 
-0.2232143312254429 -0.02777253204298006 -0.01800272595173601 0.2956637891011348 0.06079066446611432 
0 0 0 0 0 
0 0 0 0 0 
0 0 0 0 0 
0.1739155767107775 0.2930032605824863 -0.1013338702476525 -0.3334612882948778 -0.1846764887476366 
-0.2690045379638852 0.4163227649445997 -0.1145135701168597 -0.2568420907552972 -0.1048055103471689 
0 0 0 0 0 
-0.06726224212635283 -0.01504832279807765 -0.1332484791901246 0.07427303926781104 -0.05782197881624362 
0.3221637709818027 -0.4947990956604927 -0.04356506895997696 0.09343341727848872 -0.09990933252847158 
0 0 0 0 0 
-0.22435286081276 0.4069559442323312 -0.01533306030980918 -0.2041874005662633 -0.07002336363694564 
0.1185836393987336 -0.3362751707831051 0.2177262736665232 -0.02849790116565007 -0.03492182801048661 
-0.08076468647315529 -0.05754518542728795 -0.01200797123075728 0.1724578978267157 -0.05270615675985488 
-0.01483080412787272 -0.05713044612063705 -0.01005488009536941 0.1724578978267157 -0.05270615675985488 
0.2699923043407416 -0.3922293364444649 -0.0388250633909215 0.2096774057006503 -0.07085464374477354 
-0.226215789217618 0.1815678058087665 -0.09349128728024193 -0.0511869917174442 -0.02068647678585771 
-0.08925638067432877 -0.08407516684485156 0 0.1733836582812674 0 
0 0 0 0 0 
0 0 0 0 0 
0 0 0 0 0 
0 0 0 0 0 
0 0 0 0 0 
0 0 0 0 0 
-0.1726849849633012 -0.06570457172302809 0 0 0.2304646952499007 
0 0 0 0 0 
-0.09954996371224276 0.2299012602075772 0 -0.1447760113254234 -0.01911869850375838 
0.02192352471770457 0.06699541470541846 -0.01844537953362336 -0.06745549419492551 -0.07451066792340771 
0 0 0 0 0 
0 0 0 0 0 
0 0 0 0 0 
0.1498666177808195 -0.02238164980033894 0 -0.09621393842087547 -0.02493041088449457 
0.1498666177808195 -0.02238164980033894 0 -0.09621393842087547 -0.02493041088449457 
0 0 0 0 0 
0 0 0 0 0 
0 0 0 0 0 
0 0 0 0 0 
0 0 0 0 0 
0 0 0 0 0 
0 0 0 0 0 
0 0 0 0 0 
0 0 0 0 0 
0 0 0 0 0 
0 0 0 0 -0.03420671593201212 
-0.00712965369181157 0.1720698574100959 -0.003846349883707203 -0.09265869698149733 -0.07593574393412512 
0 0 0 0 0 
0 0 0 0 0 
-0.0530369929433564 -0.2077365116777583 -0.01573959549653318 0.2109293053477442 -0.03435982044531461 
0 0 0 0 0 
0.03444376407842962 0.03435396907637688 -0.01639795335992752 -0.09658242160137864 -0.009368321570318599 
0 0 0 0 0 
0 0 0 0 0 
0 0 0 0 0 
-0.06463516704409449 0.1805907971698539 0 -0.03543902874219344 -0.07290139959959054 
0 0 0 0 0 
0 0 0 0 0 
0 0 0 0 0 
0 0 0 0 0 
0 0 0 0 0 
0 0 0 0 0 
0 0 0 0 0 
0 0 0 0 0 
0 0 0 0 0 
0 0 0 0 0 
0 0 0 0 0 
-0.02918301640801695 -0.1688280646841517 -0.04161619550980013 0.2020212976376597 -0.0534494922039847 
0.1516429246901794 -0.1383249139118028 -0.01131538369355261 0 -0.004857637267772628 
0 0 0 0 0 
0 0 0 0 0 
0 0 0 0 0 
0 0 0 0 0 
0 0 0 0 0 
0 0 0 0 0 
0 0 0 0 0 
0 0 0 0 0 
0 0 0 0 0 
0 0 0 0 0 
0 0 0 0 0 
0 0 0 0 0 
0 0 0 0 0 
0 0 0 0 0 
0 0 0 0 0 
0 0 0 0 0 
0.08411558001629169 -0.1245810502771209 -0.01688761009315831 -0.1839348619697141 0.1834656880274275 
-0.3342254063787893 0.6710401062884684 -0.1448203601101108 -0.6257176451035982 0.1881156311330406 
-0.02600632443680969 -0.08847467384267568 -0.04934857866287523 0.103761082061839 -0.01718130762258426 
0.1265707553733273 0.09726997050284908 -0.02821634073008073 -0.07880079197601238 -0.0905911275486698 
-0.2329792258951548 -0.006256749209933544 -0.1076933999866945 0.1410178823821304 -0.06261706622861501 
0 0 0 0 0 
-0.03263876394579266 -0.149420514235331 -0.002937390499608552 -0.132676007275111 0.2791804422481495 
0.1489114836808881 -0.07294518296066815 -0.003132968879284524 -0.05509758796797829 -0.03125544641870417 
0 0 0 0 0 
0 0 0 0 0 
0 0 0 0 0 
0 0 0 0 0 
0 0 0 0 0 
0 0 0 0 0 
0 0 0 0 0 
0 0 0 0 0 
-0.1769789655399921 0.2330824230945513 -0.02144174155351008 0 -0.05713078000050571 
0 0 0 0 0 
0 0 0 0 0 
0 0 0 0 0 
0 0 0 0 0 
0 0 0 0 0 
0 0 0 0 0 
0 0 0 0 0 
0 0 0 0 0 
0 0 0 0 0 
0 0 0 0 0 
0 0 0 0 0 
-0.1481672841251832 0.1912718290932931 0 -0.007196571204260404 -0.009446601776393209 
-0.05406694732034684 0.5044336377912791 -0.008899648064410359 -0.266160786204071 -0.2344187520077382 
0.004076784362013935 -0.41280754713308 -0.1786093343345412 -0.05404011108096411 0.4332636283930046 
0 0 0 0 0 
-0.1727556426366427 0.2329552969340811 -0.03732623353840002 -0.07074009768185388 -0.01103116216389559 
0.2682825352791492 -0.1235343335034994 -0.07663237144564343 -0.1174230021006807 -0.07130292095644525 
0.05150717343736205 -0.09762918813036088 -0.01622911128018847 0.06883634423232778 -0.008678863750411225 
-0.2346649666668086 0.1698231153574026 -0.01132088375167047 -0.04464107878876956 0.127997583272762 
0 0 0 0 0 
-0.06350215517429925 0.07967162785859945 -0.1228798842490822 0.07448810874261515 -0.2055487713060941 
-0.07603966435902648 0.1948795640047409 -0.01419085566920769 -0.1010750629837844 -0.02545708978755764 
0 0 0 0 0 
0.08232065940538598 -0.1008982136740757 -4.553649124439119e-18 -0.009380369531653701 0.05389001079055687 
0 0 0 0 0 
0 0 0 0 0 
-0.04963724084477847 -0.3564674297035943 0.2214194117668398 0.3219085679392083 -0.1356502341531405 
-0.2788122431822705 -0.1283737182265514 -0.0186046947619049 -0.09034470873351036 0.437264449200307 
0.622979438029397 -0.3629216898027624 -0.01630365542374781 -0.1967371735010233 -0.06390889312749209 
0.1437347358440076 -0.1679275088107374 0 0.01546101723857543 -0.05040172017887638 
0 0 0 0 0 
0.3873877387849985 -0.7993006227526492 -0.506680103474199 -0.9046681506532024 -0.2001480885773504 
-0.08601875446758325 -0.01833768015185066 -0.1435000738989657 -0.1285181820108899 -0.3368821421852931 
0.1965947503925379 -0.2629681418151575 -0.004646768700694201 -0.2666347790846529 0.3488225854962346 
0.03518964939522478 -0.01973893471904408 0 -0.00779744224896563 -0.02417312436820187 
-0.1421032276775043 -0.1098164270451421 0.1481715477907959 0.03163539389611137 0.04925237148135076 
-0.1199428399681566 0.3360570723690832 -0.02336209343429369 -0.2064049176200856 -0.05675247833614937 
-0.281524079054693 0.2068322438663251 0 0.09010143040772549 1.734723475976807e-18 
0.08126797470528756 -0.06816737139782812 0 0.1290383700428757 -0.06222058921766524 
0.06814238020837926 0.1598381182898593 -0.03368648678628369 -0.04479610940355994 -0.1268434552384541 
0.6955807088409454 0.008350268227868451 -0.0398957041939327 -0.4942919197093134 -0.1277934208258562 
0.1729085890157433 -0.230912744241024 -0.02474808488594508 -0.1815289465977988 -0.02362396023259499 
-0.2497949993811266 0 0 0.1223195037059127 0.09531234721751544 
-0.117578131985826 0.09101573606162862 0 0 -0.013694862579141 
0.02588397234009228 0 0 -0.01658306077871485 -0.01616189686409303 
-0.1814211053965267 -0.1847820688127077 0 0.07547181712114084 0.2973313008505205 
-0.2898819557858425 0.2234091607960877 -0.06053079555935727 0.2219742317158926 -0.09392879835663422 
0.06111109803435245 -0.04723181059666166 -0.01514245316195359 -0.03001348220987689 -0.02274818543931471 
0 0 0 0 0 
-0.05254906935659025 -0.1540378067356131 -0.01287054800064748 0.1335464121120469 0.0597140768216612 
-0.3325644897757944 0.217075701893907 -0.02101092767474484 -0.1232450465336061 0.2203875702572736 
0 0 0 0 0 
0.1567205018956314 -0.1187704171519587 0 0 -0.04246134276333466 
0 0 0 0 0 
0 0 0 0 0 
-0.1230698969010557 -0.0413311393688334 -0.02765023336626089 0.1915607886983599 -0.08540183756101895 
0.04703376355260165 -0.04163802324904339 0 0 -0.009120971564783404 
0 0 0 0 0 
0.413102454582467 -0.1396652705789699 -0.04852038413751089 -0.3339464930123504 -0.105638534398086 
-0.0619435652348171 0.1255241925603224 0 -0.02594884964329553 -0.009917571881221601 
-0.1181800194947926 0.1960366214803616 -0.009270149336267358 -0.08793101122553618 -0.05214782989266335 
0.06355658708452978 -0.01576422039530086 -0.07592885240525575 0.01073784641494911 -0.1513859330772122 
0 0 0 0 0 
0 0 0 0 0 
0.3414535376883677 -0.1633861873404563 0 -0.09527081305722493 -0.018541875928028 
-0.1230995297525391 0.1214379508008099 -0.03617952505276759 -0.0132849283277462 0 
-0.1230995297525391 0.1214379508008099 -0.03617952505276759 -0.0132849283277462 0 
-0.09895416706272722 0.1724423393264345 -0.05399527910734155 -0.002187728660782535 -0.007320945234133688 
-0.007476709341753846 0.02106274744885894 -0.02042397722836061 -0.005307029248067582 -0.009926142955450022 
-0.007476709341753846 0.02106274744885894 -0.02042397722836061 -0.005307029248067582 -0.009926142955450022 
0 0.02138056684436564 0 0 0 
0 0 0 0 0 
-0.3012020534795414 0.1324230814470159 -0.01606515280511107 0.250085760470163 0.04080032764439614 
-0.09490348066590987 0.1882537343207727 -0.1258532949868663 -0.08103424315296827 -0.1231865729762141 
-0.08216479176539319 0.1071250196630137 -0.1258389498511379 -0.08103424315296827 -0.05124603004446493 
0 0 0 0 0 
0.08457848972588639 -0.0273260235961856 -0.05300289978073657 -0.3132155673963558 0.2259508705887318 
-0.5428499973874109 0.4297467615721441 -0.02138769869473825 -0.3215595262221241 0.3051860492981802 
-0.06184310020545194 0.1656460765076357 -0.0368560928668613 -0.1807129007503651 -0.04204078948103009 
-0.06184310020545194 0.1656460765076357 -0.0368560928668613 -0.1807129007503651 -0.04204078948103009 
-0.2327436323826835 0.2901464531755381 -0.02899722272197946 -0.07553596085522822 -0.03917932860830966 
-0.06184310020545194 0.1656460765076357 -0.0368560928668613 -0.1807129007503651 -0.04204078948103009 
-0.06184310020545194 0.1656460765076357 -0.0368560928668613 -0.1807129007503651 -0.04204078948103009 
0.0989056946420718 -0.0491972064840113 5.204170427930421e-18 0 -0.05790128509147515 
0 0 0 0 0 
0 0 0 0 0 
0.001252579390479649 0.1586797432491117 -0.03347983373355998 -0.1564746338242553 -0.06329532387872229 
0.001252579390479649 0.1586797432491117 -0.03347983373355998 -0.1564746338242553 -0.06329532387872229 
0 0 0 0 0 
0 0 0 0 0 
-0.1273060284140449 0.1369973653663342 -0.002612590495569559 -0.03992721201204376 -0.006556164657146712 
0.03445547819571755 0.124748527507638 -0.01745063349900983 -0.1279686967801477 -0.003036865939432232 
0.3383796047381829 -0.191017026384043 -0.01168133746036599 -0.1219024778362921 -0.07629223400605069 
0 0 0 0 0 
0 0 0 0 0 
0 0 0 0 0 
0 0 0 0 0 
0 0 0 0 0 
0 0 0 0 0 
0 0 0 0 0 
-0.07549264426983472 0.06912792466036777 0 0 0 
0 0 0 0 0 
-0.2150930283530344 0.150979180937428 -0.02926191527276739 0.1314754622428713 -0.07119294781435773 
0 0 0 0 0 
0 0 0 0 0 
0.02105942948479674 0.02233608427194073 0 0.1287715047586049 -0.184703150111124 
0 0 0 0 0 
0 0 0 0 0 
0 0 0 0 0 
0 0 0 0 0 
0 0 0 0 0 
0 0 0 0 0 
0 0 0 0 0 
-0.0917895846320218 -0.01125778816814816 -0.03928755706863753 0.2377314074730555 -0.1113810719651968 
-0.329115326978713 -0.01396621934350058 0 0.1029535328594923 0.2064943878701583 
-0.07060370213265633 0.1078729016229554 0 -0.03758480800449283 -0.02380978718540333 
0 0 0 0 0 
0 0 0 0 0 
0 0 0 0 0 
0 0 0 0 0 
0 0 0 0 0 
0.07345719597186157 -0.02913607784833749 0 -0.01981502702656653 0 
0 0 0 0 0 
0 0 0 0 0 
0 0 0 0 0 
0 0 0 0 0 
0 0 0 0 0 
0.1616457925694205 -0.1155279056076267 -0.01269306624982355 0.1158066273877785 -0.1162395940476516 
0.1891492132691709 -0.1122503634816026 -0.004231118689835088 -0.0218495463553335 -0.02245014474205316 
-0.001375286623137201 0.1036500923249536 -0.008461947559988463 -0.0477373989354135 -0.05198586028681904 
0 0 0 0 0 
0 0 0 0 0 
0.06899193799118239 0.02116957640445603 -4.716200007402798e-06 -0.03807086149317939 -0.06583968155743487 
0 0 0 0 0 
0 0 0 0 0 
-0.1052832905282593 -0.1982706052412229 -0.006754074401644006 0.08968531166654378 0.2452680921626396 
0 0 0 0 0 
0 0 0 0 0 
0 0 0 0 0 
0 0 0 0 0 
0 0 0 0 0 
0 0 0 0 0 
0 0 0 0 0 
0 0 0 0 0 
0 0 0 0 0 
0 0 0 0 0 
0 0 0 0 0 
0 0 0 0 0 
0 0 0 0 0 
0 0 0 0 0 
0 0 0 0 0 
0 0 0 0 0 
0 0 0 0 0 
0 0 0 0 0 
0 0 0 0 0 
0 0 0 0 0 
0 0 0 0 0 
0 0 0 0 0 
0 0 0 0 0 
0 0 0 0 0 
0 0 0 0 0 
0.2644018644754397 -0.2461631840545133 0 0 -0.01703597260112215 
0 0 0 0 0 
0 0 0 0 0 
0 0 0 0 0 
0 0 0 0 0 
0 0 0 0 0 
0 0 0 0 0 
0 0 0 0 0 
0 0 0 0 0 
0 0 0 0 0 
0 0 0 0 0 
0 0 0 0 0 
0 0 0 0 0 
0 0 0 0 0 
-0.01664222309934628 0.08010332537157699 -0.04063675692178182 -0.07183238807684734 -0.08926289730292382 
0 0 0 0 0 
0 0 0 0 0 
0 0 0 0 0 
0 0 0 0 0 
0 0 0 0 0 
0 0 0 0 0 
0 0 0 0 0 
0 0 0 0 0 
0 0 0 0 0 
0.127467300668081 -0.05891751274411179 -0.05420066546965222 -0.04319622560728271 -0.05675456885738048 
0 0 0 0 0 
0 0 0 0 0 
0 0 0 0 0 
0 0 0 0 0 
0 0 0 0 0 
0 0 0 0 0 
0 0 0 0 0 
0 0 0 0 0 
0 0 0 0 0 
0 0 0 0 0 
0 0 0 0 0 
0 0 0 0 0 
0 0 0 0 0 
0 0 0 0 0 
0 0 0 0 0 
0 0 0 0 0 
0 0 0 0 0 
0 0 0 0 0 
0 0 0 0 0 
0 0 0 0 0 
0 0 0 0 0 
-0.005001072946789463 -0.1405662865931198 -0.07252583924676317 0.2924984184927681 -0.03533036274683395 
-0.06104530002028934 0.09455041094279378 -0.001541669858035558 0.07590388234043938 -0.03719817132868403 
-0.01380884302920984 -0.1341133807469337 0 0.2225588352748468 -0.1207155230452179 
0.3065749924469104 -0.2180446113828833 -0.1327455308265817 -0.0669549618737951 -0.3021006546839899 
0 0 0 0 0 
-0.1518610476298883 0.207166257749771 -0.08494219745109845 -0.07463099360557185 -0.142017235943295 
0.1329929110936974 0.02762608194584759 0 -0.1963205254144978 -0.03824259964011659 
0.3570524344368322 -0.3984624678489622 -0.08593726936014731 0.01421515408443184 -0.1419284234298609 
-0.0008637053632804989 0.1081011443365609 -0.135468302602142 -0.2073315467797412 -0.04650633058335195 
0.04650573194622318 -0.02528543088629245 0 0 0 
0.06037253306514378 -0.1285094527468415 -0.0132283297156078 0.08924875124861889 -0.02255783427359076 
-0.08737993541020087 -0.08969469679340249 0 0.1960629532722551 -0.03339375278242133 
-0.06687664643891574 0.05605205654356027 -0.08380950385583429 0.02348123994298081 -0.03195515347186385 
0.03236057691796954 0.1389070935543092 -0.0359451070775173 -0.1607065807574011 -0.09027033820040585 
0 0 0 0 0 
0.1193147388447896 -0.1954104200162508 -0.009215828193975231 0.137241996670027 -0.01110374876126768 
-0.1932179234040458 0.09253672965442024 -0.01408494356500486 0 -0.008655246713563007 
-0.05624284252917844 0.09051385834348603 -0.0004391719880581752 -2.602085213965211e-18 -0.03362602005567647 
-0.03409012297711946 0.03843580300490966 -0.02602126480040718 -0.04355225104870825 -0.0365709028493419 
-0.03409012297711946 0.03843580300490966 -0.02602126480040718 -0.04355225104870825 -0.0365709028493419 
-0.4524591064225437 -0.07357610622784416 -0.06276320657912278 0.2686906527407576 0.1428965495449587 
-0.1711781329098709 -0.04311913673910273 0 -0.06478139900301992 0.3434800277795357 
-0.002494346104826787 -0.09437646646066673 0 0.2265093337659826 -0.07629333726230206 
0 0 0 0 0 
0.197798074363089 -0.2609214958260377 -0.002998033137336792 0.1088435546275358 0.1020362723082758 
0.1546634194044465 -0.1116694352746305 -0.06047576045708786 -0.06999464600756114 -0.07175127168956391 
-0.2052696692009067 0.02016015163741346 -0.005432001809910275 -0.06916013150517446 0.1277142434992314 
0.3987922930151326 -0.1285445756859121 0 -0.1548304126264119 -0.03260035364845956 
-0.063339319804009 -0.1063711151084276 -0.01284409577297588 -0.06513702047330625 0.1236584798343585 
-0.0005898228253078543 -0.1085880426434517 0 0.2086955755690842 -0.05622058028761397 
0 0 0 0 0 
0 0 0 0 0 
0 0 0 0 0 
0 0 0 0 0 
0 0 0 0 0 
-0.05288703094728276 -0.08327888666107221 0 0.1311628243472697 -0.02273461952966038 
0 0 0 0 0 
0 0 0 0 0 
0 0 0 0 0 
0.2140956306423315 -0.1818909660724498 -0.04099564784500181 -0.06504094191665273 -0.02784929266942512 
0 0 0 0 0 
-0.1550934047799622 0.09040032323965266 -0.005900031615536485 0.1148969212900662 -0.02800775328712084 
-0.6218482623781975 0.7175393482912374 -0.01697267799756223 0.01552820210431155 -0.1653153155040216 
0 0 0 0 0 
-0.5289291759256796 0.3322465580206537 -0.04040305914826398 -0.1271655152907886 0.316730398967927 
-0.0004419438589343269 0.1049979473830318 -0.08899168750322636 -0.2612323186371397 -0.001490197783699306 
-0.08197323324398287 0.1453472587148333 0 -0.05268933839768405 0 
0 0 0 0 0 
0.541136909115934 -0.4485095396514968 -0.09819266937907234 -0.1143759393396609 -0.2082994959024639 
0 0 0 0 0 
0 0 0 0 0 
0 0 0 0 0 
0 0 0 0 0 
0 0 0 0 0 
0 0 0 0 0 
0 0 0 0 0 
0 0 0 0 0 
0 0 0 0 0 
0.3432036020909117 -0.1175116627627056 -0.003207877798416782 -0.2006137259967401 -0.1375399058269547 
-0.09097162987821671 0.1335155762102837 0 -0.02436860043843257 -0.008608044808243372 
0.02537894274269832 0 0 0 -0.05629784829486948 
0.1485287857500581 -0.03202643674508716 -0.007284413731999317 -0.1176136217083194 -0.02354946192564443 
0.1485287857500581 -0.03202643674508716 -0.007284413731999317 -0.1176136217083194 -0.02354946192564443 
0.1233044268948505 0.1302727769513754 -0.0866708032432873 -0.1286915148150984 -0.4079510333063118 
-0.2524117493875525 0.3064201222836501 -0.04487118553823299 -0.1014798310511214 -0.05109065685799234 
0.2811520826248826 -0.1602719895293297 -0.02381109962928453 -0.09415582205315472 -0.04412344660938442 
-0.112238134605027 -0.120058357739759 -0.002625488217142859 0.111468395538761 0.1376468498980497 
0.2980588937340873 -0.1107255510140759 -0.01881345007830106 -0.1375519704909094 -0.08387412224177279 
0.1756533793191075 -0.07486092243767237 0 -0.007096635084696633 -0.005129565719093828 
0 0 0 0 0 
0 0 0 0 0 
0 0 0 0 0 
0 0 0 0 0 
0 0 0 0 0 
0.1956783075541653 -0.07178147543575732 -0.01943116855959277 -0.09050281089168115 -0.02061163504152034 
0.05784149702899698 -0.0705871903595954 0 0.06530415272639681 -0.04311211101542105 
0 0 0 0 0 
0 0 0 0 0 
0 0 0 0 0 
0 0 0 0 0 
0 0 0 0 0 
-0.4047885533146418 0.05368586494705541 -0.106202684085674 0.2516097987911554 -0.1366435163491013 
0.03629298409557486 -0.01903735005394342 -0.005812868129108854 -0.04034424571159664 -0.008816907169234967 
0.24021893850874 -0.2628020403829306 -0.1109775880582035 -0.3145270644772443 0.06350668765777197 
0.1369926038597726 -0.08471844126217902 0 0 0 
0.05914477272172091 -0.05656417677597467 -0.01021272790995248 0 -0.01051538599833491 
0 0 0 0 0 
0 0 0 0 0 
0.05646546250063544 0.02326187878742319 -0.007537016053241558 0.003374995115240147 -0.1037926468192794 
-0.1566098008009557 0.1006876090996463 -0.02815912249112657 0.1512328944450906 -0.06443772156991288 
-0.1970773151169257 0.1644153844131116 -0.03584635669097705 -0.02203597637842814 -0.01665760406415959 
0.01615070309571463 -0.1292397288318505 0 0.1403763362330599 -0.08483040082128146 
0 0 0 0 0 
0 0 0 0 0 
0 0 0 0 0 
-0.04078593328939509 -0.07703554098430906 -0.0170723841579169 0.0689216846255829 -0.01210984596452615 
0 0 0 0 0 
-0.2480534763578297 0.1685711483500714 -0.04842358888281855 -0.008289685885986078 0.04174951253308174 
0.1880904781185024 -0.2659383623005193 -0.001708198970087099 0.03364010290891355 -0.01712677934561406 
-0.03907550411748092 0.07513272843839265 -0.02203460857512498 -0.07553596085522822 -0.0542882975122769 
0 0 0 0 0 
0 0 0 0 0 
-0.09527705909397116 0.2022439461595253 -0.03736434297307523 -0.1978953130761383 -0.04204078948103009 
-0.06184310020545194 0.1656460765076357 -0.0368560928668613 -0.1807129007503651 -0.04204078948103009 
0 0 0 0 0 
0 0 0 0 0 
0 0 0 0 0 
0 0 0 0 0 
-0.508838821413487 0.3748388391228053 -0.07277114703318462 0.2684601471531609 -0.04858216677614071 
0.02452080094211127 -0.1928165589839085 -0.0101352136111112 0.1662855048482536 -0.02383003975206959 
-0.2547284890438251 0.1402873407105336 -0.06430854044366421 0.09999916319154534 0.02855342115546408 
0 0 0 0 0 
-0.1426390747109493 0.2008335325362336 0 -0.0025214149081388 -0.03780282586018808 
-0.05440898913720525 0.1114330305369048 0 -0.0615486936096503 0 
0.1737586528730308 -0.09592790803710717 0 -0.02569219959053142 -0.04540945376641645 
-0.1329753452591964 0.3082086512807425 -0.3758384994120307 -0.07780627664442659 -0.5941866049274881 
0.008478062462331 0.004867454270421826 0 -4.506215279392878e-18 -0.01183570215078694 
0.1871281289156596 -0.05541104141498265 0 -0.08992254910646418 -0.05126166136589398 
-0.09157207587128705 0.009166456134784399 -0.008910023610666021 0.02346019026336165 2.168404344971009e-19 
-0.2946389596217908 -0.02409104686863937 -0.008813029714450697 0.2771635685490994 -0.05566054946101218 
-0.0463703977825491 0.06738844133683308 -0.01867405460756209 -0.03262679621169204 -0.01405816115849344 
-0.09260747777244042 0.1060942343380146 -0.01867405460756209 -0.03262679621169204 -0.01405816115849344 
0 0 0 0 0 
0.09041135891125432 -0.09887853271597452 0 0 0 
-0.03409012297711946 0.03843580300490966 -0.02602126480040718 -0.04355225104870825 -0.0365709028493419 
0.1195541025569195 -0.02781916521634558 0 -0.03194961466026339 -0.05035407477201834 
-0.1987672934170107 0.130314048299105 0 0 0 
0 0 0 0 0 
-0.006160933509527019 0.1257070908234806 0 -0.1100362164566187 -0.008533995462382744 
0 0 0 0 0 
0.1507356580360263 -0.05862185416880582 0 -0.004182255152744805 -0.05384028895630965 
0.1463888717436564 -0.09549280860326327 0 0 -0.0459884446140683 
-0.06730310047756866 0.1598011161450378 -0.01021815470628921 -0.07032799517434792 -0.02378376911926126 
-0.010902154631005 0.05871246533702669 0 -0.004182255152744803 -0.05054703055133049 
-0.1625907496919936 0.2260773110477497 -0.01293076445961531 -0.03982859258799318 -0.03277928723775703 
-0.2660282974645218 0.1645536791792824 1.219727444046192e-19 -0.01239574510679316 0.1479392179302129 
-0.004636382493030641 0.150605930118831 -0.06300753028023792 -0.08461798730341219 -0.1424779097694946 
0.1311215850652364 -0.04842583090014621 0 -0.08992254910646418 -4.336808689942018e-19 
0 0 0 0 0 
0 0 0 0 0 
0 0 0 0 0 
0 0 0 0 0 
0 0 0 0 0 
0 0 0 0 0 
0.1567205018956314 -0.1187704171519587 0 0 -0.04246134276333466 
-0.03409012297711946 0.03843580300490966 -0.02602126480040718 -0.04355225104870825 -0.0365709028493419 
-0.03409012297711946 0.03843580300490966 -0.02602126480040718 -0.04355225104870825 -0.0365709028493419 
-0.2121888439994485 -0.1042885620840664 0.1904882417894035 0.03061004023325952 -0.07504221416270539 
0.1313698247025044 -0.05936255584061257 -0.006115439231364796 -0.05046403776686177 -0.03492371716323442 
0 0 0 0 0 
0 0 0 0 0 
0 0 0 0 0 
0 0 0 0 0 
-0.08672351576500449 0.1342646935324883 -0.0286015617612413 -0.01268447217375761 -0.02149891379397227 
-0.4269114826934641 0.4128967399142908 -0.2076995256326641 -0.04215911533600782 -0.1810804344367729 
-0.3342453047402319 0.2281093252442828 0.09329777716982512 -0.1311906217992547 -0.06629319146466474 
-0.3286911233437967 0.1597173836398297 0.2303804676144885 -0.03488461869083695 -0.02177971199377203 
0 0 0 0 0 
0 0 0 0 0 
-0.05039977524084218 -0.1210569260365837 -0.2490137357847785 -0.4208860425228874 0.2621828099442041 
-0.3348170075586108 -0.06507336017917463 0 -0.08809513994268479 0.4434542609284038 
0 0 0 0 0 
-0.02580305063241098 0.06658069504375268 -0.07873457070100454 -0.02369785333181007 -0.01551426607768134 
-0.05152678378583136 0.1294647534897997 -0.0001522649289970913 -0.06583724476040066 -0.03716084387489925 
0.09173814725489529 -0.01857996542326876 -0.005812868129108854 -0.07224828027019642 -0.06397827013419076 
0.2271896766148205 -0.05693188074104347 0.08130887976402941 -0.4170116016631522 -0.02361550946487924 
-0.07484231139346073 0.1671549486094535 0 -0.09195487464624873 -0.06124750701253155 
-0.7240270308823976 0.02709820972049321 0.1817005884319048 0.4526250935250005 -0.07490017035579916 
-0.1690712992249649 -0.09205310467576981 -0.05416719282752022 0.3633291926956356 -0.07284593541004149 
0.2241151566071082 -0.2683720065344286 -1.084202172485504e-19 -0.09571698069627771 0.1519575890923217 
-0.0466086878368561 -0.1263342134936818 -0.01490684561467668 0.1392729702021535 0.05310904885653808 
0.1480503699467168 -0.06171704325693534 0 -0.05957214273608614 0 
0 0 0 0 0 
0 0 0 0 0 
-0.1424372570354356 0.1002527325611748 -0.008479638637147104 0.03617931450349378 -0.008370644755833977 
0.5051501508540558 -0.623705569083905 -0.06803228729878427 -0.01458469459160805 -0.02042727305823416 
-0.1661486425218735 0.2039424495535698 -0.04753649835578494 -0.1495355415043353 0.1279680445532517 
0.249078668103064 -0.08110927085792548 -0.0237814963608839 -0.08793291868557766 -0.06632965466333006 
0.1657764193413893 -0.03849859923616058 -0.06300753028023792 -0.09775019780629933 -0.07872275004264502 
-0.1721438233497441 0.3757482246271824 0 -0.1522378405512248 -0.05032220163855783 
0.2033075165110653 -0.01718600030424523 -0.04151283333438816 -0.1447382037314394 -0.08793088231344424 
0 0 0 0 0 
0 0 0 0 0 
-0.05318788939728586 0.09431536902616418 -0.01073965759931932 -0.04236304882185753 -0.04726598499540745 
0 0 0 0 0 
0.1867045086202327 -0.1135393999260541 0 -0.06685664176397725 -0.04572487133271675 
0 0 0 0 0 
0.1301746929663262 -0.2136415229360515 -0.008871508897026634 0 -0.004485826467714698 
-0.04373501475960736 0.02797958440621552 0 0 0 
-0.3939616997328204 0.2676507604016045 0.2262472862681347 -0.05477733156221915 -0.08301209434391196 
0 0 0 0 0 
0 0 0 0 0 
0 0 0 0 0 
0 0 0 0 0 
-0.1550806935654608 -0.02204318574599242 0 0 0.1847233107774945 
0 0 0 0 0 
0 0 0 0 0 
-0.06184310020545194 0.1656460765076357 -0.0368560928668613 -0.1807129007503651 -0.04204078948103009 
-0.06184310020545194 0.1656460765076357 -0.0368560928668613 -0.1807129007503651 -0.04204078948103009 
0 0 0 0 0 
0 0 0 0 0 
0.1419436480786297 -0.3914840519689876 -0.2009769622884795 0.2300993277132936 -0.1976307121007547 
0.1803203192206003 -0.3688030765542185 -0.02905277949272918 0.09899957908985277 0.1635156356542015 
0.1595897693467104 -0.09733155650367051 0.1396761438142817 -0.08145427995740208 -0.2309411774861554 
0.1967247596445973 0.02087739305858373 -0.01475288897107511 -0.151960419902811 -0.07496028845929158 
0.07082228367101703 -0.01305707558225472 -0.0102102213220048 -0.0339899882754084 -0.02003129768722087 
0.05697314674735166 -0.05319795927248454 -0.00100721352509106 0 -0.02367734441162342 
-0.9887014968246173 0.8174999188219298 -0.2001668940984971 0.007128463921797439 -0.130304928313087 
-0.5582357725084255 0.5102250089060458 -0.1160844542001184 -0.04393527706008515 -0.04084343071875542 
0 0 0 0 0 
-0.06184310020545194 0.1656460765076357 -0.0368560928668613 -0.1807129007503651 -0.04204078948103009 
-0.01262311854859122 0.06262987222757041 0 -0.05013446570676191 0 
0.1003482688898655 0.08631203672489716 -0.03526122685681125 -0.1431647222660798 -0.07062480054897613 
0.1567536346600002 -0.01846595505049484 -0.006151014062433497 -0.1200829367490236 -0.009120971564783404 
-0.2014938053036279 0.3294898536691324 -0.2626194759894588 -0.218860721722282 -0.4394634016877843 
-0.1503234315647954 0.1518074327725215 -0.1926288324506477 0.03976360630894409 -0.4291016797149014 
0.02792644452761213 0.05915463619018939 -0.03968206744689155 -0.0804777785589682 -0.1337670335634711 
0.0247849217348034 -0.0266373609861592 -0.01525685691895533 0 -0.0530673355446996 
0 0 0 0 0 
0.5504018116323455 -0.4080999390493057 -0.33037961485391 -0.5850617836850727 -0.2804928279433051 
-0.1204876401303505 -0.009840227216369389 0 0.1254755607694861 0 
-0.34750872877475 0.1331405447470917 -0.01017835802481124 0.1667564808884734 0 
-0.1818896845961281 0.1853269772807514 -0.0649126390068849 -0.05231536273363754 0.03250307744386052 
-0.07965159673097245 0.2513724358062918 0 -0.1416136666196271 -0.04845987557753074 
0 0 0 0 0 
-0.08030640621436469 -0.04078191310446723 -0.001892215547493577 -0.02995395461950191 0.0833313394675728 
0.03188472116577203 -0.01136643336942111 0 0 -0.01117724161892614 
0 0 0 0 0 
-0.06014767078882137 0.08077181646216407 -0.03030663421728824 -0.03517647541649151 -0.04960294508836464 
-0.2759708071921277 0.4224895767864311 -0.01736565772736554 0.02728164941524159 -0.1183862247872034 
-1.209349363482412 0.3201142867430157 0.06290491636781106 0.3703671923251994 0.2588975856541658 
-0.1638259055413829 -0.1794902883642694 0 0.4901943879779356 -0.02103965891972134 
-0.1911421040703175 0.2964591316080424 0 -0.07552733380603104 -0.009917571881221597 
-0.1328423998630471 0.2514989239485297 -0.039490301769753 -0.06158954849082517 -0.1145881858107694 
0.1220079334856078 0.0692045804318316 -0.03275892391614214 -0.1771986440203236 -0.08628096355305434 
-0.4843423892396603 0.4706454814197865 0.06748595176186829 -0.1950447963548107 -0.03066205594621016 
-0.2526566454303773 0.2890229981754563 -0.02411973212900955 0 -0.04130046238378043 
-0.1174309534373139 -0.06161303225406772 0.1600399282888798 0.1056171401902243 -0.07828723380506311 
-0.07718910388744592 0.170084762641038 0 -0.04801481815714211 -0.00415592065596743 
0.2221550049652181 -0.1009681593907387 0.0661199857564029 -0.3596290103885889 -0.1415237602307505 
-0.1609114924877758 0.07397288019975463 0.3008471945276155 0.02405795956874971 -0.2945296983284645 
0.02872972484605432 -0.0894125838599185 -1.434513572840928e-05 0 -0.04430242629956164 
-0.1511199518687948 -0.05437400090602925 0.3432037322596191 -0.1590463539739901 0 
0.09892420203096033 0.3995794425112043 -0.1391770734961786 -0.2148028211759897 -0.4343198792736454 
0 0 0 0 0 
0 0 0 0 0 
0 0 0 0 0 
0 0 0 0 0 
0 0 0 0 0 
0 0 0 0 0 
-0.2951679168023272 -0.1187813957958189 0 0.3409323535304532 0 
0 0 0 0 0 
0 0 0 0 0 
0 0 0 0 0 
-0.1916428314579373 0.3255207589892053 -0.09247892047201356 -0.4068419378361817 -0.3247314406665051 
0.2304915002462685 -0.1178782402568423 -0.007172951032653684 -0.01873027811801142 -0.04925394379170243 
0 0 0 0 0 
-0.3501468674978124 0.3499035928391419 -0.1434065357494719 -0.1446265107001933 -0.1114724184818451 
0 0 0 0 0 
-0.05437417576516106 0.1450643558322064 -0.03025859530774098 -0.168897192828974 -0.04007103453967949 
-0.05437417576516106 0.1450643558322064 -0.03025859530774098 -0.168897192828974 -0.04007103453967949 
-0.0307260987984105 0.2756971876822035 0 -0.09381432803740447 -0.07463396785086603 
0.1673586295359801 -0.08481264269719541 0 -0.03051169370349577 -0.1440049593716214 
0.03143309035185407 0.09409684294856831 0 0.01976196845155255 -0.1440049593716214 
-0.01486623410280874 0.04421941826801538 0 -0.0502736621550483 0 
0 0 0 0 0 
0 0 0 0 0 
0 0 0 0 0 
0 0 0 0 0 
-0.08540239228539799 -0.1513376127356268 0 0.1890108257076946 -0.01337136279018982 
0.6722101666672478 -0.5545519492888272 -0.08507712407473789 -0.04557302607249686 -0.3160156080945624 
0.09565416349731608 -0.04785760840786231 0 0 -0.08505937198000266 
0.0956417548027753 -0.1153053234061594 -0.007284413731999317 0.01354920263895028 -0.04628408145530481 
0.01166951789082349 0 0 0 -0.0233080194833382 
0.2687680410934189 0.2053641056817065 -0.002490619352339992 -0.3462964819730796 -0.1355946313573552 
0.1386373755299239 -0.06434489841634748 0 -0.03136926650414326 -0.007202114717704679 
0.08590827814317409 -0.02772924532768853 -0.002735553160039558 -0.05630667513593166 -0.03116129302838815 
-0.1745909197297301 0.173954987387406 -0.007788415178724735 0 -0.0301991507351712 
0.0117547450007167 -0.08940037935022174 -0.02440202135706637 0.1348169773959872 -0.08998084029567247 
0.0742553658561081 -0.04962203967302554 -0.02440202135706637 0.01335866636563271 -0.07175638961703729 
0 0 0 0 0 
0.5004002352136284 -0.568906862479253 -0.06645131344252926 -0.1630522273565631 -0.1136792849107893 
0.38186257976702 -0.09300358014539491 -0.01078211067818005 -0.2538430964948872 -0.09667765645406787 
0 0 0 0 0 
-0.07901762123191196 0.0261519463020292 0 0 0 
-0.1514664207865019 -0.1307478566620593 -0.02727539440160483 0.1617588215993642 -0.005452737083844282 
0 0 0 0 0 
0 0 0 0 0 
0 0 0 0 0 
0 0 0 0 0 
0.04204346744657395 -0.03422732677119412 -0.0529919457204173 0.06069021866561663 -0.1135623622361005 
0 0 0 0 0 
-0.4946441289486773 0.3703834699140292 -0.06299282661849728 -0.001445361153223827 0.06598647524514727 
-0.07761828470007548 0.3746803582773693 -0.04747482776879983 -0.1859584533637113 -0.1989431206080086 
0 0 0 0 0 
0 0 0 0 0 
-0.05022039541365468 0.1334578484809276 0 -0.06764413771317633 -0.01720151454043009 
-0.3994699087504288 0.2919091336194592 -0.05975751504518499 0.06283725547113422 -2.954312919539476e-05 
-0.01389685799364301 0.184875397523149 0 -0.08848840855060114 -0.1184110814352079 
0 0 0 0 0 
0 0 0 0 0 
0 0 0 0 0 
0 0 0 0 0 
0 0 0 0 0 
0 0 0 0 0 
0 0 0 0 0 
0 0 0 0 0 
0 0 0 0 0 
0 0 0 0 0 
0 0 0 0 0 
0 0 0 0 0 
0 0 0 0 0 
0 0 0 0 0 
-0.1153167267067265 0.02716360548299836 -0.1166734612284207 0.1525806471325876 -0.1901008708874947 
0.06146587215158024 -0.2143732417131796 -0.038684312822824 0.2774104164733858 -0.1068575248584729 
-0.1773483127317088 0.2082386904499531 -0.02740081009688758 -0.03669083987946745 -0.006284801842899249 
0 0 0 0 0 
0 0 0 0 0 
0.2045189985241079 -0.06351792488123216 0 -0.1590694345881618 -0.07778348804752924 
0.332408577761164 -0.5770091148382047 -0.127978556280525 -0.1495693665948903 0.06553708244244824 
0.1652300939579908 -0.06505069574382415 -0.01878701436150711 0.01667770137725221 -0.1833478112858448 
-0.1620176705604309 0.1468235061955439 -0.02923004994003806 0.07749137589989696 -0.09728455675352866 
0 0 0 0 0 
-0.06151486809136043 -0.03415707011088806 0 -0.07445817331086368 0.1500280506568172 
-0.104484119885733 -0.1033019179960639 -0.02373251429506405 0.3057788493793313 -0.1258474372670462 
-0.1491432819430903 0.009756687893270177 -0.1649573165747234 -0.1438072360497712 3.573316321834661e-05 
-0.03347624959403226 -0.06447012667285958 -0.009465856155268159 0.2097031891849323 -0.0678658263162079 
-0.06713385144384904 0.3906628553982844 -0.03203463018063772 -0.3311587316207019 -0.1388522083965803 
0.08086720866809406 0 -0.001596680185674392 -0.05596346227070705 -0.04588162318091004 
0.1643073804937182 -0.1649808868114238 0.1975069019327206 -0.197543712656931 -0.188196361547926 
0.02727288851911445 -0.1725507447621182 0.1070958590048721 0 -0.04416043647041706 
-0.2338569820134397 0.1837465247037462 -0.06433247446939057 0.09474660900669764 -0.03956519100603069 
-0.1560707685611467 0.1113887638051518 -0.008643115203081798 -0.01003871241525804 -0.004155920655967432 
-0.08888312722775281 -0.04781349752175085 0 -0.06317047434959679 0.244180215612995 
-0.05271745878425984 0.05526437677820308 -0.01490916965141431 -0.01358062789349096 -0.003302461704285508 
0.06528918268271607 0.1425631176408468 -0.06574792484248169 -0.1774214834247892 -0.222182290439514 
-0.4181458662709009 0.7702219103908601 -0.06201934191512806 -0.2122425096493958 -0.1496078443882728 
-0.1716431025345332 0.3171372177335556 0 -0.02313132837801435 -0.05251444116412009 
0.03069876358574718 -0.02963225427388493 0 0 -0.01296554644177631 
0.1029997123799509 0.009761956741847795 -0.01462918441250855 -0.1141083536900206 -0.03531941504743472 
